// Neural Network File Format by Kyle Julian, Stanford 2016
21,784,10,784,
784,50,50,50,50,50,50,50,50,50,50,50,50,50,50,50,50,50,50,50,50,10,
0,
-3.4028235e+38,-3.4028235e+38,-3.4028235e+38,-3.4028235e+38,-3.4028235e+38,-3.4028235e+38,-3.4028235e+38,-3.4028235e+38,-3.4028235e+38,-3.4028235e+38,-3.4028235e+38,-3.4028235e+38,-3.4028235e+38,-3.4028235e+38,-3.4028235e+38,-3.4028235e+38,-3.4028235e+38,-3.4028235e+38,-3.4028235e+38,-3.4028235e+38,-3.4028235e+38,-3.4028235e+38,-3.4028235e+38,-3.4028235e+38,-3.4028235e+38,-3.4028235e+38,-3.4028235e+38,-3.4028235e+38,-3.4028235e+38,-3.4028235e+38,-3.4028235e+38,-3.4028235e+38,-3.4028235e+38,-3.4028235e+38,-3.4028235e+38,-3.4028235e+38,-3.4028235e+38,-3.4028235e+38,-3.4028235e+38,-3.4028235e+38,-3.4028235e+38,-3.4028235e+38,-3.4028235e+38,-3.4028235e+38,-3.4028235e+38,-3.4028235e+38,-3.4028235e+38,-3.4028235e+38,-3.4028235e+38,-3.4028235e+38,-3.4028235e+38,-3.4028235e+38,-3.4028235e+38,-3.4028235e+38,-3.4028235e+38,-3.4028235e+38,-3.4028235e+38,-3.4028235e+38,-3.4028235e+38,-3.4028235e+38,-3.4028235e+38,-3.4028235e+38,-3.4028235e+38,-3.4028235e+38,-3.4028235e+38,-3.4028235e+38,-3.4028235e+38,-3.4028235e+38,-3.4028235e+38,-3.4028235e+38,-3.4028235e+38,-3.4028235e+38,-3.4028235e+38,-3.4028235e+38,-3.4028235e+38,-3.4028235e+38,-3.4028235e+38,-3.4028235e+38,-3.4028235e+38,-3.4028235e+38,-3.4028235e+38,-3.4028235e+38,-3.4028235e+38,-3.4028235e+38,-3.4028235e+38,-3.4028235e+38,-3.4028235e+38,-3.4028235e+38,-3.4028235e+38,-3.4028235e+38,-3.4028235e+38,-3.4028235e+38,-3.4028235e+38,-3.4028235e+38,-3.4028235e+38,-3.4028235e+38,-3.4028235e+38,-3.4028235e+38,-3.4028235e+38,-3.4028235e+38,-3.4028235e+38,-3.4028235e+38,-3.4028235e+38,-3.4028235e+38,-3.4028235e+38,-3.4028235e+38,-3.4028235e+38,-3.4028235e+38,-3.4028235e+38,-3.4028235e+38,-3.4028235e+38,-3.4028235e+38,-3.4028235e+38,-3.4028235e+38,-3.4028235e+38,-3.4028235e+38,-3.4028235e+38,-3.4028235e+38,-3.4028235e+38,-3.4028235e+38,-3.4028235e+38,-3.4028235e+38,-3.4028235e+38,-3.4028235e+38,-3.4028235e+38,-3.4028235e+38,-3.4028235e+38,-3.4028235e+38,-3.4028235e+38,-3.4028235e+38,-3.4028235e+38,-3.4028235e+38,-3.4028235e+38,-3.4028235e+38,-3.4028235e+38,-3.4028235e+38,-3.4028235e+38,-3.4028235e+38,-3.4028235e+38,-3.4028235e+38,-3.4028235e+38,-3.4028235e+38,-3.4028235e+38,-3.4028235e+38,-3.4028235e+38,-3.4028235e+38,-3.4028235e+38,-3.4028235e+38,-3.4028235e+38,-3.4028235e+38,-3.4028235e+38,-3.4028235e+38,-3.4028235e+38,-3.4028235e+38,-3.4028235e+38,-3.4028235e+38,-3.4028235e+38,-3.4028235e+38,-3.4028235e+38,-3.4028235e+38,-3.4028235e+38,-3.4028235e+38,-3.4028235e+38,-3.4028235e+38,-3.4028235e+38,-3.4028235e+38,-3.4028235e+38,-3.4028235e+38,-3.4028235e+38,-3.4028235e+38,-3.4028235e+38,-3.4028235e+38,-3.4028235e+38,-3.4028235e+38,-3.4028235e+38,-3.4028235e+38,-3.4028235e+38,-3.4028235e+38,-3.4028235e+38,-3.4028235e+38,-3.4028235e+38,-3.4028235e+38,-3.4028235e+38,-3.4028235e+38,-3.4028235e+38,-3.4028235e+38,-3.4028235e+38,-3.4028235e+38,-3.4028235e+38,-3.4028235e+38,-3.4028235e+38,-3.4028235e+38,-3.4028235e+38,-3.4028235e+38,-3.4028235e+38,-3.4028235e+38,-3.4028235e+38,-3.4028235e+38,-3.4028235e+38,-3.4028235e+38,-3.4028235e+38,-3.4028235e+38,-3.4028235e+38,-3.4028235e+38,-3.4028235e+38,-3.4028235e+38,-3.4028235e+38,-3.4028235e+38,-3.4028235e+38,-3.4028235e+38,-3.4028235e+38,-3.4028235e+38,-3.4028235e+38,-3.4028235e+38,-3.4028235e+38,-3.4028235e+38,-3.4028235e+38,-3.4028235e+38,-3.4028235e+38,-3.4028235e+38,-3.4028235e+38,-3.4028235e+38,-3.4028235e+38,-3.4028235e+38,-3.4028235e+38,-3.4028235e+38,-3.4028235e+38,-3.4028235e+38,-3.4028235e+38,-3.4028235e+38,-3.4028235e+38,-3.4028235e+38,-3.4028235e+38,-3.4028235e+38,-3.4028235e+38,-3.4028235e+38,-3.4028235e+38,-3.4028235e+38,-3.4028235e+38,-3.4028235e+38,-3.4028235e+38,-3.4028235e+38,-3.4028235e+38,-3.4028235e+38,-3.4028235e+38,-3.4028235e+38,-3.4028235e+38,-3.4028235e+38,-3.4028235e+38,-3.4028235e+38,-3.4028235e+38,-3.4028235e+38,-3.4028235e+38,-3.4028235e+38,-3.4028235e+38,-3.4028235e+38,-3.4028235e+38,-3.4028235e+38,-3.4028235e+38,-3.4028235e+38,-3.4028235e+38,-3.4028235e+38,-3.4028235e+38,-3.4028235e+38,-3.4028235e+38,-3.4028235e+38,-3.4028235e+38,-3.4028235e+38,-3.4028235e+38,-3.4028235e+38,-3.4028235e+38,-3.4028235e+38,-3.4028235e+38,-3.4028235e+38,-3.4028235e+38,-3.4028235e+38,-3.4028235e+38,-3.4028235e+38,-3.4028235e+38,-3.4028235e+38,-3.4028235e+38,-3.4028235e+38,-3.4028235e+38,-3.4028235e+38,-3.4028235e+38,-3.4028235e+38,-3.4028235e+38,-3.4028235e+38,-3.4028235e+38,-3.4028235e+38,-3.4028235e+38,-3.4028235e+38,-3.4028235e+38,-3.4028235e+38,-3.4028235e+38,-3.4028235e+38,-3.4028235e+38,-3.4028235e+38,-3.4028235e+38,-3.4028235e+38,-3.4028235e+38,-3.4028235e+38,-3.4028235e+38,-3.4028235e+38,-3.4028235e+38,-3.4028235e+38,-3.4028235e+38,-3.4028235e+38,-3.4028235e+38,-3.4028235e+38,-3.4028235e+38,-3.4028235e+38,-3.4028235e+38,-3.4028235e+38,-3.4028235e+38,-3.4028235e+38,-3.4028235e+38,-3.4028235e+38,-3.4028235e+38,-3.4028235e+38,-3.4028235e+38,-3.4028235e+38,-3.4028235e+38,-3.4028235e+38,-3.4028235e+38,-3.4028235e+38,-3.4028235e+38,-3.4028235e+38,-3.4028235e+38,-3.4028235e+38,-3.4028235e+38,-3.4028235e+38,-3.4028235e+38,-3.4028235e+38,-3.4028235e+38,-3.4028235e+38,-3.4028235e+38,-3.4028235e+38,-3.4028235e+38,-3.4028235e+38,-3.4028235e+38,-3.4028235e+38,-3.4028235e+38,-3.4028235e+38,-3.4028235e+38,-3.4028235e+38,-3.4028235e+38,-3.4028235e+38,-3.4028235e+38,-3.4028235e+38,-3.4028235e+38,-3.4028235e+38,-3.4028235e+38,-3.4028235e+38,-3.4028235e+38,-3.4028235e+38,-3.4028235e+38,-3.4028235e+38,-3.4028235e+38,-3.4028235e+38,-3.4028235e+38,-3.4028235e+38,-3.4028235e+38,-3.4028235e+38,-3.4028235e+38,-3.4028235e+38,-3.4028235e+38,-3.4028235e+38,-3.4028235e+38,-3.4028235e+38,-3.4028235e+38,-3.4028235e+38,-3.4028235e+38,-3.4028235e+38,-3.4028235e+38,-3.4028235e+38,-3.4028235e+38,-3.4028235e+38,-3.4028235e+38,-3.4028235e+38,-3.4028235e+38,-3.4028235e+38,-3.4028235e+38,-3.4028235e+38,-3.4028235e+38,-3.4028235e+38,-3.4028235e+38,-3.4028235e+38,-3.4028235e+38,-3.4028235e+38,-3.4028235e+38,-3.4028235e+38,-3.4028235e+38,-3.4028235e+38,-3.4028235e+38,-3.4028235e+38,-3.4028235e+38,-3.4028235e+38,-3.4028235e+38,-3.4028235e+38,-3.4028235e+38,-3.4028235e+38,-3.4028235e+38,-3.4028235e+38,-3.4028235e+38,-3.4028235e+38,-3.4028235e+38,-3.4028235e+38,-3.4028235e+38,-3.4028235e+38,-3.4028235e+38,-3.4028235e+38,-3.4028235e+38,-3.4028235e+38,-3.4028235e+38,-3.4028235e+38,-3.4028235e+38,-3.4028235e+38,-3.4028235e+38,-3.4028235e+38,-3.4028235e+38,-3.4028235e+38,-3.4028235e+38,-3.4028235e+38,-3.4028235e+38,-3.4028235e+38,-3.4028235e+38,-3.4028235e+38,-3.4028235e+38,-3.4028235e+38,-3.4028235e+38,-3.4028235e+38,-3.4028235e+38,-3.4028235e+38,-3.4028235e+38,-3.4028235e+38,-3.4028235e+38,-3.4028235e+38,-3.4028235e+38,-3.4028235e+38,-3.4028235e+38,-3.4028235e+38,-3.4028235e+38,-3.4028235e+38,-3.4028235e+38,-3.4028235e+38,-3.4028235e+38,-3.4028235e+38,-3.4028235e+38,-3.4028235e+38,-3.4028235e+38,-3.4028235e+38,-3.4028235e+38,-3.4028235e+38,-3.4028235e+38,-3.4028235e+38,-3.4028235e+38,-3.4028235e+38,-3.4028235e+38,-3.4028235e+38,-3.4028235e+38,-3.4028235e+38,-3.4028235e+38,-3.4028235e+38,-3.4028235e+38,-3.4028235e+38,-3.4028235e+38,-3.4028235e+38,-3.4028235e+38,-3.4028235e+38,-3.4028235e+38,-3.4028235e+38,-3.4028235e+38,-3.4028235e+38,-3.4028235e+38,-3.4028235e+38,-3.4028235e+38,-3.4028235e+38,-3.4028235e+38,-3.4028235e+38,-3.4028235e+38,-3.4028235e+38,-3.4028235e+38,-3.4028235e+38,-3.4028235e+38,-3.4028235e+38,-3.4028235e+38,-3.4028235e+38,-3.4028235e+38,-3.4028235e+38,-3.4028235e+38,-3.4028235e+38,-3.4028235e+38,-3.4028235e+38,-3.4028235e+38,-3.4028235e+38,-3.4028235e+38,-3.4028235e+38,-3.4028235e+38,-3.4028235e+38,-3.4028235e+38,-3.4028235e+38,-3.4028235e+38,-3.4028235e+38,-3.4028235e+38,-3.4028235e+38,-3.4028235e+38,-3.4028235e+38,-3.4028235e+38,-3.4028235e+38,-3.4028235e+38,-3.4028235e+38,-3.4028235e+38,-3.4028235e+38,-3.4028235e+38,-3.4028235e+38,-3.4028235e+38,-3.4028235e+38,-3.4028235e+38,-3.4028235e+38,-3.4028235e+38,-3.4028235e+38,-3.4028235e+38,-3.4028235e+38,-3.4028235e+38,-3.4028235e+38,-3.4028235e+38,-3.4028235e+38,-3.4028235e+38,-3.4028235e+38,-3.4028235e+38,-3.4028235e+38,-3.4028235e+38,-3.4028235e+38,-3.4028235e+38,-3.4028235e+38,-3.4028235e+38,-3.4028235e+38,-3.4028235e+38,-3.4028235e+38,-3.4028235e+38,-3.4028235e+38,-3.4028235e+38,-3.4028235e+38,-3.4028235e+38,-3.4028235e+38,-3.4028235e+38,-3.4028235e+38,-3.4028235e+38,-3.4028235e+38,-3.4028235e+38,-3.4028235e+38,-3.4028235e+38,-3.4028235e+38,-3.4028235e+38,-3.4028235e+38,-3.4028235e+38,-3.4028235e+38,-3.4028235e+38,-3.4028235e+38,-3.4028235e+38,-3.4028235e+38,-3.4028235e+38,-3.4028235e+38,-3.4028235e+38,-3.4028235e+38,-3.4028235e+38,-3.4028235e+38,-3.4028235e+38,-3.4028235e+38,-3.4028235e+38,-3.4028235e+38,-3.4028235e+38,-3.4028235e+38,-3.4028235e+38,-3.4028235e+38,-3.4028235e+38,-3.4028235e+38,-3.4028235e+38,-3.4028235e+38,-3.4028235e+38,-3.4028235e+38,-3.4028235e+38,-3.4028235e+38,-3.4028235e+38,-3.4028235e+38,-3.4028235e+38,-3.4028235e+38,-3.4028235e+38,-3.4028235e+38,-3.4028235e+38,-3.4028235e+38,-3.4028235e+38,-3.4028235e+38,-3.4028235e+38,-3.4028235e+38,-3.4028235e+38,-3.4028235e+38,-3.4028235e+38,-3.4028235e+38,-3.4028235e+38,-3.4028235e+38,-3.4028235e+38,-3.4028235e+38,-3.4028235e+38,-3.4028235e+38,-3.4028235e+38,-3.4028235e+38,-3.4028235e+38,-3.4028235e+38,-3.4028235e+38,-3.4028235e+38,-3.4028235e+38,-3.4028235e+38,-3.4028235e+38,-3.4028235e+38,-3.4028235e+38,-3.4028235e+38,-3.4028235e+38,-3.4028235e+38,-3.4028235e+38,-3.4028235e+38,-3.4028235e+38,-3.4028235e+38,-3.4028235e+38,-3.4028235e+38,-3.4028235e+38,-3.4028235e+38,-3.4028235e+38,-3.4028235e+38,-3.4028235e+38,-3.4028235e+38,-3.4028235e+38,-3.4028235e+38,-3.4028235e+38,-3.4028235e+38,-3.4028235e+38,-3.4028235e+38,-3.4028235e+38,-3.4028235e+38,-3.4028235e+38,-3.4028235e+38,-3.4028235e+38,-3.4028235e+38,-3.4028235e+38,-3.4028235e+38,-3.4028235e+38,-3.4028235e+38,-3.4028235e+38,-3.4028235e+38,-3.4028235e+38,-3.4028235e+38,-3.4028235e+38,-3.4028235e+38,-3.4028235e+38,-3.4028235e+38,-3.4028235e+38,-3.4028235e+38,-3.4028235e+38,-3.4028235e+38,-3.4028235e+38,-3.4028235e+38,-3.4028235e+38,-3.4028235e+38,-3.4028235e+38,-3.4028235e+38,-3.4028235e+38,-3.4028235e+38,-3.4028235e+38,-3.4028235e+38,-3.4028235e+38,-3.4028235e+38,-3.4028235e+38,-3.4028235e+38,-3.4028235e+38,-3.4028235e+38,-3.4028235e+38,-3.4028235e+38,-3.4028235e+38,-3.4028235e+38,-3.4028235e+38,-3.4028235e+38,-3.4028235e+38,-3.4028235e+38,-3.4028235e+38,-3.4028235e+38,-3.4028235e+38,-3.4028235e+38,-3.4028235e+38,-3.4028235e+38,-3.4028235e+38,-3.4028235e+38,-3.4028235e+38,-3.4028235e+38,-3.4028235e+38,-3.4028235e+38,-3.4028235e+38,-3.4028235e+38,-3.4028235e+38,-3.4028235e+38,-3.4028235e+38,-3.4028235e+38,-3.4028235e+38,-3.4028235e+38,-3.4028235e+38,-3.4028235e+38,-3.4028235e+38,-3.4028235e+38,-3.4028235e+38,-3.4028235e+38,-3.4028235e+38,-3.4028235e+38,-3.4028235e+38,-3.4028235e+38,-3.4028235e+38,-3.4028235e+38,-3.4028235e+38,-3.4028235e+38,-3.4028235e+38,-3.4028235e+38,-3.4028235e+38,-3.4028235e+38,-3.4028235e+38,-3.4028235e+38,-3.4028235e+38,-3.4028235e+38,-3.4028235e+38,-3.4028235e+38,-3.4028235e+38,-3.4028235e+38,-3.4028235e+38,-3.4028235e+38,-3.4028235e+38,-3.4028235e+38,-3.4028235e+38,-3.4028235e+38,-3.4028235e+38,-3.4028235e+38,-3.4028235e+38,-3.4028235e+38,-3.4028235e+38,-3.4028235e+38,-3.4028235e+38,-3.4028235e+38,-3.4028235e+38,-3.4028235e+38,-3.4028235e+38,-3.4028235e+38,-3.4028235e+38,-3.4028235e+38,-3.4028235e+38,-3.4028235e+38,-3.4028235e+38,-3.4028235e+38,-3.4028235e+38,-3.4028235e+38,-3.4028235e+38,-3.4028235e+38,-3.4028235e+38,-3.4028235e+38,-3.4028235e+38,-3.4028235e+38,-3.4028235e+38,-3.4028235e+38,-3.4028235e+38,-3.4028235e+38,-3.4028235e+38,-3.4028235e+38,-3.4028235e+38,-3.4028235e+38,-3.4028235e+38,-3.4028235e+38,-3.4028235e+38,-3.4028235e+38,-3.4028235e+38,-3.4028235e+38,-3.4028235e+38,-3.4028235e+38,-3.4028235e+38,-3.4028235e+38,-3.4028235e+38,-3.4028235e+38,-3.4028235e+38,-3.4028235e+38,
3.4028235e+38,3.4028235e+38,3.4028235e+38,3.4028235e+38,3.4028235e+38,3.4028235e+38,3.4028235e+38,3.4028235e+38,3.4028235e+38,3.4028235e+38,3.4028235e+38,3.4028235e+38,3.4028235e+38,3.4028235e+38,3.4028235e+38,3.4028235e+38,3.4028235e+38,3.4028235e+38,3.4028235e+38,3.4028235e+38,3.4028235e+38,3.4028235e+38,3.4028235e+38,3.4028235e+38,3.4028235e+38,3.4028235e+38,3.4028235e+38,3.4028235e+38,3.4028235e+38,3.4028235e+38,3.4028235e+38,3.4028235e+38,3.4028235e+38,3.4028235e+38,3.4028235e+38,3.4028235e+38,3.4028235e+38,3.4028235e+38,3.4028235e+38,3.4028235e+38,3.4028235e+38,3.4028235e+38,3.4028235e+38,3.4028235e+38,3.4028235e+38,3.4028235e+38,3.4028235e+38,3.4028235e+38,3.4028235e+38,3.4028235e+38,3.4028235e+38,3.4028235e+38,3.4028235e+38,3.4028235e+38,3.4028235e+38,3.4028235e+38,3.4028235e+38,3.4028235e+38,3.4028235e+38,3.4028235e+38,3.4028235e+38,3.4028235e+38,3.4028235e+38,3.4028235e+38,3.4028235e+38,3.4028235e+38,3.4028235e+38,3.4028235e+38,3.4028235e+38,3.4028235e+38,3.4028235e+38,3.4028235e+38,3.4028235e+38,3.4028235e+38,3.4028235e+38,3.4028235e+38,3.4028235e+38,3.4028235e+38,3.4028235e+38,3.4028235e+38,3.4028235e+38,3.4028235e+38,3.4028235e+38,3.4028235e+38,3.4028235e+38,3.4028235e+38,3.4028235e+38,3.4028235e+38,3.4028235e+38,3.4028235e+38,3.4028235e+38,3.4028235e+38,3.4028235e+38,3.4028235e+38,3.4028235e+38,3.4028235e+38,3.4028235e+38,3.4028235e+38,3.4028235e+38,3.4028235e+38,3.4028235e+38,3.4028235e+38,3.4028235e+38,3.4028235e+38,3.4028235e+38,3.4028235e+38,3.4028235e+38,3.4028235e+38,3.4028235e+38,3.4028235e+38,3.4028235e+38,3.4028235e+38,3.4028235e+38,3.4028235e+38,3.4028235e+38,3.4028235e+38,3.4028235e+38,3.4028235e+38,3.4028235e+38,3.4028235e+38,3.4028235e+38,3.4028235e+38,3.4028235e+38,3.4028235e+38,3.4028235e+38,3.4028235e+38,3.4028235e+38,3.4028235e+38,3.4028235e+38,3.4028235e+38,3.4028235e+38,3.4028235e+38,3.4028235e+38,3.4028235e+38,3.4028235e+38,3.4028235e+38,3.4028235e+38,3.4028235e+38,3.4028235e+38,3.4028235e+38,3.4028235e+38,3.4028235e+38,3.4028235e+38,3.4028235e+38,3.4028235e+38,3.4028235e+38,3.4028235e+38,3.4028235e+38,3.4028235e+38,3.4028235e+38,3.4028235e+38,3.4028235e+38,3.4028235e+38,3.4028235e+38,3.4028235e+38,3.4028235e+38,3.4028235e+38,3.4028235e+38,3.4028235e+38,3.4028235e+38,3.4028235e+38,3.4028235e+38,3.4028235e+38,3.4028235e+38,3.4028235e+38,3.4028235e+38,3.4028235e+38,3.4028235e+38,3.4028235e+38,3.4028235e+38,3.4028235e+38,3.4028235e+38,3.4028235e+38,3.4028235e+38,3.4028235e+38,3.4028235e+38,3.4028235e+38,3.4028235e+38,3.4028235e+38,3.4028235e+38,3.4028235e+38,3.4028235e+38,3.4028235e+38,3.4028235e+38,3.4028235e+38,3.4028235e+38,3.4028235e+38,3.4028235e+38,3.4028235e+38,3.4028235e+38,3.4028235e+38,3.4028235e+38,3.4028235e+38,3.4028235e+38,3.4028235e+38,3.4028235e+38,3.4028235e+38,3.4028235e+38,3.4028235e+38,3.4028235e+38,3.4028235e+38,3.4028235e+38,3.4028235e+38,3.4028235e+38,3.4028235e+38,3.4028235e+38,3.4028235e+38,3.4028235e+38,3.4028235e+38,3.4028235e+38,3.4028235e+38,3.4028235e+38,3.4028235e+38,3.4028235e+38,3.4028235e+38,3.4028235e+38,3.4028235e+38,3.4028235e+38,3.4028235e+38,3.4028235e+38,3.4028235e+38,3.4028235e+38,3.4028235e+38,3.4028235e+38,3.4028235e+38,3.4028235e+38,3.4028235e+38,3.4028235e+38,3.4028235e+38,3.4028235e+38,3.4028235e+38,3.4028235e+38,3.4028235e+38,3.4028235e+38,3.4028235e+38,3.4028235e+38,3.4028235e+38,3.4028235e+38,3.4028235e+38,3.4028235e+38,3.4028235e+38,3.4028235e+38,3.4028235e+38,3.4028235e+38,3.4028235e+38,3.4028235e+38,3.4028235e+38,3.4028235e+38,3.4028235e+38,3.4028235e+38,3.4028235e+38,3.4028235e+38,3.4028235e+38,3.4028235e+38,3.4028235e+38,3.4028235e+38,3.4028235e+38,3.4028235e+38,3.4028235e+38,3.4028235e+38,3.4028235e+38,3.4028235e+38,3.4028235e+38,3.4028235e+38,3.4028235e+38,3.4028235e+38,3.4028235e+38,3.4028235e+38,3.4028235e+38,3.4028235e+38,3.4028235e+38,3.4028235e+38,3.4028235e+38,3.4028235e+38,3.4028235e+38,3.4028235e+38,3.4028235e+38,3.4028235e+38,3.4028235e+38,3.4028235e+38,3.4028235e+38,3.4028235e+38,3.4028235e+38,3.4028235e+38,3.4028235e+38,3.4028235e+38,3.4028235e+38,3.4028235e+38,3.4028235e+38,3.4028235e+38,3.4028235e+38,3.4028235e+38,3.4028235e+38,3.4028235e+38,3.4028235e+38,3.4028235e+38,3.4028235e+38,3.4028235e+38,3.4028235e+38,3.4028235e+38,3.4028235e+38,3.4028235e+38,3.4028235e+38,3.4028235e+38,3.4028235e+38,3.4028235e+38,3.4028235e+38,3.4028235e+38,3.4028235e+38,3.4028235e+38,3.4028235e+38,3.4028235e+38,3.4028235e+38,3.4028235e+38,3.4028235e+38,3.4028235e+38,3.4028235e+38,3.4028235e+38,3.4028235e+38,3.4028235e+38,3.4028235e+38,3.4028235e+38,3.4028235e+38,3.4028235e+38,3.4028235e+38,3.4028235e+38,3.4028235e+38,3.4028235e+38,3.4028235e+38,3.4028235e+38,3.4028235e+38,3.4028235e+38,3.4028235e+38,3.4028235e+38,3.4028235e+38,3.4028235e+38,3.4028235e+38,3.4028235e+38,3.4028235e+38,3.4028235e+38,3.4028235e+38,3.4028235e+38,3.4028235e+38,3.4028235e+38,3.4028235e+38,3.4028235e+38,3.4028235e+38,3.4028235e+38,3.4028235e+38,3.4028235e+38,3.4028235e+38,3.4028235e+38,3.4028235e+38,3.4028235e+38,3.4028235e+38,3.4028235e+38,3.4028235e+38,3.4028235e+38,3.4028235e+38,3.4028235e+38,3.4028235e+38,3.4028235e+38,3.4028235e+38,3.4028235e+38,3.4028235e+38,3.4028235e+38,3.4028235e+38,3.4028235e+38,3.4028235e+38,3.4028235e+38,3.4028235e+38,3.4028235e+38,3.4028235e+38,3.4028235e+38,3.4028235e+38,3.4028235e+38,3.4028235e+38,3.4028235e+38,3.4028235e+38,3.4028235e+38,3.4028235e+38,3.4028235e+38,3.4028235e+38,3.4028235e+38,3.4028235e+38,3.4028235e+38,3.4028235e+38,3.4028235e+38,3.4028235e+38,3.4028235e+38,3.4028235e+38,3.4028235e+38,3.4028235e+38,3.4028235e+38,3.4028235e+38,3.4028235e+38,3.4028235e+38,3.4028235e+38,3.4028235e+38,3.4028235e+38,3.4028235e+38,3.4028235e+38,3.4028235e+38,3.4028235e+38,3.4028235e+38,3.4028235e+38,3.4028235e+38,3.4028235e+38,3.4028235e+38,3.4028235e+38,3.4028235e+38,3.4028235e+38,3.4028235e+38,3.4028235e+38,3.4028235e+38,3.4028235e+38,3.4028235e+38,3.4028235e+38,3.4028235e+38,3.4028235e+38,3.4028235e+38,3.4028235e+38,3.4028235e+38,3.4028235e+38,3.4028235e+38,3.4028235e+38,3.4028235e+38,3.4028235e+38,3.4028235e+38,3.4028235e+38,3.4028235e+38,3.4028235e+38,3.4028235e+38,3.4028235e+38,3.4028235e+38,3.4028235e+38,3.4028235e+38,3.4028235e+38,3.4028235e+38,3.4028235e+38,3.4028235e+38,3.4028235e+38,3.4028235e+38,3.4028235e+38,3.4028235e+38,3.4028235e+38,3.4028235e+38,3.4028235e+38,3.4028235e+38,3.4028235e+38,3.4028235e+38,3.4028235e+38,3.4028235e+38,3.4028235e+38,3.4028235e+38,3.4028235e+38,3.4028235e+38,3.4028235e+38,3.4028235e+38,3.4028235e+38,3.4028235e+38,3.4028235e+38,3.4028235e+38,3.4028235e+38,3.4028235e+38,3.4028235e+38,3.4028235e+38,3.4028235e+38,3.4028235e+38,3.4028235e+38,3.4028235e+38,3.4028235e+38,3.4028235e+38,3.4028235e+38,3.4028235e+38,3.4028235e+38,3.4028235e+38,3.4028235e+38,3.4028235e+38,3.4028235e+38,3.4028235e+38,3.4028235e+38,3.4028235e+38,3.4028235e+38,3.4028235e+38,3.4028235e+38,3.4028235e+38,3.4028235e+38,3.4028235e+38,3.4028235e+38,3.4028235e+38,3.4028235e+38,3.4028235e+38,3.4028235e+38,3.4028235e+38,3.4028235e+38,3.4028235e+38,3.4028235e+38,3.4028235e+38,3.4028235e+38,3.4028235e+38,3.4028235e+38,3.4028235e+38,3.4028235e+38,3.4028235e+38,3.4028235e+38,3.4028235e+38,3.4028235e+38,3.4028235e+38,3.4028235e+38,3.4028235e+38,3.4028235e+38,3.4028235e+38,3.4028235e+38,3.4028235e+38,3.4028235e+38,3.4028235e+38,3.4028235e+38,3.4028235e+38,3.4028235e+38,3.4028235e+38,3.4028235e+38,3.4028235e+38,3.4028235e+38,3.4028235e+38,3.4028235e+38,3.4028235e+38,3.4028235e+38,3.4028235e+38,3.4028235e+38,3.4028235e+38,3.4028235e+38,3.4028235e+38,3.4028235e+38,3.4028235e+38,3.4028235e+38,3.4028235e+38,3.4028235e+38,3.4028235e+38,3.4028235e+38,3.4028235e+38,3.4028235e+38,3.4028235e+38,3.4028235e+38,3.4028235e+38,3.4028235e+38,3.4028235e+38,3.4028235e+38,3.4028235e+38,3.4028235e+38,3.4028235e+38,3.4028235e+38,3.4028235e+38,3.4028235e+38,3.4028235e+38,3.4028235e+38,3.4028235e+38,3.4028235e+38,3.4028235e+38,3.4028235e+38,3.4028235e+38,3.4028235e+38,3.4028235e+38,3.4028235e+38,3.4028235e+38,3.4028235e+38,3.4028235e+38,3.4028235e+38,3.4028235e+38,3.4028235e+38,3.4028235e+38,3.4028235e+38,3.4028235e+38,3.4028235e+38,3.4028235e+38,3.4028235e+38,3.4028235e+38,3.4028235e+38,3.4028235e+38,3.4028235e+38,3.4028235e+38,3.4028235e+38,3.4028235e+38,3.4028235e+38,3.4028235e+38,3.4028235e+38,3.4028235e+38,3.4028235e+38,3.4028235e+38,3.4028235e+38,3.4028235e+38,3.4028235e+38,3.4028235e+38,3.4028235e+38,3.4028235e+38,3.4028235e+38,3.4028235e+38,3.4028235e+38,3.4028235e+38,3.4028235e+38,3.4028235e+38,3.4028235e+38,3.4028235e+38,3.4028235e+38,3.4028235e+38,3.4028235e+38,3.4028235e+38,3.4028235e+38,3.4028235e+38,3.4028235e+38,3.4028235e+38,3.4028235e+38,3.4028235e+38,3.4028235e+38,3.4028235e+38,3.4028235e+38,3.4028235e+38,3.4028235e+38,3.4028235e+38,3.4028235e+38,3.4028235e+38,3.4028235e+38,3.4028235e+38,3.4028235e+38,3.4028235e+38,3.4028235e+38,3.4028235e+38,3.4028235e+38,3.4028235e+38,3.4028235e+38,3.4028235e+38,3.4028235e+38,3.4028235e+38,3.4028235e+38,3.4028235e+38,3.4028235e+38,3.4028235e+38,3.4028235e+38,3.4028235e+38,3.4028235e+38,3.4028235e+38,3.4028235e+38,3.4028235e+38,3.4028235e+38,3.4028235e+38,3.4028235e+38,3.4028235e+38,3.4028235e+38,3.4028235e+38,3.4028235e+38,3.4028235e+38,3.4028235e+38,3.4028235e+38,3.4028235e+38,3.4028235e+38,3.4028235e+38,3.4028235e+38,3.4028235e+38,3.4028235e+38,3.4028235e+38,3.4028235e+38,3.4028235e+38,3.4028235e+38,3.4028235e+38,3.4028235e+38,3.4028235e+38,3.4028235e+38,3.4028235e+38,3.4028235e+38,3.4028235e+38,3.4028235e+38,3.4028235e+38,3.4028235e+38,3.4028235e+38,3.4028235e+38,3.4028235e+38,3.4028235e+38,3.4028235e+38,3.4028235e+38,3.4028235e+38,3.4028235e+38,3.4028235e+38,3.4028235e+38,3.4028235e+38,3.4028235e+38,3.4028235e+38,3.4028235e+38,3.4028235e+38,3.4028235e+38,3.4028235e+38,3.4028235e+38,3.4028235e+38,3.4028235e+38,3.4028235e+38,3.4028235e+38,3.4028235e+38,3.4028235e+38,3.4028235e+38,3.4028235e+38,3.4028235e+38,3.4028235e+38,3.4028235e+38,3.4028235e+38,3.4028235e+38,3.4028235e+38,3.4028235e+38,3.4028235e+38,3.4028235e+38,3.4028235e+38,3.4028235e+38,3.4028235e+38,3.4028235e+38,3.4028235e+38,3.4028235e+38,3.4028235e+38,3.4028235e+38,3.4028235e+38,3.4028235e+38,3.4028235e+38,3.4028235e+38,3.4028235e+38,3.4028235e+38,3.4028235e+38,3.4028235e+38,3.4028235e+38,3.4028235e+38,3.4028235e+38,3.4028235e+38,3.4028235e+38,3.4028235e+38,3.4028235e+38,3.4028235e+38,3.4028235e+38,3.4028235e+38,3.4028235e+38,3.4028235e+38,3.4028235e+38,3.4028235e+38,3.4028235e+38,3.4028235e+38,3.4028235e+38,3.4028235e+38,3.4028235e+38,3.4028235e+38,3.4028235e+38,3.4028235e+38,3.4028235e+38,3.4028235e+38,3.4028235e+38,3.4028235e+38,3.4028235e+38,3.4028235e+38,3.4028235e+38,3.4028235e+38,3.4028235e+38,3.4028235e+38,3.4028235e+38,3.4028235e+38,3.4028235e+38,3.4028235e+38,3.4028235e+38,3.4028235e+38,3.4028235e+38,3.4028235e+38,3.4028235e+38,3.4028235e+38,3.4028235e+38,3.4028235e+38,3.4028235e+38,3.4028235e+38,3.4028235e+38,3.4028235e+38,3.4028235e+38,3.4028235e+38,3.4028235e+38,3.4028235e+38,3.4028235e+38,3.4028235e+38,3.4028235e+38,3.4028235e+38,3.4028235e+38,3.4028235e+38,3.4028235e+38,3.4028235e+38,
0.0,0.0,0.0,0.0,0.0,0.0,0.0,0.0,0.0,0.0,0.0,0.0,0.0,0.0,0.0,0.0,0.0,0.0,0.0,0.0,0.0,0.0,0.0,0.0,0.0,0.0,0.0,0.0,0.0,0.0,0.0,0.0,0.0,0.0,0.0,0.0,0.0,0.0,0.0,0.0,0.0,0.0,0.0,0.0,0.0,0.0,0.0,0.0,0.0,0.0,0.0,0.0,0.0,0.0,0.0,0.0,0.0,0.0,0.0,0.0,0.0,0.0,0.0,0.0,0.0,0.0,0.0,0.0,0.0,0.0,0.0,0.0,0.0,0.0,0.0,0.0,0.0,0.0,0.0,0.0,0.0,0.0,0.0,0.0,0.0,0.0,0.0,0.0,0.0,0.0,0.0,0.0,0.0,0.0,0.0,0.0,0.0,0.0,0.0,0.0,0.0,0.0,0.0,0.0,0.0,0.0,0.0,0.0,0.0,0.0,0.0,0.0,0.0,0.0,0.0,0.0,0.0,0.0,0.0,0.0,0.0,0.0,0.0,0.0,0.0,0.0,0.0,0.0,0.0,0.0,0.0,0.0,0.0,0.0,0.0,0.0,0.0,0.0,0.0,0.0,0.0,0.0,0.0,0.0,0.0,0.0,0.0,0.0,0.0,0.0,0.0,0.0,0.0,0.0,0.0,0.0,0.0,0.0,0.0,0.0,0.0,0.0,0.0,0.0,0.0,0.0,0.0,0.0,0.0,0.0,0.0,0.0,0.0,0.0,0.0,0.0,0.0,0.0,0.0,0.0,0.0,0.0,0.0,0.0,0.0,0.0,0.0,0.0,0.0,0.0,0.0,0.0,0.0,0.0,0.0,0.0,0.0,0.0,0.0,0.0,0.0,0.0,0.0,0.0,0.0,0.0,0.0,0.0,0.0,0.0,0.0,0.0,0.0,0.0,0.0,0.0,0.0,0.0,0.0,0.0,0.0,0.0,0.0,0.0,0.0,0.0,0.0,0.0,0.0,0.0,0.0,0.0,0.0,0.0,0.0,0.0,0.0,0.0,0.0,0.0,0.0,0.0,0.0,0.0,0.0,0.0,0.0,0.0,0.0,0.0,0.0,0.0,0.0,0.0,0.0,0.0,0.0,0.0,0.0,0.0,0.0,0.0,0.0,0.0,0.0,0.0,0.0,0.0,0.0,0.0,0.0,0.0,0.0,0.0,0.0,0.0,0.0,0.0,0.0,0.0,0.0,0.0,0.0,0.0,0.0,0.0,0.0,0.0,0.0,0.0,0.0,0.0,0.0,0.0,0.0,0.0,0.0,0.0,0.0,0.0,0.0,0.0,0.0,0.0,0.0,0.0,0.0,0.0,0.0,0.0,0.0,0.0,0.0,0.0,0.0,0.0,0.0,0.0,0.0,0.0,0.0,0.0,0.0,0.0,0.0,0.0,0.0,0.0,0.0,0.0,0.0,0.0,0.0,0.0,0.0,0.0,0.0,0.0,0.0,0.0,0.0,0.0,0.0,0.0,0.0,0.0,0.0,0.0,0.0,0.0,0.0,0.0,0.0,0.0,0.0,0.0,0.0,0.0,0.0,0.0,0.0,0.0,0.0,0.0,0.0,0.0,0.0,0.0,0.0,0.0,0.0,0.0,0.0,0.0,0.0,0.0,0.0,0.0,0.0,0.0,0.0,0.0,0.0,0.0,0.0,0.0,0.0,0.0,0.0,0.0,0.0,0.0,0.0,0.0,0.0,0.0,0.0,0.0,0.0,0.0,0.0,0.0,0.0,0.0,0.0,0.0,0.0,0.0,0.0,0.0,0.0,0.0,0.0,0.0,0.0,0.0,0.0,0.0,0.0,0.0,0.0,0.0,0.0,0.0,0.0,0.0,0.0,0.0,0.0,0.0,0.0,0.0,0.0,0.0,0.0,0.0,0.0,0.0,0.0,0.0,0.0,0.0,0.0,0.0,0.0,0.0,0.0,0.0,0.0,0.0,0.0,0.0,0.0,0.0,0.0,0.0,0.0,0.0,0.0,0.0,0.0,0.0,0.0,0.0,0.0,0.0,0.0,0.0,0.0,0.0,0.0,0.0,0.0,0.0,0.0,0.0,0.0,0.0,0.0,0.0,0.0,0.0,0.0,0.0,0.0,0.0,0.0,0.0,0.0,0.0,0.0,0.0,0.0,0.0,0.0,0.0,0.0,0.0,0.0,0.0,0.0,0.0,0.0,0.0,0.0,0.0,0.0,0.0,0.0,0.0,0.0,0.0,0.0,0.0,0.0,0.0,0.0,0.0,0.0,0.0,0.0,0.0,0.0,0.0,0.0,0.0,0.0,0.0,0.0,0.0,0.0,0.0,0.0,0.0,0.0,0.0,0.0,0.0,0.0,0.0,0.0,0.0,0.0,0.0,0.0,0.0,0.0,0.0,0.0,0.0,0.0,0.0,0.0,0.0,0.0,0.0,0.0,0.0,0.0,0.0,0.0,0.0,0.0,0.0,0.0,0.0,0.0,0.0,0.0,0.0,0.0,0.0,0.0,0.0,0.0,0.0,0.0,0.0,0.0,0.0,0.0,0.0,0.0,0.0,0.0,0.0,0.0,0.0,0.0,0.0,0.0,0.0,0.0,0.0,0.0,0.0,0.0,0.0,0.0,0.0,0.0,0.0,0.0,0.0,0.0,0.0,0.0,0.0,0.0,0.0,0.0,0.0,0.0,0.0,0.0,0.0,0.0,0.0,0.0,0.0,0.0,0.0,0.0,0.0,0.0,0.0,0.0,0.0,0.0,0.0,0.0,0.0,0.0,0.0,0.0,0.0,0.0,0.0,0.0,0.0,0.0,0.0,0.0,0.0,0.0,0.0,0.0,0.0,0.0,0.0,0.0,0.0,0.0,0.0,0.0,0.0,0.0,0.0,0.0,0.0,0.0,0.0,0.0,0.0,0.0,0.0,0.0,0.0,0.0,0.0,0.0,0.0,0.0,0.0,0.0,0.0,0.0,0.0,0.0,0.0,0.0,0.0,0.0,0.0,0.0,0.0,0.0,0.0,0.0,0.0,0.0,0.0,0.0,0.0,0.0,0.0,0.0,0.0,0.0,0.0,0.0,0.0,0.0,0.0,0.0,0.0,0.0,0.0,0.0,0.0,0.0,0.0,0.0,0.0,0.0,0.0,0.0,0.0,0.0,0.0,0.0,0.0,0.0,0.0,0.0,0.0,0.0,0.0,0.0,0.0,0.0,0.0,0.0,0.0,0.0,0.0,0.0,0.0,0.0,0.0,0.0,0.0,0.0,0.0,0.0,0.0,0.0,0.0,0.0,0.0,0.0,0.0,0.0,0.0,0.0,0.0,0.0,0.0,0.0,0.0,0.0,0.0,0.0,0.0,0.0,0.0,0.0,0.0,0.0,0.0,0.0,0.0,0.0,0.0,0.0,0.0,0.0,0.0,0.0,0.0,0.0,0.0,0.0,0.0,0.0,
1.0,1.0,1.0,1.0,1.0,1.0,1.0,1.0,1.0,1.0,1.0,1.0,1.0,1.0,1.0,1.0,1.0,1.0,1.0,1.0,1.0,1.0,1.0,1.0,1.0,1.0,1.0,1.0,1.0,1.0,1.0,1.0,1.0,1.0,1.0,1.0,1.0,1.0,1.0,1.0,1.0,1.0,1.0,1.0,1.0,1.0,1.0,1.0,1.0,1.0,1.0,1.0,1.0,1.0,1.0,1.0,1.0,1.0,1.0,1.0,1.0,1.0,1.0,1.0,1.0,1.0,1.0,1.0,1.0,1.0,1.0,1.0,1.0,1.0,1.0,1.0,1.0,1.0,1.0,1.0,1.0,1.0,1.0,1.0,1.0,1.0,1.0,1.0,1.0,1.0,1.0,1.0,1.0,1.0,1.0,1.0,1.0,1.0,1.0,1.0,1.0,1.0,1.0,1.0,1.0,1.0,1.0,1.0,1.0,1.0,1.0,1.0,1.0,1.0,1.0,1.0,1.0,1.0,1.0,1.0,1.0,1.0,1.0,1.0,1.0,1.0,1.0,1.0,1.0,1.0,1.0,1.0,1.0,1.0,1.0,1.0,1.0,1.0,1.0,1.0,1.0,1.0,1.0,1.0,1.0,1.0,1.0,1.0,1.0,1.0,1.0,1.0,1.0,1.0,1.0,1.0,1.0,1.0,1.0,1.0,1.0,1.0,1.0,1.0,1.0,1.0,1.0,1.0,1.0,1.0,1.0,1.0,1.0,1.0,1.0,1.0,1.0,1.0,1.0,1.0,1.0,1.0,1.0,1.0,1.0,1.0,1.0,1.0,1.0,1.0,1.0,1.0,1.0,1.0,1.0,1.0,1.0,1.0,1.0,1.0,1.0,1.0,1.0,1.0,1.0,1.0,1.0,1.0,1.0,1.0,1.0,1.0,1.0,1.0,1.0,1.0,1.0,1.0,1.0,1.0,1.0,1.0,1.0,1.0,1.0,1.0,1.0,1.0,1.0,1.0,1.0,1.0,1.0,1.0,1.0,1.0,1.0,1.0,1.0,1.0,1.0,1.0,1.0,1.0,1.0,1.0,1.0,1.0,1.0,1.0,1.0,1.0,1.0,1.0,1.0,1.0,1.0,1.0,1.0,1.0,1.0,1.0,1.0,1.0,1.0,1.0,1.0,1.0,1.0,1.0,1.0,1.0,1.0,1.0,1.0,1.0,1.0,1.0,1.0,1.0,1.0,1.0,1.0,1.0,1.0,1.0,1.0,1.0,1.0,1.0,1.0,1.0,1.0,1.0,1.0,1.0,1.0,1.0,1.0,1.0,1.0,1.0,1.0,1.0,1.0,1.0,1.0,1.0,1.0,1.0,1.0,1.0,1.0,1.0,1.0,1.0,1.0,1.0,1.0,1.0,1.0,1.0,1.0,1.0,1.0,1.0,1.0,1.0,1.0,1.0,1.0,1.0,1.0,1.0,1.0,1.0,1.0,1.0,1.0,1.0,1.0,1.0,1.0,1.0,1.0,1.0,1.0,1.0,1.0,1.0,1.0,1.0,1.0,1.0,1.0,1.0,1.0,1.0,1.0,1.0,1.0,1.0,1.0,1.0,1.0,1.0,1.0,1.0,1.0,1.0,1.0,1.0,1.0,1.0,1.0,1.0,1.0,1.0,1.0,1.0,1.0,1.0,1.0,1.0,1.0,1.0,1.0,1.0,1.0,1.0,1.0,1.0,1.0,1.0,1.0,1.0,1.0,1.0,1.0,1.0,1.0,1.0,1.0,1.0,1.0,1.0,1.0,1.0,1.0,1.0,1.0,1.0,1.0,1.0,1.0,1.0,1.0,1.0,1.0,1.0,1.0,1.0,1.0,1.0,1.0,1.0,1.0,1.0,1.0,1.0,1.0,1.0,1.0,1.0,1.0,1.0,1.0,1.0,1.0,1.0,1.0,1.0,1.0,1.0,1.0,1.0,1.0,1.0,1.0,1.0,1.0,1.0,1.0,1.0,1.0,1.0,1.0,1.0,1.0,1.0,1.0,1.0,1.0,1.0,1.0,1.0,1.0,1.0,1.0,1.0,1.0,1.0,1.0,1.0,1.0,1.0,1.0,1.0,1.0,1.0,1.0,1.0,1.0,1.0,1.0,1.0,1.0,1.0,1.0,1.0,1.0,1.0,1.0,1.0,1.0,1.0,1.0,1.0,1.0,1.0,1.0,1.0,1.0,1.0,1.0,1.0,1.0,1.0,1.0,1.0,1.0,1.0,1.0,1.0,1.0,1.0,1.0,1.0,1.0,1.0,1.0,1.0,1.0,1.0,1.0,1.0,1.0,1.0,1.0,1.0,1.0,1.0,1.0,1.0,1.0,1.0,1.0,1.0,1.0,1.0,1.0,1.0,1.0,1.0,1.0,1.0,1.0,1.0,1.0,1.0,1.0,1.0,1.0,1.0,1.0,1.0,1.0,1.0,1.0,1.0,1.0,1.0,1.0,1.0,1.0,1.0,1.0,1.0,1.0,1.0,1.0,1.0,1.0,1.0,1.0,1.0,1.0,1.0,1.0,1.0,1.0,1.0,1.0,1.0,1.0,1.0,1.0,1.0,1.0,1.0,1.0,1.0,1.0,1.0,1.0,1.0,1.0,1.0,1.0,1.0,1.0,1.0,1.0,1.0,1.0,1.0,1.0,1.0,1.0,1.0,1.0,1.0,1.0,1.0,1.0,1.0,1.0,1.0,1.0,1.0,1.0,1.0,1.0,1.0,1.0,1.0,1.0,1.0,1.0,1.0,1.0,1.0,1.0,1.0,1.0,1.0,1.0,1.0,1.0,1.0,1.0,1.0,1.0,1.0,1.0,1.0,1.0,1.0,1.0,1.0,1.0,1.0,1.0,1.0,1.0,1.0,1.0,1.0,1.0,1.0,1.0,1.0,1.0,1.0,1.0,1.0,1.0,1.0,1.0,1.0,1.0,1.0,1.0,1.0,1.0,1.0,1.0,1.0,1.0,1.0,1.0,1.0,1.0,1.0,1.0,1.0,1.0,1.0,1.0,1.0,1.0,1.0,1.0,1.0,1.0,1.0,1.0,1.0,1.0,1.0,1.0,1.0,1.0,1.0,1.0,1.0,1.0,1.0,1.0,1.0,1.0,1.0,1.0,1.0,1.0,1.0,1.0,1.0,1.0,1.0,1.0,1.0,1.0,1.0,1.0,1.0,1.0,1.0,1.0,1.0,1.0,1.0,1.0,1.0,1.0,1.0,1.0,1.0,1.0,1.0,1.0,1.0,1.0,1.0,1.0,1.0,1.0,1.0,1.0,1.0,1.0,1.0,1.0,1.0,1.0,1.0,1.0,1.0,1.0,1.0,1.0,1.0,1.0,1.0,1.0,1.0,1.0,1.0,1.0,1.0,1.0,1.0,1.0,1.0,1.0,1.0,1.0,1.0,1.0,1.0,1.0,1.0,1.0,1.0,1.0,
1.19395e-03,-1.64728e-02,-1.99716e-02,3.43031e-02,2.25237e-02,2.14523e-02,-3.72461e-03,3.50431e-02,-9.61855e-03,-2.78944e-02,2.87900e-02,-1.41200e-02,-1.53763e-04,4.63519e-02,2.82929e-02,9.25787e-03,-2.82059e-02,8.18095e-03,-1.37310e-02,7.30212e-03,-9.58178e-03,-3.53058e-02,3.34118e-03,-3.99567e-03,-2.01237e-02,2.84540e-02,2.35673e-03,-2.49667e-02,-3.50204e-02,-3.33245e-02,1.59536e-02,-1.04286e-02,-9.05632e-03,2.74178e-02,5.16478e-03,7.27951e-02,1.52542e-02,1.36399e-02,3.47346e-02,1.70585e-01,1.69588e-01,1.42311e-01,1.45762e-01,1.82765e-01,2.87415e-01,2.26797e-01,-1.59921e-01,-6.20243e-02,-2.93994e-02,-3.05996e-02,-4.71420e-02,3.73014e-03,-2.73019e-03,-2.49414e-02,-3.06507e-02,2.50187e-02,2.42219e-02,5.56339e-03,-2.52233e-02,-7.42451e-02,-1.96404e-01,-2.87940e-02,-4.10295e-02,-3.03738e-03,3.73517e-02,1.27204e-01,1.23923e-01,6.79368e-02,1.18333e-01,1.45017e-01,1.52012e-01,1.27012e-01,1.37571e-01,3.04166e-02,2.52275e-02,-6.91471e-02,-1.34695e-01,-9.84059e-02,-1.13588e-01,1.60579e-02,5.13884e-02,-4.41315e-02,-2.18280e-02,-7.74142e-03,1.74202e-02,2.79172e-02,6.49976e-02,-8.74208e-02,-1.77227e-01,2.71521e-02,1.11851e-01,1.11855e-02,4.21748e-02,2.14672e-02,5.48051e-02,1.05992e-02,1.37483e-01,2.15615e-01,2.07770e-01,1.03518e-01,2.06688e-01,1.20654e-01,-7.71208e-03,-4.81194e-02,-6.93181e-02,-2.84301e-02,-1.38148e-01,-1.71904e-01,-1.17078e-01,-2.17801e-01,-1.54754e-01,-1.71949e-02,-1.08980e-02,2.70943e-02,-1.63170e-03,4.99967e-02,-5.25204e-02,-7.25793e-02,-4.92283e-02,4.55258e-02,3.64193e-02,1.43666e-01,2.37349e-02,6.25052e-02,9.71850e-02,9.41666e-02,9.36150e-02,5.78301e-02,6.42101e-02,1.42057e-01,6.02517e-02,5.77974e-02,-7.47049e-03,-4.24067e-02,-1.86085e-02,-1.48932e-01,-1.65352e-01,-1.69386e-01,-1.79295e-01,-6.14719e-02,-3.18102e-02,3.30930e-02,-1.23426e-02,5.64809e-02,-3.84753e-03,-6.37279e-02,1.67572e-03,-4.77837e-02,-2.60037e-02,3.68583e-02,2.90928e-02,-6.51445e-03,5.07113e-02,1.04869e-01,1.15831e-01,1.45524e-01,1.75010e-01,1.46371e-01,1.33264e-01,6.33412e-02,-5.49329e-03,6.64293e-02,2.96306e-02,-1.22025e-01,-1.71418e-01,-2.07185e-01,-2.95905e-01,-1.68630e-01,1.53501e-02,4.42444e-02,-2.49901e-02,1.26430e-01,6.22266e-02,9.12842e-02,3.07571e-02,-4.75341e-02,-4.30919e-02,-8.18043e-02,-1.74576e-02,2.14778e-02,4.78010e-02,9.16919e-02,1.23892e-01,1.13150e-01,1.18595e-01,1.21005e-01,1.03470e-01,6.60985e-02,3.18451e-02,5.41427e-02,1.20706e-01,-1.00635e-01,-1.79318e-01,-1.58469e-01,-3.57540e-01,-1.55896e-01,2.27174e-02,5.45579e-02,7.95586e-02,4.80288e-02,2.80277e-02,7.32534e-02,2.67766e-02,1.48638e-02,-4.88455e-02,-4.76022e-02,-2.21086e-02,2.82647e-03,5.06919e-02,6.98672e-03,6.24857e-02,1.15873e-02,5.70166e-02,9.16706e-02,1.13375e-01,8.97885e-02,5.24441e-02,7.21053e-02,1.04697e-01,9.37991e-03,-1.38763e-01,-1.75435e-01,-1.59339e-01,-9.92441e-02,-3.71056e-02,1.57610e-01,3.16800e-04,5.08784e-02,3.83036e-02,5.62014e-03,-4.94548e-02,-4.72949e-02,2.34726e-02,-2.00698e-02,9.08165e-03,-7.08352e-02,-3.25480e-02,-4.19310e-02,4.47953e-02,1.33414e-01,1.92169e-01,1.66393e-01,2.15466e-01,1.17535e-01,1.08611e-01,9.97325e-03,2.38530e-03,4.14874e-02,-2.89305e-01,-3.29103e-01,-1.43926e-01,-1.42585e-01,5.68837e-02,7.99395e-03,-5.37458e-02,8.96611e-02,1.08908e-01,2.91037e-02,-1.06643e-01,-9.73018e-02,-3.88998e-02,-1.14849e-02,-4.66523e-02,-9.16920e-02,-1.04142e-01,-6.38283e-02,2.18843e-03,1.16859e-01,2.12078e-01,2.49558e-01,2.35394e-01,2.19284e-01,1.15711e-01,-3.22649e-02,3.09458e-03,5.94346e-02,-1.21888e-01,-4.56221e-01,-2.57290e-01,-1.07416e-01,7.18461e-02,7.49292e-02,1.09169e-02,-1.07839e-01,3.16215e-02,6.20317e-02,-4.78950e-02,-1.06461e-01,-7.25028e-02,-3.70661e-02,-1.20972e-01,-1.52048e-01,-1.57745e-01,-1.04376e-01,-1.12954e-01,-4.76862e-02,1.76406e-01,1.88012e-01,1.39995e-01,1.64430e-01,1.21066e-01,2.96024e-02,3.37199e-02,7.65597e-03,6.95498e-03,-2.55403e-01,-2.66306e-01,-1.32762e-02,6.43741e-02,1.40664e-01,-7.66754e-02,-2.64515e-01,-8.19294e-02,-5.31691e-02,-8.66826e-02,-1.17711e-01,-7.99338e-02,-9.60073e-02,-9.05628e-02,-1.74116e-01,-2.09184e-01,-1.48949e-01,-2.00415e-01,-1.83872e-01,2.39880e-03,1.10250e-01,8.43533e-02,7.82947e-02,7.31320e-02,8.30516e-03,2.87433e-02,7.12653e-02,9.30476e-02,-5.04605e-02,-1.51594e-01,-1.22667e-01,3.50129e-02,-1.38949e-02,-6.90102e-02,-2.35183e-01,-1.77053e-01,-1.10465e-01,-1.31130e-01,-2.06026e-01,-1.28094e-01,-6.87594e-02,-7.38071e-02,-1.69962e-01,-9.27736e-02,-1.10913e-01,-2.89753e-01,-2.57761e-01,-8.94805e-02,6.31883e-03,3.64207e-02,2.06268e-02,1.66535e-02,-5.21841e-02,1.75266e-02,2.13186e-02,1.14177e-01,9.71860e-02,-1.57964e-01,-1.08257e-01,-3.31176e-02,-3.92455e-02,-7.73245e-02,-1.18696e-01,-1.47860e-01,-1.64918e-01,-1.44710e-01,-1.29612e-01,-3.71695e-02,-5.66453e-02,-5.35501e-02,-3.54372e-02,3.48293e-02,-1.35997e-01,-2.44264e-01,-2.25166e-01,-1.40484e-01,-7.18737e-03,4.40412e-03,-7.23946e-02,-8.57421e-02,-2.55899e-02,4.41245e-02,6.24399e-03,8.47630e-02,4.80924e-02,1.08136e-01,-8.48625e-02,4.82287e-05,-7.13039e-02,-7.19999e-02,7.75572e-04,1.91011e-02,2.29231e-02,-1.25507e-02,2.60331e-02,6.08770e-02,1.81433e-02,3.90231e-03,1.37844e-02,-9.74542e-03,-1.00403e-01,-1.99294e-01,-1.45685e-01,-9.91781e-02,-2.33541e-02,-2.67227e-02,-2.90389e-02,-4.97289e-02,1.08424e-02,1.91973e-02,7.81787e-02,4.44035e-02,7.12338e-02,4.05509e-01,8.83504e-02,-6.58990e-03,-1.27645e-02,8.59067e-02,-5.59062e-02,1.32332e-01,1.42599e-01,1.03829e-01,9.26213e-02,7.97956e-02,9.72700e-02,9.27449e-02,2.52774e-02,-7.63867e-02,-1.66549e-01,-8.32083e-02,-1.04630e-01,-9.16047e-02,-4.94946e-05,3.51775e-02,5.03991e-02,7.19928e-02,8.12331e-02,4.37564e-02,-1.16118e-02,1.74331e-02,-4.00200e-02,3.40242e-01,2.02290e-02,1.72096e-02,-2.95287e-02,6.18950e-02,-2.86351e-02,1.77966e-01,1.77371e-01,1.88592e-01,1.46885e-01,4.22200e-02,8.47006e-02,4.36497e-02,-5.84788e-02,-1.63929e-01,-1.10494e-01,-1.30242e-01,-1.03523e-01,-4.19584e-02,-1.14581e-02,5.19412e-02,9.86300e-02,1.00356e-01,1.08980e-01,9.81273e-03,-7.42439e-02,-1.45029e-02,-5.08516e-02,1.87627e-01,1.17786e-01,-3.47663e-02,-5.87234e-02,1.21353e-01,4.80433e-02,1.74368e-01,1.96373e-01,1.43478e-01,5.89776e-02,2.57361e-02,5.37237e-02,3.63388e-02,-8.17003e-02,-9.04208e-02,-1.02570e-01,-6.04676e-02,-6.38658e-02,1.07903e-02,7.58460e-02,5.45562e-02,4.08571e-03,1.13803e-02,7.35394e-02,8.05295e-02,4.36270e-03,1.04528e-02,2.93759e-02,1.77450e-01,8.61325e-02,1.22732e-01,-4.70181e-02,4.63182e-03,3.46496e-02,1.28379e-01,1.09817e-01,1.05823e-01,6.33096e-02,2.37788e-02,3.62594e-02,5.04292e-02,1.38752e-02,2.89682e-04,-1.72843e-02,-1.70728e-02,3.17509e-02,7.64685e-02,5.05831e-02,1.00972e-02,-1.52146e-02,-7.59721e-03,-1.77676e-02,3.95172e-02,-3.34762e-02,-2.49122e-02,3.77410e-02,-1.67709e-03,1.95974e-01,-1.12859e-02,3.85944e-02,7.65486e-02,3.33739e-02,2.28584e-01,8.27344e-02,1.08154e-01,9.68323e-02,8.84290e-02,6.39384e-03,7.10880e-02,7.46360e-02,6.45376e-02,2.22379e-02,1.62693e-03,3.36633e-02,4.52251e-02,5.33559e-02,-3.85793e-03,-4.99314e-02,-3.10340e-02,1.37536e-02,8.15567e-03,-7.00255e-02,-3.76898e-02,6.86710e-02,2.51215e-01,1.66107e-01,-4.93208e-03,8.72395e-02,6.56852e-02,4.33821e-02,2.61995e-01,1.53951e-01,1.01272e-01,1.14742e-01,6.00470e-02,5.97760e-02,8.48073e-02,9.70597e-02,4.29135e-02,2.26208e-02,-4.41307e-02,-1.39324e-02,-1.45227e-02,6.77663e-02,-1.60778e-02,-4.74326e-03,-2.91989e-02,1.52222e-02,-4.34642e-02,-3.15841e-02,-9.28362e-02,-6.07917e-02,1.49843e-01,5.59481e-03,-2.59514e-02,-2.25719e-02,6.17173e-02,7.71466e-02,1.03527e-01,1.09190e-01,9.78259e-02,7.48795e-02,4.89278e-02,1.00147e-01,1.36131e-01,1.30014e-01,1.28868e-02,-8.76160e-03,-1.25425e-01,-7.10838e-02,-3.91462e-02,-1.42117e-02,-2.69970e-02,6.38327e-03,-1.93872e-02,3.39913e-02,9.30056e-02,4.15714e-02,1.55077e-01,1.45742e-01,2.31856e-01,-4.63714e-02,-1.57984e-02,-7.35987e-02,3.76645e-02,9.52082e-03,7.34911e-03,6.86800e-02,1.17651e-01,9.79257e-02,8.97565e-02,1.48875e-01,1.19640e-01,1.16783e-01,8.14260e-02,8.98586e-04,-1.44420e-03,-4.88651e-02,-5.55445e-02,-2.40272e-03,4.48934e-02,6.68296e-03,4.06275e-02,1.29455e-01,1.23200e-01,4.61273e-02,6.49351e-02,-5.50798e-02,-1.28697e-01,-1.84274e-02,6.18475e-04,2.02252e-02,3.44617e-02,-6.31541e-02,-6.67931e-02,2.46050e-02,3.00205e-02,1.14224e-01,-8.11462e-03,-1.96847e-03,5.48587e-02,5.63340e-02,6.30378e-02,3.70916e-02,1.70884e-02,-8.72408e-02,-4.97162e-02,1.53811e-02,-7.02681e-02,-6.96561e-02,-7.32397e-02,2.29206e-02,-2.00370e-02,-1.21150e-01,4.95683e-03,-1.60349e-01,-2.51239e-01,6.82896e-03,-1.67495e-02,2.08604e-02,1.92799e-02,-1.05304e-02,8.76470e-02,1.59443e-01,3.93775e-02,1.11026e-02,-9.59137e-04,-3.88899e-02,-2.80483e-02,-8.02060e-03,6.22008e-02,1.67248e-02,-3.23286e-03,-5.36289e-02,-5.65556e-02,-6.04489e-02,-1.48692e-01,-2.03083e-01,-2.38314e-01,-1.08355e-01,-1.25553e-01,-2.44270e-01,-1.30316e-01,6.70860e-02,-3.60689e-02,2.01163e-02,-1.06739e-02,-2.65430e-02,-1.33603e-01,7.74993e-02,1.28143e-01,7.94461e-02,2.60028e-02,-3.57007e-02,-3.17981e-02,-1.34198e-01,-8.27136e-02,-7.17251e-02,-6.98173e-02,-1.43909e-01,-1.58813e-01,-1.11568e-01,-1.43217e-01,-2.60042e-01,-2.03012e-01,-2.47643e-01,-2.36883e-01,-1.73091e-01,-1.57083e-01,-2.04546e-01,-1.15760e-01,-4.12540e-02,3.07825e-02,1.80823e-02,-3.11117e-02,2.65675e-02,2.96907e-02,-3.04586e-02,-1.32027e-01,-1.91076e-01,-1.96210e-01,-2.05267e-02,2.31206e-02,-9.70274e-02,-7.42718e-02,-6.88536e-02,-1.08404e-01,-5.07842e-02,-5.86793e-02,3.85237e-03,-1.16281e-02,-1.03864e-01,-1.31243e-01,-1.46323e-01,-1.76704e-01,-1.17164e-01,-3.30901e-03,-1.75686e-02,-1.55943e-01,3.22464e-03,-6.40734e-03,1.42472e-02,-3.50192e-02,-1.58535e-02,-2.66192e-02,4.74912e-03,2.94582e-02,7.07896e-02,1.43227e-01,1.24391e-01,2.49470e-02,3.72047e-02,2.33847e-01,8.68883e-03,-1.14883e-01,2.18146e-02,3.30025e-02,5.94643e-02,6.39223e-02,1.95464e-01,1.71718e-01,-4.48530e-02,-3.31168e-02,2.76544e-02,1.57661e-02,-9.17563e-03,1.93588e-02,-1.65538e-02,-2.19664e-03,-1.67549e-02,
-3.07009e-02,-3.49672e-02,1.36502e-02,2.65071e-02,3.07706e-03,-2.44683e-02,6.52816e-03,-1.25846e-03,2.64690e-02,-1.87104e-02,-2.76391e-02,-1.68671e-02,-1.61443e-02,1.71592e-02,-3.16932e-02,-2.98740e-03,3.38287e-02,-2.14567e-02,1.32461e-02,2.28405e-02,2.17373e-03,5.33286e-03,-5.04933e-03,-2.69761e-02,3.43770e-02,3.21441e-02,-1.00614e-02,-9.57788e-03,-1.97348e-02,-4.35695e-03,3.20925e-02,-2.73443e-02,-1.28613e-02,2.28847e-02,3.51236e-02,-3.43389e-03,-1.45755e-02,-2.03292e-02,1.78664e-02,-1.84124e-02,2.26865e-02,5.16902e-02,3.89152e-02,4.95802e-02,-1.99285e-02,-5.32687e-03,5.61100e-03,1.32063e-02,-5.46143e-03,3.51286e-02,-1.82089e-02,2.69617e-02,5.52079e-03,1.06420e-02,9.63424e-05,-1.88759e-02,3.28193e-02,3.36025e-02,5.46891e-03,3.21783e-02,3.34385e-02,-2.09927e-02,-1.47446e-02,9.21056e-03,-3.91817e-02,-9.52012e-02,7.04247e-03,1.27488e-02,-1.01377e-01,-4.36226e-03,-9.39064e-03,-8.50589e-02,-1.21313e-01,-1.70724e-01,-8.94525e-02,-5.92334e-02,-5.75055e-02,-9.79572e-02,-5.95716e-02,-8.20695e-02,-2.16090e-02,-3.37150e-02,2.73255e-03,-2.30339e-02,2.38958e-02,-1.92474e-02,-1.69614e-02,-7.21970e-02,-8.69989e-03,-8.82124e-02,-7.72846e-02,3.50501e-03,-5.29842e-02,-1.86281e-01,-1.93368e-01,-1.20755e-01,-9.33632e-03,-3.20687e-02,3.59106e-02,-3.95273e-02,-7.97367e-02,-1.33327e-01,-1.10230e-01,-9.42421e-02,-4.76476e-02,-1.58698e-01,-2.86828e-01,-2.01861e-01,-1.76820e-01,-2.41908e-02,6.70952e-02,-2.39137e-02,1.19722e-02,-2.25252e-02,-1.31711e-02,4.83143e-02,-4.65196e-04,7.18262e-03,8.58177e-02,8.34096e-02,6.24809e-02,6.68892e-03,2.15168e-03,4.03500e-02,6.53305e-02,2.10110e-02,-2.85109e-02,-6.50424e-02,-1.07784e-01,-4.46311e-02,-4.30002e-02,-1.17610e-01,-1.70848e-01,-4.95868e-02,7.11998e-02,2.75633e-02,-1.97381e-02,1.44451e-01,1.28598e-01,-5.47071e-02,1.28030e-02,2.66852e-02,-4.71519e-02,-1.78191e-02,-1.20298e-01,-3.90804e-02,4.63714e-02,5.38790e-02,3.23754e-02,-5.40419e-02,-3.90626e-03,3.57374e-03,6.03773e-02,1.00957e-01,1.03920e-02,3.48391e-02,5.88737e-02,6.25097e-02,5.80963e-02,-2.41099e-02,5.28780e-02,1.27040e-01,8.55826e-02,4.04692e-02,7.63825e-02,1.23779e-01,1.11439e-02,-1.98102e-01,-3.45680e-02,-9.98742e-02,-3.69275e-02,-9.42389e-02,-1.11780e-01,-3.12460e-02,-4.91608e-02,-3.07428e-03,-2.17068e-02,-9.85718e-03,6.53549e-02,1.68435e-02,4.98879e-02,8.40791e-02,4.31699e-02,6.05792e-02,8.52269e-02,1.20645e-01,1.31326e-01,1.55822e-01,1.70649e-01,1.48637e-01,7.30181e-02,1.75861e-02,1.25343e-01,1.94300e-01,1.57624e-01,-1.62849e-01,6.89963e-03,-2.33270e-02,-2.42276e-02,-9.14595e-02,-5.51655e-03,3.76854e-02,7.08785e-02,-7.80524e-03,4.84761e-02,1.26352e-02,6.09831e-02,5.91005e-02,8.71754e-02,7.58990e-02,1.21849e-01,1.36805e-01,1.58669e-01,1.54078e-01,1.94971e-01,1.95970e-01,1.74333e-01,1.60453e-01,9.08592e-02,4.03485e-02,9.70865e-02,1.27450e-01,1.99049e-01,2.54858e-02,9.06155e-03,-4.03860e-02,2.61291e-02,-2.82104e-03,-7.62252e-02,-1.21919e-02,-4.37825e-02,-4.15771e-02,4.62592e-02,1.49492e-02,5.22702e-02,4.73521e-02,8.24299e-02,9.16474e-02,1.24305e-01,1.45904e-01,1.58422e-01,1.36705e-01,1.09654e-01,1.23220e-01,1.30856e-01,1.03035e-01,9.08439e-02,7.32345e-02,1.18070e-01,1.81405e-01,1.94474e-01,8.77186e-02,-2.84884e-03,-2.88867e-02,1.93856e-02,-1.28589e-01,-6.93638e-02,1.16306e-02,1.02902e-02,1.86049e-03,7.69627e-02,9.13801e-02,1.07734e-01,2.84244e-02,8.20146e-02,1.19217e-01,1.22093e-01,7.26027e-02,-1.33791e-02,2.23539e-02,2.53137e-02,4.44757e-02,-2.22142e-02,-2.88217e-03,-2.39826e-02,5.46376e-02,1.62278e-01,2.53006e-01,1.00974e-01,2.25775e-01,-6.49936e-02,-1.17766e-02,-3.98333e-02,-1.78031e-01,-7.88116e-02,-3.20009e-02,-4.43853e-02,-2.83117e-02,6.73610e-02,8.33390e-02,9.17030e-02,1.24283e-01,1.08485e-01,2.41809e-02,-5.34561e-02,-1.20782e-01,-1.60417e-01,-1.94752e-01,-6.57521e-02,-1.21136e-02,-1.24224e-01,-1.46837e-01,-1.07496e-01,-1.93218e-02,6.82066e-02,1.15546e-01,2.21058e-01,9.59801e-02,-2.60358e-02,9.66166e-03,-5.77687e-02,-3.15835e-02,-1.51602e-02,-1.10449e-01,-1.87179e-02,7.07277e-03,4.71591e-02,9.27896e-03,3.27462e-02,2.94396e-02,-6.73216e-02,-1.16931e-01,-2.13850e-01,-2.66952e-01,-1.97185e-01,-1.73314e-01,-1.00857e-01,-3.84429e-02,-1.46176e-01,-1.57784e-01,-1.60668e-01,-9.93062e-02,6.09921e-03,6.90210e-02,3.40234e-01,1.03635e-01,-6.99335e-02,-4.89989e-02,-1.55483e-01,2.11118e-02,3.92303e-04,3.29489e-04,7.79599e-02,-2.29406e-02,3.29399e-02,3.58511e-02,2.13503e-04,-4.21699e-02,-1.48327e-01,-1.00993e-01,-1.97306e-02,-7.75957e-02,-1.25890e-01,-6.73400e-02,-2.16900e-02,-6.24167e-02,-1.01745e-01,-1.59887e-01,-1.23282e-01,-8.99812e-02,-4.67464e-02,-7.84038e-03,2.37193e-01,1.46776e-01,-2.38739e-02,4.17312e-02,-1.62967e-01,4.46022e-02,3.88392e-02,6.22412e-02,9.63452e-02,9.02084e-02,3.17644e-02,1.03752e-02,2.43431e-02,3.01402e-04,-5.10093e-02,3.14006e-02,3.40859e-02,-4.28574e-02,-8.52340e-02,-4.02516e-02,-2.67739e-02,2.34530e-03,-7.54242e-02,-1.43499e-01,-1.01804e-01,-1.59974e-02,2.24176e-02,-9.47893e-02,5.02662e-02,6.36078e-02,1.28414e-01,-1.80283e-02,-2.22661e-02,-5.02466e-02,1.25222e-02,4.66688e-02,3.68470e-02,9.26267e-02,9.21266e-02,9.01826e-02,7.54561e-02,4.57836e-02,5.29401e-02,2.32298e-02,-1.92384e-03,-5.50739e-02,-1.31087e-01,-8.18261e-02,-3.76229e-02,-6.90383e-02,-5.55578e-02,-1.08870e-01,-4.58017e-02,6.45962e-02,6.75517e-02,-3.73145e-02,-1.63900e-01,-5.75114e-02,1.64351e-01,2.45399e-02,-1.96534e-01,-2.31146e-01,-5.58720e-02,-5.91358e-02,3.74226e-03,8.83399e-02,6.77698e-02,7.44658e-02,1.28146e-01,-1.53731e-02,8.64734e-03,2.29388e-02,-2.96186e-02,-1.04875e-01,-9.68230e-02,-7.41005e-02,-7.47357e-02,-7.48994e-02,-9.83391e-02,-8.89845e-02,-5.00179e-02,-5.35722e-03,1.03083e-01,-1.93181e-02,-2.19394e-01,-1.61477e-01,2.70999e-02,2.27005e-02,-7.97935e-02,-1.54366e-01,-1.46166e-02,9.25414e-03,-6.09508e-02,-5.90087e-02,-6.72426e-03,2.63358e-02,9.74046e-02,4.35755e-02,3.20622e-02,-4.05056e-02,-4.02382e-02,-1.31351e-01,-8.93104e-02,-2.80580e-02,-7.31816e-02,-8.56860e-02,-6.91929e-02,-1.33921e-01,-4.94129e-02,4.09139e-03,6.28299e-02,1.60967e-02,-1.57091e-01,-1.07501e-01,-3.32760e-02,9.27227e-02,-2.44501e-01,-1.24361e-01,-1.16343e-01,-5.43051e-02,-5.89446e-02,-4.72958e-02,-4.44326e-02,-6.37732e-02,-4.52434e-03,3.52022e-02,-7.52202e-02,-7.33343e-02,-8.66421e-02,-7.95842e-02,-1.79394e-02,5.88589e-03,-2.24651e-02,-1.51127e-02,-4.87771e-03,-4.78248e-02,3.61655e-02,2.71179e-02,5.98403e-02,-2.10473e-02,-2.10289e-01,-1.26963e-01,4.43376e-03,2.01081e-02,-1.51183e-01,-1.41405e-01,-1.17153e-01,-1.07713e-01,-7.18638e-02,-1.29804e-01,-8.06170e-02,-1.45241e-01,-1.25852e-01,-1.29498e-01,-2.09029e-01,-1.51859e-01,-1.61080e-01,-6.64032e-02,-3.41070e-02,4.41245e-02,4.53134e-02,4.75986e-02,2.27855e-02,-2.38940e-02,2.72516e-02,1.17227e-01,4.11365e-02,3.12518e-02,-1.75208e-01,-1.73572e-01,2.29468e-02,1.06601e-01,9.29366e-02,-5.46353e-02,1.55379e-02,-1.76087e-02,5.40443e-03,-1.12840e-01,-1.78216e-01,-1.66016e-01,-1.44127e-01,-1.77966e-01,-1.66144e-01,-7.20351e-02,-1.36397e-01,-5.12087e-02,2.79433e-02,2.81490e-02,2.79054e-02,3.64692e-02,3.82967e-02,-2.93772e-02,6.42839e-02,1.93739e-01,1.63428e-01,-5.62122e-02,-1.27322e-01,-1.33305e-01,-3.08359e-03,4.61124e-02,1.00932e-01,1.79121e-02,4.43537e-02,7.81395e-02,8.45452e-02,-1.30171e-03,-1.82158e-02,-4.70935e-02,1.04848e-03,-2.62466e-02,2.38753e-03,1.64261e-02,-5.12601e-02,-2.27312e-02,5.05464e-03,4.85590e-02,1.45947e-02,2.70798e-02,1.82491e-02,-5.74397e-02,6.69275e-02,1.62879e-01,7.23854e-02,-1.07327e-01,-9.46638e-02,1.49868e-01,6.14095e-03,5.27220e-02,3.60344e-02,6.82721e-02,9.35572e-02,1.23188e-01,1.01575e-01,1.09623e-01,6.97770e-02,3.54511e-02,2.40553e-02,4.05561e-02,6.92674e-02,5.75207e-02,3.61567e-02,6.35458e-02,1.04646e-01,3.11549e-02,-2.90167e-02,-1.08756e-02,6.28489e-02,6.54509e-02,1.27802e-01,1.47803e-01,-5.30144e-02,-2.43785e-02,-1.14326e-01,1.96609e-02,-4.49227e-02,-1.31031e-02,-9.00208e-02,8.21397e-02,6.34517e-02,1.99416e-02,6.63280e-02,-2.03599e-03,1.69748e-02,5.09797e-02,8.38934e-03,7.05553e-02,3.12465e-02,7.22841e-02,3.80305e-02,7.78724e-02,9.96048e-02,6.70516e-02,5.18710e-02,7.72387e-02,9.94000e-02,1.02454e-01,1.61885e-01,1.39432e-01,1.59044e-02,-7.99739e-02,7.08024e-02,2.21064e-03,1.69792e-02,9.23878e-03,-5.70138e-02,1.19357e-01,1.14697e-01,1.02793e-01,7.59106e-02,1.14777e-01,3.94736e-02,1.20702e-01,6.34369e-02,1.07451e-01,1.16910e-01,5.10033e-02,9.56341e-02,8.64476e-02,1.18177e-01,1.48942e-01,1.11399e-01,5.50851e-02,8.98256e-02,1.03093e-01,1.25531e-01,-1.61915e-02,-3.84281e-02,-6.19369e-02,6.24907e-02,1.67625e-02,-8.63785e-03,3.15810e-02,-9.39569e-02,1.12692e-01,1.12379e-01,7.55441e-02,1.26966e-01,1.01741e-01,1.73478e-02,9.93406e-02,1.14115e-01,1.42271e-01,1.40706e-01,1.46675e-01,5.28071e-02,4.05133e-02,1.25344e-01,1.29180e-01,9.93429e-02,1.73984e-02,8.64973e-02,-2.66523e-02,6.67550e-02,-5.74233e-02,6.05454e-02,-1.26367e-01,-5.40770e-02,-4.32215e-03,-3.12100e-02,-1.20209e-02,-3.90296e-02,6.60893e-02,4.50203e-03,4.28630e-02,5.30278e-02,1.19039e-01,8.11902e-02,1.18344e-01,1.53040e-01,8.53959e-02,1.99519e-01,1.13707e-01,4.53051e-02,1.81262e-02,9.00861e-02,1.00042e-01,9.59543e-02,2.05025e-01,1.39382e-02,6.81573e-02,1.29152e-01,1.81026e-01,2.03361e-01,-2.82177e-02,-4.19019e-02,-1.82449e-02,2.21158e-02,-2.59227e-03,-2.92446e-02,-8.94623e-02,6.44894e-02,2.10018e-01,1.24027e-01,-2.94654e-02,-4.72588e-02,2.34058e-02,3.53972e-02,6.75398e-02,1.01324e-01,-3.90691e-03,-6.86574e-03,7.38328e-02,8.18703e-02,4.24797e-02,2.94793e-02,1.53387e-01,9.20682e-02,8.23768e-02,1.12757e-01,1.99707e-01,7.22923e-03,-7.71380e-02,-1.08864e-02,-9.02332e-03,-3.09551e-02,1.04950e-03,-1.41789e-02,-2.62166e-02,-2.69418e-02,-7.80797e-03,2.03843e-04,3.65057e-02,-5.68086e-02,-9.55354e-02,2.17522e-01,1.68668e-01,1.26512e-01,1.64163e-01,1.10271e-01,1.96574e-01,2.28660e-02,1.79254e-02,6.78966e-02,4.83902e-02,-2.79677e-02,6.44581e-02,1.09093e-01,1.66174e-02,-8.70770e-03,-1.16761e-02,1.44910e-02,-1.99952e-02,
9.30538e-03,1.22317e-02,1.44171e-02,3.37914e-03,-5.21904e-03,-2.58375e-02,-2.92446e-02,1.37211e-02,-2.74437e-02,2.33654e-02,1.25322e-02,1.95368e-02,2.46611e-02,6.33282e-05,8.13393e-03,2.50142e-02,2.22925e-02,-2.29569e-02,-2.19763e-02,-2.27285e-02,1.20282e-02,9.56484e-03,1.61925e-03,-1.26903e-02,-2.29553e-02,1.97335e-02,-1.56219e-02,-2.49518e-02,-4.49983e-03,2.42630e-02,2.26312e-02,2.05962e-02,2.60549e-02,-1.87907e-02,1.05183e-02,-7.17731e-03,3.04056e-02,-2.61875e-02,2.47250e-04,-3.68044e-02,2.10249e-02,-1.13830e-02,1.97802e-02,3.36594e-02,2.05493e-01,1.10589e-01,6.24130e-02,-2.24285e-02,1.85482e-02,-1.50153e-02,-1.51285e-02,-1.79444e-02,1.39063e-02,3.23467e-03,1.12175e-02,-1.05160e-02,5.49804e-03,-1.97474e-02,-1.95764e-02,2.58506e-02,3.01315e-02,-2.75577e-02,2.15502e-01,1.63091e-01,1.02781e-01,5.89743e-02,9.28164e-02,1.39745e-01,1.48170e-01,1.26954e-01,5.29942e-03,-7.76818e-02,1.11947e-01,-1.12740e-02,-8.87084e-02,-1.31463e-01,-1.08918e-01,9.78324e-02,-4.71425e-02,1.07300e-01,1.12750e-01,6.53293e-03,-3.04733e-03,7.44784e-03,-7.57975e-03,2.73675e-02,-3.67555e-02,-5.67727e-02,-6.48123e-02,1.46032e-01,2.10974e-01,1.09078e-01,1.16456e-01,9.30406e-02,9.53655e-02,8.21142e-02,1.82030e-02,5.94079e-02,-1.54801e-02,-7.59338e-02,-8.81944e-02,-9.04815e-02,-2.84356e-02,-1.20056e-01,-1.58556e-01,-9.50508e-03,-4.29187e-02,2.08970e-02,-8.13435e-02,-1.31586e-02,-3.42082e-02,1.02737e-02,-1.76687e-02,9.30607e-03,-8.87959e-02,-8.09363e-02,-1.47256e-03,1.77242e-01,1.07989e-01,-4.42478e-02,-3.42242e-02,6.50538e-03,3.78100e-02,4.11582e-02,7.08108e-02,1.08493e-01,9.10653e-02,1.14144e-02,-1.97451e-02,4.49007e-02,4.35406e-02,-2.62127e-02,-7.06127e-02,-2.26812e-02,1.86673e-02,-9.40536e-03,3.78686e-02,-8.56982e-04,-2.55854e-02,-3.04219e-02,-2.96166e-02,-2.33353e-02,1.54402e-01,9.71433e-02,1.55142e-01,1.26189e-01,-1.35727e-02,1.05905e-01,4.55664e-02,1.12383e-01,7.94819e-02,5.92396e-02,1.04662e-01,3.93086e-02,9.27380e-02,5.57757e-02,3.12430e-02,6.75599e-02,5.52642e-02,2.59183e-02,2.10958e-02,1.55599e-02,7.02698e-02,7.44779e-02,5.78321e-02,6.37410e-02,-1.07627e-02,1.08157e-02,4.73553e-03,-6.77677e-03,-5.49830e-02,1.27260e-01,1.95016e-01,1.75738e-01,7.05547e-02,1.41846e-02,5.75206e-02,1.20466e-01,1.12130e-01,9.27779e-02,-1.46284e-02,-1.03742e-01,1.05180e-02,5.21371e-02,7.24355e-02,2.56004e-02,6.83040e-02,-2.90474e-02,-1.05891e-02,3.16237e-02,8.11879e-02,7.64801e-02,6.08293e-02,1.46587e-01,-3.79788e-02,-2.13723e-02,-2.90324e-02,-7.51934e-02,1.47458e-02,1.78883e-02,9.35868e-02,1.05991e-01,4.35780e-02,9.09338e-02,1.38935e-01,1.26140e-01,3.56217e-02,1.14421e-01,1.15001e-01,3.77794e-02,-2.12736e-02,8.46637e-02,4.49018e-02,1.22990e-02,3.30092e-02,3.11842e-02,-1.44100e-01,7.17178e-03,9.96610e-02,7.98286e-02,-2.81366e-03,2.30998e-02,1.14058e-02,-5.72951e-02,9.85437e-03,-3.71446e-02,-7.55295e-02,-5.43027e-02,1.92524e-01,1.13227e-01,5.20845e-03,9.05308e-02,1.07787e-01,4.92244e-02,6.01267e-02,1.40901e-01,1.09895e-01,-1.66140e-02,5.26812e-02,3.09922e-02,7.44226e-02,3.81810e-02,-4.60073e-02,-1.13964e-03,-1.42964e-01,-8.29425e-02,7.21644e-02,1.26984e-01,-2.62531e-02,-8.79182e-02,-1.35500e-01,-5.15779e-02,-3.32048e-02,-3.90103e-02,-1.78056e-01,4.49910e-02,1.68728e-01,2.09881e-01,-2.34883e-02,5.22442e-03,-5.17838e-02,5.33303e-03,-2.27463e-02,-2.61027e-02,-6.09328e-02,-1.47263e-01,-1.51420e-01,-5.87044e-02,-1.91201e-02,-3.10625e-02,9.98771e-04,2.42597e-02,-1.99102e-02,-4.15066e-02,1.29011e-01,-4.84334e-02,-2.10412e-01,-1.86878e-01,1.00302e-02,-3.08798e-02,-1.26644e-03,-2.00920e-02,-4.70506e-02,6.87657e-02,2.20865e-02,4.58006e-02,1.24580e-02,-3.94441e-02,-6.18945e-02,-5.66205e-02,-1.06834e-01,-1.32375e-01,-1.70967e-01,-3.32852e-01,-1.84796e-01,-7.58726e-02,-4.29642e-02,-7.36446e-02,-7.35908e-02,1.04540e-01,8.98234e-02,7.83177e-02,-3.80444e-02,-6.29520e-02,-3.36101e-02,-3.81579e-02,3.29152e-02,-2.15835e-02,3.31677e-02,-6.67474e-02,-3.88238e-02,-1.28744e-02,-1.07799e-01,-4.53464e-02,-9.47591e-02,-1.80354e-01,-1.41341e-01,-2.56871e-01,-2.34586e-01,-2.40070e-01,-2.86798e-01,-3.37937e-01,-1.29581e-01,-6.94442e-02,7.46721e-04,-1.13869e-01,-8.46754e-02,1.56136e-01,8.62116e-02,5.40810e-02,-2.26698e-02,8.82141e-02,1.54928e-02,-4.44872e-02,1.24614e-01,4.49042e-03,1.52314e-02,-3.33204e-02,1.49602e-03,5.48979e-02,-2.21747e-01,-1.50079e-01,-1.43792e-01,-2.12007e-01,-2.06789e-01,-3.64142e-01,-3.93827e-01,-3.82179e-01,-3.00691e-01,-1.52739e-01,-2.57003e-02,-1.44003e-01,-3.77345e-02,-7.21014e-02,-8.43951e-02,2.38071e-02,7.87644e-02,-7.45807e-03,-8.76255e-03,1.40273e-01,1.05039e-01,7.70489e-02,-1.41413e-03,-1.15652e-02,2.33589e-03,1.32485e-02,-4.61835e-02,-1.61078e-02,-2.56361e-01,-3.25278e-01,-3.16390e-01,-3.05148e-01,-3.09800e-01,-3.43198e-01,-2.33599e-01,-2.30703e-01,-1.73308e-01,9.32117e-04,-6.43948e-02,-1.46871e-01,-1.53788e-01,-8.39312e-02,-1.15412e-01,-2.89440e-03,4.54027e-02,2.35093e-02,7.19097e-02,7.76915e-03,6.87216e-02,1.58993e-01,1.41315e-01,1.82196e-01,-1.13608e-02,-5.74456e-02,-3.39981e-02,5.17607e-02,-2.66647e-01,-2.12831e-01,-2.56440e-01,-2.24171e-01,-2.82630e-01,-1.59868e-01,2.10646e-02,1.71877e-02,-4.22130e-02,6.18965e-02,-3.61371e-02,-1.52697e-01,-1.54036e-01,-1.04514e-01,-4.44844e-02,4.06061e-02,8.76368e-02,5.44227e-02,6.70460e-02,-5.87297e-03,-6.85393e-02,-1.21973e-01,1.93169e-01,1.70180e-01,1.74012e-03,-2.27279e-02,-1.70434e-01,-2.02334e-02,-2.62711e-01,-1.44092e-02,-9.80144e-02,-6.68592e-02,-1.11000e-02,-3.97747e-02,-1.92578e-03,6.72903e-02,4.24779e-02,8.55398e-02,5.61682e-02,-1.28279e-01,-1.34752e-01,-2.15845e-01,-7.13962e-02,5.92132e-02,6.60459e-02,4.43043e-02,-1.40318e-02,-9.85259e-02,3.71960e-02,-1.53477e-01,1.33533e-01,8.83367e-02,-3.50951e-02,-5.78749e-03,6.88430e-02,-1.24098e-01,-2.30681e-01,-4.16346e-02,-8.94298e-02,2.18108e-02,2.28521e-02,-8.01203e-02,-4.65469e-02,5.19424e-03,7.37959e-02,1.25445e-01,1.80768e-02,-1.33223e-01,-9.71510e-02,-7.55030e-02,-9.43472e-03,4.99400e-03,-2.16437e-03,-1.19910e-01,-1.72804e-01,-1.25064e-01,-9.19083e-02,-2.31150e-01,-1.08455e-01,8.14531e-02,2.74559e-02,-3.06705e-02,7.20435e-03,-1.64167e-01,-1.39374e-01,-1.21485e-01,-8.58129e-02,7.22078e-02,-3.94329e-02,-5.35766e-02,2.24650e-03,2.44938e-02,5.03218e-02,5.09785e-02,-4.69095e-02,-3.63881e-02,-1.96139e-02,4.20384e-02,1.17437e-02,-4.30884e-02,-1.01264e-01,-2.18018e-01,-2.42162e-01,-2.78033e-01,-1.72399e-01,-1.78148e-01,1.78043e-03,-1.10475e-02,-2.12425e-02,-5.60071e-03,-2.18476e-01,-1.48416e-01,-8.47078e-02,-1.00489e-01,-2.71262e-02,8.96932e-02,2.86694e-02,-4.05944e-02,-9.45843e-03,3.98485e-02,1.04203e-01,-3.22318e-03,-5.74179e-02,-4.37134e-02,3.03091e-03,-3.28174e-02,-1.81752e-01,-1.13913e-01,-1.17223e-01,-1.06248e-01,-1.49367e-01,-1.78383e-01,-1.29465e-01,-1.69128e-01,-6.97418e-02,1.84368e-02,-1.93573e-02,1.07785e-02,7.59622e-02,-1.01522e-01,-5.94775e-02,-6.98413e-02,-1.93735e-02,-1.25972e-02,4.54412e-02,-1.04558e-02,-1.77277e-02,3.31106e-02,1.01454e-01,1.40417e-01,8.02858e-03,2.61354e-02,5.80923e-02,-1.64621e-03,-1.06858e-01,-8.64688e-02,-6.00396e-02,-1.06162e-01,-1.42738e-01,-9.30299e-02,-1.20319e-01,-1.61409e-01,1.42680e-01,3.13745e-03,3.01495e-02,1.33670e-02,9.30174e-02,-5.80074e-03,2.27296e-03,-8.47801e-02,-5.54977e-02,8.41732e-02,1.64944e-01,4.03458e-02,5.24990e-02,8.86879e-02,1.24998e-01,5.30907e-02,4.33395e-02,5.73404e-02,7.95635e-02,1.18648e-01,-1.16452e-03,1.58816e-03,3.20890e-02,-7.34372e-02,-6.38874e-03,-5.19981e-03,-1.06002e-01,-3.59376e-01,-1.18913e-03,-3.31658e-02,1.38265e-02,1.14743e-03,-1.10782e-02,1.39769e-01,3.49965e-02,-2.78944e-02,3.24953e-02,4.38992e-02,8.02690e-02,4.70259e-02,-2.04364e-02,6.01656e-02,2.45520e-02,1.95912e-02,4.87260e-02,8.71564e-02,1.52067e-01,1.43793e-01,1.13143e-01,1.29487e-01,1.27839e-01,1.28838e-01,6.26421e-02,1.47051e-01,8.89439e-02,-1.20362e-01,3.36260e-02,-8.67229e-03,1.43368e-02,-1.75599e-02,3.90430e-02,8.91017e-02,9.96568e-02,5.72586e-02,9.56284e-02,8.62063e-02,1.07205e-01,8.40126e-02,1.07145e-02,-1.62029e-02,-5.09188e-02,-1.94549e-02,1.89172e-02,7.73116e-02,1.03462e-01,1.58142e-01,1.33955e-01,1.32678e-01,8.16595e-02,9.24814e-02,4.69205e-02,7.46055e-02,1.59964e-01,5.95197e-02,9.73327e-02,-1.73442e-02,-3.17893e-02,1.15980e-02,3.67731e-02,1.05709e-01,8.44947e-02,1.43099e-01,1.68021e-01,7.89399e-02,4.41745e-02,5.73236e-02,6.80751e-03,-9.81738e-02,-3.92009e-02,5.54355e-02,6.47356e-02,2.53392e-02,1.03312e-01,4.95161e-02,7.31339e-02,9.10957e-02,9.78159e-02,7.01675e-02,5.37382e-02,1.69980e-01,9.08846e-02,1.54932e-01,-6.26394e-02,-3.08765e-02,1.49271e-02,1.74447e-02,8.15911e-02,1.62035e-02,-3.00809e-02,3.29326e-02,5.97516e-02,-2.02009e-02,6.81042e-03,7.91276e-03,1.47886e-02,-7.44297e-02,-1.84166e-02,-1.57374e-02,3.58702e-03,4.53842e-02,8.00462e-02,9.51329e-02,9.72405e-02,7.88166e-02,3.54749e-02,9.43406e-02,1.62407e-01,1.78931e-01,1.81051e-01,1.13481e-01,2.13724e-02,-3.06378e-02,3.23833e-02,1.85529e-02,-1.29414e-01,-2.47571e-01,-5.83644e-02,-2.59312e-02,2.29394e-02,5.27340e-02,1.20058e-01,1.01387e-01,3.78157e-02,-4.50709e-03,1.39733e-01,8.36993e-02,-1.31908e-02,-1.69510e-02,-3.50596e-02,8.89865e-03,-2.82274e-01,-2.43813e-01,-1.81106e-01,-5.19488e-02,4.90816e-02,9.57287e-03,-6.69857e-02,-1.55706e-02,2.42990e-02,-1.63470e-02,-1.93605e-02,-3.50905e-02,1.97681e-02,3.06662e-02,-1.53130e-02,7.90096e-02,1.41427e-01,2.01896e-01,1.07741e-01,7.41800e-02,1.54267e-01,1.26547e-01,2.18546e-02,-3.52538e-02,1.01883e-01,3.32034e-01,2.37246e-01,1.67060e-01,6.17007e-02,4.94577e-02,7.79354e-02,8.89442e-02,8.37557e-02,1.15400e-02,1.52530e-02,2.62103e-02,-2.02995e-02,-9.66965e-03,2.00910e-02,2.28785e-02,2.48887e-02,2.98017e-02,-1.09388e-02,-3.20146e-02,-3.22565e-02,8.82818e-03,6.79565e-02,1.26540e-01,1.73298e-01,1.69743e-01,2.59039e-01,2.04060e-02,-2.17515e-02,-3.49780e-03,4.05184e-02,8.62918e-02,-5.90669e-03,-4.81121e-02,-5.00442e-02,-2.88041e-02,3.77838e-02,-1.24410e-02,1.29685e-02,2.17659e-02,2.07049e-02,1.48453e-02,
7.28904e-03,1.64647e-02,-4.67159e-03,-1.01331e-02,-1.91236e-02,3.46776e-02,3.41150e-02,1.18762e-02,-2.18370e-02,8.00630e-03,3.56740e-02,-1.21447e-02,2.42617e-02,2.74347e-02,-1.69395e-02,2.73971e-02,-2.23780e-02,-4.74406e-03,-3.39488e-02,8.07296e-03,-3.49666e-02,-1.35664e-02,-3.42821e-02,2.61311e-02,-2.40283e-02,-1.15689e-02,-5.97086e-03,-1.20428e-02,2.53452e-02,3.27611e-02,-4.55537e-03,3.25160e-02,-3.20695e-02,-2.99199e-02,6.17691e-03,1.93651e-02,1.81105e-02,2.66183e-02,-3.74061e-02,1.79791e-03,-4.89622e-02,-5.00161e-02,2.92701e-02,4.55849e-02,7.03796e-02,7.25846e-03,5.96311e-03,-2.24501e-02,-2.36428e-02,2.73771e-02,1.93825e-02,-8.61830e-03,-2.59780e-02,-1.52844e-02,-3.55438e-02,-4.64187e-03,2.15536e-02,3.38209e-03,8.72718e-03,-5.29777e-03,-3.54838e-02,-9.54256e-03,4.73536e-03,-1.06687e-02,7.40334e-03,8.00389e-03,-7.93665e-02,-6.11015e-02,-4.97389e-02,-4.44611e-02,-9.59595e-02,-7.37985e-02,-3.11494e-02,-6.02119e-02,-4.79231e-02,-1.56630e-02,-6.32520e-02,-9.54312e-03,-4.91321e-02,-5.10756e-02,-5.56108e-03,-1.04983e-02,-3.52706e-02,2.53133e-02,-3.46855e-02,7.78201e-03,1.06729e-02,-5.57947e-03,1.96010e-02,-3.41594e-02,-5.32991e-02,-9.84890e-03,-2.67602e-02,-5.39726e-02,-2.07962e-02,-4.74829e-02,-6.90684e-02,-9.00663e-02,-8.18347e-02,-1.23321e-01,-1.26517e-01,-8.92905e-02,1.01938e-01,1.45119e-01,6.36484e-02,-8.25084e-02,-2.37969e-02,9.00892e-02,-1.76368e-02,-4.33378e-02,-3.68380e-02,1.38380e-03,5.15626e-03,-1.16439e-02,5.31204e-02,3.06560e-02,1.62158e-01,3.44667e-03,-7.69155e-03,3.68344e-03,-7.45241e-03,-7.39637e-02,-1.04743e-01,-7.54769e-02,-6.77807e-02,-4.76905e-02,-6.25644e-02,-1.33457e-01,-4.20473e-02,-1.38663e-01,-1.14147e-01,-1.05143e-02,6.78102e-02,9.71007e-02,1.28771e-01,-1.48037e-02,-8.33962e-02,-2.02343e-01,-9.22801e-02,-1.12994e-01,3.03605e-02,-2.45366e-02,3.71048e-02,1.88571e-01,1.25759e-01,1.54503e-01,1.25308e-02,6.85557e-02,-7.19146e-02,3.56261e-02,2.11937e-02,2.83731e-02,2.64993e-02,-3.50421e-02,-7.15900e-02,-9.87020e-02,-1.16440e-01,-1.80516e-01,-8.85623e-02,-5.36743e-02,1.13871e-02,1.13661e-01,1.57533e-01,5.22192e-02,-1.78878e-03,-1.87825e-01,-1.29998e-01,-7.96094e-02,-8.71871e-03,2.27229e-02,2.09936e-02,6.25976e-02,1.02692e-01,1.25903e-02,8.29345e-04,9.38402e-04,-1.65302e-01,-9.08269e-02,-1.64508e-01,-1.46245e-01,-6.46185e-02,-8.73556e-02,-1.35476e-01,-1.43268e-01,-1.14924e-01,-1.07930e-01,-1.43487e-02,1.63194e-02,3.45573e-02,1.26869e-01,6.75618e-02,-6.68500e-03,-3.74153e-02,-1.85866e-01,3.45140e-02,-4.56486e-02,3.17711e-02,7.39348e-03,3.68231e-02,6.16387e-03,-3.38980e-02,-5.27426e-02,-2.63315e-02,-4.12308e-02,-9.54074e-02,-4.46280e-02,-1.41412e-01,-1.86134e-01,-2.12110e-01,-1.31239e-01,-1.42022e-01,-1.55243e-01,-1.21245e-01,-5.46407e-02,-8.01322e-03,2.13363e-02,1.07563e-01,7.34480e-02,7.50012e-02,1.58730e-02,-2.50613e-02,2.93543e-02,-9.46362e-02,-2.19625e-02,-2.63272e-02,-1.01972e-02,9.43810e-02,1.38344e-02,3.39462e-03,-1.27497e-02,-3.08048e-02,-3.13489e-02,-3.41737e-03,-5.80241e-02,-1.26571e-01,-1.81074e-01,-1.18160e-01,-5.43138e-02,-1.09401e-01,-1.27061e-01,-1.05401e-01,-7.77574e-03,1.86953e-02,3.08059e-02,9.67920e-02,5.89198e-02,2.64270e-02,-6.32408e-02,-6.87049e-02,-1.47101e-02,-1.46640e-01,-1.56065e-02,2.26282e-02,2.55845e-01,1.89329e-02,-2.04441e-02,-4.89727e-02,1.17068e-02,-6.20096e-02,2.70231e-02,2.44885e-02,-4.59162e-02,-1.60176e-01,-8.47415e-02,-2.16211e-02,-8.93381e-02,-6.01760e-02,-6.94028e-02,2.41578e-02,2.75256e-02,2.99539e-02,-5.34268e-03,1.02691e-02,6.84416e-02,5.85669e-02,-3.37635e-02,-5.60645e-02,-1.62173e-01,-5.38937e-02,3.73525e-02,1.47124e-02,2.15259e-01,-1.42115e-03,2.14027e-02,-5.12916e-02,-5.19954e-02,-7.44036e-02,-3.59867e-02,-5.94703e-02,-3.90006e-02,-9.70603e-03,-1.40881e-02,3.66877e-04,-8.21740e-02,-1.37015e-02,5.38112e-02,7.44869e-02,5.32041e-02,5.98680e-02,1.94209e-02,3.18208e-02,6.06196e-02,-7.00444e-02,-6.94582e-02,-1.68775e-01,-3.88774e-02,-9.18328e-02,2.07228e-02,-7.26781e-03,2.74735e-02,9.33470e-02,-9.03340e-02,8.67739e-02,-1.93375e-02,-1.20892e-01,-1.43701e-01,-7.90743e-02,-3.80979e-02,-5.38983e-02,4.66068e-03,-4.29652e-02,-8.61611e-02,3.92571e-02,4.40236e-02,6.94878e-02,3.03480e-02,7.23552e-02,5.67616e-02,1.57185e-02,-3.97230e-04,-5.28733e-02,-2.10607e-02,-3.82514e-02,6.39540e-02,5.88097e-02,2.61852e-02,-3.11512e-02,-2.57913e-03,3.40808e-03,3.51025e-02,6.78830e-02,-7.16930e-02,-5.90602e-02,-7.39955e-02,-2.67030e-02,-7.36777e-03,7.85469e-02,-7.13753e-02,-1.52233e-01,-1.26664e-01,3.35693e-02,1.63230e-02,6.16971e-02,2.14931e-02,2.22621e-02,1.84161e-03,-1.02977e-01,5.17534e-02,-5.52591e-02,4.84227e-02,3.00441e-02,2.90557e-02,-2.60199e-02,1.45501e-02,2.14771e-02,3.00583e-02,4.90995e-02,1.77224e-01,7.73332e-03,-6.69807e-02,-6.96370e-02,1.83301e-01,3.36723e-02,5.53031e-02,6.25259e-04,-1.41367e-01,-1.15439e-01,-1.53493e-02,4.48251e-02,2.46887e-02,1.93021e-02,1.30198e-02,-2.80178e-02,8.34431e-03,-6.19702e-02,9.11501e-02,-4.49387e-04,-7.29271e-02,-8.08664e-02,7.73393e-03,1.36803e-02,-1.72254e-02,-7.13146e-03,1.61390e-02,1.82845e-01,1.88473e-01,3.98252e-02,-9.50667e-02,-6.08427e-02,1.27791e-01,-1.23878e-02,2.70691e-02,-3.11468e-02,-8.46931e-02,-5.09234e-02,2.56092e-02,5.08079e-02,-2.54131e-02,-1.54754e-03,-6.01271e-02,-4.69794e-02,-5.72457e-02,-1.74295e-01,-4.43063e-02,-8.39693e-02,-8.56344e-02,-3.55336e-02,-5.89915e-02,-6.84430e-02,2.19386e-02,-3.15424e-03,-1.22398e-02,2.39180e-01,1.58179e-01,3.20559e-02,-9.09294e-02,-6.54162e-02,-5.59675e-02,-1.24690e-01,-7.94653e-02,4.19064e-02,1.16641e-02,2.90584e-02,5.09765e-02,4.72616e-02,1.28544e-02,-9.82501e-03,9.86300e-03,-5.65956e-03,-1.15049e-01,-8.51395e-02,2.96309e-02,7.69022e-02,1.61426e-02,-1.23157e-01,-5.89744e-02,-1.36491e-01,2.89706e-02,-2.22068e-02,3.35106e-02,2.33553e-01,9.42544e-04,-4.71330e-02,-4.23218e-02,-1.45673e-01,-1.24817e-01,-5.08018e-02,2.33016e-02,-3.16001e-02,3.29414e-02,4.16142e-02,3.10051e-02,6.25618e-02,-2.36546e-02,1.17292e-02,-2.93558e-02,-2.53916e-04,5.48566e-02,-4.37293e-03,6.21216e-02,-6.48936e-02,-8.58040e-02,-1.43240e-01,-8.78293e-02,-3.39734e-02,-2.86953e-03,-3.01391e-02,4.64945e-02,-2.18811e-02,-3.37538e-02,-3.45940e-02,-1.26023e-01,-1.63995e-01,-8.26531e-02,5.41882e-02,9.17578e-02,2.72285e-02,8.33846e-02,4.56017e-02,-2.23204e-02,1.85163e-02,-5.25433e-02,-6.13621e-02,-1.16589e-01,-1.46412e-01,-1.25792e-01,-1.05702e-01,-2.74449e-03,-1.04074e-01,-1.10733e-01,-1.25547e-01,-7.19411e-02,-3.99656e-02,4.26162e-02,2.72754e-02,6.31255e-02,5.13044e-04,-6.52484e-02,-1.04674e-01,-1.36281e-01,-2.32222e-01,-7.83531e-02,5.76526e-02,4.66935e-02,2.43912e-02,1.60548e-02,-2.53097e-02,-3.73720e-02,-9.15796e-02,-1.64632e-01,-1.56127e-01,-1.72927e-01,-1.16846e-01,-1.82323e-01,-1.50390e-01,-1.39047e-03,-5.22571e-02,-3.32551e-02,-4.44043e-02,6.54117e-03,-1.93987e-02,3.01787e-02,5.53188e-02,1.69434e-02,-1.31291e-02,-1.49290e-01,-1.82547e-01,-2.53886e-01,-1.02979e-01,-3.28884e-02,7.08285e-02,8.93647e-03,-2.10118e-02,-3.98596e-02,-6.23049e-02,-7.91419e-02,-1.44348e-01,-1.12291e-01,-1.58355e-01,-2.08941e-01,-1.08059e-01,-1.16797e-01,-1.03538e-01,3.15941e-02,-6.60504e-02,7.96193e-03,1.74034e-02,-3.22686e-02,4.59454e-02,2.64903e-02,-2.31622e-02,-3.13844e-02,4.02306e-02,-6.95891e-02,-8.07566e-02,-1.92941e-01,7.60776e-02,1.40602e-01,1.55940e-01,3.78387e-03,-9.38032e-02,-1.28404e-01,-1.69266e-01,-1.60371e-01,-9.49464e-02,-1.40991e-01,-6.79680e-02,-1.50959e-01,-2.05736e-01,-1.91345e-01,-1.46669e-01,-1.41400e-01,-6.79615e-02,-1.50826e-02,2.70524e-03,4.41444e-03,7.94986e-03,-2.79540e-02,3.21800e-02,2.01636e-02,1.08372e-01,-2.67772e-02,1.14525e-01,1.98130e-01,2.02734e-01,2.03601e-01,1.25247e-01,-2.37425e-02,-3.18699e-02,-1.11698e-01,-1.25075e-01,-1.23797e-01,-9.51139e-02,-1.68944e-02,-2.00294e-03,-2.08951e-04,-1.08720e-01,-1.91515e-01,-1.95299e-01,-1.15321e-01,-4.60947e-02,-3.54079e-02,6.05345e-02,4.52792e-02,6.16424e-02,-2.93824e-02,8.78891e-03,4.66258e-02,1.37685e-01,-4.89640e-02,7.31557e-03,2.63407e-01,2.54503e-01,2.09914e-01,1.72013e-01,1.07265e-02,-5.40026e-02,-1.39812e-01,-1.63319e-01,-1.25342e-01,-4.02505e-02,-1.75282e-02,1.13661e-01,3.12774e-02,-8.96861e-02,-8.72472e-02,-6.16975e-02,-1.01226e-01,-6.55372e-02,3.04253e-02,-2.53595e-02,2.23744e-02,4.22777e-02,1.36856e-02,-2.41860e-02,6.16456e-03,4.53026e-02,-1.26537e-01,-6.73682e-02,2.28228e-01,2.22302e-01,2.27107e-01,1.27014e-01,3.90238e-02,-1.88207e-02,-5.03377e-02,-7.83067e-02,-9.90173e-02,-2.82172e-02,1.54116e-03,1.17512e-01,2.93346e-03,-6.75262e-02,-2.28374e-02,-4.88209e-02,-8.41209e-02,7.98828e-02,6.68550e-02,1.55457e-01,2.79565e-02,2.29309e-02,-9.24958e-03,-2.41314e-05,-1.10166e-02,-1.64780e-02,-1.15662e-01,-5.35871e-02,-2.45776e-02,4.57616e-02,6.49315e-02,-2.01961e-02,-1.37860e-02,-6.02932e-02,-7.99909e-02,-1.17862e-01,-1.13906e-01,-5.57092e-02,-4.61958e-03,5.64026e-02,1.85545e-02,-6.52946e-02,-1.38507e-01,3.35705e-02,8.79446e-02,7.49493e-02,1.47022e-01,1.45136e-01,9.62638e-03,4.88541e-03,3.61681e-03,2.73649e-02,-1.67052e-02,2.48044e-02,-1.09437e-02,-1.00613e-01,-5.36175e-02,-4.15927e-02,1.46578e-02,-1.17811e-01,-3.67797e-02,-5.43909e-02,-5.69308e-02,-1.46830e-02,-5.85490e-02,-1.03306e-01,-5.79091e-02,-6.12754e-02,-4.33255e-02,-1.22276e-01,-1.05295e-01,2.82334e-03,1.22256e-01,9.14276e-02,-6.17891e-02,-5.59067e-02,-2.97056e-02,-1.64671e-02,-1.65291e-03,-3.28172e-02,1.87187e-02,1.69759e-02,5.63082e-02,1.58919e-03,1.43028e-01,7.77225e-02,1.04624e-02,-5.39073e-02,-1.33105e-01,1.23099e-02,1.28520e-02,-3.59384e-02,-5.85542e-03,-1.98909e-02,-4.13338e-03,-5.35788e-02,-6.62429e-02,-1.06636e-01,-1.13390e-01,1.85192e-02,1.14374e-01,1.35907e-01,6.73552e-02,2.64520e-02,-1.39438e-02,-1.68987e-02,1.78436e-02,-7.97464e-03,3.13710e-02,2.76949e-02,-2.61928e-02,-1.20380e-02,9.75787e-03,2.60847e-02,-8.84716e-03,2.27704e-02,-2.77287e-02,6.21144e-02,6.07149e-02,1.14009e-02,-1.79987e-02,1.05583e-02,-2.26930e-02,2.83096e-02,-1.07119e-01,-1.23254e-01,-1.36079e-01,5.75367e-03,-1.05448e-02,1.38266e-02,-2.18153e-02,-1.35804e-02,-2.81495e-02,1.92298e-02,1.41874e-02,
-2.57110e-03,-2.21801e-02,1.45865e-02,1.59002e-02,2.04060e-03,-1.15235e-02,6.20702e-04,1.93974e-02,2.34316e-02,9.84494e-04,8.30314e-03,-1.64283e-03,-3.01115e-02,-3.73221e-02,-1.69689e-02,-4.18331e-02,-2.01003e-02,1.95005e-02,-2.93493e-02,3.08343e-02,-2.12320e-02,-3.14088e-02,-7.04131e-03,-2.35289e-02,-2.45673e-02,-3.15143e-02,-3.28644e-02,-2.14864e-02,-2.64935e-02,7.35082e-03,-3.32630e-03,2.26215e-03,6.99141e-04,1.20099e-02,3.51876e-03,-2.81065e-02,2.74341e-02,4.00207e-02,1.10309e-02,8.18076e-02,5.78037e-03,5.43993e-03,1.31165e-01,1.21378e-01,1.79325e-01,2.03975e-01,1.72848e-02,2.41122e-02,1.97411e-02,-1.57076e-02,1.24320e-03,2.24616e-02,-2.24634e-02,1.69045e-02,-1.78921e-03,3.13487e-02,-2.36366e-02,1.64243e-02,1.38965e-02,-8.79538e-03,2.76893e-02,9.09269e-02,7.53112e-02,-4.09859e-02,1.96305e-03,1.77410e-03,5.08317e-02,-3.87067e-02,7.56007e-02,-4.20847e-02,-7.33086e-02,4.00900e-02,-7.79455e-02,-1.99586e-01,-3.44550e-02,-1.77633e-02,-5.36299e-02,-1.81775e-01,-8.18919e-02,5.64523e-02,1.41754e-01,1.73990e-01,-3.19525e-02,-2.83924e-02,-3.40292e-02,3.01403e-02,-1.13837e-01,-1.89758e-02,-1.94666e-02,3.34945e-02,5.41667e-02,1.49599e-01,2.48001e-01,1.45120e-01,-1.24860e-03,6.06728e-02,1.13902e-01,8.95074e-02,4.35390e-02,4.42300e-02,-9.27374e-02,-1.06622e-01,-7.09514e-02,-1.51986e-01,-8.78827e-02,-8.12769e-02,-1.78224e-01,-1.62669e-01,-9.17762e-02,-2.16824e-02,3.60602e-02,-2.62540e-03,3.37947e-02,3.10652e-03,-7.97001e-02,1.24346e-01,-7.75363e-03,3.44182e-02,9.95263e-02,1.29035e-01,9.34375e-02,5.66984e-02,9.56776e-02,1.00359e-01,9.50193e-02,6.20542e-02,5.02281e-02,1.42867e-01,-2.11953e-03,-2.24260e-03,-4.12153e-03,-5.10941e-02,-1.37593e-01,-9.26559e-02,-1.74712e-01,-1.45585e-01,-3.02217e-02,1.13178e-01,1.54730e-01,9.62873e-02,-1.73942e-02,1.94179e-02,-3.76465e-02,2.27882e-02,3.14317e-02,1.06428e-01,1.03962e-01,7.17286e-02,1.64929e-02,-1.13013e-02,5.00647e-02,1.05700e-01,1.12092e-01,1.19615e-01,2.69736e-02,8.47149e-02,5.74779e-02,3.22536e-02,2.98950e-02,2.92117e-02,1.44370e-03,-4.51361e-02,-6.39013e-02,-1.10366e-01,-6.62875e-02,1.25000e-01,1.90744e-01,8.22388e-02,-2.91145e-02,3.04888e-02,6.99246e-02,1.63547e-01,2.04619e-01,5.71619e-02,1.40035e-01,9.21922e-02,3.36032e-02,8.81070e-02,1.08761e-01,9.40162e-02,1.23265e-01,5.09944e-02,3.51847e-02,5.24917e-02,6.31658e-02,5.61773e-02,1.02249e-01,2.49961e-02,4.25895e-02,4.98416e-02,1.56444e-02,2.32048e-02,1.18177e-01,2.25954e-01,3.26602e-01,2.34772e-01,-6.99846e-02,-7.07223e-03,4.91780e-02,1.28642e-01,8.97258e-02,1.01882e-01,1.49507e-01,4.02301e-02,1.09624e-01,5.44754e-02,2.37392e-02,4.95927e-02,5.10754e-02,5.96976e-02,7.19787e-02,5.63907e-02,9.34975e-02,1.50826e-01,1.43343e-01,5.78631e-02,7.52589e-02,6.49507e-02,2.63322e-03,2.40281e-02,1.17373e-01,2.39428e-01,2.48706e-01,2.56603e-01,1.71159e-01,-1.47498e-01,4.25360e-02,5.74224e-02,7.84164e-02,1.31273e-01,1.64820e-01,7.59321e-02,5.23392e-02,-2.84894e-04,5.29912e-02,1.91257e-02,4.88031e-02,5.07245e-02,1.05233e-01,1.22470e-01,1.39234e-01,1.10632e-01,1.55334e-01,1.00115e-01,6.58367e-02,3.37984e-02,8.29847e-02,6.85102e-02,2.11377e-01,3.32278e-01,3.71269e-01,2.79676e-01,-1.20021e-01,-9.12555e-02,1.02432e-01,6.23285e-02,5.03521e-02,1.20796e-01,1.15211e-01,4.16264e-02,8.79654e-02,1.11498e-02,-2.07379e-02,1.15669e-02,1.74488e-02,1.00365e-01,1.55733e-01,1.56009e-01,1.40819e-01,1.21834e-01,1.64569e-01,9.37616e-02,5.28849e-02,3.38896e-02,1.54382e-02,1.21791e-01,2.93286e-01,4.00453e-01,3.90504e-01,9.20669e-02,-1.34512e-01,-1.32179e-01,-6.28542e-02,1.07672e-01,2.77317e-02,-2.63525e-03,1.95733e-02,-5.26974e-02,-1.03067e-02,-1.36838e-02,9.00041e-03,3.02353e-02,4.49964e-02,9.93768e-02,2.13008e-01,2.16974e-01,1.53074e-01,5.71291e-02,9.77116e-02,4.10312e-02,-2.26581e-03,-6.81012e-02,-2.21583e-02,1.12180e-01,2.95520e-01,4.40852e-01,3.90669e-01,3.35203e-02,-2.61744e-02,-1.09197e-01,-2.03079e-02,5.14235e-02,-2.50950e-02,-5.46443e-02,-7.28215e-02,-1.19961e-01,-7.52699e-02,-3.35340e-02,2.26378e-02,5.47746e-02,7.80243e-02,9.29788e-02,6.95010e-02,1.56218e-01,6.55481e-02,1.82989e-02,3.96281e-02,-1.42279e-02,-1.28546e-01,-7.80044e-02,-1.07609e-01,5.57482e-03,2.26591e-01,4.13362e-01,3.63490e-01,-5.84020e-02,-8.90995e-02,-1.06718e-01,-2.85964e-02,1.90239e-02,-1.33753e-01,-5.49678e-03,-2.42813e-02,-1.01815e-01,-4.32800e-02,6.01390e-02,6.38202e-02,4.76636e-02,5.06284e-02,6.12593e-02,8.58358e-02,1.12718e-01,1.96176e-02,7.81652e-03,-2.73644e-02,-7.77014e-02,-6.66591e-02,-4.25329e-02,-1.03348e-01,-1.49352e-02,-1.22836e-02,4.50353e-02,2.84704e-01,3.38050e-02,-1.44458e-02,-8.05056e-02,-5.53993e-02,1.10019e-02,-1.64676e-01,2.62761e-02,-1.26205e-02,-1.21098e-02,5.84321e-02,3.31552e-02,1.50460e-03,4.53347e-02,-2.16080e-03,1.42853e-02,4.08588e-02,3.49589e-02,4.52339e-03,-3.57908e-02,-4.21891e-02,-1.24828e-01,-7.75988e-03,-7.18148e-02,-6.11109e-02,-7.80174e-02,2.43679e-02,3.93092e-02,1.77864e-01,4.08872e-02,-7.26932e-03,6.33272e-02,-1.58833e-01,-1.83526e-01,-1.24520e-01,-2.64930e-02,-1.59891e-01,2.18371e-02,-1.29433e-02,-4.94443e-02,-5.90783e-02,-5.06871e-02,-5.93038e-04,4.63289e-02,7.18771e-02,-2.75241e-03,4.55536e-02,-3.63137e-02,-8.16549e-02,-9.37077e-02,-5.19713e-02,-9.38407e-02,-1.16065e-01,-3.00807e-02,-7.41838e-02,-1.16690e-01,3.23196e-01,6.88818e-03,-2.30042e-02,1.33897e-01,8.46548e-03,-1.18211e-01,-2.62129e-02,-3.13847e-02,-7.57741e-02,-5.73143e-02,-6.01934e-02,-7.99102e-02,-1.10003e-01,-1.15310e-01,1.82926e-02,-3.41571e-02,6.87719e-03,-2.62180e-02,-2.03903e-02,-1.08666e-01,-1.28985e-01,-4.54183e-02,-4.82080e-02,-1.04178e-01,-5.72387e-02,-4.67577e-02,-6.07871e-02,-1.22928e-01,3.30734e-01,1.75608e-02,-1.31445e-01,2.26348e-01,1.26369e-01,1.07424e-01,5.75537e-02,-4.21577e-02,-4.87122e-02,-1.60584e-01,-1.63533e-01,-1.79808e-01,-1.18404e-01,-1.13421e-01,-3.93857e-02,-1.10625e-02,-4.11359e-02,-8.13209e-02,-1.02495e-01,-1.93435e-01,-1.48387e-01,-6.48902e-02,-7.29750e-02,-1.01650e-01,-5.02284e-02,1.30565e-02,3.77779e-02,-1.09321e-01,1.50447e-02,5.68459e-02,-1.79601e-02,1.34992e-01,1.40461e-01,2.58899e-01,8.39667e-02,4.05076e-02,-4.04817e-02,-1.56985e-01,-2.77929e-01,-2.03058e-01,-1.90664e-01,-1.34521e-01,-3.15819e-02,-9.67219e-02,-1.23387e-01,-1.10501e-01,-6.42918e-02,-9.33284e-02,-1.48937e-01,1.00805e-02,-7.08677e-02,-8.64364e-02,-2.96451e-02,6.34930e-02,1.04919e-01,-4.12100e-02,5.46396e-02,7.21236e-02,-1.65314e-01,-1.95784e-02,1.76811e-01,2.00966e-01,8.93594e-02,1.03703e-01,7.04857e-02,-3.25772e-02,-1.05371e-01,-1.64592e-01,-1.81696e-01,-4.20895e-02,-1.22477e-02,-3.02193e-02,-3.63853e-02,-4.05141e-02,-1.83299e-02,-3.48914e-02,-7.96742e-03,-4.93422e-02,-4.64196e-02,-3.01999e-02,3.11195e-02,5.98019e-02,1.03540e-01,-5.29414e-03,-6.12842e-03,-1.17503e-01,-2.81901e-02,-1.09945e-01,-1.91347e-02,1.02876e-01,4.51235e-02,1.58455e-01,1.34422e-01,3.30459e-02,-9.69353e-03,4.21183e-02,7.01240e-02,2.36155e-02,4.24107e-02,5.46588e-02,3.38367e-02,-2.49206e-02,-2.06952e-02,-4.09705e-02,-3.33209e-02,-6.11210e-02,8.91247e-02,1.08702e-01,8.23498e-02,7.67707e-02,7.12884e-02,1.65174e-02,-1.12018e-01,-8.46253e-02,2.94751e-03,-6.46004e-02,-1.59606e-02,2.96377e-02,-2.50701e-02,9.39279e-02,1.98854e-01,1.12147e-01,9.37043e-02,8.36550e-02,7.77406e-02,5.22704e-02,6.88148e-02,5.50424e-02,6.61694e-02,3.03863e-02,-2.51023e-02,-9.64200e-02,-4.47318e-02,-5.10609e-02,3.98853e-02,2.32824e-02,8.79305e-02,8.34536e-02,-2.03777e-02,-1.48052e-01,-7.02072e-02,-1.14411e-01,-7.57707e-03,3.67791e-02,4.77845e-02,1.77910e-02,-4.75872e-02,4.46020e-03,1.67360e-01,1.03564e-01,1.03704e-01,1.14525e-01,3.31841e-02,6.34214e-02,5.29390e-02,6.90771e-03,7.63025e-02,3.88327e-02,1.99633e-02,-1.02028e-02,-8.33048e-02,-3.32183e-03,1.85588e-02,-3.98694e-02,2.65567e-02,1.30881e-02,-8.84357e-02,-1.62862e-01,-9.35307e-02,4.14997e-02,-2.29002e-02,-1.99718e-02,5.82033e-02,-1.51433e-03,-4.13812e-02,-8.49357e-02,2.73759e-02,7.62843e-02,5.46805e-02,1.08336e-01,9.42614e-02,1.04954e-01,7.69534e-02,5.29540e-02,6.82441e-02,8.53200e-02,3.25310e-02,-8.64896e-03,-3.25248e-02,1.63923e-02,-2.12572e-02,4.18182e-03,1.08898e-01,6.58730e-02,-1.13476e-01,-1.23061e-01,-1.37568e-01,1.01103e-01,1.47550e-02,3.11910e-02,1.86969e-01,1.13998e-01,1.34872e-01,7.36696e-03,-1.19195e-02,-1.42418e-03,2.70842e-02,1.47892e-01,1.18767e-01,1.83846e-01,7.93259e-02,6.38937e-02,7.80297e-02,1.18570e-01,6.66027e-02,6.99235e-02,9.39374e-02,7.76514e-02,7.45335e-02,8.29806e-02,-9.87092e-03,-2.65519e-02,-1.32828e-01,-1.53372e-01,2.07366e-02,-3.30248e-02,1.24046e-02,3.17075e-02,2.56326e-02,8.90353e-02,1.13788e-01,1.40187e-01,2.85231e-02,5.20621e-02,1.83165e-02,4.06694e-02,5.13200e-02,5.03528e-02,1.93692e-02,9.64953e-02,1.34673e-01,7.76628e-02,3.88834e-02,2.42738e-02,-9.97898e-03,-4.58422e-02,-1.44673e-01,-1.21464e-01,-8.43619e-03,-1.74874e-02,-2.94402e-02,-9.57868e-02,-3.64568e-02,-1.47009e-02,-1.15413e-02,-1.04524e-02,4.80938e-02,1.72892e-02,1.26341e-01,1.16467e-01,4.85574e-02,-6.72893e-02,1.61758e-02,4.97933e-02,-6.32163e-03,5.24103e-02,3.82593e-02,1.15993e-01,1.36377e-01,2.19421e-02,-1.63903e-02,-7.36598e-02,-9.02652e-02,-3.45445e-02,-1.89321e-01,-2.23286e-01,-1.14850e-01,2.48871e-02,-3.48509e-03,-1.30344e-02,1.17307e-02,-2.08143e-02,-1.59028e-02,1.52117e-02,-2.67579e-03,4.58803e-02,1.38670e-01,2.04522e-01,1.66514e-01,-5.32973e-02,-1.85336e-03,1.24938e-02,-5.50367e-02,-1.12439e-01,-1.68908e-02,5.67508e-02,-6.37541e-02,-4.36698e-02,-3.77530e-02,-2.69425e-02,-3.05768e-02,2.63986e-02,7.67838e-02,-4.87295e-02,-5.71965e-02,-3.04907e-02,2.75407e-02,-1.82423e-01,-3.22739e-02,1.69164e-02,-3.02522e-02,2.36007e-02,2.63297e-02,9.76405e-04,-1.03463e-01,-9.60255e-02,-3.13168e-01,-1.88955e-01,-1.89044e-01,-1.70836e-01,6.93814e-02,1.56794e-01,7.55736e-02,-8.30486e-02,-1.06686e-01,4.04118e-02,-8.56889e-02,-4.61600e-02,1.30452e-02,-6.96328e-02,3.38293e-02,3.25121e-02,-1.00305e-02,-5.55808e-03,3.09008e-02,3.38846e-02,-3.19289e-02,-2.29549e-02,
-2.05357e-02,-1.11407e-02,2.14366e-03,-5.50925e-03,-3.20352e-02,-1.42378e-02,-1.01861e-02,2.88904e-02,-1.91955e-03,2.83982e-02,-5.71044e-03,3.07956e-02,2.69848e-02,1.77639e-02,-3.37707e-02,2.53981e-02,-6.23150e-03,-1.82926e-02,-3.43568e-02,-1.41903e-02,7.82790e-03,-2.99312e-02,4.27814e-03,1.33373e-02,-3.04230e-02,6.40964e-03,2.20161e-02,2.21724e-02,-3.37165e-02,-3.20298e-02,-1.42770e-02,2.41659e-04,4.15824e-02,8.52294e-02,-1.81016e-02,-2.14132e-02,-1.98787e-02,-3.00903e-02,-5.98314e-02,3.33622e-04,-5.97677e-02,5.51579e-03,7.32108e-02,9.85584e-02,1.07293e-01,5.65503e-02,-1.60070e-02,-2.90229e-02,3.44225e-02,-4.61428e-02,-2.11857e-02,2.72229e-02,-6.38227e-03,-1.92473e-02,2.85465e-02,2.36043e-03,-2.42694e-02,1.32746e-02,1.97621e-03,-4.15344e-02,5.90743e-02,6.48539e-02,7.87455e-03,1.37719e-01,-2.02684e-01,-2.48309e-01,-2.76088e-01,-2.17870e-01,-1.75136e-01,-1.39035e-01,1.05338e-01,1.53284e-01,1.18230e-01,1.02747e-01,1.32224e-01,-9.86928e-02,-6.17319e-02,-2.31590e-02,7.29541e-02,5.32927e-02,-1.37308e-01,-5.76394e-02,1.05585e-02,-1.65924e-03,2.87311e-02,2.44742e-02,1.24218e-01,5.84039e-02,1.41788e-01,1.42351e-01,-2.04416e-01,-1.30096e-01,-3.37210e-01,-1.84374e-01,-1.51151e-01,-4.27214e-02,2.50037e-02,-1.35464e-01,-6.24757e-02,2.47517e-02,1.46043e-01,1.22119e-01,1.12924e-02,-8.25329e-02,-6.74684e-02,-7.00466e-02,-6.72163e-02,-2.77966e-02,3.41013e-02,9.97076e-02,-7.77540e-03,-1.91165e-02,-3.24894e-02,8.89269e-03,1.19249e-01,6.37543e-02,1.57206e-01,7.79053e-02,-3.59841e-02,-4.28592e-02,4.08802e-02,-2.56145e-02,1.00627e-01,1.27990e-01,5.59599e-02,1.39650e-01,6.47014e-02,5.71626e-02,4.80609e-02,-1.51740e-01,-2.19359e-01,-1.17327e-01,-1.23240e-01,-8.47380e-02,2.12530e-02,-4.44374e-02,-1.19821e-01,-4.79338e-02,1.32416e-01,1.51847e-02,-7.68649e-04,6.18598e-04,1.36010e-01,5.99328e-03,1.87841e-02,3.39881e-02,2.61314e-02,2.42498e-02,1.62593e-01,6.50480e-02,4.80433e-02,-3.90369e-02,7.64623e-02,1.20075e-01,7.71304e-02,1.90800e-01,1.12211e-01,-1.98554e-02,-2.08489e-01,-1.12503e-01,-1.31904e-01,-1.19520e-01,-9.52391e-02,-1.50882e-01,-8.76331e-02,-4.81221e-03,-1.27379e-02,3.90220e-02,3.22500e-02,1.86688e-02,2.45317e-02,-2.76240e-02,6.17323e-02,1.01329e-01,-2.09011e-02,4.86106e-03,8.86645e-02,-1.54702e-02,3.33258e-03,5.85376e-02,-5.74527e-02,-4.03681e-02,8.50029e-03,8.61081e-02,1.01463e-01,-8.28924e-03,-6.32665e-02,-1.77445e-01,-1.50071e-01,-8.73369e-02,-1.40776e-01,-2.58945e-01,-1.03247e-01,-1.00665e-01,-7.48047e-02,1.58698e-02,2.41334e-02,-3.81620e-02,1.25029e-02,1.32790e-01,1.66207e-01,1.53191e-01,-3.72324e-02,-5.24634e-02,-3.42165e-02,-4.03425e-02,-5.63607e-02,-2.96415e-02,-7.97426e-02,-4.67449e-02,2.45329e-02,9.11290e-03,6.32445e-03,-2.26849e-02,-1.43531e-01,-1.83145e-01,-2.33502e-01,-1.41997e-01,-1.57104e-01,-1.29452e-01,-1.11154e-01,-8.39862e-02,9.26424e-03,3.14720e-02,-2.21016e-02,9.54164e-03,-3.80390e-02,1.21459e-01,1.10435e-01,7.28071e-02,-2.09183e-03,9.99526e-03,-1.21713e-02,-6.75540e-02,-5.68528e-02,-9.00582e-02,-5.88415e-02,3.84107e-02,7.12582e-02,3.30703e-02,2.31974e-02,-9.15002e-02,-1.11077e-01,-1.54901e-01,-2.16454e-01,-2.15867e-01,-1.02860e-01,-9.70399e-02,-5.52025e-02,-7.83234e-02,3.85529e-02,-5.29975e-02,-4.67177e-02,-1.73305e-02,-4.00862e-02,-5.01406e-02,4.71462e-06,2.80056e-02,-3.95716e-02,-6.24142e-02,-1.49203e-01,-6.32211e-02,-6.47830e-02,-1.02449e-01,2.55035e-02,1.72143e-01,1.82773e-01,6.63116e-02,-1.57431e-02,-9.12562e-02,-1.26594e-01,-1.47991e-01,-2.81102e-01,-2.84932e-01,-1.10256e-01,-6.85457e-02,-3.65339e-02,-7.50071e-03,4.23644e-02,-2.85798e-02,-4.45739e-02,-2.59330e-02,-1.07287e-01,-1.16058e-01,-6.69710e-02,-7.95172e-02,-1.24671e-01,-1.54220e-01,-9.66296e-02,-5.61899e-02,-7.05570e-02,3.42121e-02,7.62490e-02,1.72385e-01,1.39990e-01,1.79645e-03,-9.01631e-02,-1.12565e-01,-1.25526e-01,-9.00395e-02,-2.68423e-01,-2.33088e-01,-1.05877e-01,-1.29273e-01,-1.31824e-01,-8.89388e-02,-3.00591e-05,-3.29747e-02,-7.61375e-02,-1.06211e-01,-1.19413e-01,-3.27473e-02,-1.05031e-01,-4.39115e-02,-6.35068e-02,-6.28922e-02,-6.13286e-02,1.40933e-02,1.30677e-02,9.13118e-02,7.55230e-02,1.07942e-01,5.94278e-02,-6.45585e-02,-7.52915e-02,-7.13878e-02,-1.13788e-01,-7.11510e-02,-9.96190e-02,-1.35994e-01,-2.97509e-02,-1.90579e-01,-2.20914e-01,-1.51242e-01,7.21081e-02,4.59902e-02,5.51637e-03,-2.64389e-02,-1.14870e-01,2.66460e-02,-5.14214e-02,-1.39264e-02,7.24558e-03,-9.58902e-02,-1.70304e-02,1.13725e-01,9.67278e-02,4.15046e-02,2.12874e-02,2.45583e-02,-4.30473e-02,-1.00583e-02,-3.81569e-02,-5.67808e-02,-8.43916e-02,-7.23024e-02,-1.30314e-01,-3.64463e-02,-3.95578e-02,-5.24253e-02,-1.90339e-01,-1.51337e-01,-2.30881e-01,9.10158e-02,5.62603e-02,-5.15175e-02,-8.35914e-02,-3.78410e-02,1.17453e-03,6.41878e-02,3.34544e-03,-1.37541e-02,5.95080e-02,1.39730e-01,6.97618e-02,3.15518e-02,-1.42398e-02,-2.42485e-02,8.78759e-02,2.54366e-02,8.03424e-03,3.69509e-02,-6.41924e-02,-1.55148e-02,-1.14251e-01,-5.02554e-02,5.53371e-02,1.24027e-04,-1.13087e-01,-2.79722e-01,-2.91543e-01,-3.74820e-02,-1.38806e-01,5.53344e-02,-4.61440e-02,1.24243e-01,-1.20093e-01,1.42126e-01,1.79645e-01,-2.49682e-02,4.44343e-02,7.56562e-02,6.08240e-03,-5.75591e-02,-4.16799e-02,1.82530e-02,3.99340e-02,3.01329e-02,3.24451e-03,-3.44615e-02,-4.36399e-02,2.91612e-02,-6.92227e-02,-1.27157e-02,9.23861e-02,2.28991e-01,5.19994e-02,-2.48812e-01,-3.06896e-01,-4.96882e-02,-9.03376e-02,2.22160e-03,2.65998e-01,2.18670e-01,9.89966e-02,1.30765e-01,1.38943e-01,1.93657e-02,-5.97961e-02,3.50426e-03,-7.38783e-02,-2.61950e-02,-2.77382e-02,4.66403e-02,7.64779e-02,-6.27138e-03,5.05974e-02,1.28228e-02,7.34323e-03,7.32697e-02,7.00152e-02,1.12681e-01,1.57141e-01,2.12063e-01,3.05858e-03,-1.56780e-01,-1.92315e-01,5.75284e-03,4.59736e-02,9.35544e-02,3.69735e-01,9.86044e-02,7.40297e-02,1.26313e-01,1.96366e-01,2.51355e-02,-6.22978e-02,-3.00549e-02,-8.06905e-02,-2.37344e-02,-3.84736e-02,-1.20007e-02,1.20527e-01,4.82214e-03,8.06683e-03,2.27106e-02,5.91237e-02,4.72699e-02,4.69321e-02,7.22459e-02,8.49083e-02,1.38205e-01,-1.76845e-02,-3.92538e-01,-1.96832e-01,-1.01665e-01,1.72194e-02,9.51888e-02,2.02231e-01,1.49715e-02,7.93213e-02,9.88304e-02,6.55578e-02,6.20870e-02,-6.70253e-03,-7.56290e-02,-9.33841e-02,-8.19372e-02,-1.03245e-01,-1.89786e-02,1.03944e-01,5.99650e-02,-9.53182e-03,2.79483e-02,3.26599e-02,3.86102e-03,-5.77554e-02,3.94224e-02,5.95025e-02,6.23050e-02,-1.50674e-01,-3.84814e-01,-1.81936e-01,-3.14668e-02,5.68612e-02,4.19743e-02,1.63708e-01,1.90035e-01,-7.17318e-02,4.27813e-02,-4.32606e-02,1.39755e-02,1.35484e-02,7.22657e-02,-4.17167e-02,-1.20829e-01,-1.86618e-01,-8.75114e-02,7.63778e-02,3.06164e-02,4.14740e-02,7.88505e-02,5.11527e-02,-4.20276e-02,-1.07291e-01,4.86742e-03,-1.14730e-01,1.44884e-02,-1.83368e-01,-2.66579e-01,-2.06333e-02,1.53547e-01,2.71719e-02,9.45618e-02,-1.98836e-01,-8.17193e-02,-2.25956e-01,-1.82927e-01,-1.61119e-01,-4.79469e-02,-3.82246e-02,1.77449e-02,-3.18407e-03,-1.45543e-01,-2.11094e-01,-1.35781e-01,-1.02944e-02,9.74141e-02,1.12633e-01,8.29842e-02,5.42796e-02,6.06949e-02,1.30357e-02,-3.83896e-02,-2.06060e-01,4.69012e-02,-1.06548e-01,-1.94066e-01,8.15794e-03,8.59089e-02,-3.27157e-03,-3.47112e-02,-1.93929e-01,-1.18884e-01,-3.74849e-01,-2.10341e-01,-6.89334e-02,1.21987e-01,6.38145e-02,-3.15868e-03,-3.50808e-02,-7.04962e-02,-1.27184e-01,-6.84357e-02,-1.60688e-02,1.06962e-01,1.37885e-01,1.74344e-01,1.69248e-01,1.57512e-01,2.34949e-02,-1.89047e-02,-1.71584e-01,-1.05071e-01,-2.52756e-02,6.73274e-02,7.41388e-02,-1.59990e-02,4.89308e-02,-3.87319e-04,-4.84243e-02,-1.24295e-01,-2.79068e-01,-3.13508e-01,-6.40798e-02,-3.99690e-02,1.08527e-01,4.16034e-02,-7.65680e-03,-3.25143e-02,-2.16237e-02,-1.05006e-01,-2.96601e-02,1.01392e-01,1.60237e-01,8.29414e-02,1.73730e-01,1.15220e-01,-5.74960e-02,-1.39448e-01,-2.80514e-01,-2.81243e-01,-2.20644e-02,7.13921e-02,6.19424e-02,2.97299e-02,-2.49424e-03,2.59187e-02,3.95178e-02,-7.61757e-02,-9.77786e-02,-1.10141e-01,-5.14625e-02,4.46997e-03,6.84800e-02,5.75599e-02,1.79164e-02,-4.24467e-02,-3.38124e-02,-1.50658e-01,-9.61887e-02,2.07457e-02,7.01403e-02,1.17427e-01,1.46636e-01,7.53206e-02,-1.02514e-01,-2.37696e-01,-3.14883e-01,-2.58958e-01,-1.14594e-01,5.14082e-02,6.46140e-02,2.50314e-02,-8.21883e-03,4.12774e-03,2.43678e-02,3.56940e-02,4.81402e-02,-9.20334e-02,6.03424e-02,-3.31432e-02,-2.91906e-02,-2.23792e-02,-3.28943e-03,-6.34116e-02,1.82057e-03,-1.05084e-01,-6.61754e-02,6.70166e-02,6.62666e-02,8.25840e-02,1.18900e-01,-2.88205e-02,-8.53925e-02,-1.90339e-01,-1.26069e-01,-1.49888e-01,4.12097e-02,6.21665e-02,2.07985e-02,-1.08827e-03,-2.72835e-02,1.33429e-02,2.86764e-02,8.23987e-03,-9.16820e-02,5.64622e-02,-4.85637e-02,-5.95456e-02,-1.54285e-01,4.29819e-02,1.13266e-02,-4.53445e-02,-6.29033e-02,-2.12394e-01,-1.05014e-01,-6.86994e-02,-2.19690e-02,3.43652e-02,5.43146e-02,4.35057e-03,-5.37043e-02,-8.64797e-02,-6.57999e-02,5.31802e-02,-1.59389e-02,1.99851e-02,-1.62357e-03,-1.21387e-03,1.78840e-02,2.89530e-03,1.13983e-02,-1.79255e-02,7.74905e-02,8.19778e-02,7.88103e-02,9.37093e-02,-1.58265e-02,-1.37465e-02,-3.04626e-02,-1.12129e-01,-1.05937e-01,-1.75263e-01,-5.61747e-02,-4.25064e-02,-4.56134e-02,-2.94663e-02,-5.17946e-02,5.00900e-02,6.74094e-02,2.98656e-02,1.49823e-01,5.44875e-02,-2.54274e-02,-6.24428e-03,-5.09885e-02,-8.48466e-03,3.05114e-02,3.09717e-02,-3.32850e-02,1.35426e-02,3.15316e-02,3.03875e-02,4.39628e-02,2.92691e-02,1.77053e-02,-4.85696e-02,-2.81355e-02,-6.39450e-02,-1.38417e-01,-8.83310e-02,-4.06502e-02,-9.81484e-02,-2.62542e-03,6.43251e-02,6.95402e-02,1.15222e-01,-2.14124e-01,-2.69075e-01,-1.24136e-01,-6.54771e-02,-3.80190e-04,-1.56753e-02,4.22162e-03,-1.62266e-02,-9.77277e-03,-4.78495e-03,-3.11603e-03,-3.27801e-02,1.90164e-02,1.01834e-02,-6.39350e-03,9.66564e-03,-9.29693e-03,-5.29394e-02,-8.48286e-02,-1.40362e-01,-1.07842e-01,3.49247e-02,-3.32021e-02,-3.18507e-01,-2.87446e-02,1.37966e-01,6.25943e-02,7.01618e-03,9.75641e-03,-8.84287e-02,5.27688e-02,-2.05126e-02,-2.58752e-02,1.00858e-02,1.40727e-04,-3.33817e-02,
-2.60973e-02,1.15912e-02,-2.14075e-02,1.79137e-02,-2.91248e-02,-2.11064e-02,3.14196e-02,2.63012e-03,-3.39959e-02,1.27348e-02,1.64723e-02,-7.75721e-03,-1.98823e-02,-1.35703e-02,9.23914e-03,-9.45223e-03,-2.14392e-02,3.11223e-02,-2.51731e-02,-4.56385e-03,-2.61388e-02,1.32638e-02,-2.85643e-02,-7.77215e-03,1.41228e-03,3.26831e-02,1.54370e-02,2.64880e-02,3.18771e-02,-1.07434e-03,5.62034e-03,3.02701e-02,1.35307e-02,-1.92332e-02,1.01364e-02,9.60149e-03,8.19662e-03,1.80557e-02,-7.57235e-02,-4.53505e-02,-5.14896e-02,-6.18345e-02,-1.29112e-01,3.70742e-02,4.76677e-02,6.97965e-02,-5.38134e-02,-8.73632e-02,1.62072e-02,-3.58875e-03,-5.40591e-02,2.24479e-02,-1.62789e-02,3.55911e-02,2.35290e-02,2.83557e-02,4.37171e-03,-5.08535e-03,-3.45237e-02,3.83354e-04,-1.76986e-02,5.31691e-03,-4.96519e-02,-7.24570e-02,-8.67307e-02,-9.57522e-02,-1.35568e-01,-1.33901e-01,-1.37892e-01,-1.76946e-01,-9.38438e-02,-2.35702e-01,-1.41342e-01,-2.65493e-01,-2.41913e-01,-3.21453e-01,-2.74747e-01,-2.23891e-01,-1.58881e-01,-6.42437e-03,-6.82333e-02,-1.79883e-02,-1.74715e-02,6.38502e-04,4.73357e-03,1.93802e-02,-5.51152e-02,-1.05082e-01,-2.01442e-01,-3.77892e-02,-8.25880e-02,-1.14580e-01,-8.84606e-02,-1.91785e-01,-1.94058e-01,-1.90114e-01,-1.38097e-01,-1.05368e-01,-2.71722e-01,-2.99035e-01,-1.79982e-01,-1.68815e-01,-2.29582e-01,-2.06907e-01,-2.23717e-01,-1.41672e-01,-1.17253e-01,-1.61624e-01,-6.12827e-02,4.93904e-03,3.62911e-02,-3.08482e-02,9.18397e-03,2.64424e-02,-5.63312e-03,-6.27971e-02,-8.26061e-02,-6.47399e-02,-8.94953e-02,-1.05826e-01,-1.96013e-01,-2.36349e-01,-1.73228e-01,-1.12625e-01,-7.82960e-02,-1.42264e-01,-1.09656e-01,-2.41984e-02,-8.15627e-03,-3.65554e-02,-6.64078e-02,-1.06944e-02,-3.92760e-03,-4.82578e-02,-4.50282e-02,-1.54493e-01,-1.64784e-01,-1.82244e-01,3.32199e-02,1.08681e-01,-2.76037e-02,2.45493e-02,-7.57950e-02,-4.94679e-02,-6.97597e-02,-3.17141e-02,-5.50629e-02,-5.15079e-02,-2.76054e-01,-2.75492e-01,-1.48343e-01,-1.40530e-01,-9.05355e-02,-1.36615e-01,-9.30667e-02,1.36384e-03,-5.03722e-02,-1.70644e-02,3.98061e-02,1.22315e-02,-6.31671e-02,-8.62989e-02,-1.25524e-01,-9.73407e-02,-1.59164e-01,-1.15268e-01,2.24453e-01,8.62919e-02,1.84355e-02,-4.39738e-02,2.84441e-02,7.93905e-02,4.53354e-02,-1.07734e-01,-6.61338e-02,-9.90144e-02,-1.24490e-01,-6.15322e-02,-9.74315e-02,-1.11877e-01,-7.03472e-02,-3.49369e-02,-1.13626e-02,-6.01039e-02,-8.72797e-02,-8.04103e-02,-1.00733e-01,-8.17299e-02,-1.06946e-01,-5.24404e-04,5.51668e-03,-6.62542e-02,-8.09713e-02,3.43003e-02,1.98738e-01,1.05926e-01,6.14702e-02,7.29435e-03,9.86703e-02,4.15955e-02,3.46919e-02,5.03379e-02,1.96432e-02,-4.20408e-02,-3.34077e-02,-4.75104e-02,-8.21008e-02,-8.97726e-02,-1.07280e-02,-4.44094e-02,-8.98394e-02,-5.12807e-02,-8.20138e-02,-4.07613e-02,-2.19832e-02,-5.41425e-02,-8.23057e-02,2.37647e-02,-4.82819e-02,-2.47027e-02,-2.86767e-02,1.66874e-02,1.75205e-01,2.41669e-01,1.04627e-01,1.16881e-01,1.39913e-01,9.89822e-02,3.68593e-02,4.87597e-02,7.30152e-02,3.83093e-02,-4.52189e-02,-5.34606e-02,-5.31022e-02,-2.06551e-02,-2.48531e-02,-2.36320e-02,-2.65771e-02,1.54330e-02,8.59698e-02,5.66590e-02,5.22080e-02,1.96115e-02,7.59052e-03,6.54168e-02,6.17106e-02,1.32320e-01,9.03955e-02,1.01402e-01,7.67284e-02,1.25922e-01,1.14448e-01,1.27484e-01,1.91601e-01,1.65427e-01,9.69137e-02,8.04114e-02,4.96640e-02,2.32614e-02,-2.45579e-02,-3.84833e-02,-2.12391e-02,-2.81910e-03,5.73240e-02,1.02269e-02,8.52312e-02,1.00493e-01,1.33087e-01,9.86038e-02,1.22206e-01,6.20866e-02,5.41814e-02,9.56776e-02,1.08565e-01,1.21059e-01,1.27370e-01,2.48048e-01,6.14554e-02,5.31376e-02,7.51450e-02,2.50388e-01,2.02017e-01,3.96478e-02,3.31309e-02,-1.86120e-02,-6.03500e-02,-3.84180e-02,-6.64225e-02,-4.62898e-02,7.42638e-03,8.07058e-02,8.17555e-02,9.18210e-02,1.40347e-01,2.32455e-01,1.96518e-01,1.78087e-01,9.42505e-02,1.31273e-01,7.49134e-02,1.52244e-01,9.64835e-02,1.24442e-01,2.10717e-01,3.08385e-01,1.73822e-01,-3.33103e-02,1.42096e-01,1.55619e-01,1.34730e-01,1.72803e-02,4.61729e-02,-2.69295e-02,-5.46869e-02,-7.61237e-02,-6.89298e-02,5.00025e-02,5.01613e-02,1.00057e-01,1.52978e-01,2.37393e-01,2.17713e-01,1.88216e-01,8.49962e-02,9.98578e-02,1.05493e-01,9.06665e-02,6.89754e-02,1.05045e-01,5.52841e-02,5.50970e-02,9.19522e-02,1.70859e-01,1.00390e-01,3.50950e-02,1.09145e-02,7.53821e-02,7.86867e-02,1.24867e-02,8.01900e-02,4.40770e-02,-5.44201e-02,-8.24256e-02,-7.76371e-03,4.35480e-02,6.74052e-02,7.26320e-02,1.55087e-01,1.94967e-01,8.49705e-02,1.33224e-02,-6.00875e-02,1.50352e-02,2.96683e-02,-3.65115e-02,4.14756e-03,-1.49464e-02,-4.55679e-02,3.61638e-02,-1.38046e-01,-1.10835e-01,-5.89038e-02,-9.76789e-02,-2.14240e-02,1.01781e-01,9.67655e-02,1.31765e-01,1.58471e-01,5.97667e-02,-2.72854e-02,-7.24894e-02,3.27860e-03,8.38844e-02,8.97922e-02,9.80044e-02,9.49731e-02,1.31137e-04,-1.62430e-01,-1.99280e-01,-7.32528e-02,-6.10732e-02,-1.10183e-02,-1.17378e-02,1.45049e-02,-1.34689e-01,-2.12375e-02,1.70151e-02,-1.08792e-01,-1.80162e-01,-1.09749e-01,-5.53238e-02,-4.71943e-03,1.28171e-01,1.30730e-01,1.69051e-01,1.64866e-01,3.14400e-02,-1.21734e-01,-7.38264e-02,-4.08177e-02,-9.83382e-03,5.88973e-02,5.29186e-02,1.30304e-02,-1.84322e-01,-2.02628e-01,-1.44617e-01,-9.44719e-02,-9.03016e-04,2.12937e-02,-2.97033e-02,-6.57515e-02,-6.42477e-02,-1.09690e-01,-1.28167e-01,-1.11776e-01,-1.26220e-01,-3.90720e-02,-3.90472e-02,1.60461e-01,-1.71120e-02,7.72891e-02,1.22834e-01,9.97358e-02,-4.34738e-03,-4.68035e-02,-2.51470e-02,-8.69121e-02,-9.10911e-02,-9.33848e-02,-7.58289e-02,-1.77555e-01,-2.66542e-01,-2.10109e-01,-1.03633e-01,-1.97811e-02,3.03032e-02,2.33758e-02,-1.53466e-02,-4.10447e-02,-1.00184e-01,-1.52256e-01,-1.71309e-01,-2.21809e-01,-1.25411e-01,-8.36271e-02,-2.51031e-02,1.64554e-01,-4.92457e-02,7.58021e-02,8.12871e-02,1.20068e-01,7.60966e-03,-3.72282e-02,-1.24336e-02,-1.16845e-01,-1.56632e-01,-1.29809e-01,-1.53467e-01,-2.45339e-01,-2.30197e-01,-1.35646e-01,-2.01577e-02,1.51178e-02,3.73788e-02,5.75175e-02,-3.18382e-02,-7.12697e-02,-2.43763e-01,-2.43822e-01,-2.69093e-01,-2.19951e-01,-1.45529e-01,-1.01951e-01,6.23297e-02,-2.34836e-02,5.77765e-03,5.59210e-02,-4.77856e-02,6.67215e-02,4.96745e-02,9.05412e-02,7.18835e-03,-1.48245e-02,-5.32464e-02,-1.16364e-01,-1.23241e-01,-1.65723e-01,-1.81947e-01,-5.14096e-02,-2.97627e-02,5.20950e-02,8.01066e-02,9.78760e-03,-1.29281e-01,-1.89555e-01,-2.61442e-01,-1.56804e-01,-1.71610e-01,-1.88551e-01,-1.11801e-01,-4.28955e-02,7.93015e-02,-9.84688e-02,5.27814e-02,1.21551e-01,-1.43811e-01,-6.84113e-03,1.06607e-01,1.58069e-01,1.19759e-01,2.43614e-02,1.60870e-02,3.77703e-02,-2.09845e-02,-5.97187e-02,2.43955e-02,6.38603e-02,4.81273e-03,6.03100e-02,4.03261e-02,-5.85322e-02,-1.43699e-01,-1.97437e-01,-1.32277e-01,-5.72852e-02,-1.23390e-01,-8.21771e-02,-9.89993e-02,-5.66699e-02,-5.68659e-02,6.05063e-03,1.83985e-02,5.79487e-02,-8.45429e-02,5.22887e-02,8.38590e-02,8.71067e-02,9.56257e-02,1.13437e-01,5.26724e-02,8.40864e-02,6.78352e-02,6.72481e-02,9.09643e-02,2.69901e-02,3.66228e-02,-4.92569e-03,2.28726e-03,-4.32447e-02,-1.76984e-01,-1.50729e-01,-1.29811e-01,-1.00495e-01,-1.62362e-01,-1.60453e-02,-4.17264e-02,-3.75969e-02,-2.90327e-02,1.24590e-02,-3.98644e-02,-6.82270e-02,-6.69455e-02,3.14973e-02,1.03409e-01,8.10125e-02,4.30052e-02,5.66283e-02,1.05485e-01,7.58829e-02,7.80032e-02,8.22129e-02,9.25024e-02,3.95154e-02,-1.35566e-02,-1.92211e-02,-1.12525e-02,-1.43551e-01,-3.03130e-01,-2.46103e-01,-1.55618e-01,-1.10809e-01,-2.65740e-01,-1.21763e-01,4.08509e-02,-3.54844e-02,1.65574e-01,4.28075e-03,-3.46344e-02,-1.06446e-01,-8.20604e-02,-1.09621e-01,-2.38542e-02,2.65067e-02,4.57913e-02,7.95758e-02,8.06034e-02,1.14992e-01,6.74327e-02,1.28801e-02,7.54422e-02,-8.15515e-03,-2.15234e-02,-6.25995e-02,-1.48374e-01,-2.45929e-01,-2.94113e-01,-2.72755e-01,-1.97226e-01,-6.37215e-02,-1.94920e-01,-5.27833e-02,1.44849e-01,-2.65754e-02,1.39470e-02,-1.39756e-02,-5.54317e-02,-5.20503e-03,-1.65193e-01,-2.08460e-01,-9.66630e-02,-3.09668e-02,-7.09407e-03,-1.41797e-02,6.27160e-02,8.79919e-02,4.00240e-02,1.06467e-02,-1.18917e-02,-4.12065e-02,-3.49498e-02,-1.41213e-01,-1.60031e-01,-2.65240e-01,-2.94614e-01,-2.40718e-01,-1.24824e-01,-3.08631e-03,-1.13337e-01,-4.98640e-02,1.74588e-01,-1.11266e-01,-2.63463e-03,2.93142e-02,3.52454e-02,-1.90962e-02,-3.03731e-02,-3.61999e-02,-3.10300e-02,-1.45679e-02,1.11050e-02,-7.53400e-02,-2.32712e-02,-8.79973e-03,6.23821e-02,1.75695e-02,-3.02273e-03,-5.26002e-02,-7.81269e-02,-2.25818e-01,-9.24886e-02,-1.80063e-01,-2.25150e-01,-1.79448e-01,-1.76403e-01,-1.13816e-02,-9.38601e-02,6.39796e-02,4.01542e-02,-7.86263e-02,2.02000e-02,9.79071e-03,-2.17433e-02,2.90685e-02,1.17752e-01,-2.04037e-02,3.01707e-02,-2.91577e-02,-8.30356e-02,-9.11205e-02,-9.70571e-02,-1.07166e-02,3.12839e-02,1.50672e-02,-3.94349e-03,1.94553e-02,-7.42470e-02,-1.49668e-01,-5.09184e-02,-1.19914e-01,-1.10381e-01,-3.51843e-02,-1.31286e-02,1.35889e-03,-1.25124e-01,7.63927e-02,-1.41171e-01,1.68660e-04,1.04422e-02,2.01844e-02,-1.41307e-02,2.85537e-02,4.80277e-02,-4.07868e-02,3.41199e-02,-6.16702e-02,-3.61884e-02,-7.25188e-02,1.66194e-03,8.79118e-02,5.04806e-02,5.32076e-02,1.20765e-01,6.60268e-03,-3.16112e-02,-4.09317e-03,-6.49324e-02,-4.80371e-02,9.54848e-03,5.18520e-03,-4.30678e-02,-1.93790e-02,-6.32136e-02,5.30921e-02,-2.34914e-02,-9.71956e-03,5.01439e-03,2.43256e-02,2.98985e-02,2.03682e-02,1.55254e-02,-5.46939e-02,-2.19574e-02,2.43184e-02,1.63627e-02,-1.50113e-02,-3.47655e-02,2.09485e-02,2.08002e-02,4.76751e-02,4.51677e-02,5.84197e-02,3.47644e-02,5.89542e-02,-2.72231e-02,-4.23903e-03,9.55121e-02,1.03972e-01,1.19350e-01,1.52410e-01,5.21400e-02,-1.61289e-01,1.52022e-01,-3.30782e-02,3.38907e-02,1.03042e-02,9.56959e-03,2.74376e-02,-2.93340e-02,1.26948e-01,1.25084e-01,2.17429e-01,2.10859e-01,1.77206e-01,2.55136e-02,2.36822e-01,9.33648e-02,-3.52556e-03,1.00782e-01,8.45829e-02,1.65996e-01,4.51906e-02,6.11062e-02,1.10799e-01,1.30880e-01,1.57578e-01,1.15631e-01,7.51420e-02,7.83350e-02,3.04390e-02,5.16179e-03,3.35328e-02,-3.23512e-02,
