// Neural Network File Format by Kyle Julian, Stanford 2016
11,784,10,784,
784,80,80,80,80,80,80,80,80,80,80,10,
0,
-3.4028235e+38,-3.4028235e+38,-3.4028235e+38,-3.4028235e+38,-3.4028235e+38,-3.4028235e+38,-3.4028235e+38,-3.4028235e+38,-3.4028235e+38,-3.4028235e+38,-3.4028235e+38,-3.4028235e+38,-3.4028235e+38,-3.4028235e+38,-3.4028235e+38,-3.4028235e+38,-3.4028235e+38,-3.4028235e+38,-3.4028235e+38,-3.4028235e+38,-3.4028235e+38,-3.4028235e+38,-3.4028235e+38,-3.4028235e+38,-3.4028235e+38,-3.4028235e+38,-3.4028235e+38,-3.4028235e+38,-3.4028235e+38,-3.4028235e+38,-3.4028235e+38,-3.4028235e+38,-3.4028235e+38,-3.4028235e+38,-3.4028235e+38,-3.4028235e+38,-3.4028235e+38,-3.4028235e+38,-3.4028235e+38,-3.4028235e+38,-3.4028235e+38,-3.4028235e+38,-3.4028235e+38,-3.4028235e+38,-3.4028235e+38,-3.4028235e+38,-3.4028235e+38,-3.4028235e+38,-3.4028235e+38,-3.4028235e+38,-3.4028235e+38,-3.4028235e+38,-3.4028235e+38,-3.4028235e+38,-3.4028235e+38,-3.4028235e+38,-3.4028235e+38,-3.4028235e+38,-3.4028235e+38,-3.4028235e+38,-3.4028235e+38,-3.4028235e+38,-3.4028235e+38,-3.4028235e+38,-3.4028235e+38,-3.4028235e+38,-3.4028235e+38,-3.4028235e+38,-3.4028235e+38,-3.4028235e+38,-3.4028235e+38,-3.4028235e+38,-3.4028235e+38,-3.4028235e+38,-3.4028235e+38,-3.4028235e+38,-3.4028235e+38,-3.4028235e+38,-3.4028235e+38,-3.4028235e+38,-3.4028235e+38,-3.4028235e+38,-3.4028235e+38,-3.4028235e+38,-3.4028235e+38,-3.4028235e+38,-3.4028235e+38,-3.4028235e+38,-3.4028235e+38,-3.4028235e+38,-3.4028235e+38,-3.4028235e+38,-3.4028235e+38,-3.4028235e+38,-3.4028235e+38,-3.4028235e+38,-3.4028235e+38,-3.4028235e+38,-3.4028235e+38,-3.4028235e+38,-3.4028235e+38,-3.4028235e+38,-3.4028235e+38,-3.4028235e+38,-3.4028235e+38,-3.4028235e+38,-3.4028235e+38,-3.4028235e+38,-3.4028235e+38,-3.4028235e+38,-3.4028235e+38,-3.4028235e+38,-3.4028235e+38,-3.4028235e+38,-3.4028235e+38,-3.4028235e+38,-3.4028235e+38,-3.4028235e+38,-3.4028235e+38,-3.4028235e+38,-3.4028235e+38,-3.4028235e+38,-3.4028235e+38,-3.4028235e+38,-3.4028235e+38,-3.4028235e+38,-3.4028235e+38,-3.4028235e+38,-3.4028235e+38,-3.4028235e+38,-3.4028235e+38,-3.4028235e+38,-3.4028235e+38,-3.4028235e+38,-3.4028235e+38,-3.4028235e+38,-3.4028235e+38,-3.4028235e+38,-3.4028235e+38,-3.4028235e+38,-3.4028235e+38,-3.4028235e+38,-3.4028235e+38,-3.4028235e+38,-3.4028235e+38,-3.4028235e+38,-3.4028235e+38,-3.4028235e+38,-3.4028235e+38,-3.4028235e+38,-3.4028235e+38,-3.4028235e+38,-3.4028235e+38,-3.4028235e+38,-3.4028235e+38,-3.4028235e+38,-3.4028235e+38,-3.4028235e+38,-3.4028235e+38,-3.4028235e+38,-3.4028235e+38,-3.4028235e+38,-3.4028235e+38,-3.4028235e+38,-3.4028235e+38,-3.4028235e+38,-3.4028235e+38,-3.4028235e+38,-3.4028235e+38,-3.4028235e+38,-3.4028235e+38,-3.4028235e+38,-3.4028235e+38,-3.4028235e+38,-3.4028235e+38,-3.4028235e+38,-3.4028235e+38,-3.4028235e+38,-3.4028235e+38,-3.4028235e+38,-3.4028235e+38,-3.4028235e+38,-3.4028235e+38,-3.4028235e+38,-3.4028235e+38,-3.4028235e+38,-3.4028235e+38,-3.4028235e+38,-3.4028235e+38,-3.4028235e+38,-3.4028235e+38,-3.4028235e+38,-3.4028235e+38,-3.4028235e+38,-3.4028235e+38,-3.4028235e+38,-3.4028235e+38,-3.4028235e+38,-3.4028235e+38,-3.4028235e+38,-3.4028235e+38,-3.4028235e+38,-3.4028235e+38,-3.4028235e+38,-3.4028235e+38,-3.4028235e+38,-3.4028235e+38,-3.4028235e+38,-3.4028235e+38,-3.4028235e+38,-3.4028235e+38,-3.4028235e+38,-3.4028235e+38,-3.4028235e+38,-3.4028235e+38,-3.4028235e+38,-3.4028235e+38,-3.4028235e+38,-3.4028235e+38,-3.4028235e+38,-3.4028235e+38,-3.4028235e+38,-3.4028235e+38,-3.4028235e+38,-3.4028235e+38,-3.4028235e+38,-3.4028235e+38,-3.4028235e+38,-3.4028235e+38,-3.4028235e+38,-3.4028235e+38,-3.4028235e+38,-3.4028235e+38,-3.4028235e+38,-3.4028235e+38,-3.4028235e+38,-3.4028235e+38,-3.4028235e+38,-3.4028235e+38,-3.4028235e+38,-3.4028235e+38,-3.4028235e+38,-3.4028235e+38,-3.4028235e+38,-3.4028235e+38,-3.4028235e+38,-3.4028235e+38,-3.4028235e+38,-3.4028235e+38,-3.4028235e+38,-3.4028235e+38,-3.4028235e+38,-3.4028235e+38,-3.4028235e+38,-3.4028235e+38,-3.4028235e+38,-3.4028235e+38,-3.4028235e+38,-3.4028235e+38,-3.4028235e+38,-3.4028235e+38,-3.4028235e+38,-3.4028235e+38,-3.4028235e+38,-3.4028235e+38,-3.4028235e+38,-3.4028235e+38,-3.4028235e+38,-3.4028235e+38,-3.4028235e+38,-3.4028235e+38,-3.4028235e+38,-3.4028235e+38,-3.4028235e+38,-3.4028235e+38,-3.4028235e+38,-3.4028235e+38,-3.4028235e+38,-3.4028235e+38,-3.4028235e+38,-3.4028235e+38,-3.4028235e+38,-3.4028235e+38,-3.4028235e+38,-3.4028235e+38,-3.4028235e+38,-3.4028235e+38,-3.4028235e+38,-3.4028235e+38,-3.4028235e+38,-3.4028235e+38,-3.4028235e+38,-3.4028235e+38,-3.4028235e+38,-3.4028235e+38,-3.4028235e+38,-3.4028235e+38,-3.4028235e+38,-3.4028235e+38,-3.4028235e+38,-3.4028235e+38,-3.4028235e+38,-3.4028235e+38,-3.4028235e+38,-3.4028235e+38,-3.4028235e+38,-3.4028235e+38,-3.4028235e+38,-3.4028235e+38,-3.4028235e+38,-3.4028235e+38,-3.4028235e+38,-3.4028235e+38,-3.4028235e+38,-3.4028235e+38,-3.4028235e+38,-3.4028235e+38,-3.4028235e+38,-3.4028235e+38,-3.4028235e+38,-3.4028235e+38,-3.4028235e+38,-3.4028235e+38,-3.4028235e+38,-3.4028235e+38,-3.4028235e+38,-3.4028235e+38,-3.4028235e+38,-3.4028235e+38,-3.4028235e+38,-3.4028235e+38,-3.4028235e+38,-3.4028235e+38,-3.4028235e+38,-3.4028235e+38,-3.4028235e+38,-3.4028235e+38,-3.4028235e+38,-3.4028235e+38,-3.4028235e+38,-3.4028235e+38,-3.4028235e+38,-3.4028235e+38,-3.4028235e+38,-3.4028235e+38,-3.4028235e+38,-3.4028235e+38,-3.4028235e+38,-3.4028235e+38,-3.4028235e+38,-3.4028235e+38,-3.4028235e+38,-3.4028235e+38,-3.4028235e+38,-3.4028235e+38,-3.4028235e+38,-3.4028235e+38,-3.4028235e+38,-3.4028235e+38,-3.4028235e+38,-3.4028235e+38,-3.4028235e+38,-3.4028235e+38,-3.4028235e+38,-3.4028235e+38,-3.4028235e+38,-3.4028235e+38,-3.4028235e+38,-3.4028235e+38,-3.4028235e+38,-3.4028235e+38,-3.4028235e+38,-3.4028235e+38,-3.4028235e+38,-3.4028235e+38,-3.4028235e+38,-3.4028235e+38,-3.4028235e+38,-3.4028235e+38,-3.4028235e+38,-3.4028235e+38,-3.4028235e+38,-3.4028235e+38,-3.4028235e+38,-3.4028235e+38,-3.4028235e+38,-3.4028235e+38,-3.4028235e+38,-3.4028235e+38,-3.4028235e+38,-3.4028235e+38,-3.4028235e+38,-3.4028235e+38,-3.4028235e+38,-3.4028235e+38,-3.4028235e+38,-3.4028235e+38,-3.4028235e+38,-3.4028235e+38,-3.4028235e+38,-3.4028235e+38,-3.4028235e+38,-3.4028235e+38,-3.4028235e+38,-3.4028235e+38,-3.4028235e+38,-3.4028235e+38,-3.4028235e+38,-3.4028235e+38,-3.4028235e+38,-3.4028235e+38,-3.4028235e+38,-3.4028235e+38,-3.4028235e+38,-3.4028235e+38,-3.4028235e+38,-3.4028235e+38,-3.4028235e+38,-3.4028235e+38,-3.4028235e+38,-3.4028235e+38,-3.4028235e+38,-3.4028235e+38,-3.4028235e+38,-3.4028235e+38,-3.4028235e+38,-3.4028235e+38,-3.4028235e+38,-3.4028235e+38,-3.4028235e+38,-3.4028235e+38,-3.4028235e+38,-3.4028235e+38,-3.4028235e+38,-3.4028235e+38,-3.4028235e+38,-3.4028235e+38,-3.4028235e+38,-3.4028235e+38,-3.4028235e+38,-3.4028235e+38,-3.4028235e+38,-3.4028235e+38,-3.4028235e+38,-3.4028235e+38,-3.4028235e+38,-3.4028235e+38,-3.4028235e+38,-3.4028235e+38,-3.4028235e+38,-3.4028235e+38,-3.4028235e+38,-3.4028235e+38,-3.4028235e+38,-3.4028235e+38,-3.4028235e+38,-3.4028235e+38,-3.4028235e+38,-3.4028235e+38,-3.4028235e+38,-3.4028235e+38,-3.4028235e+38,-3.4028235e+38,-3.4028235e+38,-3.4028235e+38,-3.4028235e+38,-3.4028235e+38,-3.4028235e+38,-3.4028235e+38,-3.4028235e+38,-3.4028235e+38,-3.4028235e+38,-3.4028235e+38,-3.4028235e+38,-3.4028235e+38,-3.4028235e+38,-3.4028235e+38,-3.4028235e+38,-3.4028235e+38,-3.4028235e+38,-3.4028235e+38,-3.4028235e+38,-3.4028235e+38,-3.4028235e+38,-3.4028235e+38,-3.4028235e+38,-3.4028235e+38,-3.4028235e+38,-3.4028235e+38,-3.4028235e+38,-3.4028235e+38,-3.4028235e+38,-3.4028235e+38,-3.4028235e+38,-3.4028235e+38,-3.4028235e+38,-3.4028235e+38,-3.4028235e+38,-3.4028235e+38,-3.4028235e+38,-3.4028235e+38,-3.4028235e+38,-3.4028235e+38,-3.4028235e+38,-3.4028235e+38,-3.4028235e+38,-3.4028235e+38,-3.4028235e+38,-3.4028235e+38,-3.4028235e+38,-3.4028235e+38,-3.4028235e+38,-3.4028235e+38,-3.4028235e+38,-3.4028235e+38,-3.4028235e+38,-3.4028235e+38,-3.4028235e+38,-3.4028235e+38,-3.4028235e+38,-3.4028235e+38,-3.4028235e+38,-3.4028235e+38,-3.4028235e+38,-3.4028235e+38,-3.4028235e+38,-3.4028235e+38,-3.4028235e+38,-3.4028235e+38,-3.4028235e+38,-3.4028235e+38,-3.4028235e+38,-3.4028235e+38,-3.4028235e+38,-3.4028235e+38,-3.4028235e+38,-3.4028235e+38,-3.4028235e+38,-3.4028235e+38,-3.4028235e+38,-3.4028235e+38,-3.4028235e+38,-3.4028235e+38,-3.4028235e+38,-3.4028235e+38,-3.4028235e+38,-3.4028235e+38,-3.4028235e+38,-3.4028235e+38,-3.4028235e+38,-3.4028235e+38,-3.4028235e+38,-3.4028235e+38,-3.4028235e+38,-3.4028235e+38,-3.4028235e+38,-3.4028235e+38,-3.4028235e+38,-3.4028235e+38,-3.4028235e+38,-3.4028235e+38,-3.4028235e+38,-3.4028235e+38,-3.4028235e+38,-3.4028235e+38,-3.4028235e+38,-3.4028235e+38,-3.4028235e+38,-3.4028235e+38,-3.4028235e+38,-3.4028235e+38,-3.4028235e+38,-3.4028235e+38,-3.4028235e+38,-3.4028235e+38,-3.4028235e+38,-3.4028235e+38,-3.4028235e+38,-3.4028235e+38,-3.4028235e+38,-3.4028235e+38,-3.4028235e+38,-3.4028235e+38,-3.4028235e+38,-3.4028235e+38,-3.4028235e+38,-3.4028235e+38,-3.4028235e+38,-3.4028235e+38,-3.4028235e+38,-3.4028235e+38,-3.4028235e+38,-3.4028235e+38,-3.4028235e+38,-3.4028235e+38,-3.4028235e+38,-3.4028235e+38,-3.4028235e+38,-3.4028235e+38,-3.4028235e+38,-3.4028235e+38,-3.4028235e+38,-3.4028235e+38,-3.4028235e+38,-3.4028235e+38,-3.4028235e+38,-3.4028235e+38,-3.4028235e+38,-3.4028235e+38,-3.4028235e+38,-3.4028235e+38,-3.4028235e+38,-3.4028235e+38,-3.4028235e+38,-3.4028235e+38,-3.4028235e+38,-3.4028235e+38,-3.4028235e+38,-3.4028235e+38,-3.4028235e+38,-3.4028235e+38,-3.4028235e+38,-3.4028235e+38,-3.4028235e+38,-3.4028235e+38,-3.4028235e+38,-3.4028235e+38,-3.4028235e+38,-3.4028235e+38,-3.4028235e+38,-3.4028235e+38,-3.4028235e+38,-3.4028235e+38,-3.4028235e+38,-3.4028235e+38,-3.4028235e+38,-3.4028235e+38,-3.4028235e+38,-3.4028235e+38,-3.4028235e+38,-3.4028235e+38,-3.4028235e+38,-3.4028235e+38,-3.4028235e+38,-3.4028235e+38,-3.4028235e+38,-3.4028235e+38,-3.4028235e+38,-3.4028235e+38,-3.4028235e+38,-3.4028235e+38,-3.4028235e+38,-3.4028235e+38,-3.4028235e+38,-3.4028235e+38,-3.4028235e+38,-3.4028235e+38,-3.4028235e+38,-3.4028235e+38,-3.4028235e+38,-3.4028235e+38,-3.4028235e+38,-3.4028235e+38,-3.4028235e+38,-3.4028235e+38,-3.4028235e+38,-3.4028235e+38,-3.4028235e+38,-3.4028235e+38,-3.4028235e+38,-3.4028235e+38,-3.4028235e+38,-3.4028235e+38,-3.4028235e+38,-3.4028235e+38,-3.4028235e+38,-3.4028235e+38,-3.4028235e+38,-3.4028235e+38,-3.4028235e+38,-3.4028235e+38,-3.4028235e+38,-3.4028235e+38,-3.4028235e+38,-3.4028235e+38,-3.4028235e+38,-3.4028235e+38,-3.4028235e+38,-3.4028235e+38,-3.4028235e+38,-3.4028235e+38,-3.4028235e+38,-3.4028235e+38,-3.4028235e+38,-3.4028235e+38,-3.4028235e+38,-3.4028235e+38,-3.4028235e+38,-3.4028235e+38,-3.4028235e+38,-3.4028235e+38,-3.4028235e+38,-3.4028235e+38,-3.4028235e+38,-3.4028235e+38,-3.4028235e+38,-3.4028235e+38,-3.4028235e+38,-3.4028235e+38,-3.4028235e+38,-3.4028235e+38,-3.4028235e+38,-3.4028235e+38,-3.4028235e+38,-3.4028235e+38,-3.4028235e+38,-3.4028235e+38,-3.4028235e+38,-3.4028235e+38,-3.4028235e+38,-3.4028235e+38,-3.4028235e+38,-3.4028235e+38,-3.4028235e+38,-3.4028235e+38,-3.4028235e+38,-3.4028235e+38,-3.4028235e+38,-3.4028235e+38,-3.4028235e+38,-3.4028235e+38,-3.4028235e+38,-3.4028235e+38,-3.4028235e+38,-3.4028235e+38,-3.4028235e+38,-3.4028235e+38,-3.4028235e+38,-3.4028235e+38,-3.4028235e+38,-3.4028235e+38,-3.4028235e+38,-3.4028235e+38,-3.4028235e+38,-3.4028235e+38,-3.4028235e+38,-3.4028235e+38,-3.4028235e+38,-3.4028235e+38,-3.4028235e+38,-3.4028235e+38,-3.4028235e+38,-3.4028235e+38,-3.4028235e+38,-3.4028235e+38,-3.4028235e+38,-3.4028235e+38,-3.4028235e+38,-3.4028235e+38,-3.4028235e+38,-3.4028235e+38,-3.4028235e+38,-3.4028235e+38,-3.4028235e+38,-3.4028235e+38,-3.4028235e+38,-3.4028235e+38,-3.4028235e+38,-3.4028235e+38,-3.4028235e+38,-3.4028235e+38,-3.4028235e+38,-3.4028235e+38,-3.4028235e+38,-3.4028235e+38,-3.4028235e+38,-3.4028235e+38,-3.4028235e+38,-3.4028235e+38,-3.4028235e+38,-3.4028235e+38,-3.4028235e+38,-3.4028235e+38,-3.4028235e+38,
3.4028235e+38,3.4028235e+38,3.4028235e+38,3.4028235e+38,3.4028235e+38,3.4028235e+38,3.4028235e+38,3.4028235e+38,3.4028235e+38,3.4028235e+38,3.4028235e+38,3.4028235e+38,3.4028235e+38,3.4028235e+38,3.4028235e+38,3.4028235e+38,3.4028235e+38,3.4028235e+38,3.4028235e+38,3.4028235e+38,3.4028235e+38,3.4028235e+38,3.4028235e+38,3.4028235e+38,3.4028235e+38,3.4028235e+38,3.4028235e+38,3.4028235e+38,3.4028235e+38,3.4028235e+38,3.4028235e+38,3.4028235e+38,3.4028235e+38,3.4028235e+38,3.4028235e+38,3.4028235e+38,3.4028235e+38,3.4028235e+38,3.4028235e+38,3.4028235e+38,3.4028235e+38,3.4028235e+38,3.4028235e+38,3.4028235e+38,3.4028235e+38,3.4028235e+38,3.4028235e+38,3.4028235e+38,3.4028235e+38,3.4028235e+38,3.4028235e+38,3.4028235e+38,3.4028235e+38,3.4028235e+38,3.4028235e+38,3.4028235e+38,3.4028235e+38,3.4028235e+38,3.4028235e+38,3.4028235e+38,3.4028235e+38,3.4028235e+38,3.4028235e+38,3.4028235e+38,3.4028235e+38,3.4028235e+38,3.4028235e+38,3.4028235e+38,3.4028235e+38,3.4028235e+38,3.4028235e+38,3.4028235e+38,3.4028235e+38,3.4028235e+38,3.4028235e+38,3.4028235e+38,3.4028235e+38,3.4028235e+38,3.4028235e+38,3.4028235e+38,3.4028235e+38,3.4028235e+38,3.4028235e+38,3.4028235e+38,3.4028235e+38,3.4028235e+38,3.4028235e+38,3.4028235e+38,3.4028235e+38,3.4028235e+38,3.4028235e+38,3.4028235e+38,3.4028235e+38,3.4028235e+38,3.4028235e+38,3.4028235e+38,3.4028235e+38,3.4028235e+38,3.4028235e+38,3.4028235e+38,3.4028235e+38,3.4028235e+38,3.4028235e+38,3.4028235e+38,3.4028235e+38,3.4028235e+38,3.4028235e+38,3.4028235e+38,3.4028235e+38,3.4028235e+38,3.4028235e+38,3.4028235e+38,3.4028235e+38,3.4028235e+38,3.4028235e+38,3.4028235e+38,3.4028235e+38,3.4028235e+38,3.4028235e+38,3.4028235e+38,3.4028235e+38,3.4028235e+38,3.4028235e+38,3.4028235e+38,3.4028235e+38,3.4028235e+38,3.4028235e+38,3.4028235e+38,3.4028235e+38,3.4028235e+38,3.4028235e+38,3.4028235e+38,3.4028235e+38,3.4028235e+38,3.4028235e+38,3.4028235e+38,3.4028235e+38,3.4028235e+38,3.4028235e+38,3.4028235e+38,3.4028235e+38,3.4028235e+38,3.4028235e+38,3.4028235e+38,3.4028235e+38,3.4028235e+38,3.4028235e+38,3.4028235e+38,3.4028235e+38,3.4028235e+38,3.4028235e+38,3.4028235e+38,3.4028235e+38,3.4028235e+38,3.4028235e+38,3.4028235e+38,3.4028235e+38,3.4028235e+38,3.4028235e+38,3.4028235e+38,3.4028235e+38,3.4028235e+38,3.4028235e+38,3.4028235e+38,3.4028235e+38,3.4028235e+38,3.4028235e+38,3.4028235e+38,3.4028235e+38,3.4028235e+38,3.4028235e+38,3.4028235e+38,3.4028235e+38,3.4028235e+38,3.4028235e+38,3.4028235e+38,3.4028235e+38,3.4028235e+38,3.4028235e+38,3.4028235e+38,3.4028235e+38,3.4028235e+38,3.4028235e+38,3.4028235e+38,3.4028235e+38,3.4028235e+38,3.4028235e+38,3.4028235e+38,3.4028235e+38,3.4028235e+38,3.4028235e+38,3.4028235e+38,3.4028235e+38,3.4028235e+38,3.4028235e+38,3.4028235e+38,3.4028235e+38,3.4028235e+38,3.4028235e+38,3.4028235e+38,3.4028235e+38,3.4028235e+38,3.4028235e+38,3.4028235e+38,3.4028235e+38,3.4028235e+38,3.4028235e+38,3.4028235e+38,3.4028235e+38,3.4028235e+38,3.4028235e+38,3.4028235e+38,3.4028235e+38,3.4028235e+38,3.4028235e+38,3.4028235e+38,3.4028235e+38,3.4028235e+38,3.4028235e+38,3.4028235e+38,3.4028235e+38,3.4028235e+38,3.4028235e+38,3.4028235e+38,3.4028235e+38,3.4028235e+38,3.4028235e+38,3.4028235e+38,3.4028235e+38,3.4028235e+38,3.4028235e+38,3.4028235e+38,3.4028235e+38,3.4028235e+38,3.4028235e+38,3.4028235e+38,3.4028235e+38,3.4028235e+38,3.4028235e+38,3.4028235e+38,3.4028235e+38,3.4028235e+38,3.4028235e+38,3.4028235e+38,3.4028235e+38,3.4028235e+38,3.4028235e+38,3.4028235e+38,3.4028235e+38,3.4028235e+38,3.4028235e+38,3.4028235e+38,3.4028235e+38,3.4028235e+38,3.4028235e+38,3.4028235e+38,3.4028235e+38,3.4028235e+38,3.4028235e+38,3.4028235e+38,3.4028235e+38,3.4028235e+38,3.4028235e+38,3.4028235e+38,3.4028235e+38,3.4028235e+38,3.4028235e+38,3.4028235e+38,3.4028235e+38,3.4028235e+38,3.4028235e+38,3.4028235e+38,3.4028235e+38,3.4028235e+38,3.4028235e+38,3.4028235e+38,3.4028235e+38,3.4028235e+38,3.4028235e+38,3.4028235e+38,3.4028235e+38,3.4028235e+38,3.4028235e+38,3.4028235e+38,3.4028235e+38,3.4028235e+38,3.4028235e+38,3.4028235e+38,3.4028235e+38,3.4028235e+38,3.4028235e+38,3.4028235e+38,3.4028235e+38,3.4028235e+38,3.4028235e+38,3.4028235e+38,3.4028235e+38,3.4028235e+38,3.4028235e+38,3.4028235e+38,3.4028235e+38,3.4028235e+38,3.4028235e+38,3.4028235e+38,3.4028235e+38,3.4028235e+38,3.4028235e+38,3.4028235e+38,3.4028235e+38,3.4028235e+38,3.4028235e+38,3.4028235e+38,3.4028235e+38,3.4028235e+38,3.4028235e+38,3.4028235e+38,3.4028235e+38,3.4028235e+38,3.4028235e+38,3.4028235e+38,3.4028235e+38,3.4028235e+38,3.4028235e+38,3.4028235e+38,3.4028235e+38,3.4028235e+38,3.4028235e+38,3.4028235e+38,3.4028235e+38,3.4028235e+38,3.4028235e+38,3.4028235e+38,3.4028235e+38,3.4028235e+38,3.4028235e+38,3.4028235e+38,3.4028235e+38,3.4028235e+38,3.4028235e+38,3.4028235e+38,3.4028235e+38,3.4028235e+38,3.4028235e+38,3.4028235e+38,3.4028235e+38,3.4028235e+38,3.4028235e+38,3.4028235e+38,3.4028235e+38,3.4028235e+38,3.4028235e+38,3.4028235e+38,3.4028235e+38,3.4028235e+38,3.4028235e+38,3.4028235e+38,3.4028235e+38,3.4028235e+38,3.4028235e+38,3.4028235e+38,3.4028235e+38,3.4028235e+38,3.4028235e+38,3.4028235e+38,3.4028235e+38,3.4028235e+38,3.4028235e+38,3.4028235e+38,3.4028235e+38,3.4028235e+38,3.4028235e+38,3.4028235e+38,3.4028235e+38,3.4028235e+38,3.4028235e+38,3.4028235e+38,3.4028235e+38,3.4028235e+38,3.4028235e+38,3.4028235e+38,3.4028235e+38,3.4028235e+38,3.4028235e+38,3.4028235e+38,3.4028235e+38,3.4028235e+38,3.4028235e+38,3.4028235e+38,3.4028235e+38,3.4028235e+38,3.4028235e+38,3.4028235e+38,3.4028235e+38,3.4028235e+38,3.4028235e+38,3.4028235e+38,3.4028235e+38,3.4028235e+38,3.4028235e+38,3.4028235e+38,3.4028235e+38,3.4028235e+38,3.4028235e+38,3.4028235e+38,3.4028235e+38,3.4028235e+38,3.4028235e+38,3.4028235e+38,3.4028235e+38,3.4028235e+38,3.4028235e+38,3.4028235e+38,3.4028235e+38,3.4028235e+38,3.4028235e+38,3.4028235e+38,3.4028235e+38,3.4028235e+38,3.4028235e+38,3.4028235e+38,3.4028235e+38,3.4028235e+38,3.4028235e+38,3.4028235e+38,3.4028235e+38,3.4028235e+38,3.4028235e+38,3.4028235e+38,3.4028235e+38,3.4028235e+38,3.4028235e+38,3.4028235e+38,3.4028235e+38,3.4028235e+38,3.4028235e+38,3.4028235e+38,3.4028235e+38,3.4028235e+38,3.4028235e+38,3.4028235e+38,3.4028235e+38,3.4028235e+38,3.4028235e+38,3.4028235e+38,3.4028235e+38,3.4028235e+38,3.4028235e+38,3.4028235e+38,3.4028235e+38,3.4028235e+38,3.4028235e+38,3.4028235e+38,3.4028235e+38,3.4028235e+38,3.4028235e+38,3.4028235e+38,3.4028235e+38,3.4028235e+38,3.4028235e+38,3.4028235e+38,3.4028235e+38,3.4028235e+38,3.4028235e+38,3.4028235e+38,3.4028235e+38,3.4028235e+38,3.4028235e+38,3.4028235e+38,3.4028235e+38,3.4028235e+38,3.4028235e+38,3.4028235e+38,3.4028235e+38,3.4028235e+38,3.4028235e+38,3.4028235e+38,3.4028235e+38,3.4028235e+38,3.4028235e+38,3.4028235e+38,3.4028235e+38,3.4028235e+38,3.4028235e+38,3.4028235e+38,3.4028235e+38,3.4028235e+38,3.4028235e+38,3.4028235e+38,3.4028235e+38,3.4028235e+38,3.4028235e+38,3.4028235e+38,3.4028235e+38,3.4028235e+38,3.4028235e+38,3.4028235e+38,3.4028235e+38,3.4028235e+38,3.4028235e+38,3.4028235e+38,3.4028235e+38,3.4028235e+38,3.4028235e+38,3.4028235e+38,3.4028235e+38,3.4028235e+38,3.4028235e+38,3.4028235e+38,3.4028235e+38,3.4028235e+38,3.4028235e+38,3.4028235e+38,3.4028235e+38,3.4028235e+38,3.4028235e+38,3.4028235e+38,3.4028235e+38,3.4028235e+38,3.4028235e+38,3.4028235e+38,3.4028235e+38,3.4028235e+38,3.4028235e+38,3.4028235e+38,3.4028235e+38,3.4028235e+38,3.4028235e+38,3.4028235e+38,3.4028235e+38,3.4028235e+38,3.4028235e+38,3.4028235e+38,3.4028235e+38,3.4028235e+38,3.4028235e+38,3.4028235e+38,3.4028235e+38,3.4028235e+38,3.4028235e+38,3.4028235e+38,3.4028235e+38,3.4028235e+38,3.4028235e+38,3.4028235e+38,3.4028235e+38,3.4028235e+38,3.4028235e+38,3.4028235e+38,3.4028235e+38,3.4028235e+38,3.4028235e+38,3.4028235e+38,3.4028235e+38,3.4028235e+38,3.4028235e+38,3.4028235e+38,3.4028235e+38,3.4028235e+38,3.4028235e+38,3.4028235e+38,3.4028235e+38,3.4028235e+38,3.4028235e+38,3.4028235e+38,3.4028235e+38,3.4028235e+38,3.4028235e+38,3.4028235e+38,3.4028235e+38,3.4028235e+38,3.4028235e+38,3.4028235e+38,3.4028235e+38,3.4028235e+38,3.4028235e+38,3.4028235e+38,3.4028235e+38,3.4028235e+38,3.4028235e+38,3.4028235e+38,3.4028235e+38,3.4028235e+38,3.4028235e+38,3.4028235e+38,3.4028235e+38,3.4028235e+38,3.4028235e+38,3.4028235e+38,3.4028235e+38,3.4028235e+38,3.4028235e+38,3.4028235e+38,3.4028235e+38,3.4028235e+38,3.4028235e+38,3.4028235e+38,3.4028235e+38,3.4028235e+38,3.4028235e+38,3.4028235e+38,3.4028235e+38,3.4028235e+38,3.4028235e+38,3.4028235e+38,3.4028235e+38,3.4028235e+38,3.4028235e+38,3.4028235e+38,3.4028235e+38,3.4028235e+38,3.4028235e+38,3.4028235e+38,3.4028235e+38,3.4028235e+38,3.4028235e+38,3.4028235e+38,3.4028235e+38,3.4028235e+38,3.4028235e+38,3.4028235e+38,3.4028235e+38,3.4028235e+38,3.4028235e+38,3.4028235e+38,3.4028235e+38,3.4028235e+38,3.4028235e+38,3.4028235e+38,3.4028235e+38,3.4028235e+38,3.4028235e+38,3.4028235e+38,3.4028235e+38,3.4028235e+38,3.4028235e+38,3.4028235e+38,3.4028235e+38,3.4028235e+38,3.4028235e+38,3.4028235e+38,3.4028235e+38,3.4028235e+38,3.4028235e+38,3.4028235e+38,3.4028235e+38,3.4028235e+38,3.4028235e+38,3.4028235e+38,3.4028235e+38,3.4028235e+38,3.4028235e+38,3.4028235e+38,3.4028235e+38,3.4028235e+38,3.4028235e+38,3.4028235e+38,3.4028235e+38,3.4028235e+38,3.4028235e+38,3.4028235e+38,3.4028235e+38,3.4028235e+38,3.4028235e+38,3.4028235e+38,3.4028235e+38,3.4028235e+38,3.4028235e+38,3.4028235e+38,3.4028235e+38,3.4028235e+38,3.4028235e+38,3.4028235e+38,3.4028235e+38,3.4028235e+38,3.4028235e+38,3.4028235e+38,3.4028235e+38,3.4028235e+38,3.4028235e+38,3.4028235e+38,3.4028235e+38,3.4028235e+38,3.4028235e+38,3.4028235e+38,3.4028235e+38,3.4028235e+38,3.4028235e+38,3.4028235e+38,3.4028235e+38,3.4028235e+38,3.4028235e+38,3.4028235e+38,3.4028235e+38,3.4028235e+38,3.4028235e+38,3.4028235e+38,3.4028235e+38,3.4028235e+38,3.4028235e+38,3.4028235e+38,3.4028235e+38,3.4028235e+38,3.4028235e+38,3.4028235e+38,3.4028235e+38,3.4028235e+38,3.4028235e+38,3.4028235e+38,3.4028235e+38,3.4028235e+38,3.4028235e+38,3.4028235e+38,3.4028235e+38,3.4028235e+38,3.4028235e+38,3.4028235e+38,3.4028235e+38,3.4028235e+38,3.4028235e+38,3.4028235e+38,3.4028235e+38,3.4028235e+38,3.4028235e+38,3.4028235e+38,3.4028235e+38,3.4028235e+38,3.4028235e+38,3.4028235e+38,3.4028235e+38,3.4028235e+38,3.4028235e+38,3.4028235e+38,3.4028235e+38,3.4028235e+38,3.4028235e+38,3.4028235e+38,3.4028235e+38,3.4028235e+38,3.4028235e+38,3.4028235e+38,3.4028235e+38,3.4028235e+38,3.4028235e+38,3.4028235e+38,3.4028235e+38,3.4028235e+38,3.4028235e+38,3.4028235e+38,3.4028235e+38,3.4028235e+38,3.4028235e+38,3.4028235e+38,3.4028235e+38,3.4028235e+38,3.4028235e+38,3.4028235e+38,3.4028235e+38,3.4028235e+38,3.4028235e+38,3.4028235e+38,3.4028235e+38,3.4028235e+38,3.4028235e+38,3.4028235e+38,3.4028235e+38,3.4028235e+38,3.4028235e+38,3.4028235e+38,3.4028235e+38,3.4028235e+38,3.4028235e+38,3.4028235e+38,3.4028235e+38,3.4028235e+38,3.4028235e+38,3.4028235e+38,3.4028235e+38,3.4028235e+38,3.4028235e+38,3.4028235e+38,3.4028235e+38,3.4028235e+38,3.4028235e+38,3.4028235e+38,
0.0,0.0,0.0,0.0,0.0,0.0,0.0,0.0,0.0,0.0,0.0,0.0,0.0,0.0,0.0,0.0,0.0,0.0,0.0,0.0,0.0,0.0,0.0,0.0,0.0,0.0,0.0,0.0,0.0,0.0,0.0,0.0,0.0,0.0,0.0,0.0,0.0,0.0,0.0,0.0,0.0,0.0,0.0,0.0,0.0,0.0,0.0,0.0,0.0,0.0,0.0,0.0,0.0,0.0,0.0,0.0,0.0,0.0,0.0,0.0,0.0,0.0,0.0,0.0,0.0,0.0,0.0,0.0,0.0,0.0,0.0,0.0,0.0,0.0,0.0,0.0,0.0,0.0,0.0,0.0,0.0,0.0,0.0,0.0,0.0,0.0,0.0,0.0,0.0,0.0,0.0,0.0,0.0,0.0,0.0,0.0,0.0,0.0,0.0,0.0,0.0,0.0,0.0,0.0,0.0,0.0,0.0,0.0,0.0,0.0,0.0,0.0,0.0,0.0,0.0,0.0,0.0,0.0,0.0,0.0,0.0,0.0,0.0,0.0,0.0,0.0,0.0,0.0,0.0,0.0,0.0,0.0,0.0,0.0,0.0,0.0,0.0,0.0,0.0,0.0,0.0,0.0,0.0,0.0,0.0,0.0,0.0,0.0,0.0,0.0,0.0,0.0,0.0,0.0,0.0,0.0,0.0,0.0,0.0,0.0,0.0,0.0,0.0,0.0,0.0,0.0,0.0,0.0,0.0,0.0,0.0,0.0,0.0,0.0,0.0,0.0,0.0,0.0,0.0,0.0,0.0,0.0,0.0,0.0,0.0,0.0,0.0,0.0,0.0,0.0,0.0,0.0,0.0,0.0,0.0,0.0,0.0,0.0,0.0,0.0,0.0,0.0,0.0,0.0,0.0,0.0,0.0,0.0,0.0,0.0,0.0,0.0,0.0,0.0,0.0,0.0,0.0,0.0,0.0,0.0,0.0,0.0,0.0,0.0,0.0,0.0,0.0,0.0,0.0,0.0,0.0,0.0,0.0,0.0,0.0,0.0,0.0,0.0,0.0,0.0,0.0,0.0,0.0,0.0,0.0,0.0,0.0,0.0,0.0,0.0,0.0,0.0,0.0,0.0,0.0,0.0,0.0,0.0,0.0,0.0,0.0,0.0,0.0,0.0,0.0,0.0,0.0,0.0,0.0,0.0,0.0,0.0,0.0,0.0,0.0,0.0,0.0,0.0,0.0,0.0,0.0,0.0,0.0,0.0,0.0,0.0,0.0,0.0,0.0,0.0,0.0,0.0,0.0,0.0,0.0,0.0,0.0,0.0,0.0,0.0,0.0,0.0,0.0,0.0,0.0,0.0,0.0,0.0,0.0,0.0,0.0,0.0,0.0,0.0,0.0,0.0,0.0,0.0,0.0,0.0,0.0,0.0,0.0,0.0,0.0,0.0,0.0,0.0,0.0,0.0,0.0,0.0,0.0,0.0,0.0,0.0,0.0,0.0,0.0,0.0,0.0,0.0,0.0,0.0,0.0,0.0,0.0,0.0,0.0,0.0,0.0,0.0,0.0,0.0,0.0,0.0,0.0,0.0,0.0,0.0,0.0,0.0,0.0,0.0,0.0,0.0,0.0,0.0,0.0,0.0,0.0,0.0,0.0,0.0,0.0,0.0,0.0,0.0,0.0,0.0,0.0,0.0,0.0,0.0,0.0,0.0,0.0,0.0,0.0,0.0,0.0,0.0,0.0,0.0,0.0,0.0,0.0,0.0,0.0,0.0,0.0,0.0,0.0,0.0,0.0,0.0,0.0,0.0,0.0,0.0,0.0,0.0,0.0,0.0,0.0,0.0,0.0,0.0,0.0,0.0,0.0,0.0,0.0,0.0,0.0,0.0,0.0,0.0,0.0,0.0,0.0,0.0,0.0,0.0,0.0,0.0,0.0,0.0,0.0,0.0,0.0,0.0,0.0,0.0,0.0,0.0,0.0,0.0,0.0,0.0,0.0,0.0,0.0,0.0,0.0,0.0,0.0,0.0,0.0,0.0,0.0,0.0,0.0,0.0,0.0,0.0,0.0,0.0,0.0,0.0,0.0,0.0,0.0,0.0,0.0,0.0,0.0,0.0,0.0,0.0,0.0,0.0,0.0,0.0,0.0,0.0,0.0,0.0,0.0,0.0,0.0,0.0,0.0,0.0,0.0,0.0,0.0,0.0,0.0,0.0,0.0,0.0,0.0,0.0,0.0,0.0,0.0,0.0,0.0,0.0,0.0,0.0,0.0,0.0,0.0,0.0,0.0,0.0,0.0,0.0,0.0,0.0,0.0,0.0,0.0,0.0,0.0,0.0,0.0,0.0,0.0,0.0,0.0,0.0,0.0,0.0,0.0,0.0,0.0,0.0,0.0,0.0,0.0,0.0,0.0,0.0,0.0,0.0,0.0,0.0,0.0,0.0,0.0,0.0,0.0,0.0,0.0,0.0,0.0,0.0,0.0,0.0,0.0,0.0,0.0,0.0,0.0,0.0,0.0,0.0,0.0,0.0,0.0,0.0,0.0,0.0,0.0,0.0,0.0,0.0,0.0,0.0,0.0,0.0,0.0,0.0,0.0,0.0,0.0,0.0,0.0,0.0,0.0,0.0,0.0,0.0,0.0,0.0,0.0,0.0,0.0,0.0,0.0,0.0,0.0,0.0,0.0,0.0,0.0,0.0,0.0,0.0,0.0,0.0,0.0,0.0,0.0,0.0,0.0,0.0,0.0,0.0,0.0,0.0,0.0,0.0,0.0,0.0,0.0,0.0,0.0,0.0,0.0,0.0,0.0,0.0,0.0,0.0,0.0,0.0,0.0,0.0,0.0,0.0,0.0,0.0,0.0,0.0,0.0,0.0,0.0,0.0,0.0,0.0,0.0,0.0,0.0,0.0,0.0,0.0,0.0,0.0,0.0,0.0,0.0,0.0,0.0,0.0,0.0,0.0,0.0,0.0,0.0,0.0,0.0,0.0,0.0,0.0,0.0,0.0,0.0,0.0,0.0,0.0,0.0,0.0,0.0,0.0,0.0,0.0,0.0,0.0,0.0,0.0,0.0,0.0,0.0,0.0,0.0,0.0,0.0,0.0,0.0,0.0,0.0,0.0,0.0,0.0,0.0,0.0,0.0,0.0,0.0,0.0,0.0,0.0,0.0,0.0,0.0,0.0,0.0,0.0,0.0,0.0,0.0,0.0,0.0,0.0,0.0,0.0,0.0,0.0,0.0,0.0,0.0,0.0,0.0,0.0,0.0,0.0,0.0,0.0,0.0,0.0,0.0,0.0,0.0,0.0,0.0,0.0,0.0,0.0,0.0,0.0,0.0,0.0,0.0,0.0,0.0,0.0,0.0,0.0,0.0,0.0,0.0,0.0,0.0,0.0,0.0,0.0,0.0,0.0,0.0,0.0,0.0,0.0,0.0,0.0,0.0,0.0,0.0,0.0,0.0,0.0,0.0,
1.0,1.0,1.0,1.0,1.0,1.0,1.0,1.0,1.0,1.0,1.0,1.0,1.0,1.0,1.0,1.0,1.0,1.0,1.0,1.0,1.0,1.0,1.0,1.0,1.0,1.0,1.0,1.0,1.0,1.0,1.0,1.0,1.0,1.0,1.0,1.0,1.0,1.0,1.0,1.0,1.0,1.0,1.0,1.0,1.0,1.0,1.0,1.0,1.0,1.0,1.0,1.0,1.0,1.0,1.0,1.0,1.0,1.0,1.0,1.0,1.0,1.0,1.0,1.0,1.0,1.0,1.0,1.0,1.0,1.0,1.0,1.0,1.0,1.0,1.0,1.0,1.0,1.0,1.0,1.0,1.0,1.0,1.0,1.0,1.0,1.0,1.0,1.0,1.0,1.0,1.0,1.0,1.0,1.0,1.0,1.0,1.0,1.0,1.0,1.0,1.0,1.0,1.0,1.0,1.0,1.0,1.0,1.0,1.0,1.0,1.0,1.0,1.0,1.0,1.0,1.0,1.0,1.0,1.0,1.0,1.0,1.0,1.0,1.0,1.0,1.0,1.0,1.0,1.0,1.0,1.0,1.0,1.0,1.0,1.0,1.0,1.0,1.0,1.0,1.0,1.0,1.0,1.0,1.0,1.0,1.0,1.0,1.0,1.0,1.0,1.0,1.0,1.0,1.0,1.0,1.0,1.0,1.0,1.0,1.0,1.0,1.0,1.0,1.0,1.0,1.0,1.0,1.0,1.0,1.0,1.0,1.0,1.0,1.0,1.0,1.0,1.0,1.0,1.0,1.0,1.0,1.0,1.0,1.0,1.0,1.0,1.0,1.0,1.0,1.0,1.0,1.0,1.0,1.0,1.0,1.0,1.0,1.0,1.0,1.0,1.0,1.0,1.0,1.0,1.0,1.0,1.0,1.0,1.0,1.0,1.0,1.0,1.0,1.0,1.0,1.0,1.0,1.0,1.0,1.0,1.0,1.0,1.0,1.0,1.0,1.0,1.0,1.0,1.0,1.0,1.0,1.0,1.0,1.0,1.0,1.0,1.0,1.0,1.0,1.0,1.0,1.0,1.0,1.0,1.0,1.0,1.0,1.0,1.0,1.0,1.0,1.0,1.0,1.0,1.0,1.0,1.0,1.0,1.0,1.0,1.0,1.0,1.0,1.0,1.0,1.0,1.0,1.0,1.0,1.0,1.0,1.0,1.0,1.0,1.0,1.0,1.0,1.0,1.0,1.0,1.0,1.0,1.0,1.0,1.0,1.0,1.0,1.0,1.0,1.0,1.0,1.0,1.0,1.0,1.0,1.0,1.0,1.0,1.0,1.0,1.0,1.0,1.0,1.0,1.0,1.0,1.0,1.0,1.0,1.0,1.0,1.0,1.0,1.0,1.0,1.0,1.0,1.0,1.0,1.0,1.0,1.0,1.0,1.0,1.0,1.0,1.0,1.0,1.0,1.0,1.0,1.0,1.0,1.0,1.0,1.0,1.0,1.0,1.0,1.0,1.0,1.0,1.0,1.0,1.0,1.0,1.0,1.0,1.0,1.0,1.0,1.0,1.0,1.0,1.0,1.0,1.0,1.0,1.0,1.0,1.0,1.0,1.0,1.0,1.0,1.0,1.0,1.0,1.0,1.0,1.0,1.0,1.0,1.0,1.0,1.0,1.0,1.0,1.0,1.0,1.0,1.0,1.0,1.0,1.0,1.0,1.0,1.0,1.0,1.0,1.0,1.0,1.0,1.0,1.0,1.0,1.0,1.0,1.0,1.0,1.0,1.0,1.0,1.0,1.0,1.0,1.0,1.0,1.0,1.0,1.0,1.0,1.0,1.0,1.0,1.0,1.0,1.0,1.0,1.0,1.0,1.0,1.0,1.0,1.0,1.0,1.0,1.0,1.0,1.0,1.0,1.0,1.0,1.0,1.0,1.0,1.0,1.0,1.0,1.0,1.0,1.0,1.0,1.0,1.0,1.0,1.0,1.0,1.0,1.0,1.0,1.0,1.0,1.0,1.0,1.0,1.0,1.0,1.0,1.0,1.0,1.0,1.0,1.0,1.0,1.0,1.0,1.0,1.0,1.0,1.0,1.0,1.0,1.0,1.0,1.0,1.0,1.0,1.0,1.0,1.0,1.0,1.0,1.0,1.0,1.0,1.0,1.0,1.0,1.0,1.0,1.0,1.0,1.0,1.0,1.0,1.0,1.0,1.0,1.0,1.0,1.0,1.0,1.0,1.0,1.0,1.0,1.0,1.0,1.0,1.0,1.0,1.0,1.0,1.0,1.0,1.0,1.0,1.0,1.0,1.0,1.0,1.0,1.0,1.0,1.0,1.0,1.0,1.0,1.0,1.0,1.0,1.0,1.0,1.0,1.0,1.0,1.0,1.0,1.0,1.0,1.0,1.0,1.0,1.0,1.0,1.0,1.0,1.0,1.0,1.0,1.0,1.0,1.0,1.0,1.0,1.0,1.0,1.0,1.0,1.0,1.0,1.0,1.0,1.0,1.0,1.0,1.0,1.0,1.0,1.0,1.0,1.0,1.0,1.0,1.0,1.0,1.0,1.0,1.0,1.0,1.0,1.0,1.0,1.0,1.0,1.0,1.0,1.0,1.0,1.0,1.0,1.0,1.0,1.0,1.0,1.0,1.0,1.0,1.0,1.0,1.0,1.0,1.0,1.0,1.0,1.0,1.0,1.0,1.0,1.0,1.0,1.0,1.0,1.0,1.0,1.0,1.0,1.0,1.0,1.0,1.0,1.0,1.0,1.0,1.0,1.0,1.0,1.0,1.0,1.0,1.0,1.0,1.0,1.0,1.0,1.0,1.0,1.0,1.0,1.0,1.0,1.0,1.0,1.0,1.0,1.0,1.0,1.0,1.0,1.0,1.0,1.0,1.0,1.0,1.0,1.0,1.0,1.0,1.0,1.0,1.0,1.0,1.0,1.0,1.0,1.0,1.0,1.0,1.0,1.0,1.0,1.0,1.0,1.0,1.0,1.0,1.0,1.0,1.0,1.0,1.0,1.0,1.0,1.0,1.0,1.0,1.0,1.0,1.0,1.0,1.0,1.0,1.0,1.0,1.0,1.0,1.0,1.0,1.0,1.0,1.0,1.0,1.0,1.0,1.0,1.0,1.0,1.0,1.0,1.0,1.0,1.0,1.0,1.0,1.0,1.0,1.0,1.0,1.0,1.0,1.0,1.0,1.0,1.0,1.0,1.0,1.0,1.0,1.0,1.0,1.0,1.0,1.0,1.0,1.0,1.0,1.0,1.0,1.0,1.0,1.0,1.0,1.0,1.0,1.0,1.0,1.0,1.0,1.0,1.0,1.0,1.0,1.0,1.0,1.0,1.0,1.0,1.0,1.0,1.0,1.0,1.0,1.0,1.0,1.0,1.0,1.0,1.0,1.0,1.0,1.0,1.0,1.0,1.0,1.0,1.0,1.0,1.0,1.0,1.0,1.0,1.0,1.0,1.0,
2.89966e-02,2.48273e-02,1.44570e-02,-1.90301e-03,2.80118e-02,3.16612e-02,-2.17466e-02,3.30618e-02,-1.53646e-02,2.46964e-02,-3.45077e-02,2.72602e-02,-1.92924e-02,1.95131e-02,5.19391e-03,-3.75269e-02,4.17279e-03,1.97256e-02,3.49397e-02,-2.85308e-02,4.00862e-03,2.66754e-02,-2.98605e-02,-1.69371e-02,-2.76003e-02,2.95797e-02,3.75249e-03,3.90597e-03,-3.19115e-02,-2.29101e-02,2.50634e-02,-2.42949e-02,3.22753e-02,-1.09543e-02,1.38413e-02,4.32923e-02,3.19873e-02,-8.38731e-03,-1.08361e-02,-2.19584e-02,-4.30336e-02,7.77449e-03,-5.47903e-02,-2.44730e-02,-4.71811e-02,9.99749e-03,8.83503e-03,3.87472e-02,7.96451e-02,2.89313e-02,-3.31516e-02,3.99291e-02,-2.66128e-02,-2.74024e-03,2.27420e-02,3.11959e-02,5.55034e-04,-1.83201e-02,1.00480e-02,-1.90959e-02,1.20635e-04,-5.17992e-03,4.45983e-02,2.19758e-02,-7.57226e-02,-5.35452e-02,2.74993e-02,5.28900e-04,-7.52352e-03,4.34432e-02,-4.98869e-02,-2.16638e-02,-1.29839e-02,3.77924e-02,2.83010e-02,5.12239e-02,2.42578e-02,-1.56294e-03,-2.76332e-02,7.72872e-02,1.08159e-01,1.00473e-01,2.07103e-02,-2.86822e-02,-2.42152e-02,-2.45775e-02,9.81600e-02,8.37686e-02,7.05056e-02,2.84172e-02,4.60819e-02,-3.49990e-02,-1.77011e-01,-4.25471e-02,-5.32927e-02,-2.08748e-01,-8.40604e-02,-8.02629e-02,-7.87668e-02,-5.18672e-02,6.02382e-02,7.02819e-02,-6.66826e-03,-4.37949e-02,-1.25053e-01,-7.78285e-02,4.97242e-02,1.60489e-01,1.59870e-01,6.90337e-02,-4.95274e-02,-2.63712e-02,-1.59714e-02,1.18493e-02,1.46190e-01,3.90850e-02,1.00629e-02,-5.46112e-02,-2.45243e-01,-2.14725e-01,-2.10029e-01,-1.35333e-01,-1.46289e-01,-1.40816e-01,-1.25865e-01,-6.05465e-02,-7.07960e-03,3.48288e-03,4.70308e-02,3.78497e-02,1.12596e-02,4.13735e-02,1.13732e-01,5.67570e-02,-1.70624e-02,7.18326e-02,-5.23283e-02,9.96996e-02,4.29626e-02,2.80448e-02,2.57651e-02,8.72192e-03,5.30039e-02,2.64131e-03,-1.43195e-02,-1.33291e-01,-3.28866e-01,-2.44506e-01,-1.86437e-01,-1.58417e-01,-3.95826e-02,1.55542e-02,-7.15882e-03,7.34356e-02,-9.87920e-04,4.52978e-02,3.83790e-02,1.93906e-01,1.81178e-01,1.80535e-01,2.14257e-01,2.28329e-01,2.65865e-02,7.75722e-02,-3.24736e-03,-5.47000e-02,5.60156e-02,-5.10822e-02,9.65136e-03,2.09349e-02,4.57576e-02,-4.73964e-03,-7.20083e-02,-1.57411e-01,-2.99490e-01,-2.40472e-01,-2.55896e-01,-1.15858e-01,-3.54089e-03,7.03365e-02,-1.49131e-02,-2.85558e-02,1.08503e-02,-6.36471e-02,-2.05849e-02,6.14303e-02,1.16844e-01,1.81125e-01,2.07851e-01,8.83028e-02,8.43553e-02,1.36388e-02,-1.32763e-02,2.77932e-03,-4.69612e-03,-5.43139e-02,7.39345e-03,-9.20897e-04,1.72855e-02,-6.17307e-02,-1.51641e-01,-1.22809e-01,-1.88755e-01,-1.50655e-01,-2.00805e-01,-1.12337e-01,1.03223e-02,9.05053e-02,5.51188e-02,5.30157e-02,-2.89521e-02,-1.27886e-01,-3.79166e-02,-5.69605e-02,-5.38856e-02,3.86440e-02,1.21308e-01,5.69742e-02,1.50048e-01,9.64735e-03,-2.82755e-02,-1.31837e-01,-8.10447e-02,-4.98180e-02,-2.79435e-02,-4.12581e-02,-7.15592e-02,-1.13269e-01,-1.17031e-01,-8.63392e-02,-9.26072e-02,-1.54521e-01,-2.85222e-01,-1.90298e-01,8.88055e-03,1.66413e-01,1.35987e-01,1.82816e-01,-3.08391e-02,-1.00798e-01,-1.89623e-01,-2.89333e-01,-3.20975e-01,-1.12830e-01,-1.70636e-02,-5.35361e-02,1.13593e-02,-1.03573e-01,-2.98118e-02,-1.09960e-01,-7.76255e-02,-6.61242e-04,-2.09579e-02,2.02939e-02,-3.79345e-02,-1.10749e-01,-2.02722e-01,-1.96364e-01,-2.14418e-01,-7.47147e-02,-1.35689e-01,-6.06150e-02,-2.70432e-02,1.39575e-01,2.25355e-01,1.30326e-01,1.77434e-03,-5.05626e-02,-1.95439e-01,-3.54690e-01,-3.14355e-01,-2.31389e-01,-1.68943e-01,-1.08530e-01,-1.64534e-01,-1.09160e-01,1.70074e-02,-9.47727e-02,-6.18512e-02,-9.56470e-02,-8.32635e-03,-8.64591e-03,2.39587e-02,-1.66568e-01,-1.09820e-01,-1.41220e-01,-1.56547e-01,-6.68687e-02,3.68808e-02,-4.69664e-02,-9.71508e-02,8.11809e-02,2.20454e-01,1.34890e-01,4.78339e-02,2.13097e-02,-3.46613e-02,-1.16228e-01,-1.91350e-01,-1.71385e-01,-9.80844e-02,-1.21782e-01,-1.84341e-01,-1.63106e-01,-1.13901e-01,-1.36325e-01,-9.79787e-02,-1.09293e-01,-2.60055e-02,1.09768e-02,-2.63671e-02,-1.29713e-01,-1.30033e-01,-3.53007e-02,-7.80757e-02,1.11385e-02,7.61020e-02,4.28774e-02,-1.42778e-01,-4.63072e-02,7.67626e-02,3.34239e-02,7.22118e-02,4.32292e-02,3.33376e-02,-2.86840e-02,-8.54231e-03,-2.36703e-02,-1.61062e-01,-2.00000e-01,-2.54684e-01,-2.19422e-01,-1.67689e-01,-1.22549e-01,6.40906e-02,5.97005e-02,-2.30889e-02,5.03285e-03,2.52377e-03,-1.23344e-01,-4.16160e-02,-1.03954e-01,-8.30964e-02,-4.38180e-02,1.43538e-02,-1.68018e-02,-9.99930e-02,-7.88123e-02,2.13461e-02,6.27396e-02,8.35019e-02,4.97819e-02,4.94662e-02,-4.60086e-03,7.07055e-03,-7.47068e-02,-7.31140e-02,-1.63015e-01,-1.32589e-01,-9.00705e-02,-1.59707e-02,2.49513e-02,1.32136e-01,2.38510e-01,2.96876e-03,6.78996e-03,-1.45879e-02,-1.73660e-02,-7.72901e-02,-1.63304e-01,-3.20284e-02,-7.17269e-02,1.22845e-02,-8.49545e-02,-8.81865e-02,-9.42497e-02,4.18300e-04,7.03542e-02,1.57142e-01,1.31229e-01,4.83005e-02,-9.55601e-02,-9.86050e-02,-1.00658e-01,-1.38481e-02,-1.38083e-01,-2.02077e-01,-1.09046e-01,-6.31646e-02,-2.63817e-02,9.67825e-02,1.69867e-01,1.26456e-02,-6.93260e-02,-5.25464e-03,7.69835e-02,1.07689e-03,1.24133e-01,-3.08166e-02,-9.21075e-02,5.16566e-02,-4.36868e-02,-1.10011e-01,-1.43109e-02,1.46585e-02,6.02621e-02,7.04191e-02,3.79433e-02,7.02155e-02,-7.72854e-02,-3.84387e-02,-4.10070e-02,-2.74903e-02,-1.76094e-01,-1.72810e-01,-1.06044e-01,-1.50002e-01,-1.41085e-01,1.78868e-01,1.55752e-01,-1.10956e-02,-8.90620e-02,-2.01301e-02,1.74261e-01,-1.84474e-02,9.43481e-02,-1.81584e-02,6.35596e-02,6.51606e-02,3.28852e-03,-6.74057e-02,-3.08598e-02,-6.10451e-03,7.33927e-02,7.72766e-03,-1.72567e-02,6.17889e-02,-7.41306e-02,1.50898e-02,-8.09068e-02,-1.02937e-01,-7.64425e-02,-1.55023e-01,-1.79464e-01,-1.09717e-01,-1.24559e-02,1.04359e-01,2.12939e-02,2.37625e-04,-2.24058e-02,5.63339e-03,5.73701e-02,1.05859e-02,-2.16554e-03,1.26355e-02,1.08587e-01,4.72222e-02,2.78186e-02,1.94693e-02,3.97862e-02,-4.31436e-02,-3.88742e-02,-2.01372e-02,-2.98935e-02,-2.21981e-02,-5.62047e-02,2.46693e-02,-7.20842e-02,-7.94047e-02,-1.76012e-02,-2.42917e-02,-1.11297e-01,-9.71934e-02,7.77329e-02,2.52987e-01,-1.57607e-02,2.75713e-02,1.33767e-02,-4.27770e-02,1.00984e-01,5.19162e-02,4.38007e-03,3.41462e-02,1.92416e-01,9.41844e-02,4.44325e-02,-1.38434e-02,-1.27928e-01,-8.16991e-02,-3.18683e-02,-5.11921e-02,-8.79186e-02,-2.05076e-02,-9.56821e-02,-5.31023e-02,-1.30963e-01,-4.04575e-02,5.33710e-02,-9.98402e-03,-1.66527e-01,-1.51034e-01,2.49467e-02,1.99507e-01,1.28892e-01,-1.07150e-03,1.94586e-02,-3.59408e-02,5.78542e-02,1.22457e-01,-3.72275e-03,-2.31866e-02,1.63711e-01,1.88669e-01,2.15742e-01,4.86949e-02,-3.19616e-03,-6.79994e-02,-6.17882e-02,1.08901e-02,2.78771e-02,-1.18307e-02,-6.90098e-02,-1.02726e-01,-1.63314e-01,-1.49382e-03,7.37107e-02,1.68854e-02,-1.94446e-01,-1.53602e-01,-1.11882e-02,1.92433e-02,2.27583e-02,-1.30702e-02,4.34487e-03,1.58293e-01,-7.00669e-02,4.56412e-02,2.30044e-02,5.54040e-02,8.36026e-02,1.83540e-01,2.23677e-01,1.33328e-01,-3.22187e-02,-2.87860e-02,-6.02532e-02,-7.95271e-03,1.48262e-02,6.44332e-02,-7.24196e-02,-1.49680e-01,-1.18721e-01,3.13278e-02,1.01746e-01,1.09172e-01,-9.98827e-02,-1.54957e-01,-5.23695e-02,2.97600e-03,-2.70531e-03,-8.74811e-03,-3.01816e-02,1.41615e-01,-1.79959e-02,7.83231e-02,1.03562e-01,3.70345e-02,1.41021e-02,6.41930e-02,1.61515e-01,5.65936e-02,3.26875e-02,-2.23352e-02,-2.10777e-01,-1.08838e-01,7.74363e-02,-7.78912e-03,-5.85725e-02,-4.38628e-02,3.36194e-03,-2.26920e-02,1.87604e-01,7.97472e-02,-9.46826e-02,-1.56607e-02,9.80276e-02,5.84260e-02,-4.16056e-02,-4.89702e-05,2.75265e-02,1.06306e-01,9.85301e-02,1.04145e-01,1.01645e-01,4.51657e-02,-7.90584e-02,-1.64249e-02,1.55993e-01,5.38097e-02,3.85985e-04,-2.08505e-02,-7.77137e-02,4.59407e-02,6.98615e-02,2.06413e-02,2.90979e-02,8.56568e-02,7.14715e-02,3.76653e-02,5.44059e-02,-3.89843e-02,-7.40492e-02,-1.45195e-01,1.04142e-01,1.07757e-01,4.93031e-02,4.58079e-02,2.37772e-02,5.21774e-02,1.83253e-01,1.94893e-01,1.58394e-01,-7.25368e-02,-9.61309e-02,-7.98443e-02,7.06634e-02,7.38737e-02,1.68477e-02,-3.34436e-02,6.07416e-03,8.49929e-02,1.41593e-01,1.14732e-01,7.49539e-02,9.19678e-02,6.13861e-02,3.15735e-02,-2.63366e-02,-1.35288e-01,5.40681e-02,-8.97211e-02,-5.75093e-02,9.88208e-02,-1.97670e-03,-2.09813e-02,-2.50121e-02,-1.39081e-02,1.16412e-01,1.46445e-01,1.50468e-01,8.68883e-02,-7.77386e-02,-1.05376e-02,2.53686e-02,3.36728e-02,3.56314e-02,4.58572e-02,7.22248e-02,2.54211e-02,6.14094e-02,2.64395e-02,3.03178e-02,3.83739e-02,4.11687e-02,-2.15507e-02,-8.71609e-02,-1.25016e-01,-9.58763e-02,-1.24379e-01,-8.14380e-02,8.39239e-02,2.52462e-02,-8.61452e-03,2.89518e-02,9.17618e-03,-5.13836e-02,3.74159e-03,4.48373e-02,4.94859e-02,1.47386e-02,-3.49719e-02,-1.58130e-02,-5.32557e-02,7.46972e-02,3.49559e-02,3.20519e-02,3.63145e-03,8.35480e-03,5.64526e-02,4.55729e-03,-8.92995e-02,-6.62433e-02,-8.54656e-02,-4.06220e-02,-9.89479e-02,-7.34081e-02,-2.00049e-02,9.60799e-02,1.66118e-01,-1.28768e-02,-1.85243e-02,-5.16593e-03,-1.06655e-02,-7.56927e-02,-1.26283e-01,-1.15454e-01,-2.18745e-03,5.75090e-03,-3.80175e-02,1.68642e-01,8.54819e-02,3.77587e-03,-5.07984e-02,-2.08570e-01,-2.48056e-01,-2.54602e-01,-1.86861e-01,-1.86861e-01,-1.00392e-01,-9.71818e-02,-9.24800e-02,-3.11948e-02,-7.80258e-02,-1.58042e-01,-1.18125e-01,-1.65590e-02,-1.85765e-02,-1.01864e-02,-2.57464e-02,2.80655e-02,-3.21908e-02,1.72800e-02,-3.82817e-03,-1.61889e-02,-1.20441e-02,-2.95585e-02,-1.97193e-02,-4.77738e-02,-5.23048e-02,-1.66339e-02,-7.14646e-02,-1.53123e-01,-1.06567e-01,-1.12929e-01,-1.13712e-01,-4.03578e-02,-6.01314e-02,-1.26914e-01,-4.43045e-02,-2.94076e-03,2.99389e-03,-1.57560e-02,1.44848e-02,-1.64425e-02,-2.50075e-02,-2.11416e-03,-9.18410e-03,-1.08364e-02,5.48105e-03,1.12453e-02,-2.03474e-03,-4.06381e-02,2.90118e-02,3.13197e-02,9.12616e-03,1.95646e-02,-6.55435e-02,-7.90947e-02,-7.14434e-03,-1.75244e-02,-4.64909e-02,-6.00311e-02,-2.18388e-02,1.37802e-02,-3.49964e-03,-2.89795e-02,-1.63986e-02,-7.17120e-02,-5.47716e-02,1.08216e-02,-5.04728e-03,1.66454e-02,-3.53919e-02,2.38829e-02,
9.53073e-03,2.84798e-02,-1.26560e-02,6.61874e-03,-3.28634e-02,2.16742e-02,1.28638e-02,2.54593e-02,3.49697e-02,-1.30181e-02,-2.05783e-02,-1.54660e-02,-5.31332e-02,-3.49588e-02,8.22633e-03,-2.68049e-02,-2.70858e-02,-1.86511e-02,3.32320e-02,-3.00449e-02,-2.63500e-02,-1.62563e-02,1.00100e-02,8.13963e-03,-3.06384e-02,2.73683e-02,1.80496e-02,3.13334e-02,1.72113e-02,7.84973e-03,2.60677e-02,1.36155e-02,-2.16323e-02,-1.00082e-02,-4.08623e-02,-6.29823e-02,-7.04193e-03,1.28928e-02,-5.99397e-02,-5.43805e-02,-5.70938e-02,-3.89811e-04,4.87236e-02,-4.18858e-02,-9.54180e-03,-6.13079e-02,-1.37313e-02,-8.31920e-02,-4.61977e-02,-6.13018e-02,-6.73431e-02,-7.19318e-02,4.74651e-03,2.72624e-02,3.20669e-02,3.36524e-02,3.76356e-03,2.94650e-02,2.76301e-02,1.92258e-02,1.36480e-02,-3.27713e-02,-6.38468e-02,-3.56099e-02,-8.28100e-02,-4.21447e-02,-1.64628e-01,-2.02677e-01,-2.27618e-01,-2.06577e-01,-2.11674e-01,-8.81339e-02,-8.69239e-02,-7.51251e-02,-4.33942e-02,-2.00463e-01,-4.55553e-02,-5.40740e-02,-2.92003e-02,-4.79940e-02,-3.69328e-02,-3.27969e-02,-3.41092e-02,4.12445e-03,-1.41684e-02,-2.41613e-03,1.04526e-01,4.74549e-02,-1.82488e-02,-8.27995e-02,-4.20946e-02,-2.50294e-03,-1.75002e-01,-3.34038e-01,-2.49335e-01,-1.67265e-01,-1.45882e-01,-1.45495e-01,-1.69059e-01,-9.63689e-02,-1.24480e-01,-1.36383e-01,9.93698e-03,-2.35279e-02,-1.19706e-01,-6.20298e-02,-2.05442e-02,1.04904e-01,-6.17876e-02,-1.70854e-01,-8.45186e-02,3.39944e-02,2.47843e-02,-2.06341e-03,1.61916e-01,1.54003e-01,-4.21290e-02,-1.66693e-01,-1.33163e-01,-7.34761e-02,-5.42123e-02,3.44549e-03,-7.92238e-03,5.19390e-02,9.18890e-03,-6.89705e-02,1.94158e-02,4.16350e-02,1.48187e-01,8.11823e-02,-2.01503e-04,-4.72420e-02,-9.68462e-02,-1.88207e-01,-9.34284e-02,4.35233e-02,1.07197e-01,1.40679e-01,1.47973e-01,-4.77416e-02,-2.63448e-02,3.05933e-02,7.53745e-02,5.35615e-02,-1.03387e-01,-7.91952e-02,-1.27890e-02,-9.97986e-03,-1.28173e-01,-9.66034e-02,-8.21224e-02,9.06992e-02,8.18299e-02,3.72856e-02,6.82551e-03,-1.03203e-02,1.27282e-03,7.76300e-02,5.63772e-02,7.15154e-02,1.77100e-02,8.91723e-02,1.20612e-01,1.47457e-01,1.67853e-01,8.82225e-02,5.85716e-02,-1.10196e-01,2.26085e-02,3.84060e-02,-7.79431e-02,1.97866e-01,-1.33697e-02,-7.29239e-02,-3.99165e-03,-9.91335e-03,-3.48503e-02,-1.36225e-02,-1.97712e-02,2.75092e-02,8.42971e-02,9.01933e-02,1.29344e-02,3.85339e-02,3.01227e-02,1.00289e-01,3.88184e-02,1.66400e-02,3.04413e-02,2.91258e-02,7.84394e-02,1.78280e-01,1.36040e-01,9.37128e-02,1.74073e-01,1.03244e-02,4.80131e-03,1.69705e-01,1.06523e-02,4.80685e-02,4.79372e-03,-1.44622e-01,3.88043e-03,-1.84369e-02,3.90843e-02,9.42622e-02,1.09482e-01,-6.28748e-02,1.03246e-02,6.15044e-02,-4.15790e-03,6.44795e-02,2.87379e-02,4.52178e-02,2.91545e-02,8.71161e-03,3.27486e-02,9.57914e-02,1.40463e-01,2.25513e-01,1.10860e-01,-1.44349e-02,1.82767e-01,-7.85661e-02,-3.70511e-02,7.80264e-02,-2.23089e-02,8.26260e-02,2.35834e-01,5.28017e-02,1.29603e-01,1.00160e-01,1.86238e-01,1.42002e-01,8.63589e-02,9.60705e-02,7.23092e-02,6.18830e-02,1.14160e-02,-6.20329e-02,-3.35753e-03,6.75033e-02,8.04008e-02,5.79435e-02,1.05625e-02,6.06651e-02,1.11987e-01,8.30402e-02,1.31671e-01,7.59891e-02,2.31118e-01,1.36682e-01,7.32797e-02,1.86939e-01,-2.67591e-02,1.15209e-01,9.80711e-02,7.87716e-02,1.97836e-01,1.79019e-01,2.18643e-01,1.17993e-01,1.43704e-01,1.51569e-01,9.41502e-02,3.99166e-02,-6.94179e-02,-3.71264e-02,-4.12013e-02,4.96391e-02,5.35888e-02,1.10763e-01,8.31214e-02,1.13049e-01,1.29006e-01,1.66922e-01,1.14706e-01,1.16497e-01,1.25907e-01,-1.53786e-01,8.59399e-02,1.20419e-01,8.39630e-02,-5.69891e-02,1.24029e-01,1.26791e-01,2.54197e-01,1.49917e-01,1.72475e-01,1.42921e-01,1.18920e-01,1.50767e-01,4.92627e-02,-4.35467e-03,-4.15407e-02,-3.51513e-02,4.20097e-02,5.58671e-02,1.30163e-01,1.15346e-01,1.29483e-01,1.06643e-01,1.33418e-01,1.61347e-01,-1.83561e-02,-1.08188e-01,-1.13601e-01,-9.12550e-02,8.42840e-02,9.98816e-02,1.34172e-01,9.04884e-02,1.26629e-01,1.64439e-01,1.56942e-01,4.32901e-02,6.27340e-02,7.21359e-02,1.29717e-02,7.55820e-02,8.87773e-02,7.30483e-02,1.42559e-02,2.00689e-02,5.81168e-02,5.73629e-03,8.01277e-02,1.34789e-01,8.79885e-02,-3.07338e-02,3.26729e-02,-5.53439e-03,-1.76566e-01,-2.13458e-01,-9.34334e-02,-3.27473e-02,4.35175e-02,2.05563e-01,9.59322e-02,4.69992e-02,1.19184e-01,1.03026e-01,7.23160e-02,1.01827e-02,-7.86576e-02,-6.23798e-02,-8.88103e-02,-2.76862e-02,-3.93788e-02,1.34102e-02,5.60639e-02,1.16027e-01,7.98282e-02,1.26140e-01,7.80467e-02,1.45421e-01,7.68511e-02,9.71259e-03,2.18914e-02,2.00971e-02,-1.24129e-01,-1.44909e-01,-2.17942e-01,1.36991e-01,-1.21241e-01,6.34155e-02,1.02738e-01,2.01590e-02,-5.98529e-03,-6.59496e-02,-4.59075e-02,-1.03241e-01,-6.24075e-02,-1.11503e-01,-1.43232e-01,-3.75769e-02,4.42218e-02,1.51704e-01,5.65848e-02,1.85430e-01,7.32448e-02,9.34558e-02,4.74919e-02,-7.06910e-03,6.12815e-02,-6.06141e-02,-2.53487e-02,-3.45266e-02,-1.48569e-01,-1.84265e-01,-3.64539e-01,1.22513e-01,-3.04281e-02,-4.96147e-03,1.54972e-01,-1.46981e-02,-2.31751e-01,-1.31721e-01,-8.93087e-02,-2.26103e-01,-1.69903e-01,-1.60047e-01,-5.65610e-02,8.43790e-02,1.05376e-01,1.20146e-01,7.79794e-02,8.79105e-02,-8.05057e-03,4.24857e-02,-6.33661e-02,-1.10902e-01,-1.17640e-01,-1.72000e-01,-7.56178e-02,-5.96244e-02,-5.81556e-02,-4.39031e-02,-1.59758e-01,6.83096e-02,-1.30806e-02,4.13006e-03,1.11662e-01,4.58233e-02,-2.44609e-01,-1.76440e-01,-8.42763e-02,-2.15757e-01,-1.25008e-01,-4.30509e-02,1.10047e-02,1.68876e-01,1.07482e-01,1.23603e-01,2.01284e-01,1.31008e-01,3.46948e-02,1.20473e-02,-9.56559e-02,-9.51067e-02,-1.44188e-01,-1.06121e-01,1.31588e-02,-1.76039e-02,4.07139e-02,-2.98631e-02,-8.09145e-02,-8.25944e-02,2.65593e-02,-3.15743e-02,7.17647e-02,-1.17191e-02,-1.20300e-01,-2.57677e-01,-9.84179e-02,-5.17795e-02,8.39466e-03,4.16162e-02,1.57981e-01,5.60726e-02,1.44706e-01,1.43288e-01,3.27151e-02,7.11639e-02,7.18359e-02,-5.46711e-02,-1.79535e-01,-1.40633e-01,-1.59863e-01,-1.61970e-01,-1.00279e-01,5.15817e-03,-1.67642e-02,-9.07596e-02,-2.35028e-01,-1.52228e-01,1.92162e-02,1.03006e-02,4.46863e-03,-7.27772e-02,-1.97195e-01,-2.30636e-01,-2.16863e-01,-5.46806e-02,1.91702e-02,4.92852e-02,2.66404e-02,2.50443e-02,1.26816e-01,1.10780e-01,5.88193e-03,2.17055e-03,-3.19659e-03,-5.86795e-02,-1.98051e-01,-1.83678e-01,-1.05769e-01,-3.60476e-02,-1.05795e-02,2.20642e-02,1.49241e-02,-1.40766e-01,-1.76757e-01,-7.35870e-02,9.82821e-02,-4.83287e-02,1.28372e-01,-1.23318e-01,-2.66356e-01,-6.25937e-02,-1.90583e-01,-1.53801e-01,-9.48052e-02,4.83944e-02,6.16731e-02,2.82595e-02,4.72608e-02,6.48885e-02,-1.36470e-01,-2.04124e-01,-1.40412e-01,-1.14562e-01,-2.13657e-01,-1.68093e-01,3.86137e-02,-6.50392e-02,-6.33886e-02,-6.27550e-02,-1.01637e-01,-3.56466e-01,9.36811e-03,-1.61664e-01,-9.97132e-02,2.22009e-01,6.87637e-02,-1.21933e-01,-3.29409e-02,-9.72198e-03,-1.13685e-01,-1.95712e-01,-8.41748e-02,8.40121e-03,-8.24410e-02,-1.70009e-01,-1.12120e-01,-1.26573e-01,-2.12850e-01,-2.12593e-01,-1.32780e-01,-3.31701e-02,-1.30865e-01,-7.20971e-02,-1.14160e-02,-1.06180e-01,-1.35648e-02,-9.97103e-02,-1.41045e-01,-2.22218e-01,-5.52756e-02,-1.60088e-01,-1.87093e-02,3.82101e-02,2.08500e-02,-3.71707e-02,2.11806e-02,8.11583e-02,1.35815e-02,1.56639e-02,-3.02037e-02,-7.05539e-02,-1.23256e-01,-1.64409e-01,-1.32826e-01,-1.06104e-01,-1.62392e-01,-1.55237e-01,-1.15025e-01,-6.98535e-02,-1.16764e-01,-3.51346e-02,9.85695e-04,-1.42822e-02,-4.36563e-02,-1.46913e-01,-1.19566e-01,-8.52691e-02,-5.98630e-02,-3.19791e-03,5.68390e-03,6.11228e-02,1.58298e-01,-6.63325e-02,-7.74774e-03,4.54471e-02,1.21382e-01,4.80194e-02,-1.99262e-02,-9.16271e-03,-2.85057e-02,-5.60547e-02,-6.83324e-02,-7.36028e-02,-7.75154e-02,-8.22673e-02,-4.95552e-02,-2.98592e-02,2.73190e-02,-3.95852e-02,-1.28055e-02,6.04502e-03,7.47526e-03,-1.14879e-01,-2.64524e-01,-3.80450e-02,-1.35801e-01,-3.53646e-02,-1.60694e-03,3.32018e-02,1.77470e-01,9.76268e-02,8.43259e-02,8.39196e-02,2.32027e-01,1.53085e-01,1.08422e-01,6.55582e-02,-3.67253e-02,-1.50245e-02,-7.64958e-02,-4.37174e-02,2.66727e-02,-1.67926e-02,-5.22181e-02,3.09325e-02,2.54705e-02,6.60510e-03,-1.08449e-02,-9.78789e-03,-4.66011e-02,-5.70803e-02,-1.33625e-01,6.26832e-02,-3.86633e-03,-3.85430e-02,-4.84447e-03,1.46270e-02,3.28942e-02,5.37336e-02,-5.27406e-02,-2.18140e-02,8.27884e-03,8.68503e-02,1.10521e-01,1.39479e-02,-3.98418e-02,-3.06688e-02,-4.49587e-02,5.26415e-02,5.30939e-02,9.01925e-02,1.21347e-01,1.34480e-01,2.95419e-02,-2.31672e-02,-4.74754e-02,-3.60410e-02,7.87700e-02,4.76483e-02,-3.87863e-02,6.54559e-02,5.04388e-02,-9.56563e-03,2.87555e-02,7.46467e-04,-1.70456e-02,9.55277e-02,4.56793e-02,8.93988e-04,5.10750e-02,3.06091e-02,4.13526e-02,-5.89339e-02,-6.97248e-02,2.25337e-02,-2.08514e-04,-3.24326e-02,-1.35524e-02,3.86827e-02,4.28620e-03,-4.67851e-02,-1.56910e-01,4.70195e-02,-2.83321e-02,-1.19143e-02,4.40606e-02,6.42540e-02,-4.14390e-02,-1.56529e-01,-8.26946e-02,-2.60785e-02,-2.78356e-02,3.40909e-03,9.98205e-02,-3.62191e-02,-1.94090e-01,-5.52300e-03,1.02680e-01,2.33603e-01,2.01885e-01,1.68532e-01,1.88693e-01,1.11397e-01,3.14831e-02,-1.52501e-02,1.88592e-01,1.38493e-01,1.91417e-01,1.47346e-01,5.72860e-02,2.00228e-01,5.06961e-02,-1.20337e-01,-1.96232e-01,-4.48311e-02,1.66489e-03,-3.49431e-02,-8.98775e-02,-2.08488e-02,-1.74414e-02,5.45525e-03,-2.19626e-02,4.56514e-02,-7.10750e-02,1.49438e-04,7.93246e-02,2.70142e-01,1.59579e-01,2.94900e-01,2.35533e-01,9.40248e-02,7.35927e-02,9.90578e-02,2.31701e-01,1.57952e-01,1.22065e-01,2.18119e-01,1.99603e-01,1.51039e-01,2.06200e-01,1.08733e-01,1.04361e-01,8.94451e-02,1.27871e-01,1.54302e-02,-3.61524e-03,-3.22637e-02,-2.02791e-02,2.42771e-02,1.97698e-03,-1.21852e-02,1.32599e-01,2.22597e-01,2.23705e-01,1.48734e-01,1.88249e-01,1.93506e-01,2.27970e-01,1.53067e-01,4.98044e-02,1.41326e-01,3.05898e-01,2.55205e-01,1.66255e-01,2.76542e-01,1.98817e-01,1.83387e-01,1.34745e-01,1.45418e-01,7.25163e-02,1.77099e-01,2.49736e-02,1.67997e-02,3.31818e-02,-3.59122e-03,
1.34424e-02,2.92437e-02,-8.34376e-03,-4.99195e-03,-2.64947e-02,-3.03303e-02,2.92699e-02,1.91127e-02,2.92622e-03,-7.02977e-03,1.85761e-02,-7.22921e-03,-1.46770e-02,2.03980e-02,1.51764e-02,-1.70523e-02,-1.40244e-02,2.13759e-02,-1.09686e-02,-2.71150e-02,-2.13031e-02,1.38327e-02,2.31026e-02,1.71094e-02,-2.50822e-02,1.51477e-02,2.89263e-02,-5.94622e-03,-3.05553e-02,2.67222e-03,-3.33771e-02,-2.04588e-02,5.21836e-03,-4.25129e-02,-6.20898e-03,-3.27675e-02,-5.89010e-02,-5.63967e-02,-3.07585e-02,-2.88010e-02,1.98368e-03,1.37386e-02,1.88721e-01,1.67595e-01,1.37246e-01,4.31838e-03,-3.99868e-03,-2.15284e-02,-5.10983e-02,-3.14802e-02,2.05789e-02,2.16621e-02,-2.46292e-02,1.25683e-03,-9.25545e-03,-2.84638e-02,-7.31873e-03,3.07978e-03,1.69580e-02,-2.00846e-04,-1.59502e-02,-5.76084e-02,-1.24595e-02,-7.43916e-02,-1.44114e-01,-2.22167e-01,-1.62233e-01,-2.52407e-02,4.32654e-02,1.01663e-01,6.73265e-02,1.54263e-01,2.04333e-01,-1.97866e-02,7.76095e-02,1.64906e-01,1.98514e-01,7.57682e-02,1.00960e-01,1.10085e-01,-4.44643e-02,-5.54284e-02,1.28153e-02,9.88576e-03,2.88220e-02,-2.89682e-02,5.30179e-02,2.76017e-02,1.47823e-03,1.33238e-01,7.46289e-02,1.98206e-02,-1.36099e-01,-8.74888e-02,-2.74029e-02,-9.60601e-02,-2.90514e-02,-7.81761e-02,-6.76924e-03,1.81608e-01,2.04787e-01,4.70133e-02,9.75991e-02,1.96750e-02,1.61343e-01,1.05150e-02,-1.73361e-01,-2.40201e-01,-8.37684e-02,-4.67501e-02,3.87493e-03,1.76110e-03,-1.55349e-02,4.51355e-02,5.97711e-02,2.03305e-01,1.45303e-01,1.56206e-01,5.11122e-02,4.78371e-02,1.31179e-01,7.57393e-02,1.09886e-01,4.32944e-03,-2.43638e-02,-7.92920e-02,-1.84206e-02,1.06094e-01,8.50490e-02,6.90952e-02,8.36443e-02,5.97330e-02,3.35409e-02,4.41998e-02,2.96012e-02,-3.77135e-02,9.52001e-02,8.30277e-02,-2.24420e-02,-3.72525e-02,-1.56510e-02,-1.23524e-02,5.51129e-04,1.97229e-01,1.75580e-01,2.99876e-01,2.35030e-01,1.47226e-01,6.56124e-02,-1.20284e-02,1.47922e-02,7.61876e-02,5.26321e-02,2.75338e-02,-2.16436e-02,1.41182e-02,2.85065e-02,-6.23208e-03,-1.99290e-04,-7.74549e-04,4.18587e-02,-4.50105e-02,1.49724e-02,3.46200e-02,-5.79103e-02,1.16242e-02,-6.35646e-02,2.52756e-02,-3.45536e-02,1.27553e-01,-5.54146e-02,9.19228e-02,1.07477e-01,1.90720e-01,8.86821e-02,-3.54448e-03,5.85413e-02,5.98172e-02,2.99881e-02,3.18366e-02,7.30668e-02,1.58901e-02,-5.51814e-02,1.35063e-02,5.52194e-02,-1.52862e-02,-3.34530e-02,-1.00411e-01,-1.28110e-01,-8.68378e-02,-5.74207e-02,-2.67180e-02,3.06828e-02,3.43906e-02,4.90013e-03,5.03767e-03,8.29308e-03,7.25083e-02,-6.29280e-02,5.53448e-02,1.75584e-01,7.27882e-02,2.53944e-02,-1.57527e-01,-5.56165e-03,-7.27177e-03,3.84347e-02,7.64020e-02,1.23801e-01,4.64379e-02,-4.46487e-03,2.79245e-02,1.97845e-02,2.47749e-02,-6.32406e-02,-6.75191e-03,-9.64457e-02,-8.10481e-02,-7.29807e-02,-1.34403e-01,-3.45193e-02,1.06515e-01,1.40163e-01,5.65426e-02,-1.32987e-03,-1.04247e-01,4.98026e-02,1.85909e-02,1.64997e-03,-7.01388e-03,1.62361e-02,-6.92556e-02,5.21272e-02,6.05447e-02,4.69855e-02,1.05864e-01,5.56935e-02,-3.88868e-02,-5.93480e-02,7.67614e-02,4.09847e-02,8.46616e-03,3.20097e-02,-4.41731e-02,2.37376e-02,2.82497e-02,-7.69964e-03,-1.17823e-01,-1.04509e-01,1.69085e-01,4.17794e-02,-4.10180e-02,-1.74511e-01,-3.29907e-02,-1.17611e-01,-7.11125e-02,4.79886e-02,4.29848e-02,1.31469e-01,8.37130e-02,1.06395e-01,-1.06716e-02,7.33154e-02,7.56939e-02,2.16724e-02,-2.34725e-02,-9.79000e-03,1.90092e-02,3.72409e-02,-4.07073e-02,-9.41235e-02,-1.21521e-01,-4.36474e-02,1.22686e-02,7.15198e-02,1.50626e-03,-1.30101e-01,4.93829e-02,4.47722e-02,-4.30560e-03,-1.59355e-01,-4.47491e-02,-2.58607e-01,1.50210e-01,1.34177e-01,1.31898e-02,-6.22744e-03,1.15953e-01,1.06763e-01,-1.79826e-02,3.50009e-02,4.59789e-02,-1.19023e-03,-7.07726e-03,5.22904e-02,4.27352e-02,-1.53972e-02,2.84847e-02,8.13090e-02,2.32245e-02,-1.15723e-02,1.11994e-03,3.19080e-02,9.58425e-02,-7.75598e-02,7.04484e-02,4.68939e-02,1.32822e-02,-6.75110e-02,-1.75626e-01,-3.72206e-01,1.11395e-01,8.11366e-02,-4.08157e-02,-1.02306e-01,6.70977e-02,6.12676e-02,-2.71020e-02,-5.29483e-02,1.64936e-02,5.51899e-02,8.61572e-02,2.00441e-01,9.80099e-02,6.81576e-02,1.90205e-01,1.97809e-01,8.01856e-02,1.63224e-03,3.55483e-03,4.26058e-02,4.03865e-02,-1.62127e-03,-7.96312e-03,-9.24494e-02,-1.09211e-02,2.17870e-02,-1.45914e-01,-3.99816e-01,-9.04286e-02,9.82247e-03,-9.95767e-02,2.57016e-03,5.26955e-02,6.56243e-02,-7.46447e-02,3.60379e-02,5.58707e-02,-1.10825e-02,8.96428e-02,1.44322e-01,1.16441e-01,3.39046e-03,3.38733e-02,8.79332e-02,3.30910e-02,7.19532e-02,3.22043e-02,6.53605e-02,6.12263e-02,-1.74700e-01,-2.20848e-02,4.55934e-02,-4.30710e-02,-2.73796e-02,-6.08661e-02,-3.02924e-01,-1.29896e-01,-5.47387e-02,1.05780e-02,1.08004e-01,1.40810e-01,9.19923e-02,-3.95633e-02,3.14546e-02,7.34077e-02,3.41823e-02,1.41118e-01,9.93113e-02,1.79174e-01,-2.86384e-03,-3.66173e-02,4.84982e-02,1.25196e-02,9.74071e-02,4.74143e-02,-1.27469e-02,9.07124e-03,-6.21302e-02,-8.15398e-02,-2.91812e-02,-5.09054e-02,-1.36426e-01,3.54304e-02,-1.31254e-01,-2.16947e-01,-2.39434e-01,-1.76990e-01,-4.67151e-02,7.11539e-02,2.82845e-02,4.35834e-02,6.00656e-02,8.68406e-02,1.28798e-01,1.51306e-01,1.86777e-01,1.31673e-01,1.14720e-03,3.73019e-02,-2.04782e-02,7.28807e-02,5.76050e-02,7.82351e-02,2.80936e-02,-3.30133e-02,-1.49311e-01,-1.51205e-01,-1.74325e-01,-1.04455e-01,-7.36309e-02,1.36847e-01,8.38322e-02,-1.98885e-01,-2.61617e-01,-4.27584e-01,-3.00082e-01,-2.92503e-01,-1.51584e-01,-1.05037e-01,-8.89839e-02,-1.61192e-02,6.44498e-02,7.05761e-02,6.12678e-02,5.31143e-02,2.14267e-02,4.26178e-02,3.81358e-03,9.00739e-02,1.37718e-01,4.31152e-02,1.62107e-01,1.22471e-01,-9.90259e-02,-2.07487e-01,-9.15205e-02,-1.41626e-01,-1.10933e-01,1.18679e-01,7.24749e-02,-9.12136e-02,-2.53089e-01,-3.02019e-01,-4.17061e-01,-4.32391e-01,-4.98503e-01,-3.19954e-01,-3.66290e-01,-2.55614e-01,-2.32285e-01,-1.69424e-01,-1.12768e-01,-4.90330e-02,-8.07332e-02,-6.54330e-02,-3.14449e-02,-2.91567e-03,5.60232e-02,2.26596e-02,1.30472e-01,8.38580e-02,-1.02781e-01,-2.17001e-01,-9.48083e-02,-1.56444e-01,-5.57860e-03,1.74171e-01,4.42651e-02,-4.80022e-02,-1.72255e-01,-1.23695e-01,-2.72789e-01,-2.40726e-01,-3.58860e-01,-3.71671e-01,-4.26226e-01,-4.40494e-01,-4.09716e-01,-3.24822e-01,-1.90704e-01,-8.57870e-02,-1.34622e-01,-9.15067e-02,-1.09335e-01,1.19326e-02,-2.04697e-03,6.43228e-02,1.33039e-01,-4.65666e-02,-1.50860e-01,-8.36601e-02,6.40921e-02,-1.15188e-01,-1.11932e-01,1.29930e-01,7.53315e-02,1.75532e-01,-2.24296e-02,-2.30009e-02,-9.26407e-03,-1.53862e-01,-2.50838e-01,-1.85802e-01,-2.82678e-01,-1.64770e-01,-3.36799e-01,-2.50421e-01,-1.28376e-01,-9.96383e-02,-1.28714e-01,-9.09800e-02,-7.56289e-02,-9.74052e-03,-3.18811e-02,3.22002e-02,2.76276e-02,-1.02127e-01,-1.46810e-01,1.30829e-01,1.79502e-01,-1.75039e-02,2.06226e-02,-3.80127e-02,3.74516e-02,2.50396e-01,3.11673e-02,8.55814e-03,6.56019e-02,2.97318e-02,-5.37269e-02,3.04770e-02,3.45127e-02,-4.70251e-02,-1.33931e-01,-1.55119e-01,-9.61490e-02,-2.68974e-02,-2.52786e-02,-1.30546e-01,-5.82596e-02,-7.36326e-02,-3.88081e-02,-4.52694e-02,-1.30010e-02,-4.45621e-02,-7.80202e-02,2.44936e-01,5.49457e-02,-2.38744e-02,3.10222e-02,5.45276e-02,1.89747e-02,2.29286e-01,9.53772e-02,9.25719e-02,1.19722e-01,1.05675e-01,8.30290e-02,1.15079e-01,1.08585e-01,3.32653e-02,-7.43689e-03,2.43799e-02,-5.10451e-02,-6.93905e-02,-6.42768e-02,-4.95628e-02,-4.96222e-02,-1.74579e-02,1.44365e-02,1.79042e-02,7.17093e-02,-1.02974e-01,-6.57709e-02,2.10418e-02,-3.57899e-02,2.66879e-02,-6.51596e-03,4.88406e-02,8.10711e-02,1.54583e-01,1.05516e-01,9.78640e-02,7.66374e-02,9.44908e-02,1.15156e-01,1.14770e-01,9.92807e-02,8.71037e-02,2.19461e-02,-3.00436e-02,-6.75166e-02,-1.62580e-03,-2.33723e-02,-7.48187e-02,-1.07559e-01,1.46419e-02,4.59068e-02,-1.55256e-02,-4.62117e-02,-9.15625e-02,-8.62907e-02,-5.24184e-02,1.48340e-02,1.34822e-02,2.51798e-02,1.82107e-02,-6.20103e-03,1.21186e-01,9.10636e-02,-5.47578e-03,-4.22236e-02,9.20809e-03,1.28478e-02,-3.76598e-03,3.29757e-02,-6.31771e-03,-2.23738e-02,-7.91838e-03,-5.12100e-02,-1.40031e-02,-5.24835e-02,-3.14731e-02,-2.31957e-03,2.72054e-02,-4.38072e-04,1.98385e-02,1.12993e-01,-4.56361e-02,-8.05664e-02,-4.00220e-02,-3.66228e-02,-4.80325e-02,-1.11479e-02,2.43246e-03,2.18690e-02,4.49553e-01,2.16007e-01,5.41055e-02,-4.57117e-02,-5.37156e-02,-2.68260e-02,-8.11725e-03,6.38382e-02,1.12626e-02,5.06665e-02,9.03065e-02,7.66816e-02,-4.14743e-02,-4.75646e-02,-4.22998e-02,8.19412e-02,4.21480e-02,-4.41613e-02,-5.69478e-02,-1.39975e-01,-9.72976e-02,1.48288e-02,-7.12838e-02,2.14695e-02,-1.17547e-02,1.86837e-02,1.80526e-02,-1.14803e-01,2.45106e-01,1.91492e-01,1.69078e-01,3.83554e-02,2.75521e-02,-4.16617e-02,3.42478e-02,1.15175e-01,-7.23513e-03,-4.61039e-02,-3.29124e-02,-5.17852e-02,-4.88172e-02,1.38527e-02,-3.94549e-02,-1.14487e-01,-1.16286e-01,-5.59761e-02,-1.70760e-02,-9.21687e-02,3.08081e-02,-4.79533e-02,-2.38037e-02,3.39142e-02,-2.60519e-02,1.34075e-02,3.46907e-02,-7.66566e-03,-7.27069e-02,2.88289e-02,1.24613e-01,1.23790e-02,-2.74946e-04,8.63012e-02,7.91875e-02,1.78869e-01,7.90735e-02,4.01247e-03,-3.30947e-02,-7.93228e-02,-7.66621e-02,-1.42019e-01,-8.62074e-02,4.60344e-02,3.63236e-02,1.48777e-01,1.62540e-01,1.63135e-01,6.64807e-02,4.44110e-02,3.53679e-02,1.64168e-02,-4.01402e-03,-1.46706e-02,-2.45392e-02,-2.86265e-02,1.73802e-01,2.16697e-01,2.15801e-01,9.34494e-02,-4.80763e-03,-7.25860e-02,1.41335e-01,1.76012e-01,2.15549e-01,6.41715e-02,-3.35680e-02,3.96228e-02,-7.09997e-03,1.63684e-01,1.38133e-01,8.30147e-03,-6.46360e-02,7.12617e-02,7.31824e-02,-5.66100e-02,7.12246e-02,2.68346e-02,2.23629e-02,7.69249e-04,-2.50322e-02,1.00996e-02,-3.23239e-02,1.48537e-02,2.00785e-02,-9.56720e-02,-6.09715e-02,5.03334e-02,4.93466e-03,-1.14623e-01,-1.32968e-01,-1.18284e-01,-2.40607e-02,1.57176e-03,-1.13563e-01,-5.01089e-02,1.33633e-01,5.51299e-02,-1.04340e-01,-6.42517e-02,-8.18442e-02,-1.17329e-01,-1.09303e-02,-4.85817e-02,-3.53637e-02,2.07887e-02,-1.75661e-02,1.06465e-02,-1.54714e-02,
3.15679e-02,-1.29471e-02,3.28534e-03,-2.37023e-03,2.34107e-02,3.24432e-02,4.16987e-03,-1.27478e-02,-1.77127e-02,1.47866e-02,2.26227e-02,-1.82692e-02,5.61823e-02,5.03593e-02,9.99224e-02,3.90694e-02,-3.36160e-03,-1.70296e-02,-2.52668e-03,2.07471e-04,-1.22950e-02,3.16704e-02,1.58117e-02,2.20283e-02,3.36662e-02,-1.55201e-02,-2.68735e-02,-7.29623e-03,2.36881e-02,-1.96947e-03,2.68099e-02,-1.77338e-02,-6.52781e-03,-3.53354e-03,-9.84126e-03,3.44128e-02,7.82508e-02,2.40696e-02,4.47335e-02,-7.06199e-03,-2.94347e-02,1.25767e-02,5.41660e-02,4.18780e-02,7.22752e-02,4.45935e-02,1.75909e-01,1.17879e-02,-2.03469e-02,-3.67426e-02,1.70337e-03,-3.88518e-02,-3.82667e-03,-3.28925e-02,5.87966e-03,-1.14570e-02,2.01242e-02,-2.87734e-02,5.42387e-02,2.66615e-02,-1.75875e-02,8.57942e-02,2.95520e-02,3.89499e-02,2.42788e-02,1.31716e-01,2.50054e-01,2.11609e-01,1.99887e-01,9.78150e-02,2.14647e-01,1.69636e-01,1.67429e-01,6.27801e-02,4.47532e-03,-1.12095e-02,7.52206e-02,-2.24320e-02,-2.97508e-02,-2.95760e-02,1.65001e-01,9.55294e-02,-1.18415e-02,2.81422e-02,-3.14324e-02,-2.63235e-02,1.22369e-01,1.03275e-01,4.26855e-02,9.76714e-02,7.79725e-02,-2.08107e-02,3.08596e-02,1.06342e-01,1.24384e-01,1.06833e-01,1.72560e-01,1.22697e-01,-7.94003e-03,-8.75935e-02,4.27932e-02,6.30947e-03,-1.98043e-02,-2.88060e-02,2.51066e-02,-3.41228e-03,8.71757e-03,6.67142e-02,1.46439e-01,2.74965e-02,4.83650e-02,1.88475e-02,-2.86737e-02,1.47488e-02,1.76646e-01,2.37135e-02,5.38306e-02,5.20048e-02,-1.85187e-02,-7.49297e-02,-4.04025e-02,-9.22005e-02,6.91148e-02,7.35341e-02,1.59576e-01,1.57945e-01,5.54638e-02,-5.48999e-02,2.38560e-02,-8.58105e-02,-1.42446e-01,-1.65748e-01,-1.43378e-01,-5.08056e-02,-8.97021e-04,8.36944e-02,6.70557e-02,7.38386e-02,2.09807e-02,1.47440e-02,-2.50488e-02,1.01502e-02,1.40705e-01,-1.26549e-02,-3.24977e-02,-3.29793e-02,-1.01261e-03,-7.13703e-02,-1.74630e-01,-1.17396e-01,1.03643e-02,5.78793e-02,1.41383e-01,5.97676e-02,-7.72520e-03,-4.15877e-02,-4.96722e-02,-1.07007e-01,-1.72885e-01,-1.85379e-01,-1.61351e-01,-1.05350e-01,-1.37154e-02,2.37430e-02,1.27117e-01,2.13701e-02,-4.24861e-02,6.61024e-02,5.56072e-03,-1.63245e-02,3.99752e-02,-5.41832e-02,-4.47715e-02,-4.15742e-02,5.03068e-02,-8.39472e-02,-9.92756e-02,-1.03047e-02,1.39163e-02,8.06656e-02,5.79598e-02,9.68894e-03,-2.84454e-02,-1.05224e-01,-6.15659e-02,-7.86232e-02,-1.72759e-01,-1.45676e-01,-9.22905e-02,-1.70870e-01,1.64633e-02,3.05582e-02,4.88577e-02,-4.14164e-02,-7.28571e-02,-7.39686e-02,2.31099e-02,-7.42031e-02,-2.72620e-03,-5.20275e-02,-1.11595e-01,-2.19283e-02,1.47987e-02,-8.57369e-02,-5.37735e-02,-2.10722e-02,1.18189e-01,6.49468e-03,-3.10838e-02,-3.34966e-03,-3.36722e-02,-7.69900e-02,-6.93528e-02,-6.33056e-02,-6.67937e-02,-1.23955e-01,-1.03956e-01,-3.13451e-02,3.99380e-02,1.05955e-01,9.06289e-02,4.18984e-02,1.34468e-01,-8.70835e-02,-7.38427e-02,-3.77165e-02,-5.20913e-02,-1.02957e-02,-1.00811e-01,5.58729e-02,-1.01915e-01,-2.14725e-02,3.49918e-02,3.39179e-02,2.73160e-02,-2.34897e-02,-1.85174e-02,2.32621e-02,8.28895e-02,-2.63363e-02,-9.34297e-02,-1.06667e-01,-2.33862e-01,-1.55867e-01,-1.20400e-01,-1.05151e-01,3.26457e-02,7.08444e-02,1.35817e-01,7.91891e-02,9.27722e-02,-1.51489e-02,-4.25906e-02,-9.55411e-02,-3.59280e-02,-3.41126e-02,-2.36767e-01,-4.93519e-02,-1.61109e-03,-7.47082e-03,6.17012e-02,1.38874e-02,-8.00937e-02,-3.85714e-02,-1.68831e-02,4.95347e-02,6.13453e-02,1.27530e-02,-9.03033e-02,-1.34540e-01,-1.46622e-01,-6.05990e-02,-6.63995e-02,-2.02191e-02,1.27952e-02,7.59944e-02,9.34556e-02,2.66256e-02,1.10317e-01,-2.29230e-02,-1.43382e-02,-5.54994e-02,-1.61707e-01,-1.17665e-01,-2.06800e-01,-1.39638e-01,2.75034e-02,-7.95923e-02,2.14566e-02,-1.95353e-02,-9.35102e-02,-1.15056e-01,-2.49685e-02,-1.47478e-02,2.37496e-02,7.42281e-03,-1.06316e-01,-1.20166e-01,-1.73329e-01,-1.17172e-01,-1.53581e-01,-3.71264e-02,4.71764e-02,2.69671e-02,-5.61933e-02,-7.57779e-02,1.68564e-02,-1.25535e-01,2.28386e-04,-4.56916e-03,-7.89745e-02,-1.77946e-01,-5.16499e-02,3.84988e-03,-5.25290e-03,-5.16667e-02,2.25705e-02,3.23140e-02,-7.53696e-02,2.75923e-03,1.39431e-02,-1.55138e-02,2.60686e-03,-4.22748e-02,-1.03736e-01,-1.14006e-01,-1.35973e-01,-5.57271e-02,-8.23566e-02,-1.46593e-02,1.11705e-01,-2.31895e-02,-3.36308e-02,-8.27034e-02,-3.32981e-02,-7.82368e-02,8.51424e-03,-5.63617e-02,-1.47112e-01,-1.43505e-01,-1.49896e-03,-6.25505e-02,-3.96944e-02,-2.49450e-02,4.71760e-02,7.74109e-02,-5.57900e-02,-3.54369e-02,4.36854e-02,9.46332e-02,1.01339e-01,-3.02097e-03,-5.57736e-02,-1.90753e-03,1.51397e-02,6.60381e-02,5.88346e-02,1.42470e-01,1.11766e-01,2.86562e-02,1.80410e-01,1.35038e-01,-9.56370e-02,1.23009e-01,1.33888e-01,1.08121e-02,-1.42993e-01,-1.71202e-01,-1.59082e-01,-9.92252e-02,-5.14942e-02,1.56743e-02,3.73551e-02,3.17543e-02,2.19078e-02,4.90430e-02,6.22139e-02,1.36412e-01,6.89452e-02,5.78590e-02,4.52778e-02,3.29263e-02,8.73208e-02,1.12090e-01,1.80800e-01,1.95262e-01,1.55203e-01,5.10989e-02,1.39583e-01,2.21302e-01,-3.15843e-02,1.93913e-01,4.40909e-02,-6.51880e-02,-3.78170e-02,9.22287e-03,-6.04532e-02,-7.96964e-02,1.54489e-02,6.04893e-02,-1.39873e-02,1.31099e-02,6.12301e-02,9.63011e-02,1.27201e-01,6.97570e-02,1.08744e-01,7.11397e-02,9.23683e-02,8.28302e-02,3.69887e-02,9.06226e-02,7.61358e-02,1.68841e-01,1.74320e-01,9.23984e-02,-1.18288e-02,8.09816e-02,1.38546e-02,6.79384e-02,-3.04571e-02,-1.09646e-02,-2.85848e-02,8.83894e-02,-4.69595e-02,-8.66064e-02,3.14406e-02,4.85646e-02,4.82952e-02,3.78756e-02,8.69807e-02,1.30615e-01,1.11778e-01,1.56641e-01,1.68122e-01,1.21944e-01,6.30533e-02,6.78965e-02,-2.93547e-03,4.41255e-02,-4.43573e-03,6.52874e-02,1.58838e-01,1.05871e-01,-1.16456e-02,4.93599e-02,-1.67849e-04,1.45200e-01,-4.49377e-02,3.99538e-02,4.43337e-02,1.14845e-01,-8.98555e-02,-1.39606e-01,4.83936e-03,5.07992e-02,8.20971e-02,1.22163e-01,1.17883e-01,5.31897e-02,6.68365e-02,8.22118e-02,9.67110e-02,3.28995e-02,2.60319e-02,3.54307e-02,2.23980e-02,-4.06631e-02,-7.94680e-02,-1.21682e-02,7.64718e-02,7.40383e-02,3.17150e-02,7.67595e-02,7.88799e-02,1.62996e-01,6.70623e-03,7.00626e-02,3.10514e-02,5.11996e-02,-5.98311e-02,-1.15725e-01,1.40042e-02,3.89173e-02,2.93054e-02,-2.51542e-02,6.58017e-02,-5.67645e-02,3.13848e-02,9.57864e-02,1.38877e-01,-1.71650e-02,-4.89984e-03,-4.08254e-02,-1.06390e-02,-1.13145e-01,-8.51556e-02,-8.31136e-02,1.84123e-02,7.19864e-02,-9.39468e-03,8.40287e-02,7.51468e-02,1.78842e-01,-1.15140e-01,5.09997e-02,-7.66107e-02,6.49001e-03,-1.77381e-01,-1.76158e-01,5.62890e-02,4.26694e-02,-2.04124e-02,-2.20747e-02,3.83664e-02,-8.11384e-02,-1.83209e-02,-8.70390e-03,-1.20462e-02,-7.35307e-02,-1.45955e-01,-7.13096e-02,-1.59785e-01,-1.25055e-01,-1.42525e-01,-2.53803e-03,3.73789e-02,1.17750e-01,6.22476e-02,4.37514e-02,-9.80810e-03,2.09430e-01,7.62379e-02,-1.85215e-01,-5.13021e-02,-3.32446e-02,-2.20567e-01,-8.84862e-02,2.58834e-02,-9.33606e-03,-2.52822e-02,-4.97087e-03,-8.62442e-03,-1.73427e-02,-7.76464e-02,-2.25399e-02,-3.59761e-02,-5.02514e-02,-1.47532e-02,-9.02961e-02,-1.48234e-01,-1.55106e-01,-6.71704e-02,4.28182e-02,3.03814e-02,2.83393e-02,-6.44945e-02,-1.62354e-02,2.02194e-01,1.32153e-01,-1.25579e-02,-5.90789e-02,-1.75602e-02,-1.69909e-02,-1.52736e-01,-3.56708e-02,-3.83346e-02,3.41859e-02,4.26464e-03,2.11695e-02,-3.83476e-02,7.60125e-02,2.82358e-02,3.47463e-02,-4.02663e-03,9.94165e-03,1.28877e-02,-1.04529e-01,-5.88978e-02,-7.87190e-02,-5.60422e-02,2.80407e-02,2.19837e-02,-1.10478e-02,-2.08189e-02,-1.08939e-01,1.40405e-01,-3.96547e-02,-1.42538e-03,-3.70862e-02,1.23010e-03,-2.14070e-02,-1.68976e-01,-5.77809e-02,-4.38239e-02,6.33729e-02,2.02497e-02,-5.03370e-03,1.11262e-01,1.12729e-01,5.56326e-02,6.14396e-03,-2.05357e-02,1.18127e-02,-1.96288e-02,-8.93963e-02,-1.12733e-01,-1.19047e-02,-7.92428e-02,-6.86960e-02,-1.50980e-01,-2.41454e-02,-1.38333e-01,-1.15202e-01,8.26615e-03,-2.89261e-02,3.91423e-02,-2.98000e-02,-5.02776e-04,8.40259e-03,-1.14562e-01,-3.82950e-02,1.15395e-01,4.77533e-02,-2.43492e-02,4.92350e-02,9.58418e-02,8.79908e-02,5.66582e-02,3.27931e-02,-1.28818e-02,-5.97787e-02,-9.12567e-02,-1.19359e-01,-6.71145e-02,2.47514e-02,-1.05058e-01,-1.35951e-01,-1.36637e-01,-9.86834e-02,-2.32166e-01,-2.38041e-01,-9.35206e-02,-2.32796e-02,9.73758e-03,1.99144e-02,-1.35402e-02,-1.19666e-01,-1.83686e-01,-1.42604e-01,7.80621e-02,2.91961e-02,1.31151e-02,6.96281e-02,6.83660e-02,8.61632e-02,6.78152e-02,2.93087e-02,-5.37721e-04,-4.50558e-02,1.46598e-02,-3.44576e-02,-5.82685e-02,-3.91816e-02,-1.89936e-01,-1.31307e-01,-1.09378e-01,-1.01278e-01,-2.30924e-01,-1.80009e-01,-3.31093e-02,3.00428e-02,4.64290e-04,4.17109e-04,4.45334e-02,-3.83351e-02,-2.03928e-01,-2.33413e-01,-2.23720e-01,-2.00337e-01,-4.21692e-02,3.08670e-02,5.20072e-02,7.98863e-02,2.30720e-02,-1.01199e-02,4.92075e-02,3.12140e-02,9.76494e-02,-2.73854e-02,-1.01609e-01,-1.06629e-01,-2.85137e-01,-1.23740e-01,2.40096e-02,-7.04699e-02,6.65654e-02,7.20644e-02,-2.55977e-03,-2.78203e-03,1.26453e-03,-2.89011e-02,8.13405e-03,-1.59007e-02,-1.52774e-01,-2.99528e-01,-1.95677e-01,-2.40040e-01,-1.07889e-01,5.78968e-02,2.48210e-02,5.58403e-02,3.93972e-02,1.11006e-01,1.13389e-01,3.52778e-02,-1.00810e-01,-1.16789e-01,-1.70411e-01,-2.59814e-01,-1.70628e-01,-1.43444e-01,-7.82521e-02,1.13529e-02,2.20809e-02,5.53322e-02,3.81062e-02,6.06158e-03,1.36631e-02,-2.39378e-02,2.35200e-03,-7.45181e-02,-1.29515e-01,-1.33829e-01,-1.72906e-01,-2.14935e-01,-2.00512e-01,-1.84223e-01,-1.14345e-01,-1.54319e-03,5.19051e-03,-6.95457e-03,-5.01958e-02,-4.36387e-02,-1.20589e-01,-1.68176e-01,-1.06253e-01,-6.47237e-02,-2.44238e-02,-1.30080e-01,-1.38223e-01,2.25020e-03,-2.41525e-03,4.93768e-03,1.31096e-02,9.67690e-03,2.46713e-02,2.51125e-02,5.74366e-03,5.18841e-03,-2.10922e-02,-4.59158e-02,-1.09737e-01,-1.66703e-01,-1.38453e-01,-6.66548e-02,-4.05856e-02,-1.71985e-02,3.36403e-03,-9.13511e-02,-1.11488e-01,-1.19002e-01,-5.25184e-02,-9.82647e-02,-4.00428e-02,2.31242e-02,-4.13160e-02,-1.09691e-01,-1.18675e-01,-1.25056e-02,-1.77750e-03,3.27498e-02,1.65721e-02,-2.47193e-02,
-7.92368e-03,2.80650e-02,-2.11364e-02,-4.13921e-03,-2.88456e-02,1.74479e-02,-9.82114e-05,2.31564e-02,-9.59904e-03,2.91028e-02,3.66162e-03,1.88964e-02,1.18708e-03,-2.59433e-02,-4.12528e-04,-2.59168e-02,-1.14335e-02,-1.35784e-02,-3.21311e-02,3.39451e-02,3.38592e-02,3.15421e-02,2.06634e-02,2.50236e-02,-2.49243e-02,-2.95522e-03,2.61482e-02,1.46646e-02,-3.40388e-02,1.11713e-02,-1.27154e-02,2.11760e-02,1.20289e-03,-3.77190e-03,3.04925e-02,2.43281e-02,-2.53782e-02,-3.63533e-02,-1.55485e-02,2.06989e-02,1.80035e-02,-5.11229e-02,-1.59270e-02,-2.54020e-02,-8.17903e-02,-3.73128e-02,1.06195e-03,-1.37192e-02,1.74288e-02,3.21575e-02,-3.45827e-02,-2.36792e-02,1.56872e-02,1.01214e-02,3.50741e-03,-2.63788e-02,-1.39853e-02,-3.24455e-02,-3.12540e-02,-3.00166e-02,2.83124e-02,-1.92554e-02,9.85384e-04,-2.74013e-02,-1.70582e-02,-1.78011e-02,-1.21474e-02,-3.86957e-02,-7.77744e-02,-1.17553e-01,-4.94921e-02,-8.78340e-02,-2.26380e-01,-1.63111e-01,-1.39007e-01,-3.70120e-02,-4.51876e-02,-2.95690e-02,-3.49516e-02,2.41881e-02,-5.25049e-03,2.22153e-02,2.47249e-03,-6.26685e-03,2.82972e-02,1.57162e-02,-1.80258e-02,-1.89784e-03,1.18194e-02,-9.89002e-02,-9.74739e-02,5.72600e-02,7.17489e-02,-3.32726e-02,4.71707e-02,-6.76830e-02,-1.85657e-01,-1.03374e-01,-2.47366e-03,-5.38368e-03,-1.48026e-01,-1.96216e-02,9.20181e-02,5.49667e-02,5.60121e-02,2.94010e-02,-2.21094e-02,2.58287e-03,6.28638e-02,2.39305e-02,2.71120e-02,2.57371e-02,-3.48363e-02,-9.58927e-03,-1.74853e-02,1.31888e-01,1.37871e-01,1.21909e-02,-1.99077e-01,-6.35035e-02,-1.53915e-01,-2.08502e-01,-2.08289e-01,-1.11469e-01,-2.12662e-01,-1.51392e-01,-1.24269e-01,-1.48089e-01,-2.55437e-01,-3.05964e-01,-2.63345e-01,-1.35128e-01,-7.83911e-02,1.28215e-01,1.25203e-01,-1.47098e-01,-1.01986e-01,-4.33458e-02,-3.09411e-02,-5.35398e-02,-1.08641e-03,1.53898e-02,-2.07732e-02,5.62438e-02,1.07149e-01,2.61546e-01,2.14246e-01,2.47043e-01,2.20545e-01,1.83584e-01,-9.90428e-03,-1.74364e-01,-1.01950e-01,2.28828e-02,4.19670e-02,-6.75401e-02,-5.68086e-02,-1.19486e-01,-1.38784e-01,-2.07017e-01,-2.55544e-01,-1.63193e-01,-2.06414e-01,-2.15283e-01,-1.43713e-01,-1.67571e-01,-1.97231e-01,1.12943e-02,3.14925e-02,-8.88373e-04,-1.04991e-01,-8.15369e-02,8.93996e-02,9.83782e-02,1.30960e-01,2.49748e-01,1.73370e-01,1.45317e-01,1.86912e-01,1.54975e-01,6.76726e-02,1.08314e-02,-7.94938e-02,-5.22858e-02,-7.34403e-02,-6.21876e-02,-9.69899e-02,4.39325e-02,2.75011e-02,6.63068e-02,2.48462e-02,-1.26976e-01,-1.03245e-01,-1.85452e-01,-1.50350e-01,-1.80307e-02,-9.11567e-03,3.21750e-02,7.63909e-02,9.89828e-02,1.26691e-02,-6.55413e-02,-5.43367e-02,1.35358e-01,1.11737e-01,1.89803e-01,1.92198e-01,1.27485e-01,9.36398e-02,7.42342e-02,3.30408e-02,2.40956e-02,5.84905e-02,8.42142e-02,-3.94969e-02,5.21646e-02,1.57789e-01,1.08199e-01,1.46304e-01,1.92098e-01,-4.65980e-02,-2.37975e-01,-4.07648e-02,-2.14802e-02,1.80544e-02,-1.98944e-02,1.78764e-01,1.14214e-01,-5.51349e-02,-1.29250e-01,-1.06194e-01,8.55351e-02,1.33203e-01,1.63405e-01,9.26886e-02,5.46464e-02,1.02924e-01,6.26348e-02,5.39382e-02,7.11923e-02,6.66944e-02,7.58603e-02,1.00113e-01,9.68011e-02,1.22518e-01,9.29832e-02,1.81188e-01,2.48266e-01,-4.38485e-02,-1.72006e-01,-1.21603e-01,-2.49267e-02,4.76918e-02,1.39551e-01,-1.74553e-02,-5.23277e-02,-1.18502e-01,-7.33143e-02,-1.70751e-02,4.19837e-02,1.59250e-01,1.16462e-01,1.01021e-02,-3.44155e-02,2.95224e-02,1.83034e-02,4.90551e-02,6.75433e-02,7.35688e-02,1.47906e-01,1.06023e-01,1.23494e-01,6.07214e-02,8.99684e-02,2.18950e-01,5.06858e-02,2.86970e-03,-3.35400e-02,-1.72992e-01,-4.75920e-02,5.18587e-02,1.67986e-01,-4.89650e-02,-1.14279e-01,-7.33871e-02,-1.60693e-01,-1.37625e-01,-1.81748e-03,1.52094e-01,1.23953e-02,-2.82049e-02,-1.06899e-01,-1.57676e-01,-1.30936e-01,-1.49104e-01,7.05470e-02,1.30820e-01,3.80594e-02,2.17774e-02,4.96781e-02,7.50004e-02,6.42624e-02,1.17876e-01,-1.58160e-01,-4.85954e-02,6.00826e-02,-9.77404e-02,-3.71163e-02,3.95444e-02,2.29667e-01,-3.55336e-02,-8.75705e-03,-1.13675e-02,-1.91603e-01,-5.10422e-02,2.22245e-02,-2.41829e-02,-4.15220e-02,-3.88264e-02,-1.39939e-01,-2.91198e-01,-3.50905e-01,-1.87302e-01,-3.60434e-02,2.56452e-02,-4.05048e-02,-8.68901e-02,-2.84291e-02,1.57665e-02,-3.37655e-02,-6.84818e-02,-4.41740e-02,-9.21023e-02,-4.45840e-02,-9.87411e-05,1.01445e-02,4.46477e-02,3.85388e-02,9.69339e-02,-5.54467e-02,-1.19953e-01,-1.67282e-01,-1.54035e-01,-1.26816e-01,-1.19906e-01,-1.17374e-01,-5.54283e-02,-2.56274e-01,-3.15621e-01,-3.86417e-01,-2.13147e-01,1.15961e-01,-6.79029e-03,-1.13663e-01,-2.74216e-02,-6.92803e-02,-1.58747e-01,-1.77295e-01,-1.41428e-01,-1.18796e-01,-2.48383e-01,1.53932e-01,-3.98610e-02,-8.84780e-03,-1.25313e-01,1.48434e-01,2.28619e-01,-5.66833e-04,-1.21226e-01,-7.00402e-02,-8.13150e-02,-9.04090e-02,-9.24054e-02,-1.78989e-01,-2.25508e-01,-2.77241e-01,-2.68655e-01,-9.61587e-02,7.20094e-02,1.03885e-01,3.15320e-02,-4.64641e-02,-1.33180e-02,-1.06192e-01,-1.90386e-01,-9.34905e-02,-1.38375e-01,-8.60616e-02,-2.20436e-02,1.62911e-02,-7.58247e-02,5.30950e-03,-3.03254e-02,1.47825e-01,1.65785e-01,4.57521e-02,8.37100e-02,-1.89969e-02,-2.73514e-02,-1.35563e-01,-1.44519e-01,-1.47106e-01,-2.17096e-01,-5.11875e-02,1.90403e-02,3.51131e-02,2.01256e-01,1.38462e-01,3.94712e-02,-1.07036e-02,-3.04488e-03,7.61952e-02,-8.96261e-02,6.40999e-03,-7.71605e-02,-1.05412e-01,-1.46883e-01,-1.88369e-01,-1.93863e-01,-2.23314e-02,4.20092e-02,5.81240e-03,-6.43811e-03,1.28820e-02,6.85847e-02,-4.42150e-02,-3.24538e-02,-8.39116e-02,-7.29848e-02,-1.47164e-02,-3.79545e-02,3.93961e-03,9.19895e-02,5.07213e-02,1.07464e-01,1.23254e-01,-7.37748e-04,8.58369e-02,4.33292e-02,-2.64147e-02,2.76470e-02,3.82201e-02,-4.72621e-02,-1.66582e-01,-2.50138e-01,-2.95053e-01,-2.49449e-01,1.75651e-02,4.39711e-02,-2.90687e-02,-6.24607e-02,-1.44258e-01,-1.12520e-01,-2.86110e-03,-6.32667e-03,-3.54179e-02,7.35345e-02,3.12002e-03,-8.27894e-02,-6.17159e-02,7.75708e-02,7.52410e-02,6.57225e-02,4.84422e-02,2.54365e-02,-2.80818e-02,3.98408e-02,7.65565e-02,1.02853e-01,1.77654e-02,-1.66676e-01,-2.88594e-01,-2.71396e-01,-3.64629e-01,-2.86524e-01,-6.36999e-02,1.43797e-02,5.24049e-04,-8.61140e-02,-1.71553e-01,-8.46710e-02,8.14727e-02,5.62648e-02,-3.05722e-02,-1.60883e-02,-1.04724e-02,-1.08481e-01,1.03047e-01,1.34353e-01,8.56034e-02,-9.66521e-03,-6.60537e-03,-2.26906e-02,-8.71485e-03,3.52892e-02,3.20853e-02,-3.41012e-02,-1.06978e-01,-2.74840e-01,-2.92512e-01,-2.53209e-01,-3.02494e-01,-2.62364e-01,-9.70504e-02,4.05224e-02,-7.16879e-02,-8.29279e-02,-1.34558e-01,-1.45974e-01,3.97495e-02,-8.11292e-02,-4.05040e-02,6.82683e-05,-2.52902e-02,-1.48684e-03,9.35935e-02,8.71006e-02,5.14407e-02,3.55679e-02,-5.30121e-03,4.27410e-02,5.28352e-02,4.19649e-02,-1.02804e-01,-1.21310e-01,-2.48961e-01,-3.74736e-01,-3.25999e-01,-4.34932e-01,-3.22046e-01,-1.78827e-01,-1.47417e-02,-9.48094e-02,7.25487e-02,1.08171e-01,-2.42976e-01,-6.05019e-02,-1.24154e-01,-1.35775e-01,-7.66205e-02,-1.06291e-01,-3.62768e-02,-1.00939e-03,3.57240e-02,2.70380e-02,-2.57047e-03,-1.82735e-02,-6.94490e-02,-5.45116e-02,-1.30494e-01,-1.90409e-01,-1.16893e-01,-3.23412e-02,-2.61154e-02,-1.46358e-01,-3.16391e-01,-2.62071e-01,-1.65808e-01,-1.93079e-01,-4.05158e-02,5.66830e-03,1.39622e-01,-5.43454e-02,-2.19742e-01,-1.87833e-01,-2.57907e-01,-1.40861e-01,-2.65997e-02,-1.01906e-01,-6.25792e-02,-8.34194e-02,-7.68557e-02,-3.11660e-02,-4.21063e-02,-5.79781e-02,-6.73487e-02,-1.92471e-01,-3.30593e-01,-4.40053e-01,-1.13204e-01,2.56359e-02,-6.52314e-02,-7.47907e-02,-2.24999e-01,-4.29008e-01,-2.82362e-01,-2.22121e-01,1.62238e-02,-9.61591e-02,-4.50046e-02,-9.63370e-02,-7.87514e-02,-1.21195e-01,-1.44463e-01,5.81605e-03,-5.15409e-02,-1.37391e-01,-1.25895e-01,-4.92363e-02,-8.18318e-02,5.38008e-03,-3.45088e-02,-5.47354e-03,-1.11329e-01,-1.39748e-01,-3.86518e-01,-4.31337e-01,-3.53026e-01,-1.94082e-01,-1.05390e-01,-9.63208e-02,-9.83659e-02,-2.40261e-01,-1.56294e-01,-2.16439e-02,6.40745e-03,-8.96710e-02,-4.07021e-02,-3.45879e-02,-6.73435e-02,3.58952e-02,9.51036e-02,1.05595e-01,3.70394e-02,-7.19060e-02,-7.78200e-02,1.05336e-02,-4.96457e-02,-3.17411e-02,8.62995e-04,2.29191e-02,-7.33033e-03,-6.38620e-02,-2.01826e-01,-4.79827e-01,-2.39465e-01,-1.15637e-01,-2.37242e-02,9.48665e-02,-4.86699e-02,-2.89740e-01,-1.20917e-01,9.72886e-03,3.57063e-02,1.61587e-02,9.96933e-03,-1.47135e-01,-1.55936e-01,1.15985e-01,2.05139e-01,2.14662e-01,8.88778e-02,-1.67424e-01,-5.88608e-02,-1.56729e-02,-7.38995e-02,-2.30834e-02,9.00918e-02,3.86863e-02,1.57041e-02,-5.39800e-02,-3.05386e-01,-3.36352e-01,-3.00742e-01,-1.35033e-01,4.15785e-02,2.25520e-02,-2.22848e-02,-9.79669e-02,-7.41234e-02,-9.01226e-02,-2.06647e-02,2.83081e-02,2.66536e-02,5.20212e-02,-1.32243e-02,1.21275e-01,2.69985e-01,1.43511e-01,5.67280e-02,-8.32048e-02,-4.76104e-02,-6.66837e-02,-3.29537e-04,-1.05493e-02,3.22373e-02,3.46149e-02,8.86640e-02,-1.47795e-01,-3.48321e-01,-5.40661e-01,-4.66452e-01,-3.17019e-01,-3.06690e-01,-1.55043e-01,-5.08537e-02,-8.17328e-02,-7.85171e-02,-1.18425e-01,-2.61158e-02,-9.07128e-03,2.87754e-02,-7.13716e-02,2.05593e-01,1.19731e-01,1.18235e-01,-2.12341e-02,3.44457e-02,-8.34261e-02,3.46305e-02,-7.28275e-02,-1.67319e-02,-1.67218e-02,-4.32407e-02,-2.00455e-02,7.91175e-02,-3.63766e-02,-2.79310e-01,-3.29942e-01,-4.34339e-01,-3.26230e-01,-2.17941e-01,-2.17058e-01,-1.50161e-01,1.60843e-01,-9.89873e-02,-6.34138e-02,-8.64431e-03,1.89913e-02,1.90415e-02,2.02973e-02,-7.17935e-02,-1.87487e-01,-1.53983e-01,-1.12587e-01,1.14511e-01,1.10797e-01,4.47271e-02,-6.00813e-03,-1.98598e-02,-1.23276e-01,-1.86779e-02,-3.26359e-04,7.47860e-02,1.32522e-01,8.73889e-02,5.29019e-02,-3.54262e-02,-1.42129e-02,1.34790e-02,-3.30397e-03,-4.42236e-02,-6.53787e-03,8.48080e-02,-3.22610e-03,8.15856e-04,1.36735e-02,-2.63198e-02,-2.72871e-02,-3.28734e-02,1.95332e-01,1.71132e-01,1.72560e-01,2.49544e-02,5.43095e-02,2.90136e-01,2.77206e-01,1.21515e-01,7.35792e-02,1.40913e-01,2.16032e-01,3.60768e-01,2.58544e-01,-5.82041e-03,1.46015e-02,5.41365e-03,4.46807e-02,-2.24629e-02,-1.63251e-02,2.06320e-02,-1.90222e-03,-9.18770e-03,-9.73547e-03,3.16954e-02,
2.54961e-02,1.09709e-02,-7.92923e-03,-1.00158e-02,-2.98959e-03,2.71887e-02,1.70570e-02,7.74533e-03,-4.31490e-03,3.36050e-03,-4.03179e-03,-3.47233e-02,-1.29420e-03,4.77322e-04,-1.22167e-02,1.30025e-02,3.29433e-02,-1.90920e-02,3.53220e-02,4.43370e-03,2.47944e-02,1.60802e-02,2.74373e-02,-2.66117e-02,1.40248e-03,-2.00288e-02,-2.65045e-03,-1.96790e-02,6.42017e-03,3.50249e-03,-7.49337e-03,-3.69639e-03,-3.54223e-02,-1.29245e-02,-1.18325e-03,-3.83116e-03,1.57403e-02,-3.43094e-02,-3.49525e-02,-6.37206e-02,-2.11943e-02,-4.65506e-03,3.36828e-02,-1.51981e-02,-5.17214e-02,-9.12808e-02,-1.29470e-01,7.30851e-03,-6.39495e-02,-3.70395e-02,-3.19377e-02,3.38829e-02,1.32265e-02,2.85402e-02,-2.41136e-02,2.85148e-02,1.51600e-02,2.14481e-02,-2.52263e-02,-3.12345e-02,-4.32441e-02,1.30448e-02,8.08805e-03,1.89397e-02,1.86516e-01,2.48149e-01,2.51145e-01,2.46186e-01,1.80391e-01,7.09824e-02,4.78239e-02,-8.28854e-03,8.47981e-02,-1.28055e-02,7.09482e-02,1.90719e-01,1.99010e-01,8.31576e-02,5.21126e-02,4.74975e-02,-2.74715e-02,-5.35506e-02,-4.38694e-03,2.96451e-03,1.12551e-02,-1.09226e-02,1.85999e-01,1.01234e-01,1.52781e-01,1.12604e-01,1.04349e-01,1.39331e-01,1.40070e-01,6.79517e-02,1.76472e-01,1.38782e-01,1.94116e-01,1.62939e-01,1.35519e-01,1.48194e-01,9.05599e-02,4.59085e-02,2.90808e-02,3.56580e-02,5.56532e-02,-6.40992e-02,3.93755e-02,6.59650e-02,-7.13166e-02,6.72499e-02,6.35484e-03,3.25973e-02,1.48261e-02,-7.59512e-03,1.60242e-01,1.59552e-01,1.28395e-01,1.75509e-01,5.76538e-02,8.11785e-02,1.42182e-01,9.77685e-02,1.23295e-01,8.89180e-02,8.58353e-02,6.84721e-03,7.60488e-02,5.61573e-02,1.51626e-01,6.59131e-03,-2.47212e-02,-8.14001e-02,2.15552e-02,-2.76127e-02,-5.94804e-02,-1.24764e-01,3.25132e-02,1.00543e-01,1.10020e-01,-1.07150e-01,7.48975e-03,-1.54879e-02,1.64091e-01,2.72952e-01,1.46456e-01,2.23729e-01,1.20343e-01,2.94414e-02,-1.89866e-02,5.54787e-02,8.58190e-02,9.17386e-02,-7.15268e-02,-4.52942e-02,-3.57814e-02,3.81751e-02,7.09742e-02,7.61676e-02,6.82813e-02,5.59816e-02,8.90404e-02,1.72396e-01,1.38253e-01,-1.67032e-02,-1.19633e-01,-1.31924e-01,2.48091e-02,-3.82659e-02,1.64456e-02,1.44294e-02,-4.92360e-02,1.35631e-01,1.31743e-01,7.47167e-02,4.87206e-02,-9.19094e-03,8.06660e-02,1.02967e-01,5.87955e-02,-6.80247e-02,-9.73376e-02,-6.08952e-02,-6.64493e-02,-3.40414e-03,7.41756e-02,2.78299e-02,4.67453e-02,8.43681e-02,6.24398e-02,7.08326e-02,6.13247e-02,2.08024e-02,-3.33798e-02,-8.61778e-02,1.21312e-01,2.80174e-03,-1.65512e-02,4.43872e-02,-1.40131e-01,6.71878e-02,-5.04108e-02,-2.02231e-02,-3.77180e-02,-8.82437e-02,-4.53825e-03,6.98493e-03,-5.40794e-02,-1.40043e-01,-7.68955e-02,1.83665e-02,-1.22558e-02,4.74184e-02,5.25518e-02,-3.32692e-02,-3.61424e-02,-1.84900e-02,2.68092e-02,2.98226e-02,1.62490e-01,9.71594e-02,-5.16267e-02,-4.88497e-02,4.28686e-02,-2.39482e-02,-8.63270e-02,-8.22546e-02,-1.89500e-01,-4.79940e-02,-2.78984e-02,6.28503e-02,1.19814e-02,-5.02714e-02,-2.39122e-02,-5.38319e-02,-1.09663e-01,-3.73817e-02,-1.63200e-03,7.29351e-02,4.65096e-02,-8.11898e-03,-2.23330e-02,-3.20497e-02,-8.22844e-02,-1.33618e-02,-2.59276e-03,3.43014e-02,1.53803e-01,1.06751e-01,1.13713e-02,5.77135e-02,1.43571e-01,1.52177e-01,-1.42855e-01,-8.40906e-02,-8.89555e-02,7.33631e-03,-7.09973e-02,-7.19316e-02,-8.55074e-02,-4.89670e-02,-3.89343e-02,-5.08134e-02,8.98701e-03,1.58677e-02,3.70194e-02,1.04684e-01,-3.12838e-02,-7.35977e-02,-4.63660e-02,-9.36994e-02,-5.98085e-02,4.26145e-02,4.84540e-02,5.04489e-02,1.56365e-01,1.52396e-01,7.09900e-02,1.28937e-01,2.40087e-01,-8.97233e-02,-7.83099e-02,-1.56010e-02,-8.73958e-02,-6.62781e-03,-7.17361e-02,-1.43678e-01,-1.96652e-01,-7.04198e-02,3.11402e-03,3.79747e-04,4.67895e-02,1.21208e-01,7.03372e-02,1.28869e-02,-3.26112e-02,3.85963e-03,5.00200e-02,-3.52207e-02,4.27487e-02,1.66099e-02,-3.41997e-03,3.73182e-02,1.39083e-01,1.30213e-01,9.32885e-02,5.28773e-02,1.13490e-01,-7.08707e-02,-8.65200e-02,-9.18098e-02,-1.71712e-02,4.27858e-02,-1.64845e-01,-8.19791e-02,-1.36279e-01,-5.81911e-02,-2.44269e-02,3.15345e-02,6.16465e-03,8.10685e-02,3.10646e-02,-2.60494e-02,1.11479e-01,6.16800e-02,6.08051e-02,-3.21128e-02,5.18586e-02,2.76185e-02,8.03461e-02,8.10013e-02,7.53311e-02,7.75083e-03,1.61409e-01,7.00087e-02,2.05045e-02,-1.66592e-02,-6.49680e-02,-6.56282e-02,4.01026e-02,-3.19874e-03,-1.32816e-01,-1.72980e-01,-1.59903e-01,-5.01470e-02,-8.05219e-02,8.98449e-03,-8.26741e-04,-9.65325e-02,-5.90456e-02,-3.25498e-02,7.59109e-02,1.27224e-01,7.32555e-02,2.64810e-02,5.85115e-02,3.24898e-02,4.75704e-02,5.79745e-02,-1.28458e-01,-5.35415e-02,6.34424e-02,9.02066e-04,6.12070e-02,1.92663e-01,-6.22846e-02,-1.33140e-02,1.41884e-02,-9.31979e-02,-1.32498e-01,-2.17586e-01,-2.35414e-01,-1.10942e-01,-2.85347e-02,-1.97097e-02,-1.45709e-01,-1.11818e-01,-1.38842e-01,3.08223e-03,5.64113e-02,6.37616e-02,5.17564e-02,4.31119e-02,-9.07962e-03,2.56149e-02,2.36634e-03,-9.36097e-02,-1.08223e-01,-9.39797e-02,-8.81238e-02,-1.37855e-01,1.07682e-02,4.22425e-02,8.32467e-03,-8.40021e-02,-4.14506e-02,-5.49925e-02,-8.43336e-02,-8.90127e-02,-1.30426e-01,-8.05753e-02,-1.47385e-01,-1.52556e-01,-1.87699e-01,-1.60644e-01,-1.14882e-01,2.97061e-02,7.00030e-02,6.08671e-02,1.76637e-02,4.86896e-03,-4.31768e-02,-9.71582e-02,-1.68081e-01,-9.13751e-02,-8.60866e-02,-1.85243e-01,-1.94746e-01,-9.89906e-02,8.43616e-02,-2.59760e-02,-3.00394e-02,7.01784e-03,6.73745e-03,-5.28755e-02,1.16651e-01,8.89570e-02,4.83322e-02,-3.79005e-02,-3.67622e-02,-8.93423e-02,-9.79662e-02,-5.98650e-02,-2.50820e-02,8.28192e-02,2.50339e-02,7.35773e-02,-1.60458e-02,-7.36590e-02,-6.61443e-02,-1.41086e-01,-1.52371e-01,-7.92828e-02,-1.08065e-02,-1.22806e-01,-1.59742e-01,-5.30366e-02,7.22288e-02,5.61675e-02,-1.03114e-02,2.04225e-02,1.38190e-02,-2.33107e-02,1.24520e-01,3.88778e-02,5.70187e-02,-3.08905e-03,3.33308e-02,-1.49281e-02,2.26309e-02,2.19452e-02,1.19148e-02,2.12970e-03,-5.05564e-03,-1.64037e-02,-1.24778e-01,-1.26360e-01,-1.68241e-01,-1.31746e-01,-1.94917e-01,-2.23085e-01,-7.24271e-02,4.89999e-02,-4.86175e-02,4.97752e-02,2.49829e-02,3.58989e-02,-1.60977e-02,3.72013e-02,-8.73788e-02,7.90037e-02,1.33802e-01,3.89801e-02,8.15760e-02,5.16919e-02,1.04628e-01,6.80107e-02,2.42746e-02,5.71379e-02,6.14269e-02,-6.98625e-03,-7.74162e-02,-1.41124e-01,-1.25018e-01,-1.43183e-01,-1.67868e-01,-1.43475e-01,-1.92485e-01,-1.18864e-01,-7.08016e-02,9.48612e-02,1.94158e-02,-1.58437e-01,3.70617e-03,8.81202e-02,7.70488e-02,3.97952e-02,-4.51306e-02,1.43016e-01,1.56495e-02,1.32163e-01,7.74876e-02,3.11132e-02,5.98099e-02,1.31776e-01,3.52651e-02,7.69033e-02,-6.46932e-02,-5.10807e-02,-8.42365e-02,-1.08327e-01,-5.99228e-02,-5.63382e-02,-1.83265e-01,-1.79629e-01,-1.22432e-01,-1.27503e-01,-9.14015e-02,1.02910e-01,1.40446e-01,-1.67193e-01,-3.05396e-02,-5.01534e-02,-7.52773e-02,-1.82214e-01,-1.13242e-01,1.61251e-01,-8.69935e-03,1.21915e-01,8.37019e-02,8.32734e-02,1.30626e-01,1.14013e-01,6.47309e-02,-4.87779e-02,-5.76237e-02,-3.37646e-02,-5.13022e-02,3.73329e-02,-5.59594e-02,-9.00455e-02,-1.19517e-01,-1.62632e-01,-1.20636e-01,-5.88692e-02,4.25726e-02,1.36512e-01,1.62692e-01,-2.10272e-02,-2.17250e-02,-3.76664e-02,8.50623e-03,-4.28222e-02,-1.38034e-01,7.06150e-02,2.94064e-02,9.81823e-02,1.14837e-01,9.18173e-02,1.57353e-01,1.22886e-01,1.15928e-01,1.50371e-02,5.64701e-03,-4.61616e-02,5.48396e-02,1.51237e-02,-4.37193e-02,-8.73777e-02,-9.47036e-02,-8.91539e-02,1.44826e-02,1.04824e-01,1.76091e-01,1.00831e-01,4.69830e-02,8.68587e-02,-6.31454e-02,-1.88098e-02,3.93423e-03,-2.22207e-02,-3.91983e-02,5.61173e-03,3.17166e-02,2.37740e-03,9.36171e-02,1.34507e-01,1.02818e-01,9.72669e-02,6.59030e-02,3.76016e-02,6.88983e-02,5.51796e-02,2.83718e-02,5.72514e-02,1.30790e-02,7.97497e-03,8.60943e-03,2.67467e-02,7.78961e-02,8.60809e-02,1.19997e-01,-7.72959e-02,-1.07757e-01,3.75995e-02,-1.16089e-01,8.56908e-04,1.45600e-02,1.70741e-02,1.81088e-02,-1.65850e-02,7.26583e-02,-2.72682e-02,1.17849e-01,5.39771e-02,1.19771e-03,1.31543e-02,-5.80094e-03,-4.00449e-02,1.00783e-02,3.84035e-02,7.84694e-02,3.84388e-02,-1.53486e-02,5.42288e-02,1.18250e-01,5.37975e-02,4.18060e-02,8.16309e-02,3.34901e-02,-5.74807e-02,-1.28387e-01,1.95520e-02,-2.68708e-02,1.01281e-02,-3.42781e-02,-1.75345e-02,2.13355e-04,-9.16852e-03,5.73631e-02,1.56673e-02,4.02949e-02,-1.19165e-02,-4.15600e-02,-2.77410e-02,-6.32049e-02,-2.42549e-02,2.94373e-02,2.09723e-03,5.26620e-02,5.23705e-02,7.76910e-02,8.99778e-02,1.46748e-01,7.36945e-02,-1.34906e-02,-5.17206e-02,-5.92652e-02,-7.12101e-02,-7.73166e-02,5.68430e-02,1.35043e-02,-1.95931e-02,-3.51968e-02,-3.02622e-02,6.59851e-02,-3.77482e-02,6.76674e-02,-6.42625e-02,1.41191e-02,-4.36569e-02,-5.92058e-02,-1.33262e-01,-1.29498e-01,-7.60332e-02,-3.83898e-02,-3.75633e-02,-5.18005e-02,-2.71815e-02,-6.11190e-02,-7.57098e-02,2.08293e-02,-2.24244e-02,-1.05875e-01,-1.93183e-01,-5.79795e-02,1.70849e-02,5.30819e-02,-3.67443e-02,-4.03457e-02,2.54659e-02,-2.17557e-06,1.16302e-02,2.96400e-02,1.79581e-02,7.38391e-02,1.09096e-01,1.09050e-01,4.84229e-02,-1.03782e-02,-1.18384e-01,-2.73123e-02,-6.81261e-02,-1.21814e-02,-4.31586e-02,-4.03140e-02,4.08836e-02,8.08331e-02,1.91030e-01,2.29838e-01,1.83219e-01,6.05947e-02,-2.76826e-02,-7.83769e-02,-1.57610e-01,-2.29494e-01,4.57139e-02,2.97829e-03,-3.91184e-03,3.17976e-02,-2.25249e-02,4.36283e-03,1.71478e-02,7.57975e-02,1.65223e-01,7.96143e-02,9.49064e-02,8.95105e-02,-3.58429e-03,1.09025e-03,-2.87268e-02,1.70571e-02,3.59717e-04,1.88471e-01,-2.65996e-03,-4.15601e-02,1.03209e-01,8.98462e-02,-8.47129e-05,9.60403e-03,7.82592e-02,-4.50337e-02,-3.61093e-02,-2.72086e-02,-1.10687e-01,-1.42645e-02,-1.10379e-02,7.72753e-03,-7.30819e-03,2.92156e-02,-3.53843e-04,-1.31328e-01,-1.37406e-01,-2.96848e-02,-7.75662e-02,-3.26052e-02,-1.79281e-02,-6.42139e-02,-1.44666e-02,3.88747e-02,-4.51084e-02,5.18887e-02,9.22439e-02,-1.24320e-02,-5.33703e-02,-2.16488e-02,-1.54912e-02,-3.36387e-02,7.99867e-03,4.30360e-02,2.33753e-02,-6.23634e-03,-2.78486e-02,3.31120e-02,2.12248e-02,
2.77436e-02,-6.80849e-03,3.31859e-02,-1.61311e-02,-1.78559e-02,2.48616e-02,-3.50223e-02,4.50779e-03,-3.19731e-02,-3.23576e-02,-2.42326e-02,-3.11829e-02,-9.25369e-03,-1.35425e-02,2.42416e-02,-4.45072e-03,2.86958e-02,-5.92303e-03,1.19111e-02,3.55510e-02,-7.99667e-03,-1.95188e-02,1.87685e-02,6.56227e-03,-2.10188e-02,8.07758e-03,-1.72611e-02,3.43177e-02,-1.97021e-02,-2.36067e-02,1.72639e-02,3.44092e-02,-2.69033e-02,-1.78911e-02,-5.74868e-02,-6.17830e-02,-9.05703e-02,-2.62845e-03,2.60225e-02,-3.03014e-02,-3.55569e-02,-3.46703e-02,-2.21093e-02,4.94914e-03,-4.23047e-02,-2.74969e-02,-4.19591e-02,-6.87799e-02,-9.57222e-03,-2.11884e-02,-8.79624e-02,-2.32273e-02,-2.98095e-02,-2.02263e-02,2.01134e-02,2.69846e-02,-3.20900e-02,1.16276e-02,3.07576e-02,-5.83702e-02,-5.70823e-02,-2.31512e-02,-1.88543e-02,-8.33640e-02,4.82929e-02,6.13809e-02,1.86668e-02,-2.29950e-01,-3.12290e-01,-3.34414e-01,-2.95646e-01,-1.72504e-01,-7.54402e-02,-8.41746e-02,8.66526e-02,7.50283e-02,8.15050e-02,1.97133e-02,-2.89211e-02,-6.18825e-02,9.90408e-02,1.73417e-01,-1.15488e-02,4.26769e-05,-1.14425e-02,2.75382e-02,4.38019e-02,-3.95203e-02,-1.12019e-02,-1.72236e-02,-2.15008e-02,-4.04887e-02,-2.92264e-02,-4.68998e-02,1.00626e-01,-1.61487e-01,-3.10399e-01,-3.39453e-01,-1.99389e-01,-1.61387e-02,-7.19593e-02,-4.84601e-02,3.60262e-02,-1.33141e-02,-5.07978e-02,2.08224e-01,2.01632e-01,9.12813e-02,-1.17397e-01,-9.85789e-02,-6.32542e-02,-9.26586e-03,1.79905e-02,5.06560e-02,5.57541e-02,6.85171e-03,-1.23614e-02,-1.76628e-01,-1.73062e-01,-1.35687e-01,-1.01824e-01,-7.49981e-03,4.54694e-02,5.74256e-02,1.47114e-01,-1.05953e-03,-2.26991e-02,6.48917e-02,6.03720e-02,1.06637e-01,9.05155e-02,6.42208e-02,8.08021e-02,8.57272e-02,1.49549e-01,1.81260e-01,2.40898e-01,1.88753e-01,1.30839e-01,-2.61293e-02,-2.16678e-02,-2.86720e-03,-1.66197e-02,5.79932e-02,-2.21022e-02,-2.65557e-01,-1.74028e-01,-5.81845e-02,-6.36406e-02,2.51247e-04,6.10934e-03,1.42770e-01,1.62605e-01,4.06895e-02,2.91706e-02,-5.55159e-02,1.37797e-02,8.81680e-02,1.65041e-02,-4.95405e-02,6.53111e-02,1.84725e-02,1.54076e-01,8.44515e-02,1.47576e-01,2.39165e-01,5.46305e-03,-4.72934e-02,3.04107e-02,2.64236e-02,-5.66925e-03,-5.86936e-02,-5.74682e-02,-6.09929e-02,-1.03404e-01,-1.31176e-01,6.70947e-02,6.82590e-02,4.41952e-02,-2.16744e-02,7.83445e-02,9.64623e-02,-3.95189e-02,-7.52252e-02,1.24175e-02,1.55076e-02,-3.87824e-02,5.18688e-03,-4.39109e-02,-4.83491e-02,1.11783e-01,1.57085e-01,1.44445e-01,1.36421e-01,-3.67781e-02,-2.54299e-02,6.03094e-03,-9.63873e-02,-1.89753e-02,-1.79858e-01,8.89036e-02,1.85586e-01,5.88915e-02,1.84876e-02,1.51128e-01,9.95679e-02,1.26499e-01,5.20704e-02,6.21241e-02,4.78651e-02,-8.31574e-02,-1.09455e-01,-9.98119e-02,-3.17114e-02,6.47850e-02,-1.18683e-02,-1.27662e-01,-4.64404e-02,4.34317e-02,1.74476e-01,1.53120e-01,-1.33273e-02,8.42886e-02,-4.95676e-02,2.09813e-02,-5.75971e-02,-7.11167e-03,4.63890e-02,2.71369e-01,1.45044e-01,5.74671e-02,4.40587e-02,1.10423e-01,1.26472e-01,8.76692e-02,4.70485e-02,4.26992e-02,-1.94947e-02,-8.07351e-02,-9.03028e-02,-1.65108e-01,-3.35220e-02,4.04887e-02,1.92424e-02,-4.56995e-02,8.06211e-03,-3.95907e-02,4.01260e-02,1.07710e-01,1.58091e-01,1.50698e-01,1.11372e-01,4.38147e-02,-7.24587e-02,9.89823e-02,1.91428e-01,1.39812e-01,1.18421e-01,-1.95517e-03,6.64034e-02,1.06890e-01,8.03153e-05,1.41834e-02,-2.31859e-02,-3.57616e-02,-5.09376e-02,-1.23533e-01,-2.32734e-01,-1.95421e-01,-7.86198e-02,4.28112e-02,9.31094e-02,4.84632e-02,-3.82686e-03,1.04269e-01,1.40120e-01,5.35056e-03,6.24117e-02,9.91444e-02,-8.82807e-02,5.24008e-02,-1.79419e-02,-3.01206e-02,1.27841e-01,5.45467e-02,6.15089e-02,5.70566e-02,2.68794e-02,5.14234e-02,-6.64369e-03,6.18265e-03,-4.16904e-02,3.91605e-02,-1.33541e-03,-1.05546e-01,-2.62260e-01,-3.09592e-01,-1.18282e-01,-5.22343e-02,-7.10113e-02,-5.84649e-02,6.44592e-02,8.42568e-02,1.64105e-01,4.56607e-02,7.29049e-02,1.12183e-02,-1.31582e-01,4.05398e-02,-6.53920e-03,-1.35041e-01,-3.68476e-02,-1.20971e-02,4.75063e-02,3.82000e-02,-4.63784e-02,1.24762e-02,1.45069e-04,-3.62974e-02,3.53839e-02,1.45480e-01,8.86769e-03,-7.95164e-02,-2.52381e-01,-2.42884e-01,-5.27085e-02,-2.17735e-02,-3.97056e-02,-7.80378e-02,-1.91265e-02,1.07951e-01,7.88399e-03,7.33741e-02,8.72633e-02,7.46852e-02,-1.50308e-01,5.72270e-02,-1.35242e-02,-1.75237e-01,-9.43250e-02,-5.66826e-02,1.14430e-01,-3.16494e-02,1.92386e-02,-6.46256e-02,-4.26361e-02,2.25237e-02,1.26928e-01,1.67826e-01,9.07437e-02,-1.04017e-01,-2.05479e-01,-2.19035e-01,-6.83654e-02,-3.81699e-02,2.86134e-02,1.22855e-01,2.18028e-01,7.31906e-02,3.79771e-02,2.46632e-01,4.55306e-02,-1.17700e-01,-1.29580e-01,-4.75662e-03,-5.65666e-02,-1.43266e-01,-2.00311e-01,-1.46003e-01,7.04286e-02,1.32794e-02,7.91032e-02,-2.50857e-02,-6.24187e-03,7.79238e-02,1.11294e-01,1.40565e-01,1.16912e-01,-1.93183e-02,-8.34422e-02,-5.27909e-02,1.15065e-02,-1.40028e-02,8.05953e-02,2.34103e-01,2.06641e-01,1.27983e-01,1.12989e-01,1.48867e-01,7.18005e-02,-1.82187e-01,7.70085e-02,-9.57508e-02,-4.98659e-02,-9.25796e-02,-1.60492e-01,-1.36466e-01,-1.72394e-04,3.28423e-02,-4.14666e-02,-1.14712e-01,-5.43721e-02,3.79680e-02,3.57093e-02,1.61451e-01,8.20765e-02,2.40459e-03,-5.61319e-03,1.92955e-02,1.12736e-01,-3.50053e-02,8.18454e-02,1.17059e-01,5.54755e-02,-4.70822e-02,1.59756e-03,7.26132e-03,4.13999e-02,-6.44376e-02,6.39245e-02,-6.78637e-02,-2.58046e-02,-6.13576e-02,-1.58592e-02,-1.55203e-01,-2.09608e-01,-2.17806e-02,-1.00996e-01,-9.90015e-02,-2.32922e-02,3.83290e-02,6.77760e-03,4.57702e-02,8.51222e-02,5.28092e-02,4.59352e-02,9.16624e-02,2.17199e-02,2.42382e-03,-2.12968e-02,-7.32241e-02,-1.77189e-01,-7.05634e-02,-5.03037e-03,9.32460e-02,-4.68795e-03,2.09965e-02,5.99999e-02,2.63859e-02,2.76316e-02,-2.49194e-02,3.18555e-02,-1.86587e-01,-2.31955e-01,-1.88693e-01,-1.86716e-01,-9.63973e-02,8.17361e-03,7.11836e-02,-9.83993e-02,5.09908e-02,6.66473e-02,1.07000e-01,3.05005e-02,8.36052e-02,5.20795e-02,-3.37204e-02,-1.89095e-02,-1.87156e-01,-2.70161e-01,-2.18324e-01,-4.60329e-02,2.78187e-02,-1.16906e-01,-8.27906e-02,3.23860e-02,-3.12233e-02,1.04276e-02,4.64728e-02,2.18066e-01,-9.28309e-02,-1.06446e-01,-1.13256e-01,-1.70019e-01,-7.39436e-02,-9.79492e-02,-1.35419e-02,-7.78410e-02,-1.47780e-02,5.68192e-02,1.53428e-03,-1.30686e-02,-1.53820e-02,-4.72836e-02,-4.71869e-02,-8.75918e-02,-1.25587e-01,-1.63902e-01,-1.67722e-01,-9.13256e-02,1.79256e-02,-8.30181e-02,2.81504e-03,4.52554e-02,-6.58082e-02,9.07466e-02,-1.04792e-02,1.96492e-01,-6.64207e-02,8.07680e-02,2.54031e-02,-1.47073e-01,-1.32755e-01,1.53748e-02,6.53852e-02,-1.69139e-03,-7.42692e-02,1.83584e-02,-3.03016e-02,-9.12244e-02,-1.67960e-01,-9.39495e-02,-1.20460e-01,-6.17178e-02,-7.10239e-03,-3.27589e-02,-1.22870e-01,-2.59352e-02,1.05392e-01,-7.41824e-02,-3.49702e-02,1.47503e-02,3.00326e-02,-1.14595e-01,7.78156e-02,8.13534e-02,2.83977e-02,1.59081e-01,1.81634e-02,-7.26241e-02,5.33281e-03,4.83280e-02,4.73413e-03,-1.01480e-01,-6.11228e-02,-6.02657e-03,3.09396e-02,-7.55952e-02,-7.83931e-02,4.82927e-03,-5.09290e-02,-8.53300e-02,-5.81773e-02,-7.53990e-03,5.01910e-02,1.36021e-01,6.99957e-02,-2.71902e-02,3.40062e-01,-8.75735e-03,-3.36759e-02,4.16060e-02,1.00260e-01,1.67454e-01,-5.01587e-02,5.79502e-02,6.44711e-02,-2.64975e-03,4.75770e-02,6.11113e-02,-1.68439e-02,-7.50614e-02,1.21720e-02,1.12528e-01,4.10484e-02,-5.34883e-02,-6.21742e-02,-3.03843e-02,-1.46645e-02,-3.13913e-02,-5.99729e-02,3.20837e-02,1.52397e-01,6.87616e-02,5.36862e-02,-7.85870e-02,1.54037e-01,1.87190e-03,-7.09588e-03,6.56579e-02,2.02818e-01,6.46395e-02,-7.58921e-02,-5.46762e-02,2.33938e-02,4.68421e-03,6.39144e-02,1.12666e-01,-1.82983e-02,4.45173e-02,4.39820e-02,1.19705e-01,-1.60744e-02,-7.03122e-02,-1.57773e-01,-2.38096e-02,-4.77243e-02,-5.18467e-02,-2.98936e-02,8.72803e-02,1.39458e-01,9.64250e-02,-1.83970e-02,-7.49729e-02,-7.03162e-02,-4.15083e-03,-3.16112e-03,-1.93556e-02,2.88930e-01,2.68034e-01,1.04129e-01,-1.57395e-02,-2.58404e-02,4.03934e-02,5.64309e-02,1.58876e-02,-1.32195e-02,8.65833e-02,7.40299e-02,6.19413e-02,-4.24829e-02,-1.55841e-01,-1.84943e-01,-8.96031e-02,-1.48755e-01,-1.08675e-01,-2.40217e-02,1.30973e-01,1.21105e-01,7.96240e-02,1.31955e-01,-1.10585e-01,-1.86844e-01,1.56717e-02,-2.98859e-03,3.40921e-02,1.57995e-01,2.36748e-01,2.59995e-03,-5.16538e-02,-1.34177e-01,3.70047e-02,1.68626e-01,1.03585e-01,3.67262e-02,3.95833e-02,1.31448e-01,1.03144e-01,4.53304e-02,6.47217e-03,-2.72957e-02,-1.99747e-01,-2.14431e-01,-1.35605e-01,1.57169e-02,1.93135e-01,2.01509e-01,1.72624e-01,5.92635e-02,-1.19787e-01,-1.14467e-01,-3.16763e-02,2.34857e-02,1.34548e-02,-7.88303e-02,-1.40989e-01,-3.04384e-01,-2.77913e-01,-2.33623e-01,-6.19207e-02,1.39090e-01,6.44362e-02,3.17090e-02,8.85824e-02,6.47731e-02,9.33562e-02,9.32953e-02,8.60714e-02,1.20288e-01,-5.51772e-02,-6.73355e-02,-6.25939e-02,1.06821e-01,1.77559e-01,3.06596e-01,1.54361e-01,5.29107e-02,-3.25038e-02,-5.78031e-02,3.21477e-02,-3.32230e-03,1.09161e-02,3.16497e-02,-6.16990e-03,-2.25729e-01,-2.12103e-01,-4.55256e-02,-8.10329e-02,-5.05938e-02,2.40001e-02,1.02716e-01,2.19887e-02,-3.78322e-02,1.89785e-02,2.39275e-02,8.29147e-02,3.74680e-02,1.58849e-01,1.23711e-01,1.35394e-01,2.05243e-01,2.50947e-01,1.19554e-01,1.17235e-01,5.46022e-02,-1.87106e-02,1.97245e-02,-3.27539e-02,2.76082e-02,1.65878e-02,3.47683e-02,-3.84985e-02,-5.54184e-02,-1.17460e-01,-1.58039e-01,-2.28500e-01,-1.51951e-01,-1.10372e-01,-1.77825e-01,-1.04696e-01,-8.04078e-02,-8.74336e-02,-5.07813e-02,3.66704e-03,6.78793e-03,2.15240e-03,-8.10404e-03,-7.71183e-02,-3.42293e-02,-4.43035e-02,-1.09698e-01,4.18011e-02,5.20428e-02,3.07980e-02,1.31525e-02,-1.63252e-02,1.91086e-02,1.60919e-02,-1.03380e-02,-6.97150e-03,-6.00948e-02,-7.26044e-02,-1.08508e-01,-4.27096e-02,-5.11743e-02,-1.22151e-01,-5.07265e-02,2.70195e-02,5.28617e-02,5.40167e-03,3.97912e-02,-1.50283e-02,-5.54182e-02,-4.80503e-02,-3.82484e-02,-4.55803e-02,-5.50178e-02,-2.66659e-02,-8.09280e-02,-7.06392e-02,2.00054e-02,3.55690e-02,-2.81029e-02,3.26900e-02,
