// Neural Network File Format by Kyle Julian, Stanford 2016
16,784,10,784,
784,50,50,50,50,50,50,50,50,50,50,50,50,50,50,50,10,
0,
-3.4028235e+38,-3.4028235e+38,-3.4028235e+38,-3.4028235e+38,-3.4028235e+38,-3.4028235e+38,-3.4028235e+38,-3.4028235e+38,-3.4028235e+38,-3.4028235e+38,-3.4028235e+38,-3.4028235e+38,-3.4028235e+38,-3.4028235e+38,-3.4028235e+38,-3.4028235e+38,-3.4028235e+38,-3.4028235e+38,-3.4028235e+38,-3.4028235e+38,-3.4028235e+38,-3.4028235e+38,-3.4028235e+38,-3.4028235e+38,-3.4028235e+38,-3.4028235e+38,-3.4028235e+38,-3.4028235e+38,-3.4028235e+38,-3.4028235e+38,-3.4028235e+38,-3.4028235e+38,-3.4028235e+38,-3.4028235e+38,-3.4028235e+38,-3.4028235e+38,-3.4028235e+38,-3.4028235e+38,-3.4028235e+38,-3.4028235e+38,-3.4028235e+38,-3.4028235e+38,-3.4028235e+38,-3.4028235e+38,-3.4028235e+38,-3.4028235e+38,-3.4028235e+38,-3.4028235e+38,-3.4028235e+38,-3.4028235e+38,-3.4028235e+38,-3.4028235e+38,-3.4028235e+38,-3.4028235e+38,-3.4028235e+38,-3.4028235e+38,-3.4028235e+38,-3.4028235e+38,-3.4028235e+38,-3.4028235e+38,-3.4028235e+38,-3.4028235e+38,-3.4028235e+38,-3.4028235e+38,-3.4028235e+38,-3.4028235e+38,-3.4028235e+38,-3.4028235e+38,-3.4028235e+38,-3.4028235e+38,-3.4028235e+38,-3.4028235e+38,-3.4028235e+38,-3.4028235e+38,-3.4028235e+38,-3.4028235e+38,-3.4028235e+38,-3.4028235e+38,-3.4028235e+38,-3.4028235e+38,-3.4028235e+38,-3.4028235e+38,-3.4028235e+38,-3.4028235e+38,-3.4028235e+38,-3.4028235e+38,-3.4028235e+38,-3.4028235e+38,-3.4028235e+38,-3.4028235e+38,-3.4028235e+38,-3.4028235e+38,-3.4028235e+38,-3.4028235e+38,-3.4028235e+38,-3.4028235e+38,-3.4028235e+38,-3.4028235e+38,-3.4028235e+38,-3.4028235e+38,-3.4028235e+38,-3.4028235e+38,-3.4028235e+38,-3.4028235e+38,-3.4028235e+38,-3.4028235e+38,-3.4028235e+38,-3.4028235e+38,-3.4028235e+38,-3.4028235e+38,-3.4028235e+38,-3.4028235e+38,-3.4028235e+38,-3.4028235e+38,-3.4028235e+38,-3.4028235e+38,-3.4028235e+38,-3.4028235e+38,-3.4028235e+38,-3.4028235e+38,-3.4028235e+38,-3.4028235e+38,-3.4028235e+38,-3.4028235e+38,-3.4028235e+38,-3.4028235e+38,-3.4028235e+38,-3.4028235e+38,-3.4028235e+38,-3.4028235e+38,-3.4028235e+38,-3.4028235e+38,-3.4028235e+38,-3.4028235e+38,-3.4028235e+38,-3.4028235e+38,-3.4028235e+38,-3.4028235e+38,-3.4028235e+38,-3.4028235e+38,-3.4028235e+38,-3.4028235e+38,-3.4028235e+38,-3.4028235e+38,-3.4028235e+38,-3.4028235e+38,-3.4028235e+38,-3.4028235e+38,-3.4028235e+38,-3.4028235e+38,-3.4028235e+38,-3.4028235e+38,-3.4028235e+38,-3.4028235e+38,-3.4028235e+38,-3.4028235e+38,-3.4028235e+38,-3.4028235e+38,-3.4028235e+38,-3.4028235e+38,-3.4028235e+38,-3.4028235e+38,-3.4028235e+38,-3.4028235e+38,-3.4028235e+38,-3.4028235e+38,-3.4028235e+38,-3.4028235e+38,-3.4028235e+38,-3.4028235e+38,-3.4028235e+38,-3.4028235e+38,-3.4028235e+38,-3.4028235e+38,-3.4028235e+38,-3.4028235e+38,-3.4028235e+38,-3.4028235e+38,-3.4028235e+38,-3.4028235e+38,-3.4028235e+38,-3.4028235e+38,-3.4028235e+38,-3.4028235e+38,-3.4028235e+38,-3.4028235e+38,-3.4028235e+38,-3.4028235e+38,-3.4028235e+38,-3.4028235e+38,-3.4028235e+38,-3.4028235e+38,-3.4028235e+38,-3.4028235e+38,-3.4028235e+38,-3.4028235e+38,-3.4028235e+38,-3.4028235e+38,-3.4028235e+38,-3.4028235e+38,-3.4028235e+38,-3.4028235e+38,-3.4028235e+38,-3.4028235e+38,-3.4028235e+38,-3.4028235e+38,-3.4028235e+38,-3.4028235e+38,-3.4028235e+38,-3.4028235e+38,-3.4028235e+38,-3.4028235e+38,-3.4028235e+38,-3.4028235e+38,-3.4028235e+38,-3.4028235e+38,-3.4028235e+38,-3.4028235e+38,-3.4028235e+38,-3.4028235e+38,-3.4028235e+38,-3.4028235e+38,-3.4028235e+38,-3.4028235e+38,-3.4028235e+38,-3.4028235e+38,-3.4028235e+38,-3.4028235e+38,-3.4028235e+38,-3.4028235e+38,-3.4028235e+38,-3.4028235e+38,-3.4028235e+38,-3.4028235e+38,-3.4028235e+38,-3.4028235e+38,-3.4028235e+38,-3.4028235e+38,-3.4028235e+38,-3.4028235e+38,-3.4028235e+38,-3.4028235e+38,-3.4028235e+38,-3.4028235e+38,-3.4028235e+38,-3.4028235e+38,-3.4028235e+38,-3.4028235e+38,-3.4028235e+38,-3.4028235e+38,-3.4028235e+38,-3.4028235e+38,-3.4028235e+38,-3.4028235e+38,-3.4028235e+38,-3.4028235e+38,-3.4028235e+38,-3.4028235e+38,-3.4028235e+38,-3.4028235e+38,-3.4028235e+38,-3.4028235e+38,-3.4028235e+38,-3.4028235e+38,-3.4028235e+38,-3.4028235e+38,-3.4028235e+38,-3.4028235e+38,-3.4028235e+38,-3.4028235e+38,-3.4028235e+38,-3.4028235e+38,-3.4028235e+38,-3.4028235e+38,-3.4028235e+38,-3.4028235e+38,-3.4028235e+38,-3.4028235e+38,-3.4028235e+38,-3.4028235e+38,-3.4028235e+38,-3.4028235e+38,-3.4028235e+38,-3.4028235e+38,-3.4028235e+38,-3.4028235e+38,-3.4028235e+38,-3.4028235e+38,-3.4028235e+38,-3.4028235e+38,-3.4028235e+38,-3.4028235e+38,-3.4028235e+38,-3.4028235e+38,-3.4028235e+38,-3.4028235e+38,-3.4028235e+38,-3.4028235e+38,-3.4028235e+38,-3.4028235e+38,-3.4028235e+38,-3.4028235e+38,-3.4028235e+38,-3.4028235e+38,-3.4028235e+38,-3.4028235e+38,-3.4028235e+38,-3.4028235e+38,-3.4028235e+38,-3.4028235e+38,-3.4028235e+38,-3.4028235e+38,-3.4028235e+38,-3.4028235e+38,-3.4028235e+38,-3.4028235e+38,-3.4028235e+38,-3.4028235e+38,-3.4028235e+38,-3.4028235e+38,-3.4028235e+38,-3.4028235e+38,-3.4028235e+38,-3.4028235e+38,-3.4028235e+38,-3.4028235e+38,-3.4028235e+38,-3.4028235e+38,-3.4028235e+38,-3.4028235e+38,-3.4028235e+38,-3.4028235e+38,-3.4028235e+38,-3.4028235e+38,-3.4028235e+38,-3.4028235e+38,-3.4028235e+38,-3.4028235e+38,-3.4028235e+38,-3.4028235e+38,-3.4028235e+38,-3.4028235e+38,-3.4028235e+38,-3.4028235e+38,-3.4028235e+38,-3.4028235e+38,-3.4028235e+38,-3.4028235e+38,-3.4028235e+38,-3.4028235e+38,-3.4028235e+38,-3.4028235e+38,-3.4028235e+38,-3.4028235e+38,-3.4028235e+38,-3.4028235e+38,-3.4028235e+38,-3.4028235e+38,-3.4028235e+38,-3.4028235e+38,-3.4028235e+38,-3.4028235e+38,-3.4028235e+38,-3.4028235e+38,-3.4028235e+38,-3.4028235e+38,-3.4028235e+38,-3.4028235e+38,-3.4028235e+38,-3.4028235e+38,-3.4028235e+38,-3.4028235e+38,-3.4028235e+38,-3.4028235e+38,-3.4028235e+38,-3.4028235e+38,-3.4028235e+38,-3.4028235e+38,-3.4028235e+38,-3.4028235e+38,-3.4028235e+38,-3.4028235e+38,-3.4028235e+38,-3.4028235e+38,-3.4028235e+38,-3.4028235e+38,-3.4028235e+38,-3.4028235e+38,-3.4028235e+38,-3.4028235e+38,-3.4028235e+38,-3.4028235e+38,-3.4028235e+38,-3.4028235e+38,-3.4028235e+38,-3.4028235e+38,-3.4028235e+38,-3.4028235e+38,-3.4028235e+38,-3.4028235e+38,-3.4028235e+38,-3.4028235e+38,-3.4028235e+38,-3.4028235e+38,-3.4028235e+38,-3.4028235e+38,-3.4028235e+38,-3.4028235e+38,-3.4028235e+38,-3.4028235e+38,-3.4028235e+38,-3.4028235e+38,-3.4028235e+38,-3.4028235e+38,-3.4028235e+38,-3.4028235e+38,-3.4028235e+38,-3.4028235e+38,-3.4028235e+38,-3.4028235e+38,-3.4028235e+38,-3.4028235e+38,-3.4028235e+38,-3.4028235e+38,-3.4028235e+38,-3.4028235e+38,-3.4028235e+38,-3.4028235e+38,-3.4028235e+38,-3.4028235e+38,-3.4028235e+38,-3.4028235e+38,-3.4028235e+38,-3.4028235e+38,-3.4028235e+38,-3.4028235e+38,-3.4028235e+38,-3.4028235e+38,-3.4028235e+38,-3.4028235e+38,-3.4028235e+38,-3.4028235e+38,-3.4028235e+38,-3.4028235e+38,-3.4028235e+38,-3.4028235e+38,-3.4028235e+38,-3.4028235e+38,-3.4028235e+38,-3.4028235e+38,-3.4028235e+38,-3.4028235e+38,-3.4028235e+38,-3.4028235e+38,-3.4028235e+38,-3.4028235e+38,-3.4028235e+38,-3.4028235e+38,-3.4028235e+38,-3.4028235e+38,-3.4028235e+38,-3.4028235e+38,-3.4028235e+38,-3.4028235e+38,-3.4028235e+38,-3.4028235e+38,-3.4028235e+38,-3.4028235e+38,-3.4028235e+38,-3.4028235e+38,-3.4028235e+38,-3.4028235e+38,-3.4028235e+38,-3.4028235e+38,-3.4028235e+38,-3.4028235e+38,-3.4028235e+38,-3.4028235e+38,-3.4028235e+38,-3.4028235e+38,-3.4028235e+38,-3.4028235e+38,-3.4028235e+38,-3.4028235e+38,-3.4028235e+38,-3.4028235e+38,-3.4028235e+38,-3.4028235e+38,-3.4028235e+38,-3.4028235e+38,-3.4028235e+38,-3.4028235e+38,-3.4028235e+38,-3.4028235e+38,-3.4028235e+38,-3.4028235e+38,-3.4028235e+38,-3.4028235e+38,-3.4028235e+38,-3.4028235e+38,-3.4028235e+38,-3.4028235e+38,-3.4028235e+38,-3.4028235e+38,-3.4028235e+38,-3.4028235e+38,-3.4028235e+38,-3.4028235e+38,-3.4028235e+38,-3.4028235e+38,-3.4028235e+38,-3.4028235e+38,-3.4028235e+38,-3.4028235e+38,-3.4028235e+38,-3.4028235e+38,-3.4028235e+38,-3.4028235e+38,-3.4028235e+38,-3.4028235e+38,-3.4028235e+38,-3.4028235e+38,-3.4028235e+38,-3.4028235e+38,-3.4028235e+38,-3.4028235e+38,-3.4028235e+38,-3.4028235e+38,-3.4028235e+38,-3.4028235e+38,-3.4028235e+38,-3.4028235e+38,-3.4028235e+38,-3.4028235e+38,-3.4028235e+38,-3.4028235e+38,-3.4028235e+38,-3.4028235e+38,-3.4028235e+38,-3.4028235e+38,-3.4028235e+38,-3.4028235e+38,-3.4028235e+38,-3.4028235e+38,-3.4028235e+38,-3.4028235e+38,-3.4028235e+38,-3.4028235e+38,-3.4028235e+38,-3.4028235e+38,-3.4028235e+38,-3.4028235e+38,-3.4028235e+38,-3.4028235e+38,-3.4028235e+38,-3.4028235e+38,-3.4028235e+38,-3.4028235e+38,-3.4028235e+38,-3.4028235e+38,-3.4028235e+38,-3.4028235e+38,-3.4028235e+38,-3.4028235e+38,-3.4028235e+38,-3.4028235e+38,-3.4028235e+38,-3.4028235e+38,-3.4028235e+38,-3.4028235e+38,-3.4028235e+38,-3.4028235e+38,-3.4028235e+38,-3.4028235e+38,-3.4028235e+38,-3.4028235e+38,-3.4028235e+38,-3.4028235e+38,-3.4028235e+38,-3.4028235e+38,-3.4028235e+38,-3.4028235e+38,-3.4028235e+38,-3.4028235e+38,-3.4028235e+38,-3.4028235e+38,-3.4028235e+38,-3.4028235e+38,-3.4028235e+38,-3.4028235e+38,-3.4028235e+38,-3.4028235e+38,-3.4028235e+38,-3.4028235e+38,-3.4028235e+38,-3.4028235e+38,-3.4028235e+38,-3.4028235e+38,-3.4028235e+38,-3.4028235e+38,-3.4028235e+38,-3.4028235e+38,-3.4028235e+38,-3.4028235e+38,-3.4028235e+38,-3.4028235e+38,-3.4028235e+38,-3.4028235e+38,-3.4028235e+38,-3.4028235e+38,-3.4028235e+38,-3.4028235e+38,-3.4028235e+38,-3.4028235e+38,-3.4028235e+38,-3.4028235e+38,-3.4028235e+38,-3.4028235e+38,-3.4028235e+38,-3.4028235e+38,-3.4028235e+38,-3.4028235e+38,-3.4028235e+38,-3.4028235e+38,-3.4028235e+38,-3.4028235e+38,-3.4028235e+38,-3.4028235e+38,-3.4028235e+38,-3.4028235e+38,-3.4028235e+38,-3.4028235e+38,-3.4028235e+38,-3.4028235e+38,-3.4028235e+38,-3.4028235e+38,-3.4028235e+38,-3.4028235e+38,-3.4028235e+38,-3.4028235e+38,-3.4028235e+38,-3.4028235e+38,-3.4028235e+38,-3.4028235e+38,-3.4028235e+38,-3.4028235e+38,-3.4028235e+38,-3.4028235e+38,-3.4028235e+38,-3.4028235e+38,-3.4028235e+38,-3.4028235e+38,-3.4028235e+38,-3.4028235e+38,-3.4028235e+38,-3.4028235e+38,-3.4028235e+38,-3.4028235e+38,-3.4028235e+38,-3.4028235e+38,-3.4028235e+38,-3.4028235e+38,-3.4028235e+38,-3.4028235e+38,-3.4028235e+38,-3.4028235e+38,-3.4028235e+38,-3.4028235e+38,-3.4028235e+38,-3.4028235e+38,-3.4028235e+38,-3.4028235e+38,-3.4028235e+38,-3.4028235e+38,-3.4028235e+38,-3.4028235e+38,-3.4028235e+38,-3.4028235e+38,-3.4028235e+38,-3.4028235e+38,-3.4028235e+38,-3.4028235e+38,-3.4028235e+38,-3.4028235e+38,-3.4028235e+38,-3.4028235e+38,-3.4028235e+38,-3.4028235e+38,-3.4028235e+38,-3.4028235e+38,-3.4028235e+38,-3.4028235e+38,-3.4028235e+38,-3.4028235e+38,-3.4028235e+38,-3.4028235e+38,-3.4028235e+38,-3.4028235e+38,-3.4028235e+38,-3.4028235e+38,-3.4028235e+38,-3.4028235e+38,-3.4028235e+38,-3.4028235e+38,-3.4028235e+38,-3.4028235e+38,-3.4028235e+38,-3.4028235e+38,-3.4028235e+38,-3.4028235e+38,-3.4028235e+38,-3.4028235e+38,-3.4028235e+38,-3.4028235e+38,-3.4028235e+38,-3.4028235e+38,-3.4028235e+38,-3.4028235e+38,-3.4028235e+38,-3.4028235e+38,-3.4028235e+38,-3.4028235e+38,-3.4028235e+38,-3.4028235e+38,-3.4028235e+38,-3.4028235e+38,-3.4028235e+38,-3.4028235e+38,-3.4028235e+38,-3.4028235e+38,-3.4028235e+38,-3.4028235e+38,-3.4028235e+38,-3.4028235e+38,-3.4028235e+38,-3.4028235e+38,-3.4028235e+38,-3.4028235e+38,-3.4028235e+38,-3.4028235e+38,-3.4028235e+38,-3.4028235e+38,-3.4028235e+38,-3.4028235e+38,-3.4028235e+38,-3.4028235e+38,-3.4028235e+38,-3.4028235e+38,-3.4028235e+38,-3.4028235e+38,-3.4028235e+38,-3.4028235e+38,-3.4028235e+38,-3.4028235e+38,-3.4028235e+38,-3.4028235e+38,-3.4028235e+38,-3.4028235e+38,-3.4028235e+38,-3.4028235e+38,-3.4028235e+38,-3.4028235e+38,-3.4028235e+38,-3.4028235e+38,-3.4028235e+38,-3.4028235e+38,-3.4028235e+38,-3.4028235e+38,-3.4028235e+38,-3.4028235e+38,-3.4028235e+38,-3.4028235e+38,-3.4028235e+38,-3.4028235e+38,-3.4028235e+38,-3.4028235e+38,-3.4028235e+38,-3.4028235e+38,-3.4028235e+38,-3.4028235e+38,-3.4028235e+38,-3.4028235e+38,-3.4028235e+38,-3.4028235e+38,
3.4028235e+38,3.4028235e+38,3.4028235e+38,3.4028235e+38,3.4028235e+38,3.4028235e+38,3.4028235e+38,3.4028235e+38,3.4028235e+38,3.4028235e+38,3.4028235e+38,3.4028235e+38,3.4028235e+38,3.4028235e+38,3.4028235e+38,3.4028235e+38,3.4028235e+38,3.4028235e+38,3.4028235e+38,3.4028235e+38,3.4028235e+38,3.4028235e+38,3.4028235e+38,3.4028235e+38,3.4028235e+38,3.4028235e+38,3.4028235e+38,3.4028235e+38,3.4028235e+38,3.4028235e+38,3.4028235e+38,3.4028235e+38,3.4028235e+38,3.4028235e+38,3.4028235e+38,3.4028235e+38,3.4028235e+38,3.4028235e+38,3.4028235e+38,3.4028235e+38,3.4028235e+38,3.4028235e+38,3.4028235e+38,3.4028235e+38,3.4028235e+38,3.4028235e+38,3.4028235e+38,3.4028235e+38,3.4028235e+38,3.4028235e+38,3.4028235e+38,3.4028235e+38,3.4028235e+38,3.4028235e+38,3.4028235e+38,3.4028235e+38,3.4028235e+38,3.4028235e+38,3.4028235e+38,3.4028235e+38,3.4028235e+38,3.4028235e+38,3.4028235e+38,3.4028235e+38,3.4028235e+38,3.4028235e+38,3.4028235e+38,3.4028235e+38,3.4028235e+38,3.4028235e+38,3.4028235e+38,3.4028235e+38,3.4028235e+38,3.4028235e+38,3.4028235e+38,3.4028235e+38,3.4028235e+38,3.4028235e+38,3.4028235e+38,3.4028235e+38,3.4028235e+38,3.4028235e+38,3.4028235e+38,3.4028235e+38,3.4028235e+38,3.4028235e+38,3.4028235e+38,3.4028235e+38,3.4028235e+38,3.4028235e+38,3.4028235e+38,3.4028235e+38,3.4028235e+38,3.4028235e+38,3.4028235e+38,3.4028235e+38,3.4028235e+38,3.4028235e+38,3.4028235e+38,3.4028235e+38,3.4028235e+38,3.4028235e+38,3.4028235e+38,3.4028235e+38,3.4028235e+38,3.4028235e+38,3.4028235e+38,3.4028235e+38,3.4028235e+38,3.4028235e+38,3.4028235e+38,3.4028235e+38,3.4028235e+38,3.4028235e+38,3.4028235e+38,3.4028235e+38,3.4028235e+38,3.4028235e+38,3.4028235e+38,3.4028235e+38,3.4028235e+38,3.4028235e+38,3.4028235e+38,3.4028235e+38,3.4028235e+38,3.4028235e+38,3.4028235e+38,3.4028235e+38,3.4028235e+38,3.4028235e+38,3.4028235e+38,3.4028235e+38,3.4028235e+38,3.4028235e+38,3.4028235e+38,3.4028235e+38,3.4028235e+38,3.4028235e+38,3.4028235e+38,3.4028235e+38,3.4028235e+38,3.4028235e+38,3.4028235e+38,3.4028235e+38,3.4028235e+38,3.4028235e+38,3.4028235e+38,3.4028235e+38,3.4028235e+38,3.4028235e+38,3.4028235e+38,3.4028235e+38,3.4028235e+38,3.4028235e+38,3.4028235e+38,3.4028235e+38,3.4028235e+38,3.4028235e+38,3.4028235e+38,3.4028235e+38,3.4028235e+38,3.4028235e+38,3.4028235e+38,3.4028235e+38,3.4028235e+38,3.4028235e+38,3.4028235e+38,3.4028235e+38,3.4028235e+38,3.4028235e+38,3.4028235e+38,3.4028235e+38,3.4028235e+38,3.4028235e+38,3.4028235e+38,3.4028235e+38,3.4028235e+38,3.4028235e+38,3.4028235e+38,3.4028235e+38,3.4028235e+38,3.4028235e+38,3.4028235e+38,3.4028235e+38,3.4028235e+38,3.4028235e+38,3.4028235e+38,3.4028235e+38,3.4028235e+38,3.4028235e+38,3.4028235e+38,3.4028235e+38,3.4028235e+38,3.4028235e+38,3.4028235e+38,3.4028235e+38,3.4028235e+38,3.4028235e+38,3.4028235e+38,3.4028235e+38,3.4028235e+38,3.4028235e+38,3.4028235e+38,3.4028235e+38,3.4028235e+38,3.4028235e+38,3.4028235e+38,3.4028235e+38,3.4028235e+38,3.4028235e+38,3.4028235e+38,3.4028235e+38,3.4028235e+38,3.4028235e+38,3.4028235e+38,3.4028235e+38,3.4028235e+38,3.4028235e+38,3.4028235e+38,3.4028235e+38,3.4028235e+38,3.4028235e+38,3.4028235e+38,3.4028235e+38,3.4028235e+38,3.4028235e+38,3.4028235e+38,3.4028235e+38,3.4028235e+38,3.4028235e+38,3.4028235e+38,3.4028235e+38,3.4028235e+38,3.4028235e+38,3.4028235e+38,3.4028235e+38,3.4028235e+38,3.4028235e+38,3.4028235e+38,3.4028235e+38,3.4028235e+38,3.4028235e+38,3.4028235e+38,3.4028235e+38,3.4028235e+38,3.4028235e+38,3.4028235e+38,3.4028235e+38,3.4028235e+38,3.4028235e+38,3.4028235e+38,3.4028235e+38,3.4028235e+38,3.4028235e+38,3.4028235e+38,3.4028235e+38,3.4028235e+38,3.4028235e+38,3.4028235e+38,3.4028235e+38,3.4028235e+38,3.4028235e+38,3.4028235e+38,3.4028235e+38,3.4028235e+38,3.4028235e+38,3.4028235e+38,3.4028235e+38,3.4028235e+38,3.4028235e+38,3.4028235e+38,3.4028235e+38,3.4028235e+38,3.4028235e+38,3.4028235e+38,3.4028235e+38,3.4028235e+38,3.4028235e+38,3.4028235e+38,3.4028235e+38,3.4028235e+38,3.4028235e+38,3.4028235e+38,3.4028235e+38,3.4028235e+38,3.4028235e+38,3.4028235e+38,3.4028235e+38,3.4028235e+38,3.4028235e+38,3.4028235e+38,3.4028235e+38,3.4028235e+38,3.4028235e+38,3.4028235e+38,3.4028235e+38,3.4028235e+38,3.4028235e+38,3.4028235e+38,3.4028235e+38,3.4028235e+38,3.4028235e+38,3.4028235e+38,3.4028235e+38,3.4028235e+38,3.4028235e+38,3.4028235e+38,3.4028235e+38,3.4028235e+38,3.4028235e+38,3.4028235e+38,3.4028235e+38,3.4028235e+38,3.4028235e+38,3.4028235e+38,3.4028235e+38,3.4028235e+38,3.4028235e+38,3.4028235e+38,3.4028235e+38,3.4028235e+38,3.4028235e+38,3.4028235e+38,3.4028235e+38,3.4028235e+38,3.4028235e+38,3.4028235e+38,3.4028235e+38,3.4028235e+38,3.4028235e+38,3.4028235e+38,3.4028235e+38,3.4028235e+38,3.4028235e+38,3.4028235e+38,3.4028235e+38,3.4028235e+38,3.4028235e+38,3.4028235e+38,3.4028235e+38,3.4028235e+38,3.4028235e+38,3.4028235e+38,3.4028235e+38,3.4028235e+38,3.4028235e+38,3.4028235e+38,3.4028235e+38,3.4028235e+38,3.4028235e+38,3.4028235e+38,3.4028235e+38,3.4028235e+38,3.4028235e+38,3.4028235e+38,3.4028235e+38,3.4028235e+38,3.4028235e+38,3.4028235e+38,3.4028235e+38,3.4028235e+38,3.4028235e+38,3.4028235e+38,3.4028235e+38,3.4028235e+38,3.4028235e+38,3.4028235e+38,3.4028235e+38,3.4028235e+38,3.4028235e+38,3.4028235e+38,3.4028235e+38,3.4028235e+38,3.4028235e+38,3.4028235e+38,3.4028235e+38,3.4028235e+38,3.4028235e+38,3.4028235e+38,3.4028235e+38,3.4028235e+38,3.4028235e+38,3.4028235e+38,3.4028235e+38,3.4028235e+38,3.4028235e+38,3.4028235e+38,3.4028235e+38,3.4028235e+38,3.4028235e+38,3.4028235e+38,3.4028235e+38,3.4028235e+38,3.4028235e+38,3.4028235e+38,3.4028235e+38,3.4028235e+38,3.4028235e+38,3.4028235e+38,3.4028235e+38,3.4028235e+38,3.4028235e+38,3.4028235e+38,3.4028235e+38,3.4028235e+38,3.4028235e+38,3.4028235e+38,3.4028235e+38,3.4028235e+38,3.4028235e+38,3.4028235e+38,3.4028235e+38,3.4028235e+38,3.4028235e+38,3.4028235e+38,3.4028235e+38,3.4028235e+38,3.4028235e+38,3.4028235e+38,3.4028235e+38,3.4028235e+38,3.4028235e+38,3.4028235e+38,3.4028235e+38,3.4028235e+38,3.4028235e+38,3.4028235e+38,3.4028235e+38,3.4028235e+38,3.4028235e+38,3.4028235e+38,3.4028235e+38,3.4028235e+38,3.4028235e+38,3.4028235e+38,3.4028235e+38,3.4028235e+38,3.4028235e+38,3.4028235e+38,3.4028235e+38,3.4028235e+38,3.4028235e+38,3.4028235e+38,3.4028235e+38,3.4028235e+38,3.4028235e+38,3.4028235e+38,3.4028235e+38,3.4028235e+38,3.4028235e+38,3.4028235e+38,3.4028235e+38,3.4028235e+38,3.4028235e+38,3.4028235e+38,3.4028235e+38,3.4028235e+38,3.4028235e+38,3.4028235e+38,3.4028235e+38,3.4028235e+38,3.4028235e+38,3.4028235e+38,3.4028235e+38,3.4028235e+38,3.4028235e+38,3.4028235e+38,3.4028235e+38,3.4028235e+38,3.4028235e+38,3.4028235e+38,3.4028235e+38,3.4028235e+38,3.4028235e+38,3.4028235e+38,3.4028235e+38,3.4028235e+38,3.4028235e+38,3.4028235e+38,3.4028235e+38,3.4028235e+38,3.4028235e+38,3.4028235e+38,3.4028235e+38,3.4028235e+38,3.4028235e+38,3.4028235e+38,3.4028235e+38,3.4028235e+38,3.4028235e+38,3.4028235e+38,3.4028235e+38,3.4028235e+38,3.4028235e+38,3.4028235e+38,3.4028235e+38,3.4028235e+38,3.4028235e+38,3.4028235e+38,3.4028235e+38,3.4028235e+38,3.4028235e+38,3.4028235e+38,3.4028235e+38,3.4028235e+38,3.4028235e+38,3.4028235e+38,3.4028235e+38,3.4028235e+38,3.4028235e+38,3.4028235e+38,3.4028235e+38,3.4028235e+38,3.4028235e+38,3.4028235e+38,3.4028235e+38,3.4028235e+38,3.4028235e+38,3.4028235e+38,3.4028235e+38,3.4028235e+38,3.4028235e+38,3.4028235e+38,3.4028235e+38,3.4028235e+38,3.4028235e+38,3.4028235e+38,3.4028235e+38,3.4028235e+38,3.4028235e+38,3.4028235e+38,3.4028235e+38,3.4028235e+38,3.4028235e+38,3.4028235e+38,3.4028235e+38,3.4028235e+38,3.4028235e+38,3.4028235e+38,3.4028235e+38,3.4028235e+38,3.4028235e+38,3.4028235e+38,3.4028235e+38,3.4028235e+38,3.4028235e+38,3.4028235e+38,3.4028235e+38,3.4028235e+38,3.4028235e+38,3.4028235e+38,3.4028235e+38,3.4028235e+38,3.4028235e+38,3.4028235e+38,3.4028235e+38,3.4028235e+38,3.4028235e+38,3.4028235e+38,3.4028235e+38,3.4028235e+38,3.4028235e+38,3.4028235e+38,3.4028235e+38,3.4028235e+38,3.4028235e+38,3.4028235e+38,3.4028235e+38,3.4028235e+38,3.4028235e+38,3.4028235e+38,3.4028235e+38,3.4028235e+38,3.4028235e+38,3.4028235e+38,3.4028235e+38,3.4028235e+38,3.4028235e+38,3.4028235e+38,3.4028235e+38,3.4028235e+38,3.4028235e+38,3.4028235e+38,3.4028235e+38,3.4028235e+38,3.4028235e+38,3.4028235e+38,3.4028235e+38,3.4028235e+38,3.4028235e+38,3.4028235e+38,3.4028235e+38,3.4028235e+38,3.4028235e+38,3.4028235e+38,3.4028235e+38,3.4028235e+38,3.4028235e+38,3.4028235e+38,3.4028235e+38,3.4028235e+38,3.4028235e+38,3.4028235e+38,3.4028235e+38,3.4028235e+38,3.4028235e+38,3.4028235e+38,3.4028235e+38,3.4028235e+38,3.4028235e+38,3.4028235e+38,3.4028235e+38,3.4028235e+38,3.4028235e+38,3.4028235e+38,3.4028235e+38,3.4028235e+38,3.4028235e+38,3.4028235e+38,3.4028235e+38,3.4028235e+38,3.4028235e+38,3.4028235e+38,3.4028235e+38,3.4028235e+38,3.4028235e+38,3.4028235e+38,3.4028235e+38,3.4028235e+38,3.4028235e+38,3.4028235e+38,3.4028235e+38,3.4028235e+38,3.4028235e+38,3.4028235e+38,3.4028235e+38,3.4028235e+38,3.4028235e+38,3.4028235e+38,3.4028235e+38,3.4028235e+38,3.4028235e+38,3.4028235e+38,3.4028235e+38,3.4028235e+38,3.4028235e+38,3.4028235e+38,3.4028235e+38,3.4028235e+38,3.4028235e+38,3.4028235e+38,3.4028235e+38,3.4028235e+38,3.4028235e+38,3.4028235e+38,3.4028235e+38,3.4028235e+38,3.4028235e+38,3.4028235e+38,3.4028235e+38,3.4028235e+38,3.4028235e+38,3.4028235e+38,3.4028235e+38,3.4028235e+38,3.4028235e+38,3.4028235e+38,3.4028235e+38,3.4028235e+38,3.4028235e+38,3.4028235e+38,3.4028235e+38,3.4028235e+38,3.4028235e+38,3.4028235e+38,3.4028235e+38,3.4028235e+38,3.4028235e+38,3.4028235e+38,3.4028235e+38,3.4028235e+38,3.4028235e+38,3.4028235e+38,3.4028235e+38,3.4028235e+38,3.4028235e+38,3.4028235e+38,3.4028235e+38,3.4028235e+38,3.4028235e+38,3.4028235e+38,3.4028235e+38,3.4028235e+38,3.4028235e+38,3.4028235e+38,3.4028235e+38,3.4028235e+38,3.4028235e+38,3.4028235e+38,3.4028235e+38,3.4028235e+38,3.4028235e+38,3.4028235e+38,3.4028235e+38,3.4028235e+38,3.4028235e+38,3.4028235e+38,3.4028235e+38,3.4028235e+38,3.4028235e+38,3.4028235e+38,3.4028235e+38,3.4028235e+38,3.4028235e+38,3.4028235e+38,3.4028235e+38,3.4028235e+38,3.4028235e+38,3.4028235e+38,3.4028235e+38,3.4028235e+38,3.4028235e+38,3.4028235e+38,3.4028235e+38,3.4028235e+38,3.4028235e+38,3.4028235e+38,3.4028235e+38,3.4028235e+38,3.4028235e+38,3.4028235e+38,3.4028235e+38,3.4028235e+38,3.4028235e+38,3.4028235e+38,3.4028235e+38,3.4028235e+38,3.4028235e+38,3.4028235e+38,3.4028235e+38,3.4028235e+38,3.4028235e+38,3.4028235e+38,3.4028235e+38,3.4028235e+38,3.4028235e+38,3.4028235e+38,3.4028235e+38,3.4028235e+38,3.4028235e+38,3.4028235e+38,3.4028235e+38,3.4028235e+38,3.4028235e+38,3.4028235e+38,3.4028235e+38,3.4028235e+38,3.4028235e+38,3.4028235e+38,3.4028235e+38,3.4028235e+38,3.4028235e+38,3.4028235e+38,3.4028235e+38,3.4028235e+38,3.4028235e+38,3.4028235e+38,3.4028235e+38,3.4028235e+38,3.4028235e+38,3.4028235e+38,3.4028235e+38,3.4028235e+38,3.4028235e+38,3.4028235e+38,3.4028235e+38,3.4028235e+38,3.4028235e+38,3.4028235e+38,3.4028235e+38,3.4028235e+38,3.4028235e+38,3.4028235e+38,3.4028235e+38,
0.0,0.0,0.0,0.0,0.0,0.0,0.0,0.0,0.0,0.0,0.0,0.0,0.0,0.0,0.0,0.0,0.0,0.0,0.0,0.0,0.0,0.0,0.0,0.0,0.0,0.0,0.0,0.0,0.0,0.0,0.0,0.0,0.0,0.0,0.0,0.0,0.0,0.0,0.0,0.0,0.0,0.0,0.0,0.0,0.0,0.0,0.0,0.0,0.0,0.0,0.0,0.0,0.0,0.0,0.0,0.0,0.0,0.0,0.0,0.0,0.0,0.0,0.0,0.0,0.0,0.0,0.0,0.0,0.0,0.0,0.0,0.0,0.0,0.0,0.0,0.0,0.0,0.0,0.0,0.0,0.0,0.0,0.0,0.0,0.0,0.0,0.0,0.0,0.0,0.0,0.0,0.0,0.0,0.0,0.0,0.0,0.0,0.0,0.0,0.0,0.0,0.0,0.0,0.0,0.0,0.0,0.0,0.0,0.0,0.0,0.0,0.0,0.0,0.0,0.0,0.0,0.0,0.0,0.0,0.0,0.0,0.0,0.0,0.0,0.0,0.0,0.0,0.0,0.0,0.0,0.0,0.0,0.0,0.0,0.0,0.0,0.0,0.0,0.0,0.0,0.0,0.0,0.0,0.0,0.0,0.0,0.0,0.0,0.0,0.0,0.0,0.0,0.0,0.0,0.0,0.0,0.0,0.0,0.0,0.0,0.0,0.0,0.0,0.0,0.0,0.0,0.0,0.0,0.0,0.0,0.0,0.0,0.0,0.0,0.0,0.0,0.0,0.0,0.0,0.0,0.0,0.0,0.0,0.0,0.0,0.0,0.0,0.0,0.0,0.0,0.0,0.0,0.0,0.0,0.0,0.0,0.0,0.0,0.0,0.0,0.0,0.0,0.0,0.0,0.0,0.0,0.0,0.0,0.0,0.0,0.0,0.0,0.0,0.0,0.0,0.0,0.0,0.0,0.0,0.0,0.0,0.0,0.0,0.0,0.0,0.0,0.0,0.0,0.0,0.0,0.0,0.0,0.0,0.0,0.0,0.0,0.0,0.0,0.0,0.0,0.0,0.0,0.0,0.0,0.0,0.0,0.0,0.0,0.0,0.0,0.0,0.0,0.0,0.0,0.0,0.0,0.0,0.0,0.0,0.0,0.0,0.0,0.0,0.0,0.0,0.0,0.0,0.0,0.0,0.0,0.0,0.0,0.0,0.0,0.0,0.0,0.0,0.0,0.0,0.0,0.0,0.0,0.0,0.0,0.0,0.0,0.0,0.0,0.0,0.0,0.0,0.0,0.0,0.0,0.0,0.0,0.0,0.0,0.0,0.0,0.0,0.0,0.0,0.0,0.0,0.0,0.0,0.0,0.0,0.0,0.0,0.0,0.0,0.0,0.0,0.0,0.0,0.0,0.0,0.0,0.0,0.0,0.0,0.0,0.0,0.0,0.0,0.0,0.0,0.0,0.0,0.0,0.0,0.0,0.0,0.0,0.0,0.0,0.0,0.0,0.0,0.0,0.0,0.0,0.0,0.0,0.0,0.0,0.0,0.0,0.0,0.0,0.0,0.0,0.0,0.0,0.0,0.0,0.0,0.0,0.0,0.0,0.0,0.0,0.0,0.0,0.0,0.0,0.0,0.0,0.0,0.0,0.0,0.0,0.0,0.0,0.0,0.0,0.0,0.0,0.0,0.0,0.0,0.0,0.0,0.0,0.0,0.0,0.0,0.0,0.0,0.0,0.0,0.0,0.0,0.0,0.0,0.0,0.0,0.0,0.0,0.0,0.0,0.0,0.0,0.0,0.0,0.0,0.0,0.0,0.0,0.0,0.0,0.0,0.0,0.0,0.0,0.0,0.0,0.0,0.0,0.0,0.0,0.0,0.0,0.0,0.0,0.0,0.0,0.0,0.0,0.0,0.0,0.0,0.0,0.0,0.0,0.0,0.0,0.0,0.0,0.0,0.0,0.0,0.0,0.0,0.0,0.0,0.0,0.0,0.0,0.0,0.0,0.0,0.0,0.0,0.0,0.0,0.0,0.0,0.0,0.0,0.0,0.0,0.0,0.0,0.0,0.0,0.0,0.0,0.0,0.0,0.0,0.0,0.0,0.0,0.0,0.0,0.0,0.0,0.0,0.0,0.0,0.0,0.0,0.0,0.0,0.0,0.0,0.0,0.0,0.0,0.0,0.0,0.0,0.0,0.0,0.0,0.0,0.0,0.0,0.0,0.0,0.0,0.0,0.0,0.0,0.0,0.0,0.0,0.0,0.0,0.0,0.0,0.0,0.0,0.0,0.0,0.0,0.0,0.0,0.0,0.0,0.0,0.0,0.0,0.0,0.0,0.0,0.0,0.0,0.0,0.0,0.0,0.0,0.0,0.0,0.0,0.0,0.0,0.0,0.0,0.0,0.0,0.0,0.0,0.0,0.0,0.0,0.0,0.0,0.0,0.0,0.0,0.0,0.0,0.0,0.0,0.0,0.0,0.0,0.0,0.0,0.0,0.0,0.0,0.0,0.0,0.0,0.0,0.0,0.0,0.0,0.0,0.0,0.0,0.0,0.0,0.0,0.0,0.0,0.0,0.0,0.0,0.0,0.0,0.0,0.0,0.0,0.0,0.0,0.0,0.0,0.0,0.0,0.0,0.0,0.0,0.0,0.0,0.0,0.0,0.0,0.0,0.0,0.0,0.0,0.0,0.0,0.0,0.0,0.0,0.0,0.0,0.0,0.0,0.0,0.0,0.0,0.0,0.0,0.0,0.0,0.0,0.0,0.0,0.0,0.0,0.0,0.0,0.0,0.0,0.0,0.0,0.0,0.0,0.0,0.0,0.0,0.0,0.0,0.0,0.0,0.0,0.0,0.0,0.0,0.0,0.0,0.0,0.0,0.0,0.0,0.0,0.0,0.0,0.0,0.0,0.0,0.0,0.0,0.0,0.0,0.0,0.0,0.0,0.0,0.0,0.0,0.0,0.0,0.0,0.0,0.0,0.0,0.0,0.0,0.0,0.0,0.0,0.0,0.0,0.0,0.0,0.0,0.0,0.0,0.0,0.0,0.0,0.0,0.0,0.0,0.0,0.0,0.0,0.0,0.0,0.0,0.0,0.0,0.0,0.0,0.0,0.0,0.0,0.0,0.0,0.0,0.0,0.0,0.0,0.0,0.0,0.0,0.0,0.0,0.0,0.0,0.0,0.0,0.0,0.0,0.0,0.0,0.0,0.0,0.0,0.0,0.0,0.0,0.0,0.0,0.0,0.0,0.0,0.0,0.0,0.0,0.0,0.0,0.0,0.0,0.0,0.0,0.0,0.0,0.0,0.0,0.0,0.0,0.0,0.0,0.0,0.0,0.0,0.0,0.0,0.0,0.0,0.0,0.0,0.0,0.0,0.0,0.0,0.0,0.0,0.0,0.0,0.0,0.0,0.0,0.0,0.0,0.0,0.0,0.0,0.0,0.0,0.0,0.0,0.0,0.0,0.0,
1.0,1.0,1.0,1.0,1.0,1.0,1.0,1.0,1.0,1.0,1.0,1.0,1.0,1.0,1.0,1.0,1.0,1.0,1.0,1.0,1.0,1.0,1.0,1.0,1.0,1.0,1.0,1.0,1.0,1.0,1.0,1.0,1.0,1.0,1.0,1.0,1.0,1.0,1.0,1.0,1.0,1.0,1.0,1.0,1.0,1.0,1.0,1.0,1.0,1.0,1.0,1.0,1.0,1.0,1.0,1.0,1.0,1.0,1.0,1.0,1.0,1.0,1.0,1.0,1.0,1.0,1.0,1.0,1.0,1.0,1.0,1.0,1.0,1.0,1.0,1.0,1.0,1.0,1.0,1.0,1.0,1.0,1.0,1.0,1.0,1.0,1.0,1.0,1.0,1.0,1.0,1.0,1.0,1.0,1.0,1.0,1.0,1.0,1.0,1.0,1.0,1.0,1.0,1.0,1.0,1.0,1.0,1.0,1.0,1.0,1.0,1.0,1.0,1.0,1.0,1.0,1.0,1.0,1.0,1.0,1.0,1.0,1.0,1.0,1.0,1.0,1.0,1.0,1.0,1.0,1.0,1.0,1.0,1.0,1.0,1.0,1.0,1.0,1.0,1.0,1.0,1.0,1.0,1.0,1.0,1.0,1.0,1.0,1.0,1.0,1.0,1.0,1.0,1.0,1.0,1.0,1.0,1.0,1.0,1.0,1.0,1.0,1.0,1.0,1.0,1.0,1.0,1.0,1.0,1.0,1.0,1.0,1.0,1.0,1.0,1.0,1.0,1.0,1.0,1.0,1.0,1.0,1.0,1.0,1.0,1.0,1.0,1.0,1.0,1.0,1.0,1.0,1.0,1.0,1.0,1.0,1.0,1.0,1.0,1.0,1.0,1.0,1.0,1.0,1.0,1.0,1.0,1.0,1.0,1.0,1.0,1.0,1.0,1.0,1.0,1.0,1.0,1.0,1.0,1.0,1.0,1.0,1.0,1.0,1.0,1.0,1.0,1.0,1.0,1.0,1.0,1.0,1.0,1.0,1.0,1.0,1.0,1.0,1.0,1.0,1.0,1.0,1.0,1.0,1.0,1.0,1.0,1.0,1.0,1.0,1.0,1.0,1.0,1.0,1.0,1.0,1.0,1.0,1.0,1.0,1.0,1.0,1.0,1.0,1.0,1.0,1.0,1.0,1.0,1.0,1.0,1.0,1.0,1.0,1.0,1.0,1.0,1.0,1.0,1.0,1.0,1.0,1.0,1.0,1.0,1.0,1.0,1.0,1.0,1.0,1.0,1.0,1.0,1.0,1.0,1.0,1.0,1.0,1.0,1.0,1.0,1.0,1.0,1.0,1.0,1.0,1.0,1.0,1.0,1.0,1.0,1.0,1.0,1.0,1.0,1.0,1.0,1.0,1.0,1.0,1.0,1.0,1.0,1.0,1.0,1.0,1.0,1.0,1.0,1.0,1.0,1.0,1.0,1.0,1.0,1.0,1.0,1.0,1.0,1.0,1.0,1.0,1.0,1.0,1.0,1.0,1.0,1.0,1.0,1.0,1.0,1.0,1.0,1.0,1.0,1.0,1.0,1.0,1.0,1.0,1.0,1.0,1.0,1.0,1.0,1.0,1.0,1.0,1.0,1.0,1.0,1.0,1.0,1.0,1.0,1.0,1.0,1.0,1.0,1.0,1.0,1.0,1.0,1.0,1.0,1.0,1.0,1.0,1.0,1.0,1.0,1.0,1.0,1.0,1.0,1.0,1.0,1.0,1.0,1.0,1.0,1.0,1.0,1.0,1.0,1.0,1.0,1.0,1.0,1.0,1.0,1.0,1.0,1.0,1.0,1.0,1.0,1.0,1.0,1.0,1.0,1.0,1.0,1.0,1.0,1.0,1.0,1.0,1.0,1.0,1.0,1.0,1.0,1.0,1.0,1.0,1.0,1.0,1.0,1.0,1.0,1.0,1.0,1.0,1.0,1.0,1.0,1.0,1.0,1.0,1.0,1.0,1.0,1.0,1.0,1.0,1.0,1.0,1.0,1.0,1.0,1.0,1.0,1.0,1.0,1.0,1.0,1.0,1.0,1.0,1.0,1.0,1.0,1.0,1.0,1.0,1.0,1.0,1.0,1.0,1.0,1.0,1.0,1.0,1.0,1.0,1.0,1.0,1.0,1.0,1.0,1.0,1.0,1.0,1.0,1.0,1.0,1.0,1.0,1.0,1.0,1.0,1.0,1.0,1.0,1.0,1.0,1.0,1.0,1.0,1.0,1.0,1.0,1.0,1.0,1.0,1.0,1.0,1.0,1.0,1.0,1.0,1.0,1.0,1.0,1.0,1.0,1.0,1.0,1.0,1.0,1.0,1.0,1.0,1.0,1.0,1.0,1.0,1.0,1.0,1.0,1.0,1.0,1.0,1.0,1.0,1.0,1.0,1.0,1.0,1.0,1.0,1.0,1.0,1.0,1.0,1.0,1.0,1.0,1.0,1.0,1.0,1.0,1.0,1.0,1.0,1.0,1.0,1.0,1.0,1.0,1.0,1.0,1.0,1.0,1.0,1.0,1.0,1.0,1.0,1.0,1.0,1.0,1.0,1.0,1.0,1.0,1.0,1.0,1.0,1.0,1.0,1.0,1.0,1.0,1.0,1.0,1.0,1.0,1.0,1.0,1.0,1.0,1.0,1.0,1.0,1.0,1.0,1.0,1.0,1.0,1.0,1.0,1.0,1.0,1.0,1.0,1.0,1.0,1.0,1.0,1.0,1.0,1.0,1.0,1.0,1.0,1.0,1.0,1.0,1.0,1.0,1.0,1.0,1.0,1.0,1.0,1.0,1.0,1.0,1.0,1.0,1.0,1.0,1.0,1.0,1.0,1.0,1.0,1.0,1.0,1.0,1.0,1.0,1.0,1.0,1.0,1.0,1.0,1.0,1.0,1.0,1.0,1.0,1.0,1.0,1.0,1.0,1.0,1.0,1.0,1.0,1.0,1.0,1.0,1.0,1.0,1.0,1.0,1.0,1.0,1.0,1.0,1.0,1.0,1.0,1.0,1.0,1.0,1.0,1.0,1.0,1.0,1.0,1.0,1.0,1.0,1.0,1.0,1.0,1.0,1.0,1.0,1.0,1.0,1.0,1.0,1.0,1.0,1.0,1.0,1.0,1.0,1.0,1.0,1.0,1.0,1.0,1.0,1.0,1.0,1.0,1.0,1.0,1.0,1.0,1.0,1.0,1.0,1.0,1.0,1.0,1.0,1.0,1.0,1.0,1.0,1.0,1.0,1.0,1.0,1.0,1.0,1.0,1.0,1.0,1.0,1.0,1.0,1.0,1.0,1.0,1.0,1.0,1.0,1.0,1.0,1.0,1.0,1.0,1.0,1.0,1.0,1.0,1.0,1.0,1.0,1.0,1.0,1.0,1.0,1.0,1.0,1.0,1.0,1.0,1.0,1.0,1.0,1.0,1.0,1.0,1.0,1.0,1.0,
-9.12465e-03,3.31716e-02,-1.24968e-02,-1.23408e-02,2.51617e-02,1.76980e-02,2.83097e-02,-1.76397e-02,-1.66685e-02,1.29895e-02,3.40199e-02,1.32482e-02,2.46860e-02,7.57942e-02,1.85698e-01,1.64233e-01,-2.47981e-02,6.36284e-04,-2.99086e-02,-6.53881e-03,2.03373e-02,-2.08050e-02,-8.61334e-03,-1.39902e-02,-2.89886e-03,2.19204e-02,1.28547e-02,-2.22414e-02,-6.75814e-03,-4.60345e-03,-2.77935e-02,-1.12406e-02,-2.93634e-03,-1.09183e-02,9.52111e-03,2.49973e-02,1.93035e-02,2.99953e-03,6.56876e-02,1.22864e-03,-5.03828e-02,-4.92906e-02,-1.45875e-01,2.63353e-02,9.83712e-02,5.23266e-02,-5.28439e-02,2.04153e-04,1.77301e-02,-2.07066e-03,4.75069e-02,2.66929e-02,-4.41454e-03,-1.71180e-02,9.89267e-05,-2.14025e-02,-2.57126e-02,1.64938e-02,1.00610e-01,-1.70609e-02,5.77510e-02,9.09267e-02,1.06226e-01,9.79635e-03,9.00912e-02,3.47528e-02,1.02014e-01,8.33692e-02,1.12348e-01,3.47097e-02,5.65587e-03,1.41508e-02,-9.99146e-03,-9.16184e-02,-1.17431e-01,-1.62229e-01,-6.10697e-02,1.60917e-02,-6.21324e-02,-1.08631e-01,8.83139e-02,2.11974e-01,3.24559e-02,2.41231e-03,1.90144e-02,1.16111e-02,-1.56640e-01,-8.33915e-02,-1.02724e-02,5.86506e-02,1.55899e-01,1.45323e-01,1.56190e-01,7.11002e-02,1.15773e-01,8.30414e-02,7.98038e-02,6.83599e-02,1.03372e-01,6.05405e-02,1.14111e-02,-8.76666e-02,-1.10419e-01,-4.10842e-02,-9.18948e-02,-3.58763e-02,-7.44584e-02,1.74463e-02,-2.11926e-02,4.36241e-02,3.95067e-02,-1.86356e-02,3.68032e-03,1.36484e-02,-1.32870e-01,4.90869e-03,-5.46597e-03,7.69236e-02,1.36678e-01,1.00609e-01,2.97403e-02,9.16303e-02,2.10169e-01,1.91660e-01,1.21034e-01,5.93445e-02,1.05533e-01,-3.20996e-02,-1.04656e-02,5.97653e-03,4.46437e-02,1.78873e-02,1.47698e-01,5.40813e-03,-3.75499e-02,-2.38153e-02,6.17607e-02,1.16973e-01,-3.11177e-02,-5.44736e-02,-2.82040e-02,-3.30573e-02,-1.83474e-02,5.82939e-02,2.23313e-02,-2.22930e-02,7.04901e-02,1.18002e-01,-5.64209e-02,1.08492e-02,1.12045e-01,9.01865e-02,-7.32310e-02,-2.57093e-03,7.52878e-03,7.39366e-02,8.96364e-02,1.21029e-01,3.50128e-02,5.60035e-02,9.13079e-02,-1.15656e-02,-8.05761e-02,-1.47849e-01,-7.32154e-02,-8.73540e-02,-1.82998e-02,-4.02731e-02,3.44418e-02,9.58792e-02,-4.06253e-02,2.95183e-02,3.58575e-02,1.99593e-02,2.09365e-02,-3.45711e-02,-1.08941e-01,4.08396e-02,7.09947e-02,2.33030e-02,-9.58172e-03,-9.08298e-02,-2.25387e-02,2.47192e-02,9.83577e-02,1.42628e-01,3.14267e-02,-9.60281e-02,-4.77589e-02,-4.44723e-02,-2.24649e-01,-2.65878e-01,-1.55308e-01,-5.05953e-02,1.74386e-02,-2.22028e-02,-4.06358e-02,1.74601e-02,-1.25023e-02,-6.90026e-02,-2.36026e-02,-3.89273e-02,4.22742e-02,-6.54902e-02,5.21638e-02,8.01973e-02,-2.24422e-03,6.98335e-02,1.64067e-02,-2.27302e-02,1.91171e-02,3.82025e-02,3.91920e-02,3.18217e-02,-1.83303e-02,-4.97161e-02,-4.35966e-02,1.15876e-02,-4.63183e-02,-4.17745e-01,-1.49154e-01,-4.02296e-02,3.53200e-02,-4.32270e-02,-3.14351e-02,7.02043e-02,6.74029e-02,-8.36687e-02,-3.31930e-02,-1.04495e-01,-1.07440e-02,-6.16480e-02,-1.00653e-01,-1.15181e-01,1.57463e-02,3.46458e-02,1.05811e-01,1.67378e-02,8.30011e-02,2.87599e-02,-2.67850e-02,-5.26539e-02,-4.27589e-02,-2.11230e-02,4.92084e-03,6.14742e-02,7.66473e-04,-3.23251e-01,-3.11551e-01,-1.16904e-01,-3.66610e-02,1.96939e-02,-3.91189e-02,-3.36889e-02,-5.62854e-02,-2.36272e-02,7.45475e-02,7.98283e-02,-3.46953e-02,-5.30470e-02,-1.01337e-01,-7.85333e-02,1.08465e-01,7.19561e-02,5.50076e-03,-7.52233e-03,-2.35715e-02,2.98483e-03,-7.26117e-02,-1.70840e-01,-1.39256e-01,-1.05287e-01,-2.15722e-02,-2.64772e-02,-9.81633e-02,-3.39003e-01,-3.37558e-01,-3.15898e-01,1.20418e-01,-4.27612e-02,3.98524e-02,-3.77841e-02,-2.48939e-02,3.23593e-02,7.53443e-02,9.42779e-02,1.61597e-02,-2.39950e-02,-6.54014e-02,3.71412e-02,4.90256e-02,1.02851e-01,-8.43180e-02,-6.39467e-02,-5.98907e-02,-5.15699e-02,-6.10783e-02,-1.33465e-01,-1.09023e-01,-7.90554e-02,8.12036e-03,5.94024e-04,-1.66176e-02,-2.49622e-01,-1.49655e-01,-1.29743e-01,1.38250e-01,-3.24726e-02,2.75268e-02,-5.67403e-03,-3.11487e-02,-3.35257e-02,-4.45753e-02,-5.15423e-02,-9.71178e-02,-9.37655e-02,-1.30139e-01,-5.91141e-03,-5.45085e-02,-1.06973e-01,-1.95876e-01,-2.17393e-01,-7.87974e-02,-2.00771e-01,-6.47284e-02,-1.19962e-01,-4.37328e-03,4.43426e-02,9.85842e-02,8.36387e-03,7.49539e-02,-1.34787e-01,-8.59645e-02,-3.74700e-02,-6.57551e-02,-2.66336e-02,2.57600e-02,-5.26920e-02,-2.89173e-02,-1.22304e-01,-1.49043e-01,-1.25030e-01,-2.48854e-01,-2.94630e-01,-2.81055e-01,-1.36287e-01,-1.13337e-01,-1.79862e-01,-2.13514e-01,-1.48579e-01,-1.07140e-01,-1.36112e-01,-9.83851e-02,-1.21646e-01,4.11558e-02,6.96743e-02,5.54351e-02,6.85369e-02,3.20351e-02,4.90081e-04,1.62012e-02,1.83927e-02,7.09700e-02,1.41541e-01,-2.08453e-02,-3.71952e-02,-3.59551e-02,-2.00508e-01,-2.51452e-01,-1.96985e-01,-1.66984e-01,-2.24410e-01,-2.02899e-01,-9.83625e-02,-1.05943e-01,-1.28365e-02,9.96397e-03,8.65339e-02,-3.35473e-02,-3.29398e-02,-3.26931e-02,-6.61631e-03,1.07112e-01,1.23114e-02,-1.58845e-02,-4.84505e-02,2.01311e-02,1.03534e-02,1.14862e-01,8.17684e-02,1.32977e-01,1.76358e-01,-3.33883e-02,-9.85246e-02,-2.90381e-02,-1.83283e-01,-1.30962e-01,-1.52528e-01,-6.75547e-02,-8.81767e-02,-7.39947e-02,-3.54024e-02,5.55859e-02,1.46909e-01,1.73906e-01,1.05852e-01,8.13119e-02,2.57969e-02,1.13725e-01,1.08880e-01,7.59626e-02,2.60633e-02,-9.82097e-02,-1.60810e-01,-7.33486e-02,6.32816e-02,1.39069e-01,3.89363e-02,2.58073e-01,2.15414e-01,-1.98791e-02,-6.44606e-02,-1.00220e-01,-3.96148e-02,-4.55305e-02,7.72525e-03,-4.53763e-03,-4.36623e-04,7.04996e-03,-1.56273e-02,1.17976e-01,1.44272e-01,1.57229e-01,2.22283e-01,1.37070e-01,7.82043e-02,1.06605e-01,7.97551e-02,1.16699e-01,1.08345e-01,-6.17983e-02,-1.20706e-01,-1.71074e-02,5.52259e-02,1.34023e-01,4.94878e-02,5.14779e-02,3.22035e-01,-4.72230e-03,5.80527e-02,-4.88067e-03,1.54755e-01,7.87018e-02,7.08486e-02,1.68160e-01,8.71713e-02,-1.98313e-03,2.34829e-03,1.05842e-01,1.24586e-01,9.46243e-02,1.19720e-01,1.20434e-01,1.14157e-01,1.57930e-01,1.73986e-01,9.93243e-02,9.53895e-02,-5.33375e-02,8.18041e-03,6.62735e-02,1.85458e-01,2.05547e-01,2.27987e-01,1.97289e-01,2.61003e-01,1.23322e-02,7.98445e-02,6.44324e-02,2.16808e-01,1.80988e-01,1.67152e-01,2.21921e-01,1.20021e-01,7.60585e-02,-2.44264e-02,2.14833e-02,7.03326e-03,5.14817e-02,8.10196e-02,5.07807e-02,1.35067e-01,1.99662e-01,1.63994e-01,4.35806e-02,3.34865e-02,2.50451e-02,-4.55597e-03,1.24126e-02,1.30818e-01,1.83987e-01,3.07468e-01,5.16098e-02,1.41057e-01,-1.02396e-02,1.21434e-01,-7.43505e-02,2.39968e-01,1.85042e-01,2.49740e-01,2.34604e-01,2.05975e-01,1.25306e-01,6.14259e-02,5.25907e-02,-1.04815e-02,3.31891e-02,9.56922e-02,8.08903e-02,1.20428e-01,1.89488e-01,1.21656e-01,5.48661e-02,1.95873e-02,3.96183e-02,9.25214e-02,1.03341e-01,1.75370e-01,3.69691e-01,3.67660e-01,1.11817e-01,1.84094e-01,-7.19912e-02,-5.40526e-02,-1.71270e-02,6.50644e-02,1.43774e-01,2.70528e-01,1.68792e-01,1.97552e-01,1.73866e-01,1.04740e-01,6.23082e-02,2.80437e-02,8.71514e-02,9.01393e-02,5.00564e-02,1.53564e-01,8.59427e-02,-3.56138e-02,2.61707e-03,-6.28506e-02,2.95242e-02,8.97791e-02,1.33399e-01,2.38463e-01,3.10596e-01,2.67717e-01,2.59060e-01,1.23493e-01,2.25656e-02,-9.68383e-02,8.71364e-02,1.47837e-01,1.88625e-01,1.75684e-01,1.73238e-01,1.13233e-01,1.29552e-01,8.44297e-02,2.27943e-02,-1.81225e-02,-1.75354e-02,-5.42787e-02,3.75460e-02,-1.91292e-02,-3.55142e-02,-1.52843e-01,7.23412e-03,9.17675e-03,-3.13285e-02,3.60326e-02,5.14738e-03,1.38124e-01,2.29088e-01,5.89658e-02,1.94406e-01,2.47351e-02,-6.68757e-02,1.21398e-01,1.60022e-01,1.57165e-01,1.14726e-01,5.50834e-02,2.41427e-02,-3.37559e-02,-5.64439e-03,2.81782e-02,-3.79425e-03,-2.59363e-02,-8.42058e-02,-1.27815e-01,-1.60858e-01,-2.14376e-01,-2.68217e-01,-1.17789e-01,-1.00276e-02,-6.54322e-03,-4.89220e-03,2.69333e-02,3.06406e-02,1.40480e-01,8.53142e-02,1.31748e-01,1.72081e-01,4.14361e-03,-3.91999e-02,-4.83499e-02,1.08437e-01,1.44056e-01,1.41001e-01,1.60320e-02,-1.15953e-01,-1.16007e-01,-1.11638e-01,-1.51648e-02,5.48134e-03,-5.96996e-02,-1.00512e-01,-1.42162e-01,-2.04138e-01,-3.20812e-01,-3.25984e-01,-1.16624e-01,-1.39411e-02,3.23791e-02,-4.87801e-03,5.84348e-02,5.53758e-02,5.68399e-02,7.43754e-02,1.50395e-01,1.88871e-02,-3.12713e-02,7.39170e-03,2.50414e-02,1.12970e-01,9.72455e-02,-3.50328e-02,-5.42568e-02,-1.36536e-01,-1.78878e-01,-1.71995e-01,-1.89801e-01,-1.70050e-01,-1.80975e-01,-2.61020e-01,-2.89810e-01,-4.06829e-01,-4.60617e-01,-3.42977e-01,-2.19672e-01,-1.53454e-01,-6.94772e-02,-1.15493e-01,1.63889e-01,1.69891e-01,5.12339e-02,-1.76197e-01,-4.46287e-02,-3.18403e-02,9.48332e-03,8.95076e-03,-3.02128e-02,5.76924e-02,-2.10220e-01,-1.87354e-01,-1.45572e-01,-3.01459e-01,-3.17623e-01,-2.91120e-01,-3.86856e-01,-3.35610e-01,-2.81419e-01,-2.20429e-01,-2.10720e-01,-3.27303e-01,-3.08680e-01,-1.31880e-01,-1.41543e-01,-1.30717e-01,-9.70020e-02,-4.71602e-02,5.03204e-02,7.72743e-03,-2.07189e-01,-1.09588e-01,2.19970e-01,1.97167e-01,-1.67290e-02,-3.32720e-02,2.21157e-02,-3.02787e-02,-6.83443e-02,-6.35249e-02,-1.81719e-01,-1.18034e-01,-1.90396e-01,-2.43653e-01,-3.01320e-01,-3.11249e-01,-2.30027e-01,-1.67278e-01,-1.26603e-01,-1.62433e-01,-1.20999e-01,-3.16308e-02,1.37731e-02,-7.62918e-02,-7.26731e-02,-1.22830e-01,-1.22364e-01,-1.35083e-01,-2.34012e-01,-1.78277e-01,1.93718e-01,1.99802e-01,-2.82099e-02,1.30294e-02,-1.39754e-02,-2.10435e-02,1.35439e-02,-7.59772e-03,-8.32544e-02,-4.01772e-02,3.57164e-03,5.49104e-02,-1.96526e-02,-5.48826e-02,-1.35181e-01,-6.90008e-02,-1.03074e-01,1.01769e-01,2.66053e-02,2.69045e-01,2.44001e-01,1.49049e-01,9.46050e-02,3.84712e-02,5.45251e-02,2.11678e-02,-3.75701e-02,-7.36841e-02,-2.60547e-02,2.28864e-02,-1.87471e-02,3.25546e-02,-2.42697e-02,8.90572e-03,-1.76511e-02,1.52552e-02,1.62999e-02,3.54051e-02,2.79001e-04,1.17731e-02,3.67741e-03,-7.00435e-02,-5.21843e-03,1.50562e-02,8.38317e-03,-3.08000e-02,-2.12881e-03,-2.87387e-02,3.83435e-02,3.14857e-03,-4.61672e-04,5.89439e-03,-5.97563e-02,-5.54659e-02,-8.01952e-03,-2.30945e-02,2.61403e-02,2.47346e-02,3.06731e-02,
2.35877e-02,-3.12684e-02,3.00410e-02,-1.64183e-02,7.47307e-03,3.43716e-02,-3.27609e-02,1.47265e-02,-5.37020e-03,-1.72536e-02,-1.06862e-02,-1.77289e-02,-8.16596e-03,1.84150e-02,3.41762e-02,3.09591e-02,1.95565e-02,1.55200e-02,1.99143e-02,-2.52086e-02,8.36647e-03,2.96993e-03,-2.66397e-02,-1.35937e-02,-5.88504e-03,-1.58618e-02,-3.48318e-02,-5.62087e-03,1.02367e-02,3.49561e-02,2.04645e-02,1.84698e-02,-2.52034e-02,-7.66203e-03,3.16425e-02,-1.40615e-02,-5.35478e-03,-4.75767e-02,-1.15107e-02,-8.98074e-03,1.40889e-02,1.21753e-01,6.33932e-02,-3.54926e-02,-5.42646e-03,-1.35411e-03,1.93032e-02,6.05020e-02,3.50114e-02,-2.51983e-02,-8.90075e-03,-1.32194e-02,-1.55184e-02,-2.20312e-02,-9.99432e-03,5.56610e-03,2.03909e-02,1.93031e-02,1.27065e-02,6.35669e-02,9.88700e-02,7.18110e-02,-3.45709e-02,6.01273e-02,-6.98008e-02,-1.93953e-01,-1.30287e-01,-4.08980e-02,-2.38753e-02,7.61108e-02,5.41750e-03,-4.70258e-02,1.15540e-01,6.39870e-02,2.97557e-02,1.07392e-02,2.10781e-02,5.82907e-03,5.60944e-02,-7.18390e-02,4.75562e-02,7.56782e-03,-2.03228e-03,2.93080e-02,1.58055e-02,1.09629e-02,5.63470e-02,8.34966e-02,-3.36504e-03,-7.09800e-03,-4.67682e-02,-9.88823e-02,-2.27043e-01,-9.94347e-02,4.60601e-03,-5.30575e-02,-6.17094e-02,7.19349e-02,1.90218e-02,2.68247e-02,1.07047e-01,6.70366e-02,1.19768e-03,-4.21316e-03,7.78318e-02,-3.40231e-02,-1.06847e-01,-2.73189e-02,-1.32909e-01,6.05375e-02,3.57755e-03,-1.84267e-02,-1.52624e-02,5.06956e-02,-7.75400e-03,-5.66242e-02,-2.78409e-02,-1.63201e-02,-3.23056e-02,1.01952e-02,-3.68495e-02,1.30623e-02,-1.16384e-02,-3.95256e-02,-2.20887e-02,-5.94511e-03,6.29126e-02,1.09451e-01,1.48132e-01,1.22109e-01,1.32842e-01,9.03259e-03,5.13586e-02,3.11214e-02,-1.43682e-02,-1.91890e-01,-1.25024e-01,-9.53165e-02,-3.04731e-02,1.76569e-02,-2.48528e-02,8.28147e-04,-1.99170e-01,-6.22405e-02,4.12133e-03,-1.02704e-01,-4.87542e-02,1.38690e-03,2.57664e-02,2.48047e-02,1.03782e-01,1.50738e-01,9.59471e-02,4.88210e-02,4.80591e-02,2.96312e-02,1.88051e-02,6.11968e-02,1.00248e-01,7.48346e-02,-6.34479e-04,6.48266e-02,-3.15274e-02,-7.84706e-02,-1.27379e-01,-1.54698e-01,-2.04680e-01,-6.05353e-02,-3.29703e-03,-2.01690e-02,7.16041e-02,-4.23829e-02,-6.18546e-02,3.85197e-02,4.62205e-02,5.84957e-02,2.37727e-02,6.50010e-02,1.25404e-01,1.05985e-01,6.94521e-02,7.78391e-02,8.94808e-02,5.85600e-02,5.48495e-02,6.34581e-03,2.29668e-02,7.45314e-02,6.24361e-02,1.15344e-01,5.46105e-02,-4.52975e-02,-6.52034e-02,-9.40489e-02,-1.27012e-01,-1.02539e-01,-7.26723e-03,-3.52367e-02,-5.59504e-02,-1.38619e-01,-2.05947e-01,9.90497e-02,9.90650e-02,5.72876e-02,-3.46541e-02,6.69563e-02,8.41662e-02,8.41953e-02,2.98122e-02,1.54200e-02,3.85464e-02,3.50270e-02,4.46252e-02,-2.38313e-02,6.70552e-02,1.35195e-01,6.89003e-02,-2.07228e-02,-6.51623e-02,-1.57874e-02,2.14543e-02,-1.62812e-02,-9.65357e-02,1.52984e-03,3.22872e-02,-4.61444e-02,-9.96927e-02,-1.94446e-01,-2.35140e-01,1.50131e-02,1.58580e-03,-5.76628e-02,1.40414e-02,6.96101e-02,6.47238e-02,-9.75241e-04,5.53221e-02,-5.78747e-03,1.54540e-02,7.52627e-02,4.70523e-02,-1.67216e-02,2.98725e-02,-3.23409e-03,4.09506e-02,-6.16725e-02,-5.63772e-02,2.45806e-02,1.00481e-01,-5.90037e-02,-1.12641e-02,4.11386e-02,-1.16722e-02,-6.09833e-02,8.79299e-02,-2.85520e-01,-2.68733e-01,5.03423e-02,-5.46839e-02,-2.10808e-02,-2.99519e-02,9.88066e-02,5.51847e-02,-6.80364e-03,-5.55589e-02,4.87967e-02,4.35887e-02,-2.44431e-02,-3.03816e-02,-1.00446e-01,-4.74643e-02,-5.67359e-02,-7.00779e-03,1.65618e-02,-4.17388e-02,5.91674e-02,1.90731e-01,3.35759e-02,1.11769e-02,5.67718e-02,-1.28794e-02,-3.81995e-02,4.21641e-02,-2.93724e-01,-2.32814e-01,2.08600e-02,-4.85266e-04,-1.21301e-01,-9.66747e-03,4.79523e-02,-3.43672e-02,1.74809e-02,6.67735e-02,2.56651e-02,3.76696e-02,-5.08870e-02,-7.89842e-02,-2.34594e-02,-1.49982e-02,-9.76513e-02,7.73919e-03,-1.89271e-02,8.78061e-02,1.12995e-01,1.88338e-01,-8.41841e-02,-5.75533e-02,1.05824e-01,3.52232e-02,-4.55386e-02,-1.65443e-02,-2.22842e-01,-1.88232e-01,-2.87626e-02,-1.01680e-01,-8.40032e-02,-1.06371e-02,1.90004e-02,1.23612e-02,4.34314e-02,-1.27542e-01,-3.61419e-02,-4.45595e-02,-8.94579e-02,-7.36330e-02,-7.40410e-02,-4.43039e-02,-9.68238e-02,-3.03236e-02,3.21788e-02,1.31417e-01,1.45020e-01,1.36571e-01,-1.60838e-01,-1.12479e-01,-7.56446e-04,2.97238e-02,8.92171e-04,5.01918e-02,-1.61031e-01,-1.85433e-01,-6.60759e-02,-5.25136e-03,-3.29261e-02,2.80840e-02,6.16416e-02,2.18867e-02,-4.98626e-02,-1.79623e-01,-1.19615e-01,-1.78864e-01,-2.01812e-01,-2.05589e-01,-1.70672e-01,-1.14830e-01,-7.29767e-02,-4.23268e-02,-2.09414e-03,9.21157e-02,2.12237e-01,1.51759e-01,-2.02622e-01,-2.11009e-01,-7.04260e-02,-3.18058e-02,-3.19755e-02,3.14351e-03,-4.13771e-02,-1.33164e-01,-9.08542e-02,3.59565e-02,6.05436e-02,6.32612e-02,7.38211e-02,-4.54072e-03,-1.68964e-01,-2.40899e-01,-1.53374e-01,-1.93726e-01,-1.49698e-01,-2.52699e-01,-1.74190e-01,-1.13207e-01,-1.13325e-01,-8.47083e-02,4.68109e-02,1.65594e-01,1.30997e-01,2.32247e-01,-6.71507e-02,-1.16027e-01,-7.85025e-02,5.59666e-04,-1.19120e-01,-1.23750e-01,-2.61405e-02,-1.22109e-01,-4.17617e-02,8.72967e-02,5.79258e-02,3.57461e-02,-1.30998e-03,-9.24479e-02,-2.00163e-01,-2.19338e-01,-5.21654e-02,-5.76644e-02,-1.10969e-01,-1.90315e-01,-2.32950e-01,-1.17353e-01,-1.00445e-01,-5.70619e-02,9.90079e-02,1.45641e-01,2.02358e-01,2.08704e-01,-3.03206e-03,-1.33485e-01,-7.49386e-02,1.56883e-03,-5.46545e-02,-9.68420e-03,-1.07096e-01,-1.03780e-01,6.37046e-02,6.83302e-03,1.41920e-01,2.72880e-02,5.56628e-03,-1.44287e-01,-2.77416e-01,-1.95335e-01,-1.98260e-01,-1.32215e-01,-1.26458e-01,-1.96023e-01,-1.73026e-01,-9.08159e-02,-9.79532e-02,-2.52394e-02,1.22643e-01,1.04381e-01,1.92206e-01,1.90050e-01,8.22792e-02,-1.54222e-01,-1.64104e-01,2.22465e-02,-7.56614e-02,-6.43676e-02,-5.04077e-02,1.49378e-02,1.30750e-01,1.05485e-01,1.60870e-01,1.12875e-01,8.21901e-02,-1.71512e-01,-1.96599e-01,-2.36699e-01,-1.86426e-01,-2.08678e-01,-1.88566e-01,-1.85152e-01,-1.52124e-01,-8.49037e-02,-4.39852e-02,2.28067e-02,8.57975e-02,1.06342e-01,9.88538e-02,1.41649e-01,5.28096e-02,-1.88926e-01,-1.64438e-01,3.25209e-02,-1.02884e-01,-6.69822e-02,-3.40760e-02,6.73919e-02,1.59916e-01,9.26771e-02,1.59347e-01,7.76789e-02,7.18666e-02,-4.27933e-02,-1.48424e-01,-1.82408e-01,-2.37904e-01,-2.39760e-01,-1.90329e-01,-1.18117e-01,-6.31012e-02,-1.14309e-01,-1.79834e-02,1.42855e-02,6.20467e-02,1.41871e-01,1.33884e-01,1.18244e-01,3.99397e-03,-2.13679e-01,-7.20709e-02,-1.47057e-02,-1.76104e-03,-1.58008e-02,1.24996e-02,1.54938e-01,1.13520e-01,5.30655e-02,1.37565e-01,8.36127e-02,7.58869e-02,-7.01631e-02,-1.75098e-01,-1.62220e-01,-1.89643e-01,-1.53594e-01,-1.19358e-01,-6.92780e-02,7.70798e-03,7.99290e-03,-5.15325e-02,-1.94096e-02,4.95469e-02,1.08860e-01,8.10452e-02,1.27466e-01,-2.86967e-02,-4.92638e-02,-1.00212e-01,1.35265e-02,7.00221e-03,1.20520e-01,4.32467e-02,9.98411e-02,1.19697e-01,4.54968e-02,1.15182e-01,1.11961e-01,8.34329e-02,2.27324e-02,4.55537e-03,-5.00495e-02,-1.05268e-01,-5.79464e-02,-7.90408e-02,-4.34946e-02,4.92121e-03,4.12181e-02,5.15828e-03,3.23041e-02,5.72912e-02,3.96900e-02,-1.81616e-02,1.22815e-01,-4.90179e-02,-1.09319e-01,-1.97656e-02,3.15535e-02,-2.13819e-02,-3.25325e-02,5.90202e-03,9.80945e-02,1.57119e-01,1.02989e-01,2.80187e-02,9.69945e-02,1.40529e-01,1.27683e-01,6.12625e-02,2.30728e-02,-6.03698e-02,-8.71237e-02,1.19575e-02,-1.76570e-03,7.70305e-02,3.00448e-02,-2.23755e-02,5.28478e-02,5.88159e-02,-1.84841e-02,-6.45603e-02,-2.12427e-02,4.71031e-02,-5.25573e-04,5.98826e-02,-1.35707e-02,-2.02395e-02,-2.07151e-01,3.89872e-03,1.71138e-02,9.67021e-02,1.27304e-01,9.79782e-02,6.73180e-02,1.41552e-01,1.46823e-01,9.40762e-02,2.97688e-02,-5.94438e-02,-6.96392e-02,4.55959e-02,7.44416e-02,2.56994e-02,-6.66895e-02,-7.09453e-03,1.66469e-02,4.59120e-02,-1.82416e-02,-1.02485e-01,-8.38495e-02,-5.02710e-02,2.06625e-02,1.07844e-01,5.68656e-04,7.96796e-03,-1.14172e-01,-3.07772e-02,-1.15099e-01,8.32352e-02,2.01732e-02,4.66209e-02,8.27843e-02,5.31617e-02,9.26525e-02,7.10283e-02,9.51099e-02,7.12026e-02,8.79993e-02,8.29505e-02,1.26253e-01,6.51654e-02,-4.25511e-02,-2.02035e-02,-1.06688e-01,-1.19768e-01,-9.18719e-02,-3.91671e-02,-5.30968e-02,-8.78031e-02,2.62340e-02,1.20618e-01,-2.33967e-02,-3.15117e-02,-6.34724e-02,-1.37811e-01,-1.72076e-01,-7.76431e-03,1.35358e-02,-1.07472e-01,-5.76307e-02,4.03220e-02,7.54742e-02,7.63320e-02,4.36640e-02,1.00728e-01,1.06409e-01,1.16966e-01,6.75107e-02,5.07658e-02,-1.06432e-01,-1.58821e-01,-2.04536e-01,-2.32937e-01,-1.26564e-01,-1.54384e-01,-1.22137e-01,-5.13783e-02,2.59493e-02,1.25023e-02,1.67707e-02,2.94859e-02,-1.12089e-01,-1.08248e-01,-4.32634e-02,-6.04980e-02,-2.90276e-02,-3.66013e-02,-6.42951e-03,4.64304e-02,-6.47175e-02,-3.67120e-02,-1.80399e-02,-3.61684e-02,1.33898e-02,-1.32524e-02,-2.67560e-02,-7.60589e-02,-1.68520e-01,-2.46837e-01,-2.67932e-01,-3.43122e-01,-2.38008e-01,-1.88792e-01,-7.28137e-02,-1.54808e-01,1.87158e-02,-3.35529e-02,-7.43636e-03,3.41803e-04,1.02254e-02,7.33928e-03,-2.20510e-02,-3.68746e-02,-6.41686e-02,-1.22194e-01,-1.11887e-01,-1.24159e-01,-1.38070e-01,-1.50121e-01,-1.09102e-01,-1.19516e-01,-1.60380e-01,-1.89372e-01,-3.29803e-01,-4.44577e-01,-4.30039e-01,-4.43004e-01,-2.77817e-01,-2.53310e-01,-2.73534e-01,-1.75168e-01,-2.70525e-02,8.54244e-03,3.37128e-02,-1.32081e-02,-2.98554e-03,-4.36117e-03,-2.02952e-02,1.07675e-03,-4.82389e-02,-3.11742e-02,-5.36524e-02,-1.57879e-02,-2.20845e-01,-2.08885e-01,-2.26445e-01,-2.70724e-01,-2.85038e-01,-3.00985e-01,-3.00287e-01,-2.58554e-01,-1.67146e-01,-2.13713e-01,-2.25801e-01,-1.37872e-01,-1.24718e-01,-1.61399e-01,-1.60111e-01,-9.01433e-02,3.20677e-02,1.85417e-02,-1.01936e-02,3.26771e-02,-3.85560e-03,-1.02992e-02,3.36197e-02,-2.53053e-02,1.57676e-02,-2.52646e-02,-2.85339e-03,8.61994e-03,3.78382e-02,-8.71716e-03,-3.44195e-02,1.34818e-02,-2.27924e-02,-7.96947e-02,-1.27305e-01,-7.14203e-02,-5.28397e-02,-5.26518e-02,-5.16187e-02,1.67606e-02,2.16494e-02,-1.42508e-01,-1.37397e-01,-9.52187e-02,2.63917e-02,-2.88298e-02,-3.38086e-02,1.61983e-02,
-1.04035e-02,2.11810e-02,-2.01373e-02,-4.54162e-04,1.52989e-02,4.34346e-03,-9.98578e-03,-2.84435e-02,-3.45923e-02,1.84907e-02,8.27179e-03,1.44338e-02,-4.33606e-03,1.54334e-02,2.63563e-02,4.54516e-02,6.15588e-04,7.93122e-03,-1.23135e-03,1.52897e-02,1.73149e-02,1.03413e-02,2.05378e-02,-3.07698e-02,3.11201e-02,1.03130e-02,-2.19402e-02,9.15596e-03,-3.36465e-02,-7.14428e-03,4.00799e-04,-1.39798e-02,-2.58338e-02,2.75913e-02,1.95742e-02,-5.98877e-03,-3.24492e-02,-2.46232e-02,-9.18831e-02,-3.78295e-02,-1.93700e-03,1.66581e-02,1.64301e-02,-3.21973e-02,-5.95441e-02,-6.74791e-02,9.98511e-04,1.49245e-03,-2.13595e-02,-2.56901e-02,5.58750e-03,1.54472e-02,1.01908e-02,-2.01311e-02,3.12240e-02,3.05783e-02,-1.91874e-02,-3.08912e-02,-9.82601e-03,-5.38901e-03,-1.39059e-02,-3.04671e-02,2.82715e-02,-4.68969e-02,-1.72019e-02,1.07358e-02,1.03650e-01,1.05749e-01,1.08326e-02,-9.49996e-02,-4.99153e-02,-1.19190e-01,-1.87960e-01,-2.02907e-01,-1.15192e-01,-3.98496e-02,-1.14633e-01,-6.11557e-02,-1.38690e-02,-3.58989e-02,9.81695e-03,-3.21167e-02,1.18635e-02,1.00556e-02,3.45792e-02,2.30673e-02,6.57298e-02,8.88830e-02,-1.75464e-02,-5.22770e-03,-1.07672e-02,9.62092e-03,3.22705e-02,4.40713e-02,2.60815e-02,-1.24003e-01,-1.68578e-01,-3.06568e-01,-3.61088e-01,-2.86888e-01,-1.98027e-01,-3.21771e-01,-2.35953e-01,-1.60394e-01,-2.30425e-01,-2.18104e-01,-1.38446e-01,-1.34902e-01,-1.13288e-01,-6.49118e-02,-7.81944e-02,2.38524e-02,-4.32378e-03,-2.70508e-02,7.92189e-02,3.12032e-02,3.60951e-02,-1.04355e-01,6.36671e-03,-3.53224e-02,-3.44063e-02,-2.38602e-01,-2.36933e-01,-2.60055e-01,-2.78007e-01,-3.09499e-01,-1.12917e-01,-4.10028e-02,4.66161e-02,-1.41164e-01,-2.31050e-01,-1.17612e-01,-1.27240e-01,-3.59315e-03,-5.43884e-02,-1.26526e-01,-2.72333e-01,-1.59060e-01,-1.12738e-02,-9.47404e-02,-6.74264e-03,2.82354e-02,1.41510e-01,1.87235e-01,8.82122e-02,1.79747e-01,2.35447e-01,1.31628e-01,1.12895e-01,1.89721e-01,7.67191e-02,-4.06948e-02,-1.31605e-01,-1.03057e-01,-4.00107e-02,-9.91308e-03,-9.16254e-02,-1.56424e-01,-1.12649e-01,-1.50798e-01,-1.30959e-01,-1.63665e-02,8.55927e-03,-3.48817e-02,-8.90092e-02,-1.62360e-01,-1.84061e-01,-1.97141e-01,2.66967e-02,-6.30803e-02,-5.89799e-03,2.60159e-02,1.68770e-01,1.17354e-01,7.24822e-02,1.26730e-01,9.09099e-02,1.47925e-01,6.80835e-02,8.68794e-02,-1.76902e-04,-5.15185e-02,-7.84028e-03,-3.91031e-02,-5.79365e-02,-3.63363e-02,-7.62725e-02,-5.99191e-02,-2.93423e-02,-9.46551e-03,8.69883e-02,7.41553e-03,-7.13651e-02,-2.01344e-01,2.72049e-02,1.40206e-01,7.95549e-03,4.85671e-02,1.23896e-02,3.91372e-02,1.09893e-01,8.10598e-02,5.43124e-03,1.01289e-01,6.24748e-02,1.42485e-01,1.18203e-01,2.89901e-02,-1.43513e-02,4.11601e-02,2.47294e-02,8.72579e-03,2.75732e-02,9.63779e-02,4.36159e-02,1.24953e-01,5.92397e-02,5.84731e-02,4.17543e-02,1.23975e-01,-3.01586e-02,-6.32096e-02,-3.58398e-03,1.35557e-01,2.07078e-02,1.08478e-01,4.52268e-02,8.63300e-02,-6.03259e-02,2.46462e-02,-2.99110e-02,9.86424e-02,1.32926e-01,1.04142e-01,3.73605e-02,-3.62932e-03,-1.21068e-01,-1.13629e-01,-1.43155e-02,5.42135e-02,9.90476e-02,1.78881e-01,1.49942e-01,1.30375e-01,1.15697e-01,6.44267e-02,9.22357e-02,1.89889e-01,-1.35637e-02,-1.00545e-02,4.14985e-02,1.56391e-02,-3.31902e-02,2.44394e-02,4.31199e-02,1.22233e-02,-2.31374e-01,-9.79098e-02,-7.03515e-03,-1.00031e-02,2.61462e-02,7.38345e-02,-1.67431e-02,-1.13046e-01,-1.06700e-01,-6.32549e-02,8.16420e-02,1.65473e-01,1.91048e-01,2.03290e-01,1.50273e-01,7.82424e-02,1.83809e-02,5.02466e-02,7.84038e-02,8.83787e-02,-4.60588e-02,-1.98355e-01,-2.27952e-01,-5.94321e-03,1.19668e-02,4.62591e-02,1.57279e-02,6.25093e-02,-2.55875e-01,-1.13277e-01,-8.17990e-02,-1.37341e-01,-4.30085e-02,-4.95095e-02,-8.29711e-02,-1.62238e-01,-1.22388e-01,-7.18768e-02,7.04858e-02,1.48428e-01,1.57220e-01,1.25337e-01,8.51246e-02,2.23580e-02,5.80481e-03,4.26923e-02,-8.50681e-02,-8.74434e-02,-6.58109e-02,-9.38318e-02,-1.44681e-01,1.31128e-01,1.05721e-02,-2.86243e-03,-6.27091e-02,2.13372e-02,-5.72109e-02,-1.74317e-01,-1.55404e-01,-8.83501e-02,-2.76247e-02,-5.12623e-02,2.36216e-03,2.99049e-02,-5.34988e-02,2.99380e-02,1.26056e-01,1.35658e-01,1.23064e-01,1.19486e-01,1.02905e-01,-2.39972e-02,-3.98188e-02,-9.79242e-02,-1.26157e-01,-2.52696e-02,-4.98633e-03,-8.30072e-03,-9.97579e-02,2.26606e-01,2.73049e-02,8.29628e-03,-5.80523e-02,-2.53320e-02,-4.53335e-03,-1.72990e-01,-1.87272e-01,-6.52024e-02,-4.18543e-02,-8.85631e-03,-3.83084e-02,-1.12791e-01,-6.63576e-02,-5.51084e-03,3.54998e-02,1.27360e-01,7.00221e-02,8.48416e-02,5.36544e-02,-7.12465e-02,-1.17259e-01,-7.96982e-02,-3.80679e-02,1.29343e-01,9.68571e-02,2.39511e-01,1.86152e-01,2.46132e-01,1.40634e-01,-1.63578e-02,1.31523e-01,3.36098e-02,-1.19625e-01,-2.32384e-01,-1.15457e-01,1.90208e-02,-3.82093e-02,-1.04908e-01,-6.46095e-02,-5.50125e-02,-7.23184e-02,3.51326e-03,8.33652e-02,9.72052e-02,4.00000e-02,7.26825e-02,-2.93153e-02,-1.14795e-01,-4.01035e-02,1.19941e-01,3.67384e-03,3.40198e-02,9.90987e-02,1.31042e-01,1.21616e-01,6.32204e-02,2.81559e-02,2.27009e-02,1.44423e-01,2.29278e-02,-9.59542e-02,-1.37526e-01,-3.10527e-02,-1.39368e-02,-8.47266e-02,-1.83481e-01,-4.11169e-02,-5.64293e-03,4.97638e-02,2.63312e-02,4.39202e-02,7.60821e-02,1.83185e-02,-2.54265e-02,-6.45915e-02,-5.47505e-03,-6.61489e-03,2.74995e-02,-1.34782e-02,1.23605e-02,-5.12249e-02,1.60748e-02,-1.26506e-01,6.43615e-02,-2.98510e-02,5.60569e-03,5.50698e-02,7.76503e-02,-1.18769e-01,-1.42473e-01,-4.99860e-02,-6.14538e-02,-3.48622e-02,-1.42971e-01,-3.84415e-02,3.30690e-02,4.63181e-02,1.53684e-02,4.57469e-02,7.05692e-02,6.62421e-03,-2.19354e-02,-1.29813e-01,-1.55877e-01,-1.05132e-01,5.80454e-02,-7.06653e-02,-5.88554e-02,-5.06994e-02,-6.99744e-02,-1.48236e-01,-5.47860e-02,2.73658e-02,-2.43087e-02,8.39038e-02,-2.38865e-02,-2.45627e-02,-8.99506e-02,-5.77909e-02,-1.66213e-01,-8.36420e-02,-1.00121e-01,-3.94449e-02,-3.00149e-02,1.44493e-02,6.68873e-02,5.15924e-02,5.94970e-02,3.64545e-02,-1.31104e-01,-1.28380e-01,1.58497e-02,1.44890e-02,9.60407e-02,-1.88027e-02,2.75131e-02,-1.61846e-01,-1.62700e-01,-5.36671e-02,-6.66504e-02,-3.10688e-02,3.70764e-02,1.37095e-02,-7.28067e-02,-1.58280e-02,-2.61595e-02,-8.79914e-02,-1.85539e-01,-2.05109e-01,-1.32050e-01,3.22622e-02,5.32775e-02,4.90371e-02,1.54246e-01,9.53881e-02,-7.41547e-02,-4.78865e-02,-1.78839e-01,-6.78554e-02,6.97509e-02,6.46913e-02,1.31286e-01,7.58490e-02,1.73324e-01,1.48823e-01,6.29476e-02,1.37701e-01,-6.21602e-02,1.31330e-01,6.64424e-02,-1.10248e-02,-1.08478e-01,-1.24538e-01,-2.08579e-01,-2.09936e-01,-2.11628e-01,-2.37399e-01,-1.46112e-01,-3.47919e-02,1.57849e-01,1.73170e-01,1.80736e-01,-3.77952e-03,-2.10957e-01,-2.82977e-01,-1.71855e-01,-3.32142e-02,-1.18811e-02,-3.51042e-02,-3.76245e-02,-5.49082e-02,1.29993e-02,-5.91750e-02,-4.87162e-02,1.05065e-01,1.67836e-01,3.44373e-02,2.37083e-02,-1.73424e-02,-1.09769e-01,-1.59387e-01,-2.95087e-01,-2.01273e-01,-1.78253e-01,-1.78344e-01,-3.91794e-02,-6.18949e-03,9.88821e-02,1.83380e-01,1.34144e-01,-1.32665e-01,-3.55986e-01,-4.01103e-01,-2.45820e-01,-1.56484e-01,-1.27381e-01,-1.67621e-01,-1.88186e-01,-1.89397e-01,-1.82676e-01,-9.95478e-02,-1.70453e-02,4.00393e-02,1.95974e-01,-1.36994e-02,5.91124e-02,-2.12890e-01,-1.47800e-01,-1.77494e-01,-1.98467e-01,-8.93889e-02,-9.57420e-02,-1.32399e-01,-7.72644e-02,3.78611e-02,1.28733e-01,1.45115e-01,5.26416e-02,-2.18276e-01,-4.25067e-01,-3.46212e-01,-1.99932e-01,-1.61734e-01,-1.42762e-01,-1.54796e-01,-1.98988e-01,-1.62234e-01,-4.21253e-02,-2.40427e-02,-5.91817e-02,5.62165e-02,1.56994e-01,9.07183e-02,7.95434e-02,-2.32900e-01,-1.93594e-01,-1.26301e-01,8.37835e-02,4.91333e-02,-7.66463e-02,-4.62052e-02,-6.38123e-02,2.42071e-02,9.00607e-03,7.62253e-03,-8.42652e-03,-1.61771e-01,-2.83145e-01,-2.90802e-01,-3.15310e-01,-1.97817e-01,-2.37785e-01,-1.10057e-01,-8.74641e-02,-7.56499e-02,-9.37004e-03,3.52432e-02,2.56497e-02,-6.20625e-02,2.16975e-02,3.42824e-02,4.86848e-02,-1.38453e-01,-1.64757e-01,2.95301e-02,1.83686e-01,9.99544e-02,4.31287e-02,8.80522e-02,2.20859e-02,4.92253e-02,-2.44127e-02,3.89622e-02,5.07238e-02,4.00043e-02,-1.90629e-01,-2.56493e-01,-2.39539e-01,-1.52786e-01,-1.01522e-01,-1.69804e-02,6.40544e-04,-1.04064e-01,-4.04600e-02,-7.93166e-02,1.75081e-02,1.29692e-01,-1.74385e-02,-6.55736e-03,-3.05452e-02,-2.23895e-01,-2.30480e-01,8.59507e-02,1.79327e-01,2.11935e-01,5.70771e-02,5.78692e-02,1.32596e-02,3.43433e-02,5.39066e-02,9.21540e-02,1.29994e-01,8.06340e-02,-5.64644e-02,-2.26250e-01,-1.73787e-01,-6.54999e-02,-1.59379e-01,-1.20299e-01,-9.43013e-02,-3.92492e-02,-8.64053e-02,3.79269e-03,1.21037e-02,1.80609e-01,-3.19785e-02,3.49970e-02,-3.25352e-02,-1.23754e-01,-2.60304e-01,1.08031e-01,1.38731e-01,1.96609e-01,-3.73959e-02,3.35206e-02,4.09739e-02,2.02310e-02,-2.65482e-02,3.99554e-02,1.01534e-01,-1.33818e-02,-6.45499e-02,-3.16645e-01,-2.97465e-01,-1.47696e-01,-2.10099e-01,-2.18959e-01,-9.83309e-02,6.60622e-02,9.29611e-02,4.64203e-02,1.06890e-01,3.56135e-02,2.00474e-02,-2.35850e-02,2.30007e-02,-2.17295e-04,1.46087e-01,9.29242e-02,9.12879e-02,8.85702e-02,8.45702e-02,1.39499e-01,8.02440e-03,8.17651e-03,1.11589e-01,-6.22259e-02,-5.58773e-02,-2.77946e-02,-1.06495e-01,-2.86762e-01,-2.73529e-01,-1.89862e-01,-2.86519e-01,-3.00835e-01,-2.93528e-01,8.13133e-03,7.20477e-02,6.38851e-02,-2.64548e-02,-1.22857e-02,-5.33477e-03,3.19221e-02,1.86279e-02,3.34368e-02,9.12344e-02,-1.63329e-02,-7.52693e-02,-2.81858e-02,4.77572e-02,6.46216e-02,-3.46596e-02,8.44644e-02,-6.01616e-02,-7.13410e-02,-7.83407e-02,-1.19914e-02,3.98535e-03,-8.41128e-03,-1.27884e-01,-1.91780e-01,-9.51512e-02,1.94270e-02,-8.41133e-02,-4.42691e-02,-1.04174e-01,-1.14420e-02,1.12236e-01,2.44924e-02,3.16017e-02,1.36089e-02,-8.48157e-03,-2.31495e-02,1.90759e-02,9.97201e-02,5.13014e-02,6.85774e-02,-8.23488e-02,-3.18084e-02,-1.21340e-01,5.48041e-02,8.84265e-03,-4.32732e-02,-5.56116e-02,9.96658e-02,5.47180e-02,6.05925e-02,-1.31514e-01,-1.54553e-01,-1.25712e-01,1.75943e-02,-4.41455e-02,-2.79810e-02,-2.78618e-02,-2.76877e-02,1.32767e-02,1.99567e-02,2.33020e-02,
1.57316e-02,-2.73103e-03,7.40212e-03,-7.08798e-03,-1.00417e-02,1.41352e-02,-1.70224e-02,-1.37957e-02,-3.30851e-02,-1.55838e-02,1.20096e-02,-2.28241e-02,-1.63320e-02,2.92816e-02,1.32989e-03,2.68696e-02,1.29113e-03,2.60592e-02,1.15311e-02,2.27590e-02,-1.38838e-02,-1.07034e-02,-5.36189e-03,2.99376e-02,-4.80620e-03,-3.55019e-02,1.88378e-03,-1.07602e-02,1.60489e-02,2.12773e-02,-3.02676e-02,-3.03010e-02,1.07679e-02,2.04079e-02,6.33435e-02,7.38830e-02,-2.71233e-02,-1.49672e-02,1.53240e-02,-1.25077e-01,-6.99056e-02,-5.66724e-02,1.11774e-01,-2.69880e-02,-4.60389e-02,-9.15917e-02,-5.12556e-02,-5.34841e-02,-1.87921e-02,3.68282e-02,-1.41330e-02,1.93123e-02,-9.74681e-04,1.64654e-03,-1.80320e-02,3.32995e-02,2.42552e-02,3.27805e-02,-9.00543e-03,6.61941e-02,-1.19005e-02,-2.00391e-02,4.92826e-02,1.40433e-02,2.80998e-02,1.50257e-03,6.00496e-03,6.39340e-02,1.01017e-01,9.77646e-02,3.71328e-02,7.50169e-02,-4.44803e-02,-8.32118e-02,8.65555e-03,-6.31816e-02,-1.36914e-02,2.14772e-02,-4.91038e-02,-3.92748e-02,2.43870e-03,1.13098e-02,-2.38219e-02,2.22940e-02,-6.92090e-03,-3.38243e-02,2.67689e-02,1.10503e-02,5.15776e-03,-3.27376e-02,-1.80598e-02,-9.45398e-02,-6.73331e-02,8.43620e-02,1.58904e-02,-6.20688e-02,1.38395e-01,1.07295e-01,-4.57779e-02,-9.03032e-02,-1.31698e-01,-5.16108e-02,3.19799e-02,-1.06931e-01,-1.12804e-01,-8.09986e-02,1.80558e-02,1.26358e-02,5.23300e-06,2.89673e-03,7.86353e-03,-5.57352e-03,3.57009e-02,3.56714e-02,6.16306e-03,7.71371e-02,-4.34987e-02,9.28042e-02,-7.02491e-03,-9.57258e-02,-2.48611e-02,3.50376e-02,1.15829e-01,-5.01595e-03,7.73621e-02,1.29137e-01,1.56064e-02,-1.29412e-01,-1.50446e-01,-1.88554e-01,-1.55896e-01,-8.17278e-02,-1.78152e-01,-1.25562e-01,-2.15204e-01,-2.65154e-02,-2.39761e-02,-2.41207e-03,2.20340e-02,3.20322e-02,1.98883e-02,2.73082e-02,4.44784e-02,8.39155e-02,-4.60307e-02,3.76027e-03,-2.07715e-02,4.26203e-02,1.25736e-01,2.00563e-01,8.42315e-02,5.77944e-02,5.05650e-02,-1.00672e-02,-5.34148e-02,-2.68851e-02,-1.37307e-01,-2.18123e-01,-2.02918e-01,-2.59072e-01,-3.33251e-01,-3.76711e-01,-1.82769e-01,-1.31008e-01,-1.89740e-01,-1.26008e-01,-6.52669e-02,1.11404e-02,-2.39477e-02,-5.90841e-02,5.74354e-02,3.02839e-02,-7.90383e-03,1.68548e-02,4.55342e-02,2.81633e-02,1.49367e-01,2.69258e-02,-7.30382e-03,-6.40849e-05,8.44054e-02,1.98081e-02,-2.96561e-02,2.70129e-02,1.08698e-01,2.34904e-02,-2.43356e-02,-4.72515e-02,-1.11894e-01,-1.67849e-01,-3.23316e-01,-2.58161e-01,-1.81618e-01,-1.82716e-01,-1.46698e-01,-3.70955e-02,7.16464e-02,5.28416e-03,7.86027e-02,9.60642e-02,5.17087e-02,-8.37184e-03,4.71451e-02,6.05502e-02,-2.61036e-02,-4.42162e-02,-4.54609e-02,4.54994e-02,8.12043e-02,4.04907e-02,-2.29605e-02,-3.71329e-03,2.82326e-02,3.55885e-02,-4.43187e-03,-5.81270e-02,4.16814e-02,6.75307e-02,-7.88863e-02,-1.31730e-01,-2.23472e-01,-3.87129e-01,-2.22229e-01,-1.30884e-01,4.89343e-02,2.19183e-01,4.79862e-02,1.01480e-01,1.50571e-01,2.82403e-02,-1.29716e-02,1.23408e-03,3.62218e-02,-5.08481e-02,2.95256e-02,3.33762e-02,9.46433e-04,8.29116e-03,-5.95673e-03,6.33303e-03,-4.17535e-02,4.81234e-02,-4.29477e-02,-4.29325e-02,1.04858e-02,7.74003e-02,-4.73247e-02,-8.78410e-02,-2.45682e-01,-3.00352e-01,-2.33631e-01,-9.63436e-02,1.26628e-01,9.76762e-02,2.76689e-02,1.26934e-01,1.51125e-01,1.48634e-01,1.16535e-02,-2.33551e-02,-2.76734e-02,3.38704e-02,1.64223e-02,6.97865e-02,5.95089e-02,1.03489e-01,9.77906e-02,5.68980e-02,-2.58826e-02,4.88736e-03,-5.44894e-02,-5.17811e-02,2.70870e-02,2.19100e-02,5.14057e-02,-1.34832e-01,-2.13173e-01,-2.14503e-01,-2.57925e-01,-1.08894e-01,8.49858e-02,2.85213e-02,5.25428e-02,-1.12464e-02,9.63555e-02,7.94730e-02,2.13979e-02,-3.06603e-03,3.04094e-02,-1.17820e-02,-2.88086e-03,3.14559e-02,5.97177e-02,9.83939e-02,1.73440e-01,6.22646e-02,9.85928e-03,1.65008e-02,-6.56838e-03,1.33918e-03,-5.82459e-03,1.85649e-02,1.57997e-02,-2.51653e-02,-1.73516e-01,-6.90343e-02,-1.43271e-01,-1.18746e-01,9.68684e-02,7.07285e-02,1.45859e-01,9.68465e-02,9.36511e-02,-3.53209e-02,-2.49299e-02,5.76466e-02,3.02514e-02,4.39067e-02,3.06562e-02,8.61796e-02,3.83840e-02,5.92247e-02,1.10563e-01,1.67861e-02,-5.68904e-02,4.94931e-02,2.57791e-03,-3.54281e-02,5.87014e-03,4.35305e-02,3.54381e-02,1.26166e-03,-2.34922e-01,-2.37030e-01,-2.08431e-01,3.71011e-02,8.32947e-02,1.12665e-01,2.96887e-04,2.87513e-02,4.92509e-02,2.84563e-03,-5.34836e-02,9.64252e-03,7.01263e-02,8.17458e-02,2.94554e-02,4.16163e-02,3.79390e-02,-4.70641e-02,3.41530e-02,-1.58795e-02,3.72543e-02,7.05320e-02,6.95871e-02,-6.01040e-02,-6.24685e-02,5.04177e-02,1.44141e-01,3.02505e-02,-8.33796e-02,-1.09704e-01,4.86309e-02,1.24780e-01,1.73830e-01,4.59080e-02,1.31546e-01,-4.02810e-03,7.25013e-02,1.01814e-01,2.23700e-02,6.39003e-03,4.68588e-02,7.17086e-02,9.09466e-02,1.18384e-02,-9.95374e-02,-9.60999e-02,9.70307e-03,1.72762e-03,5.94917e-02,9.53549e-02,4.06295e-02,4.87908e-02,9.19131e-02,1.44114e-01,1.75373e-01,1.43454e-01,2.99504e-02,1.16289e-01,8.51380e-02,-5.52552e-02,-4.32500e-02,2.10320e-02,1.83764e-01,1.35551e-01,1.17192e-01,7.28085e-02,-3.97695e-03,-4.59904e-02,7.23343e-03,4.62570e-02,8.89763e-02,-2.04922e-02,-1.33074e-01,-1.08342e-01,1.45942e-02,9.08667e-02,1.20344e-01,1.28002e-01,7.68278e-02,9.70716e-02,1.38170e-01,1.41403e-01,2.59796e-01,2.12314e-01,-1.54188e-03,1.59358e-01,5.75922e-02,-2.90006e-02,-5.99654e-02,-1.84333e-02,3.96569e-02,1.51137e-01,1.05044e-01,4.37109e-02,-6.58612e-02,-4.75466e-02,6.28356e-03,3.57567e-03,6.77417e-02,-3.54811e-02,-1.72367e-01,-3.75050e-02,3.86457e-02,9.15676e-02,1.20720e-01,5.19712e-02,3.38156e-02,1.24688e-01,1.49841e-01,9.73664e-02,1.41499e-01,3.24286e-02,-5.77850e-02,-1.08687e-01,-1.27779e-01,-9.01262e-02,2.27855e-02,1.24586e-01,1.16047e-01,8.48525e-02,-2.67032e-02,-8.37636e-02,2.53289e-02,2.49402e-02,-3.95910e-03,-4.93325e-02,-1.83884e-02,-9.86672e-02,-1.54928e-01,-1.47017e-01,4.35636e-02,7.76499e-02,5.67150e-02,4.95215e-02,6.32417e-02,6.81783e-02,9.35181e-02,8.27532e-02,4.78801e-02,-1.12681e-01,-1.70324e-01,-2.61919e-01,-1.19957e-01,-6.36342e-02,1.32779e-02,1.37017e-01,4.32114e-02,5.81234e-02,-2.03537e-02,-1.61742e-01,2.75125e-02,-1.94386e-02,-4.11627e-02,-1.02396e-01,-1.96894e-01,-2.22820e-01,-2.99132e-01,-1.57350e-01,7.66461e-02,1.02892e-01,2.10109e-02,-1.53322e-02,7.97396e-02,-2.84427e-02,-1.26735e-02,1.99194e-02,-1.28696e-01,-7.83772e-02,-2.06212e-01,-4.39950e-02,-8.27218e-02,-7.17922e-02,1.68877e-01,2.09860e-02,1.58657e-01,-7.16681e-02,-1.12725e-02,-1.29737e-01,-2.96045e-02,1.77285e-02,-1.12523e-01,-1.84921e-01,-3.05577e-01,-3.24034e-01,-2.93148e-01,-1.19006e-01,1.03227e-01,1.60055e-01,8.91673e-02,6.55349e-02,1.54939e-02,-5.47948e-02,-6.21014e-02,-1.03667e-01,-1.57570e-01,-2.13891e-01,-2.17701e-01,-5.48180e-02,-2.60384e-02,1.79858e-01,-3.32883e-02,1.68727e-01,2.39371e-01,1.76456e-02,-3.90575e-02,-1.58434e-01,-1.10706e-01,-3.18224e-02,-1.63371e-01,-2.27459e-01,-2.82861e-01,-2.83469e-01,-2.06089e-01,5.67299e-03,1.69098e-01,1.20751e-01,2.11434e-02,6.67082e-02,-6.72256e-02,-7.24539e-02,-1.81587e-01,-2.13962e-01,-2.51661e-01,-2.60343e-01,-1.98584e-01,1.18589e-02,3.78398e-02,1.84922e-01,-2.85836e-02,2.07045e-02,9.86269e-02,-1.81903e-01,-2.65901e-01,-2.16508e-01,-1.89327e-01,-6.71454e-02,-1.88148e-01,-2.49989e-01,-2.41109e-01,-2.06628e-01,-1.03109e-01,7.31342e-02,2.20009e-01,8.89075e-02,1.65732e-02,1.52632e-02,-8.79133e-02,-1.07068e-01,-1.86309e-01,-2.06458e-01,-2.89012e-01,-2.62006e-01,-1.57823e-01,-1.62324e-02,3.34953e-02,-4.67249e-02,-1.08207e-02,2.49075e-02,-8.95052e-02,-2.42580e-01,-2.18869e-01,-2.13903e-01,-2.54198e-01,-1.83198e-01,-1.96119e-01,-2.30434e-01,-1.34958e-01,-1.05833e-01,-3.10483e-02,2.32991e-02,1.03878e-01,8.35446e-02,9.60614e-02,1.65493e-02,-3.17507e-03,-4.93595e-02,-1.38570e-01,-9.69437e-02,-2.61300e-01,-1.74490e-01,-8.06279e-02,4.69882e-02,1.51647e-02,-2.45979e-02,4.84579e-02,2.50904e-02,3.69671e-02,-1.68914e-01,-1.65591e-01,-2.96967e-01,-2.21433e-01,-2.57233e-01,-1.09801e-01,-4.44849e-02,-1.02832e-01,-8.91378e-02,-2.95453e-02,-2.06042e-02,6.38134e-02,6.09142e-02,7.62635e-02,9.32627e-02,3.55629e-02,2.30244e-02,-5.07955e-02,-1.72104e-01,-1.53608e-01,-1.74547e-01,7.72498e-02,5.27914e-02,-1.00948e-01,-1.05586e-02,-8.20237e-03,-1.17762e-02,3.62939e-02,1.78099e-02,-8.85307e-02,-1.61556e-01,-1.31109e-01,-2.05733e-01,-2.12896e-01,-1.54542e-01,-1.26576e-01,-6.64174e-02,-4.39425e-02,-1.11231e-02,-6.11457e-02,-1.19348e-02,9.93973e-03,5.55731e-02,-6.69701e-02,-1.22867e-01,-2.59247e-01,-2.17896e-01,-1.89467e-01,-2.52820e-01,-1.98384e-01,-6.67058e-02,1.51038e-01,-4.57259e-03,-5.19677e-03,-3.08534e-02,1.35672e-01,9.45170e-02,-4.37586e-02,-1.56463e-01,-1.34672e-01,-8.42493e-02,-2.10253e-02,-2.27290e-02,-3.18429e-02,9.05827e-02,6.49196e-02,-4.68742e-02,-9.52097e-02,9.06710e-02,2.28707e-02,-4.20964e-04,-1.44825e-01,-1.73870e-01,-2.08202e-01,-1.27524e-01,-1.62981e-01,-2.16216e-01,-9.39500e-02,-6.78616e-02,9.22639e-02,3.07719e-02,-7.54502e-03,2.50323e-02,4.91248e-02,4.98681e-02,-7.77148e-02,-1.07911e-01,-1.33231e-01,-3.02081e-02,-2.59461e-02,3.68322e-02,1.07116e-02,-1.46775e-02,1.59635e-01,8.92922e-02,1.29557e-01,1.16822e-01,1.05807e-01,2.22092e-02,2.87346e-03,5.02114e-02,-6.00712e-02,3.70547e-02,6.12474e-02,-1.22088e-01,5.17109e-02,-2.76387e-02,1.76951e-02,2.97168e-02,-3.26318e-02,2.85635e-02,2.20867e-02,1.79524e-02,-2.23808e-02,-1.62773e-01,-6.96571e-02,-6.14545e-02,9.61147e-02,5.70301e-02,3.76359e-02,-3.25655e-02,-2.90065e-02,4.51843e-02,1.37268e-01,2.55145e-01,5.06725e-02,-7.07409e-02,6.15403e-02,1.82065e-01,1.44307e-01,2.13705e-02,1.61606e-01,1.86168e-03,-1.12066e-01,2.72578e-03,-6.52748e-03,-1.39736e-02,-1.87359e-02,-1.69502e-02,1.45243e-02,-1.66728e-02,4.48385e-02,7.70393e-02,-3.99267e-02,-6.27166e-02,-5.07862e-02,-9.69377e-02,-4.21337e-02,-1.61423e-01,-5.55669e-02,3.98218e-02,1.72033e-01,6.16944e-02,6.21603e-02,5.69643e-02,5.42749e-02,-6.00870e-02,1.72420e-02,1.28694e-01,1.95074e-01,9.23804e-02,2.03893e-03,-3.04611e-02,-2.40916e-02,-1.37353e-03,
6.71898e-04,2.75068e-02,-2.52327e-02,3.04913e-02,2.15982e-02,-1.18374e-02,8.73532e-04,-2.85457e-02,2.07560e-02,-2.28887e-02,2.26260e-02,-7.40334e-03,4.73616e-03,2.04916e-02,-1.58611e-02,1.49073e-02,2.95115e-03,1.72845e-03,-2.64154e-02,3.47618e-02,-2.09200e-02,-3.28252e-02,1.50480e-02,1.22491e-02,2.52246e-02,3.21787e-02,-7.66418e-03,-2.12507e-03,-2.35872e-02,-3.52935e-02,-1.92975e-02,-2.94447e-02,-8.00133e-04,-2.93641e-02,-2.75441e-02,2.20604e-02,1.59187e-02,-1.19050e-02,-1.16295e-02,-1.83329e-02,3.46229e-02,1.34651e-02,-6.58019e-03,-7.87681e-03,-3.19283e-02,4.70092e-03,-1.65370e-02,3.25283e-02,-2.58377e-02,-5.34090e-03,1.55892e-02,-3.30445e-02,-1.72707e-03,6.75645e-03,-2.55911e-02,4.55738e-03,3.15494e-02,-3.02169e-02,2.78443e-02,3.30395e-02,-5.30007e-03,-1.06013e-02,2.16358e-02,1.29544e-02,-3.02837e-02,-7.17010e-03,-6.13278e-03,-2.68046e-03,2.38206e-04,-1.46309e-02,-1.29573e-02,-1.73493e-02,1.14232e-02,6.13565e-03,7.56478e-03,-8.55411e-03,1.15425e-02,-8.31793e-03,3.40289e-02,-2.48621e-02,2.61119e-02,-2.49167e-02,-1.48671e-03,3.35249e-02,3.01058e-02,1.94461e-03,7.46585e-03,-1.60178e-02,2.35524e-03,1.49997e-02,2.96687e-02,7.01098e-03,-3.51357e-02,-2.89239e-02,2.77749e-02,-8.28137e-03,-2.46557e-02,-8.37725e-03,1.44459e-02,-2.99454e-02,2.63842e-03,1.28498e-03,-2.15314e-02,-2.81765e-02,-3.31551e-03,-5.87617e-04,1.51878e-02,5.44954e-03,-2.85603e-02,-2.49020e-02,-8.76895e-03,2.82218e-02,6.87401e-03,-1.48195e-02,3.09842e-02,4.20340e-03,-2.29247e-02,2.64617e-02,-2.31424e-02,1.61116e-02,-1.06485e-02,9.99940e-04,-3.36824e-02,-1.99118e-02,-9.54897e-03,-8.22014e-03,-3.06456e-02,8.87485e-03,-5.10778e-03,7.91961e-03,-2.75048e-02,-7.00674e-03,2.69294e-02,-2.29695e-02,-1.86404e-02,-2.38777e-02,1.21037e-02,2.03431e-02,3.17392e-02,4.67876e-03,-3.11931e-02,1.63402e-02,5.87915e-04,3.29841e-02,5.99649e-03,1.55311e-02,-3.29649e-03,-2.12113e-02,-1.62964e-02,2.30755e-03,-1.31415e-03,-3.38923e-02,-3.76367e-03,-1.92319e-02,-7.57655e-03,-1.08618e-02,-3.64503e-02,-2.62275e-02,-1.34113e-02,-4.21007e-02,-9.60023e-03,-1.80317e-02,9.55113e-03,-1.52479e-02,-3.12921e-02,-1.62764e-02,-1.35713e-02,-6.77965e-03,1.97255e-02,-2.45946e-02,3.25164e-03,-1.45882e-02,-3.18047e-02,3.31549e-02,1.82679e-02,-2.21274e-02,-3.05988e-03,-5.26966e-02,6.32126e-03,-3.07601e-02,-1.24009e-03,-3.58289e-02,-3.53974e-02,-2.16573e-02,-3.42061e-02,-6.61528e-04,-4.65718e-02,1.34468e-02,6.30586e-03,-2.40710e-02,-1.90204e-02,-9.88900e-03,3.38252e-02,9.97063e-03,-2.13467e-02,1.83358e-02,1.49873e-02,-1.90442e-02,-4.19359e-03,-3.40788e-02,1.90316e-02,-1.53987e-02,6.49718e-03,2.88422e-02,-2.90566e-04,1.17531e-02,-3.06160e-02,-3.08390e-02,8.33046e-03,7.54366e-03,2.07398e-03,-8.42869e-04,2.47326e-02,-3.11579e-02,-1.30923e-02,-1.76414e-02,-7.08382e-03,-9.86447e-03,-2.83109e-03,-3.55871e-02,-1.04772e-02,-2.00690e-03,-2.69573e-02,2.79079e-02,-1.79860e-02,-7.82167e-03,-2.18145e-02,-6.92149e-03,1.99290e-02,-2.86516e-02,-1.34773e-02,-2.06048e-02,7.76406e-04,-2.44091e-02,1.44290e-02,3.09691e-03,-5.43193e-02,-3.35392e-02,-3.31030e-02,-3.00244e-02,-4.03470e-02,-3.80323e-02,1.60246e-02,-3.71529e-02,-2.06630e-02,-2.36759e-02,1.10597e-02,-2.09302e-02,1.74970e-02,2.51727e-02,-1.51691e-02,1.34006e-02,2.30934e-03,5.76131e-03,9.85553e-03,-2.90975e-02,-6.61584e-03,-3.30723e-02,-1.58127e-02,-2.81536e-02,-1.00127e-02,-3.47952e-02,-1.86680e-02,-2.45972e-02,-2.87844e-02,-2.78502e-02,-3.78303e-02,-4.38419e-02,1.42717e-02,-2.34864e-02,-1.46252e-02,2.03431e-02,-1.29406e-02,-8.65339e-03,-1.27652e-03,-3.39896e-02,8.43472e-03,-3.23523e-03,-3.34022e-02,5.47707e-03,-2.31160e-02,5.42282e-03,-2.18255e-02,3.24319e-02,-2.21039e-03,2.02798e-02,2.02099e-02,1.11140e-02,5.28741e-03,-3.82403e-02,6.24384e-03,-3.67112e-02,-1.75101e-02,-8.16689e-03,2.43320e-02,2.38726e-02,-4.18617e-02,-2.52851e-02,1.62307e-02,8.09318e-03,-1.08859e-02,4.43972e-03,-1.79747e-02,2.52488e-02,-1.10256e-03,-2.74678e-02,2.81084e-03,3.17448e-02,2.33994e-02,-1.28740e-02,1.87520e-02,-1.87833e-02,2.77248e-02,-1.50795e-02,2.97016e-04,-5.05131e-03,-3.25019e-02,-3.11614e-02,-3.04306e-02,-3.72745e-03,1.97026e-02,-3.99251e-02,-1.75502e-02,-1.19267e-02,-6.01736e-02,1.05570e-02,-2.41454e-02,1.24872e-02,1.16833e-02,-1.09547e-02,2.51431e-03,-2.41155e-03,-7.54246e-04,-1.99542e-02,1.69520e-02,-3.11643e-04,1.20051e-02,-3.61985e-03,1.98103e-02,1.24531e-02,3.06438e-02,1.34104e-02,-1.94998e-02,9.89245e-03,-1.49727e-02,-3.16636e-02,1.10756e-02,-2.75672e-02,-2.02579e-02,-1.59087e-02,-4.56361e-02,-7.97187e-03,6.56795e-03,-2.38566e-02,-7.87047e-03,-2.76294e-02,-1.65579e-02,2.58497e-02,-3.42241e-02,1.08859e-02,1.47233e-02,-4.34319e-03,1.46895e-02,-2.27807e-02,3.23219e-03,1.96055e-02,2.89823e-02,2.26827e-02,-9.29184e-03,-2.29494e-02,1.45782e-02,2.30424e-02,1.91403e-03,-1.29609e-02,6.55891e-03,-4.15369e-02,8.65907e-03,-1.26603e-02,-3.57994e-02,-1.75773e-02,-4.25134e-02,-6.19446e-02,-1.16824e-02,1.03194e-02,1.66890e-02,-2.00991e-02,-2.86509e-03,1.63126e-03,2.60027e-02,-1.81132e-02,2.47755e-02,-1.60820e-02,-2.28575e-02,-4.24048e-03,1.12430e-02,-2.75031e-02,-1.41293e-02,-3.50570e-02,-3.81165e-02,-1.32151e-02,1.76124e-02,2.29179e-02,2.11411e-03,-1.64036e-02,-4.00648e-02,-2.74182e-02,-1.78028e-02,-5.61925e-02,-2.36474e-02,4.06910e-03,-1.34982e-03,-3.03851e-02,-2.10058e-02,-3.43787e-03,1.97319e-02,2.32219e-02,2.25680e-02,-5.57502e-03,-1.83001e-02,-5.09414e-03,2.63777e-02,2.96597e-02,2.98831e-02,-2.22932e-02,-6.96854e-03,-1.30206e-02,-1.34698e-02,2.52644e-02,-3.14210e-02,-2.35831e-02,-4.86954e-02,-3.55063e-02,5.89377e-03,-6.12075e-04,-3.92775e-03,-2.46352e-02,-1.29963e-02,-5.05931e-02,-7.99216e-03,-6.32206e-02,8.33889e-03,-9.07692e-03,-4.30430e-04,6.14244e-03,-3.42108e-02,8.19289e-03,-2.23312e-02,1.84210e-03,-7.59025e-03,-3.24887e-02,-5.11818e-03,-8.39001e-03,-5.84117e-03,-2.32036e-02,-8.72133e-03,-4.63732e-02,1.84152e-02,6.25649e-04,1.22477e-02,8.66662e-04,1.50456e-02,-2.93395e-03,-1.90980e-02,-1.82435e-02,-3.22153e-02,-2.20122e-02,-2.03932e-03,-1.17141e-03,-2.56636e-02,1.53042e-02,-3.94241e-02,-2.46444e-02,-2.61581e-02,-1.75225e-02,-4.63635e-03,-1.95390e-02,-3.15702e-02,-5.35814e-03,1.89791e-02,1.24282e-02,-3.09974e-02,-3.74425e-02,7.00960e-03,-6.08074e-03,-2.21455e-02,-2.11345e-02,-3.12409e-02,1.27449e-02,-1.16084e-02,-4.38969e-02,-3.10675e-02,-2.09202e-02,1.52116e-02,-3.12679e-02,-6.39864e-02,-4.44956e-02,2.47162e-02,-1.77441e-02,-1.47623e-02,1.61851e-02,-3.51856e-02,-3.51245e-02,3.12992e-02,1.00460e-02,2.72864e-02,1.32871e-02,-1.98803e-02,5.45710e-03,9.86598e-03,1.84339e-02,-4.19560e-02,1.05212e-02,-3.31068e-02,-3.51275e-02,-2.45545e-02,-7.84650e-03,-7.80908e-03,-2.35267e-02,-1.33914e-02,-3.10775e-02,-2.87293e-02,-1.30493e-02,-5.67320e-02,-1.84676e-02,-2.99996e-02,-3.44271e-02,-2.56594e-03,1.95825e-02,-6.78599e-03,2.48803e-02,-1.72571e-02,1.90980e-02,-1.35465e-02,-1.45376e-02,3.12902e-02,1.64076e-02,-2.47844e-02,-1.75344e-03,4.23467e-03,4.66720e-04,-1.91143e-02,-4.11233e-02,-1.47901e-03,3.06918e-03,-2.73077e-02,-1.14025e-03,-3.63378e-02,2.05012e-02,1.15757e-02,8.39482e-03,-1.75355e-02,-5.36120e-02,9.47424e-03,1.35345e-02,1.71443e-02,-3.53226e-02,2.68917e-02,3.37978e-02,2.63596e-02,-1.60220e-02,-1.28634e-02,2.55433e-02,1.21732e-02,2.27408e-02,8.16729e-03,-1.03196e-02,1.16135e-02,-4.19435e-02,5.38104e-03,2.20839e-02,1.63778e-02,1.87494e-02,-3.47299e-02,-4.44926e-02,-2.74192e-02,-2.85889e-03,-4.48308e-02,-2.26429e-02,-6.44311e-03,2.91611e-03,-1.22215e-02,-2.64095e-02,-2.48932e-03,2.48699e-03,-1.62579e-02,-3.21541e-02,2.68749e-02,-2.42887e-02,-2.37769e-02,-3.03916e-02,-2.24944e-02,5.02741e-03,2.10730e-02,-1.45587e-02,2.73619e-02,-2.12361e-02,-1.16186e-02,-1.64129e-02,-1.14835e-02,-2.48118e-02,-1.97865e-02,-2.33917e-02,2.95759e-02,-3.31882e-02,-2.22314e-02,8.40462e-03,-5.20618e-02,3.60972e-02,2.12681e-03,3.01523e-02,-5.75458e-03,3.12023e-02,1.70901e-02,-1.27698e-02,-2.62290e-02,-3.12587e-02,-1.88242e-02,-2.51515e-03,-2.63872e-02,1.51770e-02,2.45963e-02,-4.12331e-02,1.29157e-02,-4.04221e-02,-2.54918e-02,-1.00761e-02,-5.58206e-02,-3.39590e-02,-4.31019e-02,-4.83889e-02,-1.36649e-02,-3.24467e-02,-2.81702e-02,-2.60304e-02,1.70064e-02,-1.61089e-02,-7.42999e-03,-2.44805e-02,-3.20979e-02,3.46480e-02,1.40532e-02,-3.16449e-02,-7.68806e-04,-3.31102e-03,-1.13820e-03,1.15933e-03,-2.42433e-02,1.31789e-02,-1.51830e-02,-1.85337e-02,-1.09824e-02,-2.08821e-02,-1.00417e-02,9.18585e-03,-1.56459e-02,9.02030e-04,-1.06930e-02,-1.13245e-02,-2.66480e-02,-3.22561e-02,-5.09443e-02,-9.52305e-03,-2.62770e-02,-1.51462e-02,1.58210e-02,-1.83279e-03,2.51308e-02,3.50235e-02,1.52832e-02,-3.01433e-02,2.26917e-03,-9.99753e-04,2.67374e-02,2.15157e-02,1.94409e-02,-3.55662e-02,3.36557e-02,-7.40125e-03,-8.48083e-03,-3.09128e-02,-3.35337e-02,-1.97375e-02,-2.69427e-02,2.50172e-02,2.29205e-02,-1.11430e-02,-1.75382e-02,-2.91404e-02,4.73548e-03,2.25157e-02,-1.54371e-02,1.67381e-02,7.01695e-03,-7.04017e-03,-2.45522e-02,2.76856e-03,-2.77779e-02,-2.26928e-02,3.37785e-02,-3.38395e-02,3.14513e-02,2.31107e-02,3.27239e-02,-2.48181e-02,-1.14453e-02,1.62041e-02,2.90985e-02,6.30254e-03,7.65931e-03,-1.04527e-02,1.55068e-03,2.56296e-02,1.26124e-02,1.76676e-03,-2.65119e-02,2.46025e-02,-2.84198e-02,4.51631e-03,2.36347e-03,-8.98175e-03,3.61074e-02,8.39546e-03,-4.66934e-03,-2.96604e-02,-5.94192e-03,-2.20700e-02,1.38747e-03,7.72979e-03,-9.40029e-04,2.65503e-02,2.53608e-02,-3.97799e-03,2.60068e-02,-1.96066e-02,2.13522e-02,-3.31615e-03,-8.87987e-03,-4.61872e-03,1.14172e-02,-2.55311e-02,-1.66074e-02,2.27074e-02,-2.09953e-02,-1.79527e-02,-1.71069e-02,2.54199e-02,-1.13772e-02,2.82792e-02,-3.06294e-02,-2.58530e-02,2.83549e-02,2.38201e-03,-6.57774e-03,-1.16039e-02,1.37903e-02,9.06097e-03,-7.19786e-03,-2.44215e-02,8.78537e-03,2.93713e-02,2.90317e-02,1.30456e-02,-6.78306e-03,-2.06726e-02,1.79737e-03,1.01024e-02,9.94312e-03,3.12990e-02,-4.31536e-03,3.72264e-03,2.70988e-02,-2.92176e-02,-1.56060e-02,1.98458e-02,-6.27567e-03,1.28338e-02,-7.68773e-03,8.68126e-03,1.86946e-03,-2.22686e-02,-2.88366e-02,3.32312e-02,2.23512e-02,3.05099e-03,
-2.96696e-02,-3.33690e-02,3.31393e-02,-1.22216e-02,6.94177e-03,-8.73597e-03,-1.60810e-02,3.37092e-02,-2.71524e-02,2.55131e-02,-2.84744e-03,-2.34278e-02,1.28479e-01,1.42903e-01,1.56871e-01,1.10016e-01,-2.83616e-02,-2.16599e-04,-2.12439e-04,3.55235e-03,9.05228e-03,3.45941e-02,-3.26972e-02,-2.63995e-02,2.54867e-02,1.66865e-02,5.41663e-03,1.86311e-03,3.10061e-02,-5.20915e-03,-2.89643e-02,5.83420e-03,4.70017e-03,1.78350e-02,1.55720e-01,1.62564e-01,8.02075e-02,-3.39932e-02,5.57565e-02,1.94949e-01,1.35501e-01,1.52744e-01,-2.78082e-02,1.19855e-01,1.70336e-01,2.03009e-01,1.54562e-01,1.35045e-01,2.39630e-01,2.05569e-01,1.13996e-01,1.40683e-01,1.00859e-02,7.63628e-03,2.93723e-02,7.29388e-03,-1.17056e-03,2.72919e-02,9.88691e-02,7.49184e-02,3.44909e-02,-9.93616e-03,1.20009e-01,2.12728e-01,1.82389e-01,1.15927e-01,2.16758e-01,3.41289e-01,2.57103e-01,8.03343e-02,1.50032e-01,2.00919e-01,1.86502e-01,1.64274e-01,1.53182e-01,5.99232e-02,5.76541e-02,2.13040e-01,2.01791e-01,8.82651e-02,9.46760e-02,5.70480e-02,-3.02471e-03,2.04052e-02,2.45716e-02,-2.36352e-02,-2.44684e-02,5.15046e-02,1.34141e-01,2.18887e-01,3.03674e-01,3.45844e-01,3.58561e-01,4.75258e-01,2.99432e-01,2.94728e-01,3.06993e-01,2.77796e-01,2.12789e-01,1.92332e-01,8.69826e-02,3.86799e-02,6.95344e-02,-9.19691e-02,-1.43480e-01,-7.88866e-02,4.06253e-02,2.74331e-01,2.83562e-01,-6.01112e-02,-2.63976e-02,9.08464e-03,5.40972e-04,-3.44018e-03,-6.65265e-02,1.63209e-03,1.48177e-01,2.35976e-01,1.99993e-01,2.28596e-01,2.16484e-01,3.27182e-01,2.64011e-01,1.05330e-01,1.05408e-01,1.88702e-01,2.20530e-01,9.78095e-02,1.34405e-01,6.78662e-02,7.98196e-02,1.11792e-01,1.26322e-01,2.77780e-02,-4.54894e-02,-3.66752e-03,-1.42578e-01,-2.01479e-01,-1.97207e-01,-1.39415e-01,2.99634e-02,1.74395e-02,6.88288e-02,4.06592e-02,6.86093e-02,-4.73037e-02,1.50855e-01,1.09369e-01,1.99434e-02,9.62697e-02,1.12331e-01,1.04040e-01,1.53516e-02,1.04504e-01,1.72505e-01,1.99835e-01,1.66024e-01,1.65403e-01,1.22266e-01,1.62070e-01,1.23855e-01,8.32170e-02,-6.19480e-02,-3.72264e-02,-9.57374e-02,-3.08028e-01,-1.87100e-01,-1.41923e-01,6.17534e-03,1.17733e-01,-6.60607e-02,5.31927e-02,-1.50348e-03,-7.10545e-02,-7.84056e-02,-7.56025e-02,-1.59543e-01,-4.54081e-02,1.14986e-03,5.92373e-02,-7.31950e-02,-2.46623e-02,1.29140e-01,8.44730e-02,3.71526e-02,-2.37097e-03,-2.13303e-02,4.50261e-02,3.62747e-02,-5.50993e-02,-9.41518e-02,-1.29961e-01,-2.17305e-01,-1.09995e-01,-2.17839e-01,-1.86318e-01,2.52792e-02,1.99879e-01,3.08325e-02,-1.76875e-01,-7.30596e-02,-1.03891e-01,-1.14662e-01,-1.35554e-01,-7.99422e-02,4.24779e-02,8.23805e-02,-1.60020e-02,-4.00484e-02,-4.21783e-03,4.73737e-02,2.59371e-02,-6.84370e-02,1.73266e-02,-5.08402e-02,-4.01418e-02,-1.36700e-01,-1.07117e-01,-8.66551e-02,-2.44443e-01,-2.42344e-01,-8.95036e-02,-2.92533e-01,-2.36149e-01,6.05425e-03,9.89856e-02,1.06064e-02,-1.67554e-01,-4.78179e-02,-5.63040e-02,-5.56399e-02,7.76805e-02,1.97300e-02,7.23550e-02,2.40857e-02,-5.68222e-02,-2.38265e-02,7.28715e-02,-5.05006e-03,-2.06048e-02,-1.01258e-01,1.31142e-02,-1.01639e-01,-1.17582e-01,-7.98900e-02,-1.43829e-01,-1.85385e-01,-2.71186e-01,-3.53757e-01,-7.22845e-02,-5.78881e-02,-1.16389e-01,-2.36488e-02,-2.61480e-02,-9.24351e-02,-8.86621e-02,-2.19729e-02,4.05796e-02,1.74668e-02,7.37293e-02,6.39227e-02,1.27853e-03,-6.83138e-02,3.69640e-02,3.91527e-03,-6.47482e-02,6.08130e-02,4.60807e-02,-1.32188e-01,-1.53931e-01,-1.15959e-01,-1.45818e-01,-1.03667e-01,-9.56790e-02,-1.39584e-01,-2.76898e-01,-1.92647e-01,-1.66059e-01,-6.78287e-02,-5.94927e-02,6.07530e-03,-3.93809e-02,-7.21517e-02,-8.49311e-02,-9.25595e-03,-2.07009e-02,2.28725e-02,-1.26014e-02,2.95265e-02,2.02811e-02,1.91878e-02,2.64088e-02,-1.90411e-02,-1.13282e-02,5.89796e-02,4.73298e-02,-1.08109e-01,-8.92586e-02,-1.37363e-01,-1.29196e-01,-6.35755e-02,-4.56369e-02,-9.14417e-02,-3.18471e-02,-4.13124e-02,-2.94641e-01,-1.10930e-01,-1.07882e-01,5.72756e-03,2.34211e-02,1.11985e-01,1.92065e-02,2.44214e-02,-6.09971e-02,1.43693e-02,-2.54242e-02,2.02139e-02,-1.87544e-02,-6.54902e-02,-9.06614e-02,-9.66859e-02,-5.22328e-02,6.61666e-02,-5.14145e-02,-3.57222e-02,-6.10130e-02,-6.84959e-02,-3.61467e-02,8.35900e-03,5.47009e-03,9.65895e-02,1.97190e-01,4.63884e-02,-1.17304e-01,-2.47232e-01,-1.34803e-01,-1.73097e-02,-1.03134e-02,-1.32318e-01,-9.14691e-02,-9.85861e-02,-1.70077e-01,-6.83582e-02,-1.17631e-01,-2.20052e-02,-5.70781e-02,-7.34496e-02,-1.18225e-01,-2.22393e-01,-1.22442e-01,1.57207e-01,1.70237e-02,2.06326e-02,-6.28894e-03,-1.29112e-01,-5.99340e-02,1.17193e-02,5.08138e-02,8.96881e-02,1.30571e-01,3.49533e-01,1.35797e-01,-6.03441e-02,-1.30704e-02,1.49137e-01,-2.16426e-02,-8.44493e-02,-8.10241e-02,-1.20534e-01,-9.90945e-02,-1.38395e-01,-1.35682e-01,-5.42435e-02,-8.15637e-02,-9.70628e-02,-1.23605e-01,-1.10231e-01,7.59438e-02,1.72542e-01,6.32210e-02,5.69774e-02,-1.48063e-02,-5.90720e-02,1.23656e-02,2.67258e-02,9.34254e-02,1.73350e-01,2.39799e-01,2.26357e-01,2.45146e-02,1.22727e-01,2.87225e-02,-1.22291e-01,-9.94828e-02,-5.63219e-02,-5.61383e-02,-1.92470e-01,-1.87840e-01,-9.34039e-02,-1.37062e-01,-1.39030e-01,-6.81029e-02,-1.67343e-02,-3.11627e-02,-2.70631e-02,1.39242e-01,1.15684e-01,7.88108e-02,3.45926e-02,-1.35553e-01,-5.07172e-02,-5.66308e-03,2.47909e-02,1.64178e-01,1.84242e-01,1.89630e-01,1.72563e-01,6.14978e-02,2.28421e-01,5.40835e-03,-7.43571e-02,-8.33572e-02,-9.21882e-02,1.09075e-01,-1.31392e-01,-1.59168e-01,-1.13607e-01,1.39603e-03,-2.91133e-02,-4.79955e-02,5.98494e-03,4.57832e-02,-1.60847e-02,1.72460e-01,1.32685e-01,4.70993e-03,-3.17545e-02,-1.38601e-01,-3.41681e-02,1.65460e-02,6.13697e-02,6.59185e-02,1.41692e-01,6.56388e-02,1.34895e-01,2.42590e-01,1.23207e-01,1.05670e-01,1.94029e-02,-7.65108e-02,6.50122e-02,1.15746e-01,-1.88157e-02,-4.46069e-03,-1.55385e-02,1.29393e-02,3.16904e-03,1.44725e-01,1.20109e-01,1.74073e-01,1.88178e-02,3.80178e-02,7.72531e-02,-2.23167e-02,-9.38870e-02,-9.37090e-02,-2.95458e-02,-2.14462e-02,-7.46746e-04,3.63048e-02,7.26853e-02,1.44800e-01,1.42748e-01,3.29604e-01,9.88475e-02,6.83035e-03,-1.90106e-02,-6.32351e-02,9.50951e-02,4.17010e-02,5.23736e-02,5.51565e-02,-3.23277e-03,-6.30741e-02,2.11371e-03,6.14444e-02,1.29642e-01,6.75499e-02,2.32050e-03,-8.82380e-02,2.02003e-02,-3.78497e-02,-2.61546e-02,6.59879e-02,3.42838e-02,-7.32610e-04,2.64211e-02,3.37940e-02,8.19340e-02,1.76725e-02,3.46081e-02,2.44557e-01,8.18077e-02,1.41779e-01,-1.14560e-02,-6.79132e-02,6.80631e-02,-8.87900e-03,8.76423e-03,9.25898e-02,1.08752e-02,8.53568e-02,2.23201e-02,4.92776e-02,4.88735e-02,3.96623e-02,-4.00441e-02,1.21945e-02,5.23633e-02,3.55040e-02,7.33204e-02,1.09240e-01,1.10568e-01,8.98198e-02,3.85079e-02,7.30984e-02,1.00833e-02,1.06589e-01,2.33290e-01,1.58394e-01,1.18909e-01,1.63455e-01,2.48128e-02,-1.50945e-01,4.43135e-02,3.39829e-02,9.03474e-02,1.08108e-01,5.97659e-02,1.08223e-01,9.75682e-02,1.20576e-01,1.28298e-01,1.60579e-01,1.30386e-01,8.53477e-02,6.16355e-02,5.72286e-02,1.14204e-01,1.12272e-01,1.16279e-01,6.60112e-02,7.94639e-02,5.06874e-02,6.22205e-02,1.50082e-01,8.75459e-02,-2.29689e-02,1.68437e-01,-2.61883e-02,3.40300e-02,-1.55762e-01,1.03683e-01,1.50473e-01,2.64345e-01,2.07324e-01,1.50876e-01,2.30846e-01,1.81331e-01,1.58615e-01,1.69191e-01,2.01944e-01,1.39346e-01,9.60473e-02,1.48653e-01,2.95608e-02,-1.27446e-02,5.56811e-04,1.11830e-01,8.70989e-02,8.20210e-02,7.98327e-02,2.35953e-02,1.67238e-01,2.73901e-02,-8.70982e-02,1.08911e-01,1.14100e-01,3.82004e-02,8.58152e-02,5.11133e-03,1.39683e-01,2.01154e-01,2.00351e-01,1.98913e-01,2.34057e-01,9.60979e-02,1.97742e-01,1.78611e-01,6.11752e-02,8.59122e-02,2.02157e-01,1.34713e-01,8.51484e-02,2.11342e-03,7.21054e-02,1.55676e-01,7.65163e-02,-1.23745e-03,-1.49868e-01,-2.76089e-02,1.19206e-01,-5.37995e-02,1.03858e-02,7.34289e-02,-1.09435e-01,2.45506e-02,7.78401e-02,3.63953e-02,6.58998e-02,2.36280e-01,1.85152e-01,1.55634e-01,1.19933e-01,1.21034e-01,9.42671e-02,1.11442e-01,2.63543e-02,-2.29916e-02,6.82368e-02,-2.87351e-02,6.02449e-02,-4.86877e-03,1.91926e-02,-2.56446e-02,-9.76868e-02,-4.47266e-02,-1.94794e-01,-1.15682e-01,8.54955e-03,-1.69781e-01,4.43477e-02,1.50516e-01,-7.37564e-02,-3.14046e-02,-6.70395e-03,2.07188e-01,1.34914e-01,-7.31993e-03,1.30514e-01,8.06531e-02,1.08823e-01,9.71296e-02,6.03328e-02,-4.65048e-02,-3.62160e-02,-8.75194e-02,-1.47159e-01,-1.44391e-01,-6.49389e-02,-1.31617e-01,-1.60508e-01,-2.04355e-01,-2.88764e-01,-2.62319e-01,-2.10905e-01,-8.98330e-02,3.15949e-03,-2.79737e-01,8.89875e-03,5.37845e-02,-3.25697e-02,-1.03780e-02,8.18388e-03,2.42149e-02,-5.24334e-02,-2.01527e-01,-1.69316e-01,-1.47886e-01,-4.57991e-02,2.71686e-03,-1.61646e-02,-1.72408e-02,4.76049e-02,-7.25817e-02,-1.29862e-01,-1.63746e-01,-2.18165e-01,-1.70314e-01,-1.71897e-01,-3.47619e-01,-4.65560e-01,-3.01170e-01,-3.18351e-01,-2.27559e-01,-2.12175e-01,-5.40704e-02,1.45320e-01,1.77184e-01,-3.01423e-02,-1.45259e-02,1.20509e-03,4.60483e-02,-4.56212e-02,-1.72584e-01,-3.35549e-01,-3.31777e-01,-3.16447e-01,-4.32499e-01,-2.59636e-01,-3.25162e-01,-3.57565e-01,-4.10164e-01,-4.55781e-01,-3.35725e-01,-4.37618e-01,-4.48547e-01,-2.82970e-01,-3.03989e-01,-3.08378e-01,-2.81738e-01,-2.63087e-01,-2.40103e-01,-1.50115e-01,-2.07024e-01,1.47170e-01,1.39725e-01,1.09320e-02,-4.88852e-03,-1.95431e-02,-3.03652e-02,4.36368e-03,3.25655e-02,-1.07950e-01,-1.30172e-01,-1.02004e-01,-2.38276e-02,-6.56529e-02,-1.92752e-01,-2.34461e-01,-1.92718e-01,-1.30704e-01,-1.70469e-01,-2.00730e-01,-5.15579e-02,-3.21032e-02,-2.50221e-02,6.26440e-02,-2.10931e-02,-8.21978e-03,-5.68034e-02,-4.21479e-02,2.65716e-02,-2.99624e-02,1.04769e-02,2.83636e-02,-1.60237e-02,-1.89481e-02,2.66913e-02,-6.65210e-03,-6.57591e-03,-2.95814e-02,1.52894e-02,2.41569e-03,-1.82435e-02,2.66234e-03,3.64624e-02,-3.42994e-02,-8.47037e-04,-5.71606e-03,1.42153e-02,1.70999e-02,5.28654e-02,5.94290e-02,4.09327e-02,4.61986e-02,-3.55839e-02,-6.17225e-02,-4.39695e-02,2.64836e-03,1.63479e-02,-2.60893e-02,-3.28685e-02,5.81025e-03,
-2.83583e-03,3.54694e-02,9.42278e-03,1.24535e-02,-2.09784e-02,-3.54477e-02,1.28176e-02,3.12015e-02,1.07741e-02,2.82703e-02,-9.96953e-03,-3.09222e-02,1.52626e-02,-1.59369e-02,2.89794e-02,9.57953e-03,-9.35687e-03,2.93392e-02,-2.90111e-02,-2.44785e-02,2.31547e-04,3.09322e-02,2.25317e-02,-2.00737e-02,2.16505e-02,-1.40115e-02,3.11579e-02,-1.11726e-02,-1.91863e-02,2.74571e-02,-1.82423e-02,-4.87205e-03,-2.07649e-02,-1.73440e-02,-8.28201e-03,-3.98806e-02,-1.17009e-02,2.42554e-02,4.50934e-02,1.59741e-02,-1.93199e-02,-7.23678e-03,9.41439e-03,-1.54007e-02,1.54708e-02,-2.51795e-02,1.16374e-02,-8.66918e-03,-9.96923e-03,4.88003e-03,2.44280e-02,1.91441e-02,3.55332e-02,-3.86361e-03,3.06594e-02,1.57389e-03,-7.29677e-03,-2.75617e-02,-3.27119e-02,1.27439e-02,2.89071e-02,-3.02147e-03,-1.04805e-03,-4.68885e-02,-6.67618e-02,-4.75542e-03,2.34625e-03,-3.35961e-02,-1.46655e-02,-8.68792e-02,-8.14746e-02,2.03439e-03,-2.31382e-02,9.20901e-02,1.50459e-01,2.10505e-01,2.14338e-01,-2.62050e-02,-5.89962e-02,-4.47124e-02,-2.03305e-02,3.48557e-03,4.57183e-03,-1.40856e-02,1.68597e-02,3.39697e-03,2.81662e-02,2.99170e-02,1.19140e-01,1.40665e-01,1.04569e-01,-2.94725e-02,-5.67087e-02,-1.37459e-01,-6.79257e-02,-1.67687e-02,-6.26580e-02,2.88600e-02,6.24254e-03,-1.61323e-02,-3.20027e-02,1.85627e-02,3.91389e-02,1.20097e-01,9.72113e-02,1.77847e-02,3.78411e-02,-1.93614e-03,1.13763e-01,8.80049e-03,8.44452e-03,2.70015e-02,-2.73819e-02,1.08990e-01,7.53867e-02,1.70944e-01,-4.84225e-03,-8.46348e-02,1.09305e-01,1.23701e-02,5.29116e-02,1.46959e-01,-1.19332e-02,-9.19654e-03,4.99839e-02,6.17843e-02,1.95602e-02,6.70587e-02,2.95071e-02,7.11006e-02,1.43201e-01,4.44730e-02,-2.92322e-02,7.13274e-02,2.76887e-01,1.92165e-01,2.96250e-01,3.72567e-01,1.33375e-01,4.94587e-02,5.15422e-03,1.45993e-02,1.27325e-01,-7.35367e-02,1.47869e-01,1.80357e-01,9.89248e-02,-2.74660e-02,2.02689e-02,4.41719e-02,6.28424e-02,1.25829e-02,2.02673e-03,-1.11216e-02,4.52025e-03,-6.70822e-02,1.11354e-01,7.75536e-02,8.10499e-02,4.97457e-02,9.97915e-02,4.95876e-02,1.90056e-01,8.96086e-02,1.00206e-01,2.55065e-01,1.26960e-01,-4.93631e-02,-3.21914e-02,-1.62049e-02,2.59519e-01,9.08815e-02,7.06206e-02,3.18372e-02,7.16036e-02,1.28455e-01,6.67076e-02,1.06657e-01,4.32157e-02,-3.56063e-02,3.66807e-02,1.67566e-02,5.39824e-03,1.15842e-05,-1.41030e-02,6.88900e-02,5.85721e-02,1.82745e-01,2.41648e-01,1.31446e-01,7.79990e-02,5.02067e-02,8.48880e-02,2.44460e-01,2.99579e-01,3.03663e-01,1.61181e-02,6.93836e-02,2.71947e-01,1.15255e-02,6.54099e-02,1.57990e-01,1.08679e-01,1.02388e-01,1.19205e-01,9.04469e-02,9.98062e-02,3.28117e-02,-1.05202e-02,2.11027e-02,1.15146e-01,1.13075e-01,1.18166e-01,1.33253e-01,1.20355e-01,1.25906e-01,1.76472e-01,7.47650e-02,4.52192e-03,9.57351e-02,1.06745e-02,5.61155e-01,6.41593e-01,3.15837e-01,3.35341e-02,-2.18917e-02,1.83775e-01,2.42425e-01,1.10034e-01,5.40370e-02,6.17355e-02,4.45091e-02,9.74027e-02,3.15739e-02,6.91312e-02,3.45757e-02,3.34542e-02,4.54465e-02,6.00523e-02,7.56617e-02,3.03975e-02,-1.48720e-02,-2.08026e-02,-1.25369e-02,9.48727e-03,-8.09730e-02,-9.01753e-02,-2.01493e-02,1.45966e-01,3.26995e-01,3.95698e-01,1.40961e-01,1.21200e-02,-1.67090e-02,2.41193e-01,6.51998e-02,6.19569e-02,-7.74857e-02,-2.06252e-02,5.95868e-02,4.16848e-02,-1.69093e-02,-2.00115e-02,2.08939e-02,-1.69989e-02,5.10136e-02,-1.17427e-01,-1.38591e-01,-2.20334e-01,-2.61756e-01,-1.54000e-01,-2.03486e-01,-4.74147e-02,-1.81848e-01,-2.09189e-01,-1.58400e-01,2.42699e-02,8.62210e-02,1.91257e-01,1.56663e-01,-1.69393e-02,4.00020e-03,1.56352e-01,6.98995e-02,2.50818e-02,-1.11576e-01,-4.85257e-02,2.47581e-02,-1.50121e-02,-6.23254e-02,-3.44100e-02,-5.85706e-02,-2.28313e-02,-9.81778e-02,-2.00165e-01,-2.68402e-01,-2.48260e-01,-1.91066e-01,-1.92186e-01,-2.92557e-01,-1.99055e-01,-2.46390e-01,-3.01567e-01,-4.86709e-01,-2.85139e-01,-2.17823e-01,1.67897e-01,1.48444e-01,-3.38429e-02,6.17140e-02,-5.69765e-02,-3.41176e-02,7.30175e-02,-1.13536e-01,-9.33577e-02,-6.47525e-02,-8.49184e-02,-8.58964e-02,-3.71425e-02,-1.03543e-01,3.37666e-02,3.24509e-03,-9.14889e-02,-1.01439e-01,-9.66988e-02,-1.34186e-01,-1.58555e-01,-8.45598e-02,-3.21317e-01,-3.76866e-01,-4.45846e-01,-4.76701e-01,-4.04393e-01,-2.39163e-01,7.32039e-02,-1.37774e-02,-2.90243e-02,7.87966e-03,3.47878e-02,-1.15688e-01,8.87944e-02,-5.83116e-03,-9.33085e-02,-1.96177e-02,-5.51449e-02,-1.04710e-01,9.96617e-04,5.15006e-02,1.40889e-01,7.49017e-02,9.61747e-02,1.62334e-02,-2.41164e-02,-8.34410e-02,-9.00263e-02,-1.16678e-01,-1.70298e-01,-2.26920e-01,-2.80877e-01,-1.38947e-01,-3.06199e-01,-1.53170e-01,-2.49562e-02,-4.42765e-02,-5.27367e-02,-2.87009e-02,-4.19497e-02,-6.62261e-02,5.17486e-02,1.50250e-01,-3.16554e-02,5.37225e-02,-3.94898e-02,-3.41222e-02,1.06762e-02,9.31576e-02,1.41573e-01,9.52078e-02,3.02786e-02,-5.61961e-02,-8.02629e-02,-1.17500e-01,-1.23461e-01,-1.76158e-01,-1.70126e-02,-6.61859e-02,-1.24837e-01,1.58801e-01,-5.20345e-02,-1.58207e-01,-8.10263e-02,-1.13918e-01,1.34596e-01,6.65272e-02,7.15516e-02,-1.70242e-01,-1.94540e-02,4.21481e-02,5.39944e-02,2.38990e-02,1.05344e-01,3.40212e-02,5.62075e-02,2.99396e-02,8.51219e-02,9.62604e-02,4.42203e-02,-8.25026e-02,-1.53237e-01,-1.26723e-01,-1.49536e-01,-8.84235e-02,-5.29661e-02,-1.52800e-02,1.10997e-02,2.24321e-01,2.08797e-01,-1.75337e-01,-1.42837e-01,-1.19120e-01,1.22195e-01,1.14850e-01,-1.39233e-02,-1.89022e-01,-8.45682e-02,-4.04504e-03,6.48697e-02,8.39527e-02,1.33119e-01,1.55974e-01,6.71069e-02,9.21291e-02,3.02847e-02,-2.22350e-02,-4.26335e-03,-8.13465e-03,-1.06950e-01,-9.68736e-02,-8.90179e-02,-6.59601e-02,-3.90495e-03,9.95907e-02,7.93846e-02,1.87672e-01,1.25514e-01,-1.71376e-01,-8.16863e-02,-3.61214e-02,-1.81073e-02,9.74630e-02,4.95589e-02,-1.33081e-01,-5.66120e-02,-1.64486e-01,-1.65404e-01,-1.23297e-01,-2.60858e-02,1.20134e-01,8.06426e-02,6.25969e-02,4.11098e-02,2.05583e-04,-5.77156e-02,-7.08430e-02,-3.71431e-02,-9.34050e-02,-9.36469e-02,-3.33322e-03,2.04531e-02,8.53343e-02,1.01740e-01,7.92876e-02,1.54424e-01,-1.48150e-01,-2.89737e-02,-5.78947e-02,2.35844e-02,1.48496e-01,6.09016e-02,1.15603e-01,-1.36043e-02,-1.26952e-01,-2.67513e-01,-2.36523e-01,-3.12672e-01,-1.95665e-01,-1.81249e-02,-3.00399e-02,-1.58133e-02,-4.55730e-02,-7.84596e-02,-1.26351e-01,-3.16414e-02,-7.93762e-02,-5.02996e-02,4.33697e-02,6.59934e-02,1.12723e-01,7.85517e-02,-2.39625e-02,1.83175e-02,-3.32543e-01,-1.20237e-01,-1.63571e-02,2.30308e-04,1.29327e-01,-2.10066e-03,1.71235e-01,7.35301e-02,-1.02126e-01,-2.65202e-01,-3.45142e-01,-6.21578e-01,-6.50763e-01,-5.07160e-01,-5.88829e-01,-4.40870e-01,-2.64282e-01,-1.99980e-01,-1.81692e-01,-3.49407e-03,-5.28526e-02,7.10450e-02,1.16782e-01,1.39113e-01,1.46011e-01,7.60505e-02,1.05797e-01,1.87430e-01,-2.55957e-01,-5.78254e-02,1.22875e-04,1.96620e-02,1.35402e-01,1.12116e-01,4.78829e-02,-8.56429e-03,-1.14043e-01,-1.54660e-01,-2.88756e-01,-3.93524e-01,-5.50760e-01,-4.38463e-01,-5.47329e-01,-3.74390e-01,-2.77597e-01,-2.31060e-01,-8.59371e-02,3.23580e-02,3.82438e-02,9.27101e-02,1.20439e-01,1.34960e-01,4.00757e-02,6.27560e-02,2.28749e-01,2.47586e-01,-1.74310e-01,3.20707e-02,3.14564e-02,-2.04740e-02,8.85281e-02,1.50374e-01,8.19594e-02,6.09506e-04,-1.93516e-02,-1.10173e-01,-1.82383e-01,-4.77201e-02,-4.41655e-02,-7.09243e-02,-6.93731e-02,-7.37088e-02,-5.82801e-02,-6.12755e-02,5.69892e-02,5.58790e-02,3.91041e-02,6.80523e-02,5.20630e-02,1.21633e-01,7.75425e-02,8.67932e-02,2.12488e-01,1.26303e-01,-1.58776e-01,1.37119e-02,8.46591e-02,-4.35369e-02,1.28565e-01,8.60583e-02,2.32030e-01,1.46875e-01,-7.36221e-02,-7.40273e-02,1.39122e-02,-3.97553e-04,1.54865e-02,7.01661e-02,1.01342e-01,3.89668e-02,2.86485e-02,1.08665e-01,7.32958e-02,1.20292e-02,-3.52175e-03,-2.04974e-02,3.37487e-02,2.01812e-01,1.22958e-01,1.08254e-02,1.06224e-01,-2.73552e-02,-1.89195e-01,1.42073e-01,4.00335e-02,-4.92897e-02,3.03543e-02,6.72439e-02,2.25663e-01,2.20399e-01,-3.95072e-03,-1.11678e-01,-1.56146e-02,-4.88090e-02,-1.61698e-02,1.15095e-01,6.47567e-02,9.02752e-02,1.22772e-01,1.16771e-01,2.68950e-02,3.75074e-02,6.64360e-02,-1.77451e-02,1.93851e-04,1.03618e-01,-7.14135e-03,1.44760e-03,1.06297e-01,-1.89462e-01,-1.78694e-01,5.97132e-02,4.69788e-02,9.21735e-03,1.44571e-02,1.51415e-01,2.26234e-01,3.74078e-01,1.90621e-01,1.66304e-01,1.41659e-01,6.67439e-02,8.37764e-02,6.53863e-02,8.90545e-02,7.70529e-02,1.16817e-01,9.23680e-02,1.21804e-01,7.91607e-02,6.72570e-02,1.08065e-02,-4.47847e-02,3.57061e-02,-1.47925e-01,-1.03239e-01,-8.24223e-02,-2.39499e-01,-8.08925e-02,4.25782e-02,-1.25280e-02,-2.54424e-02,7.54722e-03,-7.65551e-02,1.10289e-01,3.17031e-01,3.80834e-01,3.67222e-01,3.09960e-01,1.14805e-01,1.63480e-01,1.63921e-01,1.85532e-01,1.21785e-01,3.91419e-02,1.17159e-01,3.72707e-02,7.02667e-02,2.88279e-02,4.41870e-02,-4.72407e-02,-5.24632e-02,-1.31026e-01,-6.67285e-02,-1.24641e-01,-2.34896e-01,-1.34568e-02,-3.87264e-02,2.09977e-02,-1.69223e-03,2.57845e-02,6.17964e-02,4.11235e-02,1.75204e-01,2.73536e-01,3.43105e-01,2.93187e-01,2.81313e-01,2.57055e-01,1.92388e-01,2.97379e-01,1.84528e-01,1.40691e-01,5.80797e-02,1.02670e-01,9.95781e-02,4.55374e-02,5.84815e-02,5.91986e-03,-4.06995e-02,3.16778e-02,1.18434e-01,2.63483e-02,-1.00714e-01,-2.51240e-02,1.43246e-02,2.78949e-02,-9.26259e-03,2.49505e-02,-2.22591e-02,-7.68581e-03,7.40633e-02,1.06232e-01,1.15130e-01,2.45375e-02,-1.40437e-01,-9.24772e-02,5.91731e-02,2.97168e-02,-3.67938e-02,6.43265e-02,7.89005e-02,1.53174e-01,1.49216e-01,1.10885e-01,1.56682e-01,-7.19411e-03,1.15606e-01,1.43624e-01,1.76415e-01,7.13568e-02,9.01585e-03,-8.61905e-03,2.32095e-02,-8.28562e-03,-2.94679e-02,7.35842e-03,-3.11274e-02,1.35225e-03,3.00289e-02,1.93150e-02,-3.54983e-02,-2.46620e-02,-2.56023e-02,-1.61471e-02,-7.80617e-02,-6.23952e-02,-1.47402e-02,1.32008e-03,-3.08691e-02,-1.11225e-01,-8.25500e-02,-4.42328e-02,-6.51884e-02,-7.55585e-02,-5.04205e-03,-6.27903e-02,-7.02880e-02,-1.08171e-02,9.04934e-03,-3.64215e-03,2.18873e-02,3.54344e-02,
