// Neural Network File Format by Kyle Julian, Stanford 2016
9,784,10,784,
784,80,80,80,80,80,80,80,80,10,
0,
-3.4028235e+38,-3.4028235e+38,-3.4028235e+38,-3.4028235e+38,-3.4028235e+38,-3.4028235e+38,-3.4028235e+38,-3.4028235e+38,-3.4028235e+38,-3.4028235e+38,-3.4028235e+38,-3.4028235e+38,-3.4028235e+38,-3.4028235e+38,-3.4028235e+38,-3.4028235e+38,-3.4028235e+38,-3.4028235e+38,-3.4028235e+38,-3.4028235e+38,-3.4028235e+38,-3.4028235e+38,-3.4028235e+38,-3.4028235e+38,-3.4028235e+38,-3.4028235e+38,-3.4028235e+38,-3.4028235e+38,-3.4028235e+38,-3.4028235e+38,-3.4028235e+38,-3.4028235e+38,-3.4028235e+38,-3.4028235e+38,-3.4028235e+38,-3.4028235e+38,-3.4028235e+38,-3.4028235e+38,-3.4028235e+38,-3.4028235e+38,-3.4028235e+38,-3.4028235e+38,-3.4028235e+38,-3.4028235e+38,-3.4028235e+38,-3.4028235e+38,-3.4028235e+38,-3.4028235e+38,-3.4028235e+38,-3.4028235e+38,-3.4028235e+38,-3.4028235e+38,-3.4028235e+38,-3.4028235e+38,-3.4028235e+38,-3.4028235e+38,-3.4028235e+38,-3.4028235e+38,-3.4028235e+38,-3.4028235e+38,-3.4028235e+38,-3.4028235e+38,-3.4028235e+38,-3.4028235e+38,-3.4028235e+38,-3.4028235e+38,-3.4028235e+38,-3.4028235e+38,-3.4028235e+38,-3.4028235e+38,-3.4028235e+38,-3.4028235e+38,-3.4028235e+38,-3.4028235e+38,-3.4028235e+38,-3.4028235e+38,-3.4028235e+38,-3.4028235e+38,-3.4028235e+38,-3.4028235e+38,-3.4028235e+38,-3.4028235e+38,-3.4028235e+38,-3.4028235e+38,-3.4028235e+38,-3.4028235e+38,-3.4028235e+38,-3.4028235e+38,-3.4028235e+38,-3.4028235e+38,-3.4028235e+38,-3.4028235e+38,-3.4028235e+38,-3.4028235e+38,-3.4028235e+38,-3.4028235e+38,-3.4028235e+38,-3.4028235e+38,-3.4028235e+38,-3.4028235e+38,-3.4028235e+38,-3.4028235e+38,-3.4028235e+38,-3.4028235e+38,-3.4028235e+38,-3.4028235e+38,-3.4028235e+38,-3.4028235e+38,-3.4028235e+38,-3.4028235e+38,-3.4028235e+38,-3.4028235e+38,-3.4028235e+38,-3.4028235e+38,-3.4028235e+38,-3.4028235e+38,-3.4028235e+38,-3.4028235e+38,-3.4028235e+38,-3.4028235e+38,-3.4028235e+38,-3.4028235e+38,-3.4028235e+38,-3.4028235e+38,-3.4028235e+38,-3.4028235e+38,-3.4028235e+38,-3.4028235e+38,-3.4028235e+38,-3.4028235e+38,-3.4028235e+38,-3.4028235e+38,-3.4028235e+38,-3.4028235e+38,-3.4028235e+38,-3.4028235e+38,-3.4028235e+38,-3.4028235e+38,-3.4028235e+38,-3.4028235e+38,-3.4028235e+38,-3.4028235e+38,-3.4028235e+38,-3.4028235e+38,-3.4028235e+38,-3.4028235e+38,-3.4028235e+38,-3.4028235e+38,-3.4028235e+38,-3.4028235e+38,-3.4028235e+38,-3.4028235e+38,-3.4028235e+38,-3.4028235e+38,-3.4028235e+38,-3.4028235e+38,-3.4028235e+38,-3.4028235e+38,-3.4028235e+38,-3.4028235e+38,-3.4028235e+38,-3.4028235e+38,-3.4028235e+38,-3.4028235e+38,-3.4028235e+38,-3.4028235e+38,-3.4028235e+38,-3.4028235e+38,-3.4028235e+38,-3.4028235e+38,-3.4028235e+38,-3.4028235e+38,-3.4028235e+38,-3.4028235e+38,-3.4028235e+38,-3.4028235e+38,-3.4028235e+38,-3.4028235e+38,-3.4028235e+38,-3.4028235e+38,-3.4028235e+38,-3.4028235e+38,-3.4028235e+38,-3.4028235e+38,-3.4028235e+38,-3.4028235e+38,-3.4028235e+38,-3.4028235e+38,-3.4028235e+38,-3.4028235e+38,-3.4028235e+38,-3.4028235e+38,-3.4028235e+38,-3.4028235e+38,-3.4028235e+38,-3.4028235e+38,-3.4028235e+38,-3.4028235e+38,-3.4028235e+38,-3.4028235e+38,-3.4028235e+38,-3.4028235e+38,-3.4028235e+38,-3.4028235e+38,-3.4028235e+38,-3.4028235e+38,-3.4028235e+38,-3.4028235e+38,-3.4028235e+38,-3.4028235e+38,-3.4028235e+38,-3.4028235e+38,-3.4028235e+38,-3.4028235e+38,-3.4028235e+38,-3.4028235e+38,-3.4028235e+38,-3.4028235e+38,-3.4028235e+38,-3.4028235e+38,-3.4028235e+38,-3.4028235e+38,-3.4028235e+38,-3.4028235e+38,-3.4028235e+38,-3.4028235e+38,-3.4028235e+38,-3.4028235e+38,-3.4028235e+38,-3.4028235e+38,-3.4028235e+38,-3.4028235e+38,-3.4028235e+38,-3.4028235e+38,-3.4028235e+38,-3.4028235e+38,-3.4028235e+38,-3.4028235e+38,-3.4028235e+38,-3.4028235e+38,-3.4028235e+38,-3.4028235e+38,-3.4028235e+38,-3.4028235e+38,-3.4028235e+38,-3.4028235e+38,-3.4028235e+38,-3.4028235e+38,-3.4028235e+38,-3.4028235e+38,-3.4028235e+38,-3.4028235e+38,-3.4028235e+38,-3.4028235e+38,-3.4028235e+38,-3.4028235e+38,-3.4028235e+38,-3.4028235e+38,-3.4028235e+38,-3.4028235e+38,-3.4028235e+38,-3.4028235e+38,-3.4028235e+38,-3.4028235e+38,-3.4028235e+38,-3.4028235e+38,-3.4028235e+38,-3.4028235e+38,-3.4028235e+38,-3.4028235e+38,-3.4028235e+38,-3.4028235e+38,-3.4028235e+38,-3.4028235e+38,-3.4028235e+38,-3.4028235e+38,-3.4028235e+38,-3.4028235e+38,-3.4028235e+38,-3.4028235e+38,-3.4028235e+38,-3.4028235e+38,-3.4028235e+38,-3.4028235e+38,-3.4028235e+38,-3.4028235e+38,-3.4028235e+38,-3.4028235e+38,-3.4028235e+38,-3.4028235e+38,-3.4028235e+38,-3.4028235e+38,-3.4028235e+38,-3.4028235e+38,-3.4028235e+38,-3.4028235e+38,-3.4028235e+38,-3.4028235e+38,-3.4028235e+38,-3.4028235e+38,-3.4028235e+38,-3.4028235e+38,-3.4028235e+38,-3.4028235e+38,-3.4028235e+38,-3.4028235e+38,-3.4028235e+38,-3.4028235e+38,-3.4028235e+38,-3.4028235e+38,-3.4028235e+38,-3.4028235e+38,-3.4028235e+38,-3.4028235e+38,-3.4028235e+38,-3.4028235e+38,-3.4028235e+38,-3.4028235e+38,-3.4028235e+38,-3.4028235e+38,-3.4028235e+38,-3.4028235e+38,-3.4028235e+38,-3.4028235e+38,-3.4028235e+38,-3.4028235e+38,-3.4028235e+38,-3.4028235e+38,-3.4028235e+38,-3.4028235e+38,-3.4028235e+38,-3.4028235e+38,-3.4028235e+38,-3.4028235e+38,-3.4028235e+38,-3.4028235e+38,-3.4028235e+38,-3.4028235e+38,-3.4028235e+38,-3.4028235e+38,-3.4028235e+38,-3.4028235e+38,-3.4028235e+38,-3.4028235e+38,-3.4028235e+38,-3.4028235e+38,-3.4028235e+38,-3.4028235e+38,-3.4028235e+38,-3.4028235e+38,-3.4028235e+38,-3.4028235e+38,-3.4028235e+38,-3.4028235e+38,-3.4028235e+38,-3.4028235e+38,-3.4028235e+38,-3.4028235e+38,-3.4028235e+38,-3.4028235e+38,-3.4028235e+38,-3.4028235e+38,-3.4028235e+38,-3.4028235e+38,-3.4028235e+38,-3.4028235e+38,-3.4028235e+38,-3.4028235e+38,-3.4028235e+38,-3.4028235e+38,-3.4028235e+38,-3.4028235e+38,-3.4028235e+38,-3.4028235e+38,-3.4028235e+38,-3.4028235e+38,-3.4028235e+38,-3.4028235e+38,-3.4028235e+38,-3.4028235e+38,-3.4028235e+38,-3.4028235e+38,-3.4028235e+38,-3.4028235e+38,-3.4028235e+38,-3.4028235e+38,-3.4028235e+38,-3.4028235e+38,-3.4028235e+38,-3.4028235e+38,-3.4028235e+38,-3.4028235e+38,-3.4028235e+38,-3.4028235e+38,-3.4028235e+38,-3.4028235e+38,-3.4028235e+38,-3.4028235e+38,-3.4028235e+38,-3.4028235e+38,-3.4028235e+38,-3.4028235e+38,-3.4028235e+38,-3.4028235e+38,-3.4028235e+38,-3.4028235e+38,-3.4028235e+38,-3.4028235e+38,-3.4028235e+38,-3.4028235e+38,-3.4028235e+38,-3.4028235e+38,-3.4028235e+38,-3.4028235e+38,-3.4028235e+38,-3.4028235e+38,-3.4028235e+38,-3.4028235e+38,-3.4028235e+38,-3.4028235e+38,-3.4028235e+38,-3.4028235e+38,-3.4028235e+38,-3.4028235e+38,-3.4028235e+38,-3.4028235e+38,-3.4028235e+38,-3.4028235e+38,-3.4028235e+38,-3.4028235e+38,-3.4028235e+38,-3.4028235e+38,-3.4028235e+38,-3.4028235e+38,-3.4028235e+38,-3.4028235e+38,-3.4028235e+38,-3.4028235e+38,-3.4028235e+38,-3.4028235e+38,-3.4028235e+38,-3.4028235e+38,-3.4028235e+38,-3.4028235e+38,-3.4028235e+38,-3.4028235e+38,-3.4028235e+38,-3.4028235e+38,-3.4028235e+38,-3.4028235e+38,-3.4028235e+38,-3.4028235e+38,-3.4028235e+38,-3.4028235e+38,-3.4028235e+38,-3.4028235e+38,-3.4028235e+38,-3.4028235e+38,-3.4028235e+38,-3.4028235e+38,-3.4028235e+38,-3.4028235e+38,-3.4028235e+38,-3.4028235e+38,-3.4028235e+38,-3.4028235e+38,-3.4028235e+38,-3.4028235e+38,-3.4028235e+38,-3.4028235e+38,-3.4028235e+38,-3.4028235e+38,-3.4028235e+38,-3.4028235e+38,-3.4028235e+38,-3.4028235e+38,-3.4028235e+38,-3.4028235e+38,-3.4028235e+38,-3.4028235e+38,-3.4028235e+38,-3.4028235e+38,-3.4028235e+38,-3.4028235e+38,-3.4028235e+38,-3.4028235e+38,-3.4028235e+38,-3.4028235e+38,-3.4028235e+38,-3.4028235e+38,-3.4028235e+38,-3.4028235e+38,-3.4028235e+38,-3.4028235e+38,-3.4028235e+38,-3.4028235e+38,-3.4028235e+38,-3.4028235e+38,-3.4028235e+38,-3.4028235e+38,-3.4028235e+38,-3.4028235e+38,-3.4028235e+38,-3.4028235e+38,-3.4028235e+38,-3.4028235e+38,-3.4028235e+38,-3.4028235e+38,-3.4028235e+38,-3.4028235e+38,-3.4028235e+38,-3.4028235e+38,-3.4028235e+38,-3.4028235e+38,-3.4028235e+38,-3.4028235e+38,-3.4028235e+38,-3.4028235e+38,-3.4028235e+38,-3.4028235e+38,-3.4028235e+38,-3.4028235e+38,-3.4028235e+38,-3.4028235e+38,-3.4028235e+38,-3.4028235e+38,-3.4028235e+38,-3.4028235e+38,-3.4028235e+38,-3.4028235e+38,-3.4028235e+38,-3.4028235e+38,-3.4028235e+38,-3.4028235e+38,-3.4028235e+38,-3.4028235e+38,-3.4028235e+38,-3.4028235e+38,-3.4028235e+38,-3.4028235e+38,-3.4028235e+38,-3.4028235e+38,-3.4028235e+38,-3.4028235e+38,-3.4028235e+38,-3.4028235e+38,-3.4028235e+38,-3.4028235e+38,-3.4028235e+38,-3.4028235e+38,-3.4028235e+38,-3.4028235e+38,-3.4028235e+38,-3.4028235e+38,-3.4028235e+38,-3.4028235e+38,-3.4028235e+38,-3.4028235e+38,-3.4028235e+38,-3.4028235e+38,-3.4028235e+38,-3.4028235e+38,-3.4028235e+38,-3.4028235e+38,-3.4028235e+38,-3.4028235e+38,-3.4028235e+38,-3.4028235e+38,-3.4028235e+38,-3.4028235e+38,-3.4028235e+38,-3.4028235e+38,-3.4028235e+38,-3.4028235e+38,-3.4028235e+38,-3.4028235e+38,-3.4028235e+38,-3.4028235e+38,-3.4028235e+38,-3.4028235e+38,-3.4028235e+38,-3.4028235e+38,-3.4028235e+38,-3.4028235e+38,-3.4028235e+38,-3.4028235e+38,-3.4028235e+38,-3.4028235e+38,-3.4028235e+38,-3.4028235e+38,-3.4028235e+38,-3.4028235e+38,-3.4028235e+38,-3.4028235e+38,-3.4028235e+38,-3.4028235e+38,-3.4028235e+38,-3.4028235e+38,-3.4028235e+38,-3.4028235e+38,-3.4028235e+38,-3.4028235e+38,-3.4028235e+38,-3.4028235e+38,-3.4028235e+38,-3.4028235e+38,-3.4028235e+38,-3.4028235e+38,-3.4028235e+38,-3.4028235e+38,-3.4028235e+38,-3.4028235e+38,-3.4028235e+38,-3.4028235e+38,-3.4028235e+38,-3.4028235e+38,-3.4028235e+38,-3.4028235e+38,-3.4028235e+38,-3.4028235e+38,-3.4028235e+38,-3.4028235e+38,-3.4028235e+38,-3.4028235e+38,-3.4028235e+38,-3.4028235e+38,-3.4028235e+38,-3.4028235e+38,-3.4028235e+38,-3.4028235e+38,-3.4028235e+38,-3.4028235e+38,-3.4028235e+38,-3.4028235e+38,-3.4028235e+38,-3.4028235e+38,-3.4028235e+38,-3.4028235e+38,-3.4028235e+38,-3.4028235e+38,-3.4028235e+38,-3.4028235e+38,-3.4028235e+38,-3.4028235e+38,-3.4028235e+38,-3.4028235e+38,-3.4028235e+38,-3.4028235e+38,-3.4028235e+38,-3.4028235e+38,-3.4028235e+38,-3.4028235e+38,-3.4028235e+38,-3.4028235e+38,-3.4028235e+38,-3.4028235e+38,-3.4028235e+38,-3.4028235e+38,-3.4028235e+38,-3.4028235e+38,-3.4028235e+38,-3.4028235e+38,-3.4028235e+38,-3.4028235e+38,-3.4028235e+38,-3.4028235e+38,-3.4028235e+38,-3.4028235e+38,-3.4028235e+38,-3.4028235e+38,-3.4028235e+38,-3.4028235e+38,-3.4028235e+38,-3.4028235e+38,-3.4028235e+38,-3.4028235e+38,-3.4028235e+38,-3.4028235e+38,-3.4028235e+38,-3.4028235e+38,-3.4028235e+38,-3.4028235e+38,-3.4028235e+38,-3.4028235e+38,-3.4028235e+38,-3.4028235e+38,-3.4028235e+38,-3.4028235e+38,-3.4028235e+38,-3.4028235e+38,-3.4028235e+38,-3.4028235e+38,-3.4028235e+38,-3.4028235e+38,-3.4028235e+38,-3.4028235e+38,-3.4028235e+38,-3.4028235e+38,-3.4028235e+38,-3.4028235e+38,-3.4028235e+38,-3.4028235e+38,-3.4028235e+38,-3.4028235e+38,-3.4028235e+38,-3.4028235e+38,-3.4028235e+38,-3.4028235e+38,-3.4028235e+38,-3.4028235e+38,-3.4028235e+38,-3.4028235e+38,-3.4028235e+38,-3.4028235e+38,-3.4028235e+38,-3.4028235e+38,-3.4028235e+38,-3.4028235e+38,-3.4028235e+38,-3.4028235e+38,-3.4028235e+38,-3.4028235e+38,-3.4028235e+38,-3.4028235e+38,-3.4028235e+38,-3.4028235e+38,-3.4028235e+38,-3.4028235e+38,-3.4028235e+38,-3.4028235e+38,-3.4028235e+38,-3.4028235e+38,-3.4028235e+38,-3.4028235e+38,-3.4028235e+38,-3.4028235e+38,-3.4028235e+38,-3.4028235e+38,-3.4028235e+38,-3.4028235e+38,-3.4028235e+38,-3.4028235e+38,-3.4028235e+38,-3.4028235e+38,-3.4028235e+38,-3.4028235e+38,-3.4028235e+38,-3.4028235e+38,-3.4028235e+38,-3.4028235e+38,-3.4028235e+38,-3.4028235e+38,-3.4028235e+38,-3.4028235e+38,-3.4028235e+38,-3.4028235e+38,-3.4028235e+38,-3.4028235e+38,-3.4028235e+38,-3.4028235e+38,-3.4028235e+38,-3.4028235e+38,-3.4028235e+38,-3.4028235e+38,-3.4028235e+38,-3.4028235e+38,-3.4028235e+38,-3.4028235e+38,-3.4028235e+38,-3.4028235e+38,-3.4028235e+38,-3.4028235e+38,-3.4028235e+38,-3.4028235e+38,-3.4028235e+38,-3.4028235e+38,-3.4028235e+38,-3.4028235e+38,-3.4028235e+38,-3.4028235e+38,-3.4028235e+38,-3.4028235e+38,-3.4028235e+38,-3.4028235e+38,
3.4028235e+38,3.4028235e+38,3.4028235e+38,3.4028235e+38,3.4028235e+38,3.4028235e+38,3.4028235e+38,3.4028235e+38,3.4028235e+38,3.4028235e+38,3.4028235e+38,3.4028235e+38,3.4028235e+38,3.4028235e+38,3.4028235e+38,3.4028235e+38,3.4028235e+38,3.4028235e+38,3.4028235e+38,3.4028235e+38,3.4028235e+38,3.4028235e+38,3.4028235e+38,3.4028235e+38,3.4028235e+38,3.4028235e+38,3.4028235e+38,3.4028235e+38,3.4028235e+38,3.4028235e+38,3.4028235e+38,3.4028235e+38,3.4028235e+38,3.4028235e+38,3.4028235e+38,3.4028235e+38,3.4028235e+38,3.4028235e+38,3.4028235e+38,3.4028235e+38,3.4028235e+38,3.4028235e+38,3.4028235e+38,3.4028235e+38,3.4028235e+38,3.4028235e+38,3.4028235e+38,3.4028235e+38,3.4028235e+38,3.4028235e+38,3.4028235e+38,3.4028235e+38,3.4028235e+38,3.4028235e+38,3.4028235e+38,3.4028235e+38,3.4028235e+38,3.4028235e+38,3.4028235e+38,3.4028235e+38,3.4028235e+38,3.4028235e+38,3.4028235e+38,3.4028235e+38,3.4028235e+38,3.4028235e+38,3.4028235e+38,3.4028235e+38,3.4028235e+38,3.4028235e+38,3.4028235e+38,3.4028235e+38,3.4028235e+38,3.4028235e+38,3.4028235e+38,3.4028235e+38,3.4028235e+38,3.4028235e+38,3.4028235e+38,3.4028235e+38,3.4028235e+38,3.4028235e+38,3.4028235e+38,3.4028235e+38,3.4028235e+38,3.4028235e+38,3.4028235e+38,3.4028235e+38,3.4028235e+38,3.4028235e+38,3.4028235e+38,3.4028235e+38,3.4028235e+38,3.4028235e+38,3.4028235e+38,3.4028235e+38,3.4028235e+38,3.4028235e+38,3.4028235e+38,3.4028235e+38,3.4028235e+38,3.4028235e+38,3.4028235e+38,3.4028235e+38,3.4028235e+38,3.4028235e+38,3.4028235e+38,3.4028235e+38,3.4028235e+38,3.4028235e+38,3.4028235e+38,3.4028235e+38,3.4028235e+38,3.4028235e+38,3.4028235e+38,3.4028235e+38,3.4028235e+38,3.4028235e+38,3.4028235e+38,3.4028235e+38,3.4028235e+38,3.4028235e+38,3.4028235e+38,3.4028235e+38,3.4028235e+38,3.4028235e+38,3.4028235e+38,3.4028235e+38,3.4028235e+38,3.4028235e+38,3.4028235e+38,3.4028235e+38,3.4028235e+38,3.4028235e+38,3.4028235e+38,3.4028235e+38,3.4028235e+38,3.4028235e+38,3.4028235e+38,3.4028235e+38,3.4028235e+38,3.4028235e+38,3.4028235e+38,3.4028235e+38,3.4028235e+38,3.4028235e+38,3.4028235e+38,3.4028235e+38,3.4028235e+38,3.4028235e+38,3.4028235e+38,3.4028235e+38,3.4028235e+38,3.4028235e+38,3.4028235e+38,3.4028235e+38,3.4028235e+38,3.4028235e+38,3.4028235e+38,3.4028235e+38,3.4028235e+38,3.4028235e+38,3.4028235e+38,3.4028235e+38,3.4028235e+38,3.4028235e+38,3.4028235e+38,3.4028235e+38,3.4028235e+38,3.4028235e+38,3.4028235e+38,3.4028235e+38,3.4028235e+38,3.4028235e+38,3.4028235e+38,3.4028235e+38,3.4028235e+38,3.4028235e+38,3.4028235e+38,3.4028235e+38,3.4028235e+38,3.4028235e+38,3.4028235e+38,3.4028235e+38,3.4028235e+38,3.4028235e+38,3.4028235e+38,3.4028235e+38,3.4028235e+38,3.4028235e+38,3.4028235e+38,3.4028235e+38,3.4028235e+38,3.4028235e+38,3.4028235e+38,3.4028235e+38,3.4028235e+38,3.4028235e+38,3.4028235e+38,3.4028235e+38,3.4028235e+38,3.4028235e+38,3.4028235e+38,3.4028235e+38,3.4028235e+38,3.4028235e+38,3.4028235e+38,3.4028235e+38,3.4028235e+38,3.4028235e+38,3.4028235e+38,3.4028235e+38,3.4028235e+38,3.4028235e+38,3.4028235e+38,3.4028235e+38,3.4028235e+38,3.4028235e+38,3.4028235e+38,3.4028235e+38,3.4028235e+38,3.4028235e+38,3.4028235e+38,3.4028235e+38,3.4028235e+38,3.4028235e+38,3.4028235e+38,3.4028235e+38,3.4028235e+38,3.4028235e+38,3.4028235e+38,3.4028235e+38,3.4028235e+38,3.4028235e+38,3.4028235e+38,3.4028235e+38,3.4028235e+38,3.4028235e+38,3.4028235e+38,3.4028235e+38,3.4028235e+38,3.4028235e+38,3.4028235e+38,3.4028235e+38,3.4028235e+38,3.4028235e+38,3.4028235e+38,3.4028235e+38,3.4028235e+38,3.4028235e+38,3.4028235e+38,3.4028235e+38,3.4028235e+38,3.4028235e+38,3.4028235e+38,3.4028235e+38,3.4028235e+38,3.4028235e+38,3.4028235e+38,3.4028235e+38,3.4028235e+38,3.4028235e+38,3.4028235e+38,3.4028235e+38,3.4028235e+38,3.4028235e+38,3.4028235e+38,3.4028235e+38,3.4028235e+38,3.4028235e+38,3.4028235e+38,3.4028235e+38,3.4028235e+38,3.4028235e+38,3.4028235e+38,3.4028235e+38,3.4028235e+38,3.4028235e+38,3.4028235e+38,3.4028235e+38,3.4028235e+38,3.4028235e+38,3.4028235e+38,3.4028235e+38,3.4028235e+38,3.4028235e+38,3.4028235e+38,3.4028235e+38,3.4028235e+38,3.4028235e+38,3.4028235e+38,3.4028235e+38,3.4028235e+38,3.4028235e+38,3.4028235e+38,3.4028235e+38,3.4028235e+38,3.4028235e+38,3.4028235e+38,3.4028235e+38,3.4028235e+38,3.4028235e+38,3.4028235e+38,3.4028235e+38,3.4028235e+38,3.4028235e+38,3.4028235e+38,3.4028235e+38,3.4028235e+38,3.4028235e+38,3.4028235e+38,3.4028235e+38,3.4028235e+38,3.4028235e+38,3.4028235e+38,3.4028235e+38,3.4028235e+38,3.4028235e+38,3.4028235e+38,3.4028235e+38,3.4028235e+38,3.4028235e+38,3.4028235e+38,3.4028235e+38,3.4028235e+38,3.4028235e+38,3.4028235e+38,3.4028235e+38,3.4028235e+38,3.4028235e+38,3.4028235e+38,3.4028235e+38,3.4028235e+38,3.4028235e+38,3.4028235e+38,3.4028235e+38,3.4028235e+38,3.4028235e+38,3.4028235e+38,3.4028235e+38,3.4028235e+38,3.4028235e+38,3.4028235e+38,3.4028235e+38,3.4028235e+38,3.4028235e+38,3.4028235e+38,3.4028235e+38,3.4028235e+38,3.4028235e+38,3.4028235e+38,3.4028235e+38,3.4028235e+38,3.4028235e+38,3.4028235e+38,3.4028235e+38,3.4028235e+38,3.4028235e+38,3.4028235e+38,3.4028235e+38,3.4028235e+38,3.4028235e+38,3.4028235e+38,3.4028235e+38,3.4028235e+38,3.4028235e+38,3.4028235e+38,3.4028235e+38,3.4028235e+38,3.4028235e+38,3.4028235e+38,3.4028235e+38,3.4028235e+38,3.4028235e+38,3.4028235e+38,3.4028235e+38,3.4028235e+38,3.4028235e+38,3.4028235e+38,3.4028235e+38,3.4028235e+38,3.4028235e+38,3.4028235e+38,3.4028235e+38,3.4028235e+38,3.4028235e+38,3.4028235e+38,3.4028235e+38,3.4028235e+38,3.4028235e+38,3.4028235e+38,3.4028235e+38,3.4028235e+38,3.4028235e+38,3.4028235e+38,3.4028235e+38,3.4028235e+38,3.4028235e+38,3.4028235e+38,3.4028235e+38,3.4028235e+38,3.4028235e+38,3.4028235e+38,3.4028235e+38,3.4028235e+38,3.4028235e+38,3.4028235e+38,3.4028235e+38,3.4028235e+38,3.4028235e+38,3.4028235e+38,3.4028235e+38,3.4028235e+38,3.4028235e+38,3.4028235e+38,3.4028235e+38,3.4028235e+38,3.4028235e+38,3.4028235e+38,3.4028235e+38,3.4028235e+38,3.4028235e+38,3.4028235e+38,3.4028235e+38,3.4028235e+38,3.4028235e+38,3.4028235e+38,3.4028235e+38,3.4028235e+38,3.4028235e+38,3.4028235e+38,3.4028235e+38,3.4028235e+38,3.4028235e+38,3.4028235e+38,3.4028235e+38,3.4028235e+38,3.4028235e+38,3.4028235e+38,3.4028235e+38,3.4028235e+38,3.4028235e+38,3.4028235e+38,3.4028235e+38,3.4028235e+38,3.4028235e+38,3.4028235e+38,3.4028235e+38,3.4028235e+38,3.4028235e+38,3.4028235e+38,3.4028235e+38,3.4028235e+38,3.4028235e+38,3.4028235e+38,3.4028235e+38,3.4028235e+38,3.4028235e+38,3.4028235e+38,3.4028235e+38,3.4028235e+38,3.4028235e+38,3.4028235e+38,3.4028235e+38,3.4028235e+38,3.4028235e+38,3.4028235e+38,3.4028235e+38,3.4028235e+38,3.4028235e+38,3.4028235e+38,3.4028235e+38,3.4028235e+38,3.4028235e+38,3.4028235e+38,3.4028235e+38,3.4028235e+38,3.4028235e+38,3.4028235e+38,3.4028235e+38,3.4028235e+38,3.4028235e+38,3.4028235e+38,3.4028235e+38,3.4028235e+38,3.4028235e+38,3.4028235e+38,3.4028235e+38,3.4028235e+38,3.4028235e+38,3.4028235e+38,3.4028235e+38,3.4028235e+38,3.4028235e+38,3.4028235e+38,3.4028235e+38,3.4028235e+38,3.4028235e+38,3.4028235e+38,3.4028235e+38,3.4028235e+38,3.4028235e+38,3.4028235e+38,3.4028235e+38,3.4028235e+38,3.4028235e+38,3.4028235e+38,3.4028235e+38,3.4028235e+38,3.4028235e+38,3.4028235e+38,3.4028235e+38,3.4028235e+38,3.4028235e+38,3.4028235e+38,3.4028235e+38,3.4028235e+38,3.4028235e+38,3.4028235e+38,3.4028235e+38,3.4028235e+38,3.4028235e+38,3.4028235e+38,3.4028235e+38,3.4028235e+38,3.4028235e+38,3.4028235e+38,3.4028235e+38,3.4028235e+38,3.4028235e+38,3.4028235e+38,3.4028235e+38,3.4028235e+38,3.4028235e+38,3.4028235e+38,3.4028235e+38,3.4028235e+38,3.4028235e+38,3.4028235e+38,3.4028235e+38,3.4028235e+38,3.4028235e+38,3.4028235e+38,3.4028235e+38,3.4028235e+38,3.4028235e+38,3.4028235e+38,3.4028235e+38,3.4028235e+38,3.4028235e+38,3.4028235e+38,3.4028235e+38,3.4028235e+38,3.4028235e+38,3.4028235e+38,3.4028235e+38,3.4028235e+38,3.4028235e+38,3.4028235e+38,3.4028235e+38,3.4028235e+38,3.4028235e+38,3.4028235e+38,3.4028235e+38,3.4028235e+38,3.4028235e+38,3.4028235e+38,3.4028235e+38,3.4028235e+38,3.4028235e+38,3.4028235e+38,3.4028235e+38,3.4028235e+38,3.4028235e+38,3.4028235e+38,3.4028235e+38,3.4028235e+38,3.4028235e+38,3.4028235e+38,3.4028235e+38,3.4028235e+38,3.4028235e+38,3.4028235e+38,3.4028235e+38,3.4028235e+38,3.4028235e+38,3.4028235e+38,3.4028235e+38,3.4028235e+38,3.4028235e+38,3.4028235e+38,3.4028235e+38,3.4028235e+38,3.4028235e+38,3.4028235e+38,3.4028235e+38,3.4028235e+38,3.4028235e+38,3.4028235e+38,3.4028235e+38,3.4028235e+38,3.4028235e+38,3.4028235e+38,3.4028235e+38,3.4028235e+38,3.4028235e+38,3.4028235e+38,3.4028235e+38,3.4028235e+38,3.4028235e+38,3.4028235e+38,3.4028235e+38,3.4028235e+38,3.4028235e+38,3.4028235e+38,3.4028235e+38,3.4028235e+38,3.4028235e+38,3.4028235e+38,3.4028235e+38,3.4028235e+38,3.4028235e+38,3.4028235e+38,3.4028235e+38,3.4028235e+38,3.4028235e+38,3.4028235e+38,3.4028235e+38,3.4028235e+38,3.4028235e+38,3.4028235e+38,3.4028235e+38,3.4028235e+38,3.4028235e+38,3.4028235e+38,3.4028235e+38,3.4028235e+38,3.4028235e+38,3.4028235e+38,3.4028235e+38,3.4028235e+38,3.4028235e+38,3.4028235e+38,3.4028235e+38,3.4028235e+38,3.4028235e+38,3.4028235e+38,3.4028235e+38,3.4028235e+38,3.4028235e+38,3.4028235e+38,3.4028235e+38,3.4028235e+38,3.4028235e+38,3.4028235e+38,3.4028235e+38,3.4028235e+38,3.4028235e+38,3.4028235e+38,3.4028235e+38,3.4028235e+38,3.4028235e+38,3.4028235e+38,3.4028235e+38,3.4028235e+38,3.4028235e+38,3.4028235e+38,3.4028235e+38,3.4028235e+38,3.4028235e+38,3.4028235e+38,3.4028235e+38,3.4028235e+38,3.4028235e+38,3.4028235e+38,3.4028235e+38,3.4028235e+38,3.4028235e+38,3.4028235e+38,3.4028235e+38,3.4028235e+38,3.4028235e+38,3.4028235e+38,3.4028235e+38,3.4028235e+38,3.4028235e+38,3.4028235e+38,3.4028235e+38,3.4028235e+38,3.4028235e+38,3.4028235e+38,3.4028235e+38,3.4028235e+38,3.4028235e+38,3.4028235e+38,3.4028235e+38,3.4028235e+38,3.4028235e+38,3.4028235e+38,3.4028235e+38,3.4028235e+38,3.4028235e+38,3.4028235e+38,3.4028235e+38,3.4028235e+38,3.4028235e+38,3.4028235e+38,3.4028235e+38,3.4028235e+38,3.4028235e+38,3.4028235e+38,3.4028235e+38,3.4028235e+38,3.4028235e+38,3.4028235e+38,3.4028235e+38,3.4028235e+38,3.4028235e+38,3.4028235e+38,3.4028235e+38,3.4028235e+38,3.4028235e+38,3.4028235e+38,3.4028235e+38,3.4028235e+38,3.4028235e+38,3.4028235e+38,3.4028235e+38,3.4028235e+38,3.4028235e+38,3.4028235e+38,3.4028235e+38,3.4028235e+38,3.4028235e+38,3.4028235e+38,3.4028235e+38,3.4028235e+38,3.4028235e+38,3.4028235e+38,3.4028235e+38,3.4028235e+38,3.4028235e+38,3.4028235e+38,3.4028235e+38,3.4028235e+38,3.4028235e+38,3.4028235e+38,3.4028235e+38,3.4028235e+38,3.4028235e+38,3.4028235e+38,3.4028235e+38,3.4028235e+38,3.4028235e+38,3.4028235e+38,3.4028235e+38,3.4028235e+38,3.4028235e+38,3.4028235e+38,3.4028235e+38,3.4028235e+38,3.4028235e+38,3.4028235e+38,3.4028235e+38,3.4028235e+38,3.4028235e+38,3.4028235e+38,3.4028235e+38,3.4028235e+38,3.4028235e+38,3.4028235e+38,3.4028235e+38,3.4028235e+38,3.4028235e+38,3.4028235e+38,3.4028235e+38,3.4028235e+38,3.4028235e+38,3.4028235e+38,3.4028235e+38,3.4028235e+38,3.4028235e+38,3.4028235e+38,3.4028235e+38,
0.0,0.0,0.0,0.0,0.0,0.0,0.0,0.0,0.0,0.0,0.0,0.0,0.0,0.0,0.0,0.0,0.0,0.0,0.0,0.0,0.0,0.0,0.0,0.0,0.0,0.0,0.0,0.0,0.0,0.0,0.0,0.0,0.0,0.0,0.0,0.0,0.0,0.0,0.0,0.0,0.0,0.0,0.0,0.0,0.0,0.0,0.0,0.0,0.0,0.0,0.0,0.0,0.0,0.0,0.0,0.0,0.0,0.0,0.0,0.0,0.0,0.0,0.0,0.0,0.0,0.0,0.0,0.0,0.0,0.0,0.0,0.0,0.0,0.0,0.0,0.0,0.0,0.0,0.0,0.0,0.0,0.0,0.0,0.0,0.0,0.0,0.0,0.0,0.0,0.0,0.0,0.0,0.0,0.0,0.0,0.0,0.0,0.0,0.0,0.0,0.0,0.0,0.0,0.0,0.0,0.0,0.0,0.0,0.0,0.0,0.0,0.0,0.0,0.0,0.0,0.0,0.0,0.0,0.0,0.0,0.0,0.0,0.0,0.0,0.0,0.0,0.0,0.0,0.0,0.0,0.0,0.0,0.0,0.0,0.0,0.0,0.0,0.0,0.0,0.0,0.0,0.0,0.0,0.0,0.0,0.0,0.0,0.0,0.0,0.0,0.0,0.0,0.0,0.0,0.0,0.0,0.0,0.0,0.0,0.0,0.0,0.0,0.0,0.0,0.0,0.0,0.0,0.0,0.0,0.0,0.0,0.0,0.0,0.0,0.0,0.0,0.0,0.0,0.0,0.0,0.0,0.0,0.0,0.0,0.0,0.0,0.0,0.0,0.0,0.0,0.0,0.0,0.0,0.0,0.0,0.0,0.0,0.0,0.0,0.0,0.0,0.0,0.0,0.0,0.0,0.0,0.0,0.0,0.0,0.0,0.0,0.0,0.0,0.0,0.0,0.0,0.0,0.0,0.0,0.0,0.0,0.0,0.0,0.0,0.0,0.0,0.0,0.0,0.0,0.0,0.0,0.0,0.0,0.0,0.0,0.0,0.0,0.0,0.0,0.0,0.0,0.0,0.0,0.0,0.0,0.0,0.0,0.0,0.0,0.0,0.0,0.0,0.0,0.0,0.0,0.0,0.0,0.0,0.0,0.0,0.0,0.0,0.0,0.0,0.0,0.0,0.0,0.0,0.0,0.0,0.0,0.0,0.0,0.0,0.0,0.0,0.0,0.0,0.0,0.0,0.0,0.0,0.0,0.0,0.0,0.0,0.0,0.0,0.0,0.0,0.0,0.0,0.0,0.0,0.0,0.0,0.0,0.0,0.0,0.0,0.0,0.0,0.0,0.0,0.0,0.0,0.0,0.0,0.0,0.0,0.0,0.0,0.0,0.0,0.0,0.0,0.0,0.0,0.0,0.0,0.0,0.0,0.0,0.0,0.0,0.0,0.0,0.0,0.0,0.0,0.0,0.0,0.0,0.0,0.0,0.0,0.0,0.0,0.0,0.0,0.0,0.0,0.0,0.0,0.0,0.0,0.0,0.0,0.0,0.0,0.0,0.0,0.0,0.0,0.0,0.0,0.0,0.0,0.0,0.0,0.0,0.0,0.0,0.0,0.0,0.0,0.0,0.0,0.0,0.0,0.0,0.0,0.0,0.0,0.0,0.0,0.0,0.0,0.0,0.0,0.0,0.0,0.0,0.0,0.0,0.0,0.0,0.0,0.0,0.0,0.0,0.0,0.0,0.0,0.0,0.0,0.0,0.0,0.0,0.0,0.0,0.0,0.0,0.0,0.0,0.0,0.0,0.0,0.0,0.0,0.0,0.0,0.0,0.0,0.0,0.0,0.0,0.0,0.0,0.0,0.0,0.0,0.0,0.0,0.0,0.0,0.0,0.0,0.0,0.0,0.0,0.0,0.0,0.0,0.0,0.0,0.0,0.0,0.0,0.0,0.0,0.0,0.0,0.0,0.0,0.0,0.0,0.0,0.0,0.0,0.0,0.0,0.0,0.0,0.0,0.0,0.0,0.0,0.0,0.0,0.0,0.0,0.0,0.0,0.0,0.0,0.0,0.0,0.0,0.0,0.0,0.0,0.0,0.0,0.0,0.0,0.0,0.0,0.0,0.0,0.0,0.0,0.0,0.0,0.0,0.0,0.0,0.0,0.0,0.0,0.0,0.0,0.0,0.0,0.0,0.0,0.0,0.0,0.0,0.0,0.0,0.0,0.0,0.0,0.0,0.0,0.0,0.0,0.0,0.0,0.0,0.0,0.0,0.0,0.0,0.0,0.0,0.0,0.0,0.0,0.0,0.0,0.0,0.0,0.0,0.0,0.0,0.0,0.0,0.0,0.0,0.0,0.0,0.0,0.0,0.0,0.0,0.0,0.0,0.0,0.0,0.0,0.0,0.0,0.0,0.0,0.0,0.0,0.0,0.0,0.0,0.0,0.0,0.0,0.0,0.0,0.0,0.0,0.0,0.0,0.0,0.0,0.0,0.0,0.0,0.0,0.0,0.0,0.0,0.0,0.0,0.0,0.0,0.0,0.0,0.0,0.0,0.0,0.0,0.0,0.0,0.0,0.0,0.0,0.0,0.0,0.0,0.0,0.0,0.0,0.0,0.0,0.0,0.0,0.0,0.0,0.0,0.0,0.0,0.0,0.0,0.0,0.0,0.0,0.0,0.0,0.0,0.0,0.0,0.0,0.0,0.0,0.0,0.0,0.0,0.0,0.0,0.0,0.0,0.0,0.0,0.0,0.0,0.0,0.0,0.0,0.0,0.0,0.0,0.0,0.0,0.0,0.0,0.0,0.0,0.0,0.0,0.0,0.0,0.0,0.0,0.0,0.0,0.0,0.0,0.0,0.0,0.0,0.0,0.0,0.0,0.0,0.0,0.0,0.0,0.0,0.0,0.0,0.0,0.0,0.0,0.0,0.0,0.0,0.0,0.0,0.0,0.0,0.0,0.0,0.0,0.0,0.0,0.0,0.0,0.0,0.0,0.0,0.0,0.0,0.0,0.0,0.0,0.0,0.0,0.0,0.0,0.0,0.0,0.0,0.0,0.0,0.0,0.0,0.0,0.0,0.0,0.0,0.0,0.0,0.0,0.0,0.0,0.0,0.0,0.0,0.0,0.0,0.0,0.0,0.0,0.0,0.0,0.0,0.0,0.0,0.0,0.0,0.0,0.0,0.0,0.0,0.0,0.0,0.0,0.0,0.0,0.0,0.0,0.0,0.0,0.0,0.0,0.0,0.0,0.0,0.0,0.0,0.0,0.0,0.0,0.0,0.0,0.0,0.0,0.0,0.0,0.0,0.0,0.0,0.0,0.0,0.0,0.0,0.0,0.0,0.0,0.0,0.0,0.0,0.0,0.0,0.0,0.0,0.0,0.0,0.0,0.0,0.0,0.0,0.0,0.0,0.0,0.0,0.0,0.0,0.0,0.0,0.0,0.0,0.0,0.0,0.0,0.0,0.0,
1.0,1.0,1.0,1.0,1.0,1.0,1.0,1.0,1.0,1.0,1.0,1.0,1.0,1.0,1.0,1.0,1.0,1.0,1.0,1.0,1.0,1.0,1.0,1.0,1.0,1.0,1.0,1.0,1.0,1.0,1.0,1.0,1.0,1.0,1.0,1.0,1.0,1.0,1.0,1.0,1.0,1.0,1.0,1.0,1.0,1.0,1.0,1.0,1.0,1.0,1.0,1.0,1.0,1.0,1.0,1.0,1.0,1.0,1.0,1.0,1.0,1.0,1.0,1.0,1.0,1.0,1.0,1.0,1.0,1.0,1.0,1.0,1.0,1.0,1.0,1.0,1.0,1.0,1.0,1.0,1.0,1.0,1.0,1.0,1.0,1.0,1.0,1.0,1.0,1.0,1.0,1.0,1.0,1.0,1.0,1.0,1.0,1.0,1.0,1.0,1.0,1.0,1.0,1.0,1.0,1.0,1.0,1.0,1.0,1.0,1.0,1.0,1.0,1.0,1.0,1.0,1.0,1.0,1.0,1.0,1.0,1.0,1.0,1.0,1.0,1.0,1.0,1.0,1.0,1.0,1.0,1.0,1.0,1.0,1.0,1.0,1.0,1.0,1.0,1.0,1.0,1.0,1.0,1.0,1.0,1.0,1.0,1.0,1.0,1.0,1.0,1.0,1.0,1.0,1.0,1.0,1.0,1.0,1.0,1.0,1.0,1.0,1.0,1.0,1.0,1.0,1.0,1.0,1.0,1.0,1.0,1.0,1.0,1.0,1.0,1.0,1.0,1.0,1.0,1.0,1.0,1.0,1.0,1.0,1.0,1.0,1.0,1.0,1.0,1.0,1.0,1.0,1.0,1.0,1.0,1.0,1.0,1.0,1.0,1.0,1.0,1.0,1.0,1.0,1.0,1.0,1.0,1.0,1.0,1.0,1.0,1.0,1.0,1.0,1.0,1.0,1.0,1.0,1.0,1.0,1.0,1.0,1.0,1.0,1.0,1.0,1.0,1.0,1.0,1.0,1.0,1.0,1.0,1.0,1.0,1.0,1.0,1.0,1.0,1.0,1.0,1.0,1.0,1.0,1.0,1.0,1.0,1.0,1.0,1.0,1.0,1.0,1.0,1.0,1.0,1.0,1.0,1.0,1.0,1.0,1.0,1.0,1.0,1.0,1.0,1.0,1.0,1.0,1.0,1.0,1.0,1.0,1.0,1.0,1.0,1.0,1.0,1.0,1.0,1.0,1.0,1.0,1.0,1.0,1.0,1.0,1.0,1.0,1.0,1.0,1.0,1.0,1.0,1.0,1.0,1.0,1.0,1.0,1.0,1.0,1.0,1.0,1.0,1.0,1.0,1.0,1.0,1.0,1.0,1.0,1.0,1.0,1.0,1.0,1.0,1.0,1.0,1.0,1.0,1.0,1.0,1.0,1.0,1.0,1.0,1.0,1.0,1.0,1.0,1.0,1.0,1.0,1.0,1.0,1.0,1.0,1.0,1.0,1.0,1.0,1.0,1.0,1.0,1.0,1.0,1.0,1.0,1.0,1.0,1.0,1.0,1.0,1.0,1.0,1.0,1.0,1.0,1.0,1.0,1.0,1.0,1.0,1.0,1.0,1.0,1.0,1.0,1.0,1.0,1.0,1.0,1.0,1.0,1.0,1.0,1.0,1.0,1.0,1.0,1.0,1.0,1.0,1.0,1.0,1.0,1.0,1.0,1.0,1.0,1.0,1.0,1.0,1.0,1.0,1.0,1.0,1.0,1.0,1.0,1.0,1.0,1.0,1.0,1.0,1.0,1.0,1.0,1.0,1.0,1.0,1.0,1.0,1.0,1.0,1.0,1.0,1.0,1.0,1.0,1.0,1.0,1.0,1.0,1.0,1.0,1.0,1.0,1.0,1.0,1.0,1.0,1.0,1.0,1.0,1.0,1.0,1.0,1.0,1.0,1.0,1.0,1.0,1.0,1.0,1.0,1.0,1.0,1.0,1.0,1.0,1.0,1.0,1.0,1.0,1.0,1.0,1.0,1.0,1.0,1.0,1.0,1.0,1.0,1.0,1.0,1.0,1.0,1.0,1.0,1.0,1.0,1.0,1.0,1.0,1.0,1.0,1.0,1.0,1.0,1.0,1.0,1.0,1.0,1.0,1.0,1.0,1.0,1.0,1.0,1.0,1.0,1.0,1.0,1.0,1.0,1.0,1.0,1.0,1.0,1.0,1.0,1.0,1.0,1.0,1.0,1.0,1.0,1.0,1.0,1.0,1.0,1.0,1.0,1.0,1.0,1.0,1.0,1.0,1.0,1.0,1.0,1.0,1.0,1.0,1.0,1.0,1.0,1.0,1.0,1.0,1.0,1.0,1.0,1.0,1.0,1.0,1.0,1.0,1.0,1.0,1.0,1.0,1.0,1.0,1.0,1.0,1.0,1.0,1.0,1.0,1.0,1.0,1.0,1.0,1.0,1.0,1.0,1.0,1.0,1.0,1.0,1.0,1.0,1.0,1.0,1.0,1.0,1.0,1.0,1.0,1.0,1.0,1.0,1.0,1.0,1.0,1.0,1.0,1.0,1.0,1.0,1.0,1.0,1.0,1.0,1.0,1.0,1.0,1.0,1.0,1.0,1.0,1.0,1.0,1.0,1.0,1.0,1.0,1.0,1.0,1.0,1.0,1.0,1.0,1.0,1.0,1.0,1.0,1.0,1.0,1.0,1.0,1.0,1.0,1.0,1.0,1.0,1.0,1.0,1.0,1.0,1.0,1.0,1.0,1.0,1.0,1.0,1.0,1.0,1.0,1.0,1.0,1.0,1.0,1.0,1.0,1.0,1.0,1.0,1.0,1.0,1.0,1.0,1.0,1.0,1.0,1.0,1.0,1.0,1.0,1.0,1.0,1.0,1.0,1.0,1.0,1.0,1.0,1.0,1.0,1.0,1.0,1.0,1.0,1.0,1.0,1.0,1.0,1.0,1.0,1.0,1.0,1.0,1.0,1.0,1.0,1.0,1.0,1.0,1.0,1.0,1.0,1.0,1.0,1.0,1.0,1.0,1.0,1.0,1.0,1.0,1.0,1.0,1.0,1.0,1.0,1.0,1.0,1.0,1.0,1.0,1.0,1.0,1.0,1.0,1.0,1.0,1.0,1.0,1.0,1.0,1.0,1.0,1.0,1.0,1.0,1.0,1.0,1.0,1.0,1.0,1.0,1.0,1.0,1.0,1.0,1.0,1.0,1.0,1.0,1.0,1.0,1.0,1.0,1.0,1.0,1.0,1.0,1.0,1.0,1.0,1.0,1.0,1.0,1.0,1.0,1.0,1.0,1.0,1.0,1.0,1.0,1.0,1.0,1.0,1.0,1.0,1.0,1.0,1.0,1.0,1.0,1.0,1.0,1.0,1.0,1.0,1.0,1.0,1.0,1.0,1.0,1.0,1.0,1.0,1.0,1.0,1.0,1.0,1.0,1.0,1.0,1.0,1.0,1.0,
2.75640e-02,-3.04630e-02,6.63076e-04,-9.61380e-03,1.24758e-02,-1.36474e-03,-1.18680e-03,1.85828e-02,2.40047e-02,-2.26920e-02,5.87179e-03,1.51817e-02,1.48751e-02,1.16958e-02,2.38149e-02,1.49940e-02,1.52085e-02,-3.14760e-02,2.46848e-02,2.84181e-02,-4.98611e-03,1.70486e-02,7.72940e-04,1.36470e-02,1.77610e-02,4.55894e-03,2.34597e-03,-7.19957e-03,-2.55041e-02,1.22058e-02,3.11518e-02,-6.49962e-03,9.71040e-03,3.53782e-02,3.03969e-02,-3.00033e-02,3.27101e-02,3.56663e-02,2.97703e-02,-3.03250e-03,-1.34380e-02,1.95639e-02,8.36158e-03,-4.94163e-02,-7.10397e-02,-4.31569e-02,-6.28274e-02,-3.55307e-02,9.03474e-03,2.67015e-02,1.75138e-02,-1.79546e-03,-1.47938e-03,2.64545e-02,-1.83277e-02,2.92835e-02,8.15715e-04,1.85932e-02,2.92507e-02,7.79299e-03,5.26471e-03,6.26946e-03,-4.06053e-04,2.12662e-02,-4.91604e-03,2.63654e-02,2.07550e-01,2.25959e-01,2.55211e-01,-7.97239e-02,-7.70417e-02,-2.20933e-01,-2.62831e-01,-1.68635e-01,-9.60684e-02,-5.16347e-02,-3.44062e-02,-8.93981e-03,-1.30951e-02,-1.03035e-01,-6.22598e-02,-3.26702e-03,3.44203e-02,7.70322e-03,1.82251e-03,-1.87695e-02,6.87231e-03,3.53283e-02,-7.61070e-04,4.98340e-02,8.14596e-02,2.42871e-01,1.78270e-01,6.13143e-02,4.97827e-02,1.20139e-02,-4.92280e-02,-2.93108e-01,-2.86890e-01,-2.31303e-01,-2.69282e-01,-6.62756e-02,2.72610e-02,4.06117e-02,-1.29607e-01,-1.86932e-01,1.47750e-01,1.01478e-01,-1.10419e-01,-1.03004e-01,-1.52362e-01,2.92728e-02,3.26397e-02,-2.31999e-02,-3.16058e-02,-6.81661e-03,4.70561e-02,7.47015e-02,5.14467e-02,1.46796e-01,4.07545e-02,-7.75852e-02,-7.91975e-02,-2.10512e-01,-2.03585e-01,-3.19293e-01,-2.82572e-01,-9.72248e-02,5.71074e-02,1.68890e-02,6.95473e-03,1.71217e-01,1.27074e-01,1.52803e-02,6.88840e-02,-3.67393e-02,-1.08288e-01,-3.37952e-01,-2.06925e-01,-2.57996e-01,-3.18321e-02,1.55374e-02,9.38872e-02,2.38355e-01,2.52700e-01,1.37512e-01,-1.59099e-01,-8.00793e-02,-3.06795e-01,-1.92311e-01,-2.04534e-01,-3.28652e-01,-2.80170e-01,-2.63415e-01,-2.74294e-01,4.64899e-02,-8.29375e-02,-1.59631e-01,1.61612e-02,3.81540e-02,-6.39706e-02,1.17097e-01,1.26875e-01,-4.38346e-02,4.82307e-02,-2.72938e-01,-2.43971e-01,-2.68937e-01,2.40635e-02,2.44782e-02,9.89786e-03,1.73000e-01,2.02594e-01,5.03365e-03,-1.69008e-01,-1.54970e-01,-1.21232e-01,-3.95479e-02,-1.48911e-02,-2.32054e-01,-2.73703e-01,-3.42874e-01,-2.77303e-01,-1.15424e-01,-4.52393e-02,5.96064e-02,1.23751e-01,-6.73137e-02,1.18019e-02,1.27759e-02,-3.22293e-02,1.35821e-02,-1.52690e-02,-1.18208e-01,-6.51425e-02,-4.83483e-02,-1.87703e-02,2.13470e-02,1.54588e-02,6.32360e-02,4.06919e-02,-1.19182e-01,-1.83780e-01,-5.28479e-02,-8.98452e-02,-4.37912e-02,-1.33532e-01,-3.88262e-01,-2.76521e-01,-1.95702e-01,-2.45416e-01,-1.00277e-01,4.00254e-02,9.69101e-02,-4.55788e-02,1.99023e-02,4.84418e-02,8.59156e-02,-8.32908e-02,1.96760e-02,-2.71166e-01,-2.86739e-01,7.47912e-02,-1.02462e-01,2.52341e-03,4.83703e-02,-8.27227e-03,2.64114e-02,8.56108e-03,-2.19334e-01,-2.63709e-01,-2.11614e-01,-2.02779e-01,-8.21153e-02,-3.10153e-01,-3.67563e-01,-3.85189e-01,-3.92912e-01,-1.72475e-01,9.68673e-03,1.58474e-01,1.02442e-01,-4.82150e-02,-1.99038e-02,2.22036e-02,2.37192e-02,-8.59799e-02,-8.20930e-02,-2.55587e-01,-2.55527e-01,-3.23806e-02,6.38090e-03,2.59841e-02,2.07248e-01,-3.34334e-02,3.52538e-02,5.68314e-03,-1.81383e-01,-9.40020e-02,-1.62585e-01,-1.32328e-01,-1.57330e-01,-2.22760e-01,-3.12223e-01,-3.18889e-01,-2.68674e-01,-1.87364e-01,1.37664e-01,2.96871e-01,5.18784e-02,-5.40002e-03,-1.15860e-01,-1.11539e-01,-9.33675e-02,-1.17902e-02,-3.11626e-02,1.37997e-01,4.39320e-02,1.94671e-01,1.21115e-01,3.13049e-02,1.53919e-01,-3.17587e-02,1.04655e-01,8.26252e-02,1.30214e-01,1.08380e-01,-1.28857e-01,-1.21204e-01,5.06542e-02,1.82094e-01,-7.93888e-02,-1.64636e-01,-2.85984e-01,-6.09700e-03,2.53643e-01,2.27449e-01,6.41999e-02,5.52922e-02,-3.72027e-02,-2.45793e-02,-2.45536e-02,1.11162e-01,2.16617e-01,2.60591e-01,2.45596e-01,1.11823e-01,1.12393e-02,1.49541e-02,4.59351e-02,1.45687e-01,7.14776e-02,1.32757e-01,8.71942e-02,1.38945e-01,-2.16441e-02,-9.80223e-02,5.34225e-02,8.22038e-03,-1.28764e-01,-6.97604e-02,-8.82528e-02,7.90487e-02,3.17587e-01,1.13608e-01,-3.26832e-02,7.81287e-02,3.89195e-02,1.82950e-02,-1.18664e-02,-2.46624e-02,1.97723e-01,2.08388e-01,7.42937e-02,-6.43568e-02,-3.86195e-02,-9.55831e-03,-2.46862e-02,1.66677e-01,3.33793e-02,-1.93614e-03,-1.54185e-02,5.72590e-02,4.21808e-02,-9.73087e-02,3.92228e-02,7.79588e-03,-1.94163e-01,-5.29351e-02,-1.98889e-02,1.79898e-01,1.94607e-01,8.45896e-02,-1.60608e-02,7.99153e-03,7.00684e-02,-1.76312e-01,5.49880e-02,-4.27800e-02,9.06706e-02,1.78322e-01,2.92032e-02,8.81384e-03,-1.05720e-02,5.38233e-02,-3.08146e-02,1.94989e-01,1.05444e-02,-1.87892e-02,-1.58156e-02,-5.03387e-02,2.36142e-01,-5.99368e-02,-1.52857e-01,-1.05581e-01,-6.62035e-02,-1.06494e-01,5.72389e-02,2.00843e-01,1.56374e-01,5.83353e-02,7.98690e-02,-5.93619e-02,-2.59376e-01,-3.55650e-01,-1.15056e-03,-1.27306e-01,-5.04323e-02,7.92051e-02,1.48490e-01,6.18914e-02,2.57136e-02,-1.79981e-02,1.30565e-02,1.37293e-01,9.51017e-02,-5.41198e-02,-4.56509e-02,-9.74705e-02,2.62407e-01,1.17628e-01,-8.60635e-02,1.57678e-02,-2.97850e-02,-5.63104e-02,1.34431e-01,1.53050e-01,9.72101e-02,7.21754e-02,-2.93243e-01,-3.15049e-01,-4.83844e-01,-4.70489e-01,-5.56293e-02,4.23977e-02,2.38724e-02,3.14188e-02,1.92484e-02,-9.76659e-02,-2.18865e-02,-2.84911e-02,1.72895e-02,1.97455e-01,1.04595e-01,-2.21260e-02,-6.37851e-02,-1.95576e-01,1.24425e-01,2.82477e-01,-2.83606e-02,-4.91786e-02,-4.49056e-02,-4.48171e-02,1.22864e-01,-3.14346e-02,4.25567e-02,-1.04381e-01,-2.54314e-01,-3.46042e-01,-4.84953e-01,-4.37556e-01,-9.02060e-02,6.35783e-03,-1.25810e-02,5.34644e-03,-7.69007e-02,-1.07592e-01,2.06445e-02,1.96551e-02,2.48258e-02,1.99060e-01,-5.76559e-02,-4.20720e-02,-2.25437e-02,-1.55138e-01,-9.29602e-02,1.47206e-01,1.25924e-01,-1.32926e-01,-2.05146e-02,7.29571e-02,2.16192e-02,-2.33517e-02,-8.23507e-03,-2.98277e-02,-2.05607e-01,-3.59033e-01,-1.56063e-01,-1.48199e-01,4.42505e-02,-1.38260e-01,1.07956e-01,2.20036e-01,2.24903e-01,-8.67608e-03,7.29867e-03,-3.02820e-02,5.38760e-02,4.72532e-02,4.55014e-03,-7.23463e-02,-1.76689e-02,-1.88274e-01,-2.18411e-01,-1.19389e-01,3.18474e-02,-8.02337e-02,1.02325e-01,5.21263e-02,1.01129e-02,-2.09994e-02,-1.80985e-01,-1.86793e-01,-3.12236e-01,-1.93313e-01,-2.20802e-01,-2.91905e-01,-5.77282e-02,-1.24478e-01,2.06957e-01,1.91374e-01,2.01832e-01,-3.03506e-03,-1.04460e-02,3.07689e-02,7.07456e-02,-2.77788e-02,-8.00845e-02,-1.57294e-01,-2.80330e-01,-2.57912e-01,-2.26104e-01,-1.23967e-01,-2.83644e-02,3.85772e-02,1.14265e-01,-1.02870e-02,3.05046e-02,-1.83503e-01,-1.64919e-01,-2.47333e-01,-2.77928e-01,-2.01688e-01,-2.95671e-01,-2.44192e-01,2.71853e-02,4.27725e-02,2.98605e-01,2.20185e-01,1.99165e-01,7.75681e-02,7.39526e-02,1.08792e-01,1.92106e-01,3.56684e-03,-4.91766e-02,-8.19524e-02,-1.34738e-01,-2.69053e-02,-4.40972e-02,-6.61257e-02,-4.21851e-02,6.20742e-02,6.27240e-02,3.11293e-03,2.07475e-02,-2.20758e-01,-8.08529e-02,-2.03093e-02,-1.62107e-01,-2.41189e-01,-3.25940e-01,-3.07951e-01,3.93726e-02,-2.82954e-02,2.15812e-01,2.66080e-01,2.00292e-01,9.19366e-02,1.03412e-01,6.49861e-04,9.47256e-03,-2.90667e-02,-1.15711e-01,1.01041e-01,-4.52419e-02,1.78167e-01,6.22623e-02,3.33997e-04,-7.04790e-02,8.99060e-02,8.00865e-02,2.32217e-02,-1.29754e-01,-1.37229e-01,-1.07222e-01,8.47023e-02,-1.43334e-01,-2.63761e-01,-2.49354e-01,-1.44257e-01,-2.03148e-01,-1.89826e-02,2.17851e-01,2.53414e-01,1.23108e-01,8.71881e-02,8.25280e-02,1.14639e-01,1.01391e-01,1.61427e-01,8.11897e-02,3.21614e-03,2.16061e-01,2.13632e-01,1.48359e-01,4.05756e-02,-5.56000e-03,1.17226e-02,-6.99605e-02,-3.74564e-02,-2.29168e-01,-9.81599e-02,2.76285e-02,7.52023e-02,-1.08390e-02,-1.29035e-01,-1.36071e-01,-1.47106e-01,-1.59641e-01,7.09562e-03,2.40662e-01,3.15380e-01,1.38261e-01,4.95381e-02,-3.03917e-02,1.19799e-01,1.15261e-01,1.64424e-01,8.60555e-02,6.96341e-02,1.63661e-01,1.61532e-01,8.32973e-02,1.37038e-01,2.63264e-03,-1.12378e-01,-1.41330e-01,-2.74019e-01,-5.45195e-02,-1.24092e-02,-2.02107e-02,9.02670e-02,-6.80694e-02,-8.99405e-02,-8.12601e-02,-2.83941e-02,-1.48408e-01,-6.89733e-02,2.81713e-01,2.34562e-01,4.84456e-02,3.03411e-02,-1.00038e-02,-1.33121e-02,9.30490e-03,-4.12277e-03,2.82914e-02,-1.26316e-01,3.09603e-02,-2.06456e-02,-2.67381e-02,1.13110e-01,5.64167e-02,-4.66893e-02,-6.17458e-02,-9.67767e-02,-1.85597e-01,-2.18411e-01,-8.70363e-02,2.60563e-01,9.18815e-02,9.86768e-02,1.02733e-02,1.47748e-01,3.12612e-02,3.77919e-02,-2.67091e-03,1.98813e-03,4.93070e-02,5.94627e-02,-2.16363e-02,-1.47144e-02,-1.37535e-02,2.24491e-02,4.39578e-02,-1.79187e-01,-3.00015e-01,-3.79092e-01,-3.15782e-01,-7.18118e-02,1.55196e-01,-1.37156e-01,-1.84478e-01,-5.72250e-03,2.91395e-02,-1.51462e-01,1.17929e-01,1.99515e-01,1.17306e-01,-6.36157e-02,-2.26860e-01,-1.66411e-02,9.58557e-02,1.05111e-01,6.30274e-02,-8.35015e-03,3.11140e-03,-2.61947e-02,1.62688e-02,3.36666e-02,-2.58737e-03,-3.26274e-02,-1.49492e-02,-5.29638e-02,-1.21582e-01,-1.42916e-01,-3.59157e-02,2.16458e-01,1.24549e-01,1.53796e-03,2.84880e-02,2.43386e-01,5.29564e-02,-3.41107e-01,-2.56181e-01,6.61526e-02,9.45354e-02,-1.44250e-01,-1.84788e-01,-2.25481e-02,2.10931e-02,9.87719e-03,8.61929e-02,8.76325e-02,-3.58407e-03,2.47336e-02,-7.18445e-03,2.51177e-02,5.17462e-03,-1.14368e-02,3.09094e-02,-3.56740e-04,1.23696e-01,3.12942e-02,-5.18549e-02,-1.55047e-01,-2.81553e-01,-2.26072e-01,-6.05893e-02,-2.13808e-02,-9.02844e-02,-2.69911e-01,-3.10337e-01,-1.36221e-01,-2.84339e-01,-2.09270e-01,-2.28346e-01,3.30107e-02,-3.82171e-04,2.80554e-03,9.48638e-03,-3.21081e-02,-2.79519e-02,-2.17376e-02,-2.77469e-02,-2.40748e-02,1.60378e-02,-1.00573e-02,-4.67745e-03,-2.76004e-02,3.53026e-03,3.15722e-02,2.99204e-02,-8.82385e-03,-1.91223e-02,-2.72084e-02,2.65326e-02,-3.40319e-02,-4.03342e-02,-2.73590e-02,2.20054e-02,-7.40511e-03,-2.53704e-01,-2.20083e-01,-2.63023e-01,-3.38528e-02,-2.75776e-02,-1.72269e-02,-1.25894e-02,1.36267e-02,-8.73316e-03,2.97834e-03,1.78956e-02,
-5.60742e-03,3.53287e-02,2.52013e-02,4.10317e-03,-3.05826e-02,1.80773e-02,-3.07859e-02,1.39147e-02,1.75321e-02,-1.36009e-02,1.08721e-02,-2.45133e-04,2.17686e-02,1.32597e-02,3.31773e-02,-1.83046e-02,-2.51297e-02,1.02877e-02,-3.05457e-02,-1.44532e-02,-9.53387e-03,-2.54330e-03,-4.40028e-03,-1.95282e-02,-1.59320e-02,4.45801e-03,4.39917e-03,3.01485e-02,-1.80156e-02,1.93340e-03,2.96958e-02,2.75074e-02,-3.12853e-02,-3.31548e-02,1.04649e-02,2.17327e-02,-1.23886e-02,2.22454e-02,-2.73443e-02,-5.41715e-03,1.89510e-02,-2.65999e-03,-2.23623e-02,-1.33424e-02,2.93799e-02,3.06055e-02,-2.63381e-02,3.01949e-02,-3.47088e-02,2.19100e-02,-1.22367e-02,-6.15361e-03,-1.15253e-02,2.86390e-02,1.10582e-02,1.49703e-02,3.20467e-02,3.42823e-02,6.05549e-03,2.08404e-02,-2.78342e-02,5.80461e-03,1.06696e-02,1.31989e-02,-3.09445e-02,-6.73723e-03,1.88580e-02,-3.53890e-02,-2.83020e-02,2.35109e-02,-2.60545e-03,2.66898e-02,2.03182e-02,1.73927e-02,-2.31079e-02,-1.79845e-02,-2.31344e-02,2.86112e-02,1.91472e-02,-3.80952e-03,3.29202e-02,-3.81210e-03,3.18321e-02,6.33326e-03,1.88122e-02,1.67318e-02,2.58774e-02,1.28311e-02,-8.59372e-03,2.90960e-04,8.78177e-04,4.67773e-03,-7.89426e-03,-2.69420e-02,2.91443e-02,2.95871e-02,-3.39562e-02,-2.55306e-02,-1.01616e-02,1.05926e-02,-2.72835e-02,-1.53293e-02,-2.37918e-02,1.74243e-02,-9.94733e-03,-2.28344e-02,-3.02944e-02,-1.71180e-02,2.67293e-02,-2.81696e-02,-3.33496e-02,-3.23630e-03,2.26125e-02,-6.24120e-03,2.30626e-02,-3.67529e-03,4.58736e-03,2.32767e-02,3.54828e-02,-1.27896e-02,-1.93633e-02,8.53366e-03,-6.40227e-03,1.61202e-02,1.49929e-02,-8.33147e-03,-1.17254e-02,-2.20012e-02,-3.50516e-02,-3.60957e-02,-5.00543e-04,-1.63474e-02,-1.97409e-02,3.27709e-02,-4.24360e-03,2.92120e-02,6.64197e-03,-2.59202e-02,2.75805e-02,-2.32834e-02,-2.61315e-02,1.12256e-03,2.71279e-02,6.91413e-03,3.73562e-03,-1.72655e-02,4.18510e-06,-2.98031e-02,-7.46399e-03,1.39107e-02,-1.33232e-02,-1.06717e-02,1.62825e-02,5.17146e-03,-4.15747e-02,6.67741e-03,8.66890e-03,2.57585e-02,1.75522e-02,2.76893e-02,2.79583e-02,2.69305e-03,-5.09233e-03,3.27423e-02,-3.23959e-02,3.51117e-02,-1.51764e-02,-2.99796e-03,4.41750e-03,-3.31122e-02,4.53400e-03,-7.34069e-03,3.17723e-02,-3.30356e-02,1.06343e-02,-1.07703e-02,2.33999e-02,6.89128e-03,-2.45201e-02,1.89475e-03,1.78000e-02,-3.51715e-02,1.15911e-02,7.72115e-03,-1.39812e-02,-3.86686e-02,-2.32295e-02,-2.87590e-03,-1.70449e-02,-2.79687e-02,-8.16820e-03,2.42617e-02,2.65162e-02,3.07802e-02,1.31333e-02,-3.00064e-02,-2.81721e-02,1.52959e-02,2.24765e-02,1.17162e-02,-1.42925e-02,-2.86121e-03,-6.84035e-03,2.35425e-02,-3.75300e-02,-3.52673e-02,-1.54194e-02,-3.52128e-02,-2.16091e-03,7.81427e-03,-1.33169e-02,-4.26919e-03,-4.40064e-03,7.93101e-03,7.37819e-03,6.29295e-03,1.67298e-02,3.48366e-02,-7.68898e-03,-3.22725e-03,-2.25794e-02,-1.18536e-02,2.15031e-03,-7.81096e-03,-3.33067e-02,9.32396e-03,-1.39317e-02,-1.73028e-02,-1.22108e-02,-1.87879e-02,-2.67224e-03,-3.28202e-02,1.52874e-02,-2.78647e-02,7.81734e-03,1.00216e-02,-2.25305e-02,-3.65055e-02,-5.34516e-03,-1.44945e-02,-3.42383e-02,-1.24857e-03,-3.10884e-02,6.48533e-04,-2.39919e-03,7.54977e-03,-3.31768e-02,-2.40015e-02,-3.69161e-02,-1.13629e-02,2.91311e-02,3.28829e-02,1.26857e-03,-2.84759e-02,-8.76840e-03,-8.98397e-03,-1.85789e-02,-3.08822e-02,2.00582e-02,2.63518e-02,-1.65150e-02,-7.83679e-03,-3.51867e-02,2.63689e-02,-2.29478e-02,-3.69495e-02,1.55306e-02,-2.38260e-02,2.03476e-02,-2.30774e-02,-2.06429e-02,-2.75118e-03,2.77766e-02,2.74000e-02,-4.06174e-02,1.85035e-02,8.51580e-04,2.95714e-02,6.38306e-04,-5.95716e-03,2.44819e-02,1.29419e-02,-3.52471e-02,-1.99311e-02,2.72093e-02,2.01569e-02,-2.67555e-02,-6.36150e-03,-2.67099e-02,1.84735e-02,2.35590e-02,-1.67294e-02,9.87010e-03,-1.55379e-02,-3.41972e-02,-3.45522e-02,-7.67748e-03,1.73938e-02,-3.02858e-02,-3.42802e-02,-1.45367e-02,-2.44810e-02,3.37655e-02,-2.71296e-02,1.03085e-02,3.29085e-02,1.80557e-03,-2.50730e-02,2.17827e-02,1.90030e-02,1.28364e-02,1.45001e-02,-7.71847e-03,-1.65254e-02,-1.45403e-02,-3.38134e-02,4.36421e-04,7.15630e-03,-1.20091e-02,-2.06887e-03,3.26033e-02,-2.24218e-02,7.49243e-04,6.17603e-03,1.00826e-02,-3.91936e-02,2.72149e-02,-3.03252e-02,-2.86291e-02,-2.79591e-02,-4.79716e-03,7.86808e-03,-5.48968e-03,-3.37134e-02,-1.09412e-02,1.29564e-02,3.47830e-02,-1.13921e-02,1.16403e-02,-2.77747e-02,2.03293e-02,-8.86621e-03,-1.03584e-02,-1.16268e-03,-9.53819e-04,-9.53349e-03,-2.04653e-02,2.78254e-02,2.86042e-02,-1.07956e-02,5.69217e-03,2.42696e-02,-9.37272e-03,2.36767e-02,-3.47466e-03,2.38352e-02,1.22339e-02,3.01109e-03,-1.57348e-02,1.41357e-03,1.38685e-02,-2.55405e-02,-2.84540e-02,1.90070e-02,2.20836e-02,1.08435e-02,1.57239e-02,1.01663e-02,-3.00577e-02,-3.17679e-03,-5.97004e-03,3.20983e-02,-1.78548e-02,1.38491e-03,-1.08876e-02,-3.25799e-02,-3.60036e-02,-3.87326e-03,-3.28019e-03,-4.11973e-02,1.58348e-02,-3.83747e-02,2.23573e-02,-1.99211e-02,-1.82864e-02,-6.27053e-03,-1.89131e-02,3.40302e-02,1.25117e-02,-3.17534e-02,3.29919e-03,-1.25635e-02,3.54407e-02,-1.59667e-02,-1.11733e-04,-2.48633e-02,-1.39931e-02,-5.77787e-03,-2.75326e-02,5.20205e-03,-1.16763e-02,1.76503e-02,1.04460e-02,-1.45455e-03,-1.45527e-02,-4.05242e-02,2.44404e-02,6.99901e-04,-8.63430e-03,1.97724e-02,1.05453e-02,-1.02437e-02,-1.43119e-02,5.66315e-03,2.08205e-02,-2.91719e-02,2.29598e-02,-4.81020e-03,-1.12721e-04,7.96535e-04,-2.29722e-03,1.52786e-02,-2.22531e-02,-2.01488e-02,1.94655e-03,2.17618e-02,2.52393e-02,-2.39716e-02,-3.01126e-02,1.67865e-02,-3.52822e-02,-3.73172e-02,-1.16409e-02,-3.48511e-02,-1.12671e-02,-1.07010e-02,-2.60262e-02,2.58784e-03,-2.74372e-02,2.58343e-02,-1.28291e-02,2.50732e-02,2.81537e-05,2.04485e-03,1.59184e-02,1.71366e-02,-6.47141e-03,3.36776e-02,2.88426e-02,1.90101e-02,1.26935e-02,-1.40456e-02,-4.45178e-03,3.56878e-03,-4.06266e-02,-1.94591e-02,1.45272e-02,2.25492e-02,1.37125e-02,-4.86282e-03,-6.52470e-03,5.82710e-04,-2.37610e-03,-1.92432e-02,-1.38916e-02,-1.57562e-02,2.99479e-02,-2.83984e-02,-2.94184e-02,-3.80819e-04,-2.65162e-03,1.08813e-02,-3.34767e-02,3.36355e-02,2.33233e-02,-2.95313e-02,1.31873e-02,-3.08095e-02,-3.57457e-03,2.87673e-02,3.29873e-02,-3.78644e-02,-3.62364e-02,2.01552e-02,1.99812e-02,-2.58188e-02,-2.14752e-02,-4.77811e-03,-1.84386e-02,-3.67048e-02,-2.72756e-02,1.71976e-02,-2.07979e-02,8.76838e-03,-1.12524e-02,-2.90051e-02,-1.07099e-02,-2.68085e-02,1.11693e-02,-3.45221e-02,3.84345e-03,-2.68049e-02,1.54146e-02,1.28096e-02,2.79690e-02,-8.53879e-03,-1.61576e-02,7.51184e-03,-2.77152e-02,2.35362e-02,1.68159e-02,-4.96862e-03,5.82512e-03,-4.04809e-02,2.71700e-02,1.41000e-02,2.20113e-02,-3.98182e-02,7.92342e-03,-1.31533e-03,-2.98881e-02,-1.05503e-02,-1.80977e-02,-6.63825e-03,2.75198e-02,1.77385e-02,1.68752e-02,1.83297e-02,-1.99699e-02,-1.31878e-02,3.24852e-02,-1.29990e-02,-8.85631e-04,2.33501e-02,-2.24888e-02,-3.08006e-02,2.45432e-02,2.81128e-02,-3.59289e-02,1.12116e-02,-7.38549e-03,1.81336e-02,-2.45470e-02,-1.07684e-02,-7.69250e-03,-3.20825e-02,-1.57636e-02,-3.07994e-02,-7.68558e-03,2.79626e-02,1.41816e-02,-3.66607e-02,-1.38961e-02,1.79487e-02,1.76752e-02,-3.04418e-02,1.52682e-02,6.11277e-03,-2.99835e-02,-7.61537e-03,2.17020e-03,1.71576e-05,1.18113e-02,1.32501e-02,-2.61953e-02,-5.41896e-04,-3.68315e-02,1.74513e-02,1.41925e-02,-1.30093e-02,1.98768e-03,1.44965e-03,-2.10891e-02,-6.12478e-03,-1.22649e-02,-3.98633e-02,1.55319e-02,2.08546e-02,-3.81504e-02,-3.56233e-02,1.55092e-02,1.78955e-02,2.85887e-02,1.22637e-02,7.46884e-03,-1.46868e-02,-2.71738e-02,-7.75353e-03,5.28279e-03,-2.57384e-02,-2.17448e-02,-2.50116e-02,7.30870e-03,-2.03602e-02,-1.91018e-02,-3.56232e-02,-3.98225e-02,-2.96398e-02,-1.16194e-02,1.88209e-02,-1.57531e-02,1.84343e-02,-2.35452e-02,-3.77370e-02,2.12745e-02,-3.99171e-02,-3.51286e-02,-7.37383e-03,-2.13597e-02,-2.94427e-02,-2.22232e-02,7.44664e-03,5.67111e-03,-2.29276e-02,1.30411e-04,-7.40988e-03,2.81367e-02,1.04376e-02,-2.32438e-02,-2.46205e-02,1.58531e-02,5.88246e-03,5.45964e-03,3.44623e-02,-2.31541e-02,2.48043e-03,-3.37832e-02,-3.21050e-02,9.91384e-03,2.13672e-02,1.95637e-02,-3.39552e-02,-2.83741e-02,9.11201e-03,-2.88774e-02,6.95693e-03,-3.40820e-02,3.08097e-02,-1.36575e-02,8.83049e-03,-1.33755e-02,-1.68003e-02,3.32731e-02,9.69665e-03,-2.03432e-02,-2.87124e-02,6.55830e-04,-1.34015e-02,9.91812e-03,-3.81195e-03,-9.41511e-03,7.59729e-03,-9.00614e-03,8.42267e-03,2.09356e-02,-1.59930e-02,-3.24941e-02,1.79741e-02,7.76193e-03,1.31723e-02,-1.73786e-03,7.65433e-03,-9.38000e-03,-2.68986e-02,3.08481e-02,2.51030e-02,8.79194e-03,3.37568e-02,-3.67579e-03,-5.14368e-03,-2.07681e-02,-1.13155e-02,-3.32830e-03,-2.82762e-02,2.01693e-02,2.72653e-02,-1.72868e-02,5.51177e-03,1.44657e-03,2.29707e-02,2.32981e-03,-3.45697e-02,1.83387e-02,-2.15981e-02,-2.72582e-02,-2.54641e-02,-2.87234e-02,-1.09964e-03,-2.10559e-02,-2.53551e-02,2.48257e-02,-4.22406e-03,6.64400e-04,1.30692e-03,-2.58670e-02,-3.51144e-04,-3.23727e-02,-2.09423e-02,-1.08604e-02,1.31884e-02,1.24342e-02,-3.18479e-02,1.55779e-03,-2.85330e-03,2.83586e-02,-2.52898e-02,-1.08883e-02,2.57490e-02,7.97182e-04,1.34262e-03,1.48362e-02,1.52721e-02,2.51467e-02,2.17654e-02,2.89729e-02,3.06207e-02,1.99566e-02,2.53895e-02,1.50740e-02,2.03348e-02,2.86436e-02,-1.97221e-02,1.79305e-03,2.04338e-02,2.15481e-03,-1.86132e-02,-2.83736e-03,-1.07449e-02,-9.58754e-03,-1.78113e-02,-1.28548e-02,-5.68415e-03,2.72472e-03,-2.60210e-02,2.13788e-02,-2.88704e-02,-3.15627e-02,-3.51828e-02,-3.44202e-02,2.03134e-02,5.66815e-03,2.34609e-02,-3.33848e-02,-8.90306e-04,1.17211e-02,2.62429e-02,-7.43402e-03,-1.49186e-02,7.42499e-03,2.53254e-02,-1.71372e-02,-9.35132e-03,-2.51630e-02,1.33260e-03,2.42432e-02,2.19162e-02,3.16904e-02,-1.28350e-02,-3.39477e-02,2.72252e-03,-2.66078e-02,2.25551e-02,-9.53384e-03,-2.52496e-02,-2.90648e-02,3.50769e-02,-7.16410e-04,1.63347e-02,2.25124e-02,2.33900e-02,-8.39679e-03,-2.93657e-02,3.09995e-02,-3.09862e-02,-3.35078e-02,-4.33198e-03,-9.66236e-03,-2.72309e-02,-2.62522e-02,-3.16792e-02,3.02090e-02,2.03772e-03,1.35516e-03,-2.00173e-02,
3.29946e-02,2.43408e-02,2.52406e-02,-5.49759e-04,-2.32940e-02,-1.25768e-02,1.49840e-02,-2.53108e-02,1.04321e-02,-3.50685e-02,-1.83834e-02,-1.63308e-02,1.17882e-02,5.15389e-03,1.59588e-02,-1.05001e-02,-2.53345e-02,2.83186e-02,3.06815e-02,-7.27296e-03,1.77694e-02,-1.64805e-02,-3.25828e-02,1.56016e-02,3.37627e-02,9.74026e-03,-2.89572e-03,5.26648e-03,3.31978e-02,4.28905e-03,-9.96596e-03,-7.01862e-03,1.79744e-02,1.13063e-02,2.75599e-03,-3.24096e-03,2.20888e-02,-1.88021e-02,-6.58193e-04,2.14884e-02,-1.67891e-02,5.88359e-03,-4.90033e-02,-1.50445e-02,-3.36378e-02,-6.09670e-02,-1.23558e-02,8.40685e-03,-2.32946e-02,6.62314e-03,-2.02738e-02,-2.79805e-02,1.67341e-02,1.49391e-03,-3.44643e-02,2.65790e-02,7.49944e-03,1.46887e-02,2.65499e-02,3.28945e-02,1.95472e-02,2.57836e-02,1.18343e-01,-4.89120e-02,-2.50986e-02,-2.08125e-01,-3.35126e-01,-1.24965e-01,-1.05298e-01,-1.33194e-01,-1.70590e-01,-1.20765e-01,2.29388e-02,-5.88771e-03,-6.52023e-02,1.06278e-02,-6.79492e-02,-5.23810e-02,-3.97644e-02,-5.28465e-03,9.31716e-03,3.45856e-02,2.54727e-02,3.11465e-02,-5.62370e-03,3.03795e-02,3.44532e-02,2.63098e-02,1.07665e-01,3.13255e-02,-2.60781e-02,-1.07846e-01,-1.11865e-01,-2.38066e-01,-4.96419e-02,1.27566e-01,1.67092e-01,2.98401e-02,6.19732e-02,9.18932e-02,1.15467e-01,1.18004e-01,2.65375e-01,1.27027e-01,-1.02218e-02,-1.67924e-01,-2.00601e-01,-2.40620e-01,-9.63313e-02,-6.22656e-02,-2.66955e-02,1.18548e-02,-1.03555e-02,5.08282e-02,-1.15023e-02,4.93012e-03,-2.28134e-02,-3.09717e-02,-1.02315e-01,-6.36647e-02,-1.08037e-01,-1.90020e-01,3.48703e-02,1.15116e-01,1.42871e-01,4.39669e-02,-1.21140e-02,6.49372e-02,1.28245e-02,1.55452e-01,2.10230e-01,8.71538e-02,-1.57556e-01,-2.08796e-01,-1.80453e-01,-2.05713e-01,-1.15945e-01,6.16440e-02,1.33062e-01,-3.26134e-02,3.43289e-02,-2.46847e-02,-1.83192e-02,1.31061e-03,6.26878e-02,1.85383e-02,-1.73710e-01,-1.52669e-01,-9.45122e-02,-1.12612e-01,-6.28750e-02,6.35084e-03,-8.17331e-02,2.69542e-04,6.23078e-02,-1.20880e-01,-1.31635e-01,-2.74896e-01,-2.73455e-01,-1.74801e-01,9.67984e-05,-1.59608e-03,-5.38269e-02,-1.12917e-01,4.10566e-02,6.70405e-02,2.23324e-01,3.20681e-02,-2.29106e-02,-1.16249e-02,1.08242e-01,-6.95363e-02,-1.12535e-01,-4.33247e-02,-1.37759e-01,-6.88249e-02,-2.31417e-01,-4.99853e-02,-3.42805e-03,-3.06524e-02,-8.44897e-02,-8.48290e-02,-3.04670e-02,-1.27239e-01,-2.58938e-01,-2.55747e-01,-2.48193e-01,-7.59187e-02,-1.02199e-01,-4.21385e-02,9.40087e-02,-8.34128e-02,1.04569e-01,5.84759e-02,-7.35656e-03,1.66845e-01,2.28840e-02,5.20185e-02,8.87106e-02,3.67202e-02,-7.61252e-02,1.96023e-02,5.67339e-02,-1.13312e-02,-3.14180e-03,1.09066e-01,1.06931e-01,1.82637e-02,4.27556e-02,-1.41912e-02,-2.91166e-02,3.26261e-02,9.45621e-03,-6.66396e-02,-4.06808e-02,-2.86910e-02,3.47394e-02,1.51568e-01,2.00024e-01,1.04319e-01,1.35526e-01,1.01994e-01,8.97589e-02,1.54578e-01,2.51403e-02,2.58528e-02,6.44704e-02,1.25398e-02,1.01279e-01,3.62115e-02,1.88138e-01,1.25311e-01,3.95326e-02,6.75781e-03,-2.26682e-02,6.07016e-02,1.66756e-01,-1.15424e-03,1.20428e-01,1.55984e-01,1.39990e-01,1.32139e-01,1.34643e-01,1.85301e-01,1.60842e-01,7.96620e-02,1.88092e-01,1.97948e-01,2.50701e-01,2.19708e-01,6.11259e-02,1.44206e-01,-5.19983e-03,1.49180e-02,1.87991e-02,-2.27463e-02,2.96686e-01,3.64924e-02,1.83773e-01,2.00880e-02,-4.57190e-02,-3.06554e-02,-2.20917e-02,1.19803e-01,3.24179e-02,1.30614e-01,1.31869e-01,1.82394e-01,1.82517e-01,2.85845e-01,3.81787e-01,2.74640e-01,8.34550e-02,8.55901e-02,1.57138e-01,2.03228e-01,4.25393e-01,2.42679e-01,-8.64807e-02,2.73832e-01,3.03551e-02,-4.59888e-02,-2.51702e-02,-6.33827e-02,2.50276e-01,-9.73819e-03,2.93522e-02,3.93811e-02,1.27812e-02,5.93402e-02,1.38706e-01,7.66601e-02,4.04326e-02,-1.57523e-02,-5.75585e-02,-7.79899e-02,-4.27586e-03,3.66901e-02,2.54599e-01,9.19764e-02,5.48939e-02,1.43977e-01,1.69923e-01,1.95648e-02,2.31892e-01,1.28705e-01,6.99454e-02,1.15507e-01,1.40934e-02,-1.89767e-02,7.13317e-02,-1.54096e-02,8.85921e-02,-2.11975e-01,-6.61707e-02,9.44234e-03,2.48172e-02,6.38719e-02,1.33025e-01,6.92523e-04,-1.43528e-01,-1.09677e-01,-1.82234e-01,-2.51543e-01,-4.37367e-01,-4.71443e-01,-2.05097e-01,-9.05890e-02,-1.22635e-01,4.92926e-02,2.00710e-01,7.29647e-02,4.13816e-02,4.88541e-02,2.14877e-01,8.11792e-03,5.24050e-03,2.71217e-02,1.35171e-01,3.56621e-02,-1.19074e-01,-2.97793e-01,6.57292e-03,7.89130e-02,5.86461e-02,1.59771e-01,1.68073e-01,7.09078e-02,-1.76691e-02,9.59955e-02,-1.44872e-01,-2.66748e-01,-5.38434e-01,-5.54247e-01,-4.04025e-01,-3.08755e-01,-1.33010e-01,-8.66959e-02,-4.89535e-02,-5.28493e-02,-1.91659e-01,4.57819e-03,2.31678e-01,-6.76545e-02,2.07105e-04,9.20140e-02,1.50640e-01,7.88899e-02,-2.24810e-01,-1.57212e-01,4.99231e-02,1.92364e-01,-2.36865e-02,1.24475e-01,8.14877e-02,-4.33812e-02,-3.48449e-02,8.62072e-02,4.67130e-02,-5.15502e-02,-4.84899e-02,-1.55129e-01,-2.18814e-01,-1.19323e-01,-5.56137e-02,-2.04102e-01,-2.38075e-01,-5.19874e-02,2.79665e-02,1.97970e-01,5.42363e-02,-1.46248e-02,3.94290e-02,7.41825e-02,1.04821e-01,5.19373e-02,-1.51012e-01,-3.66108e-02,5.00280e-02,1.69398e-01,7.97750e-02,7.58835e-02,3.28746e-02,-1.29705e-01,-1.27418e-01,8.69306e-03,5.43248e-02,-7.48821e-02,-8.93036e-02,-6.02117e-02,-8.09639e-02,-1.28707e-01,-5.70116e-02,-1.04133e-01,-8.34091e-02,1.61672e-01,1.45457e-01,1.65562e-01,1.18938e-01,2.86181e-02,7.41955e-02,-1.39142e-02,1.67508e-01,-5.67643e-02,3.29003e-02,-2.33895e-02,7.91518e-02,2.42721e-01,1.82629e-01,1.00351e-01,1.34380e-03,-2.18429e-02,-6.48200e-02,-1.30188e-01,-2.33355e-01,-1.42848e-01,-2.04780e-01,-2.59838e-02,3.15346e-02,-1.30113e-01,-9.42580e-03,-3.15451e-02,-3.10679e-02,8.59684e-02,3.09466e-01,1.25164e-01,1.48249e-01,-7.72348e-03,4.50257e-02,6.22733e-03,7.92717e-02,7.81938e-03,-2.57326e-02,-2.95265e-02,4.93369e-02,1.18579e-01,9.22540e-02,2.12328e-03,-1.53989e-01,-1.61348e-01,-2.45993e-02,-1.52016e-01,-1.15096e-01,-1.76564e-01,-1.98721e-01,-1.43809e-01,-2.35017e-02,3.43134e-02,7.38244e-02,-1.95835e-02,-8.83187e-02,2.59657e-02,2.45643e-01,9.09655e-02,1.63490e-01,2.42514e-02,-1.36428e-02,4.92369e-03,7.24347e-02,1.75443e-01,7.30223e-03,-3.18159e-03,1.72467e-02,2.19969e-01,-6.00832e-02,-1.75323e-01,-9.89540e-02,-1.73661e-01,-2.48367e-01,-1.95161e-01,-1.69637e-01,-8.78063e-02,-2.01662e-01,-1.34009e-01,3.69084e-02,-1.59612e-02,7.35400e-03,-2.27098e-02,-1.10776e-01,-6.71341e-02,9.15469e-02,7.86326e-02,-5.83742e-02,-1.13333e-01,-1.30067e-03,-2.24704e-02,1.46278e-01,1.48383e-02,-1.63608e-01,-1.30819e-01,1.76059e-02,2.16929e-01,-4.49447e-03,-2.73925e-01,-3.11039e-01,-3.01843e-01,-2.65283e-01,-2.03011e-01,-2.04740e-01,-9.96199e-02,-1.25182e-01,-3.81760e-03,-6.42845e-02,2.50758e-02,1.27226e-01,-6.29000e-02,4.60222e-02,3.42922e-02,-1.01011e-01,1.52413e-01,-4.85493e-03,-4.55955e-02,-2.21570e-03,-2.43427e-02,1.27916e-01,-1.34699e-01,-5.42333e-02,-4.63025e-02,2.95336e-02,2.93170e-02,-9.85269e-03,7.74885e-03,-8.37806e-02,-1.45003e-01,-6.44861e-02,1.82368e-02,-3.02215e-02,-6.35991e-02,-1.33924e-01,1.92006e-02,6.46348e-02,6.35760e-02,-3.63251e-02,-7.71617e-02,1.52424e-01,4.36547e-02,-2.22402e-01,6.73643e-02,2.39575e-03,9.46526e-03,-6.94807e-04,4.22473e-02,-4.08629e-02,-4.73118e-02,7.22156e-02,-1.26389e-02,2.63241e-02,-2.97146e-02,-1.18670e-01,-1.71137e-01,-1.07372e-01,1.05557e-02,1.14362e-01,7.91296e-02,-5.77479e-02,3.03598e-02,-9.01028e-02,1.12056e-02,1.03844e-01,3.62384e-02,-5.31115e-02,-1.37580e-01,4.72563e-02,1.38677e-01,-1.98496e-01,1.01803e-01,3.04621e-02,9.64811e-02,3.47448e-02,2.84292e-02,9.30655e-03,2.18252e-01,1.36598e-01,-6.20993e-02,-3.00124e-02,-1.64654e-02,-9.61394e-02,-5.63511e-02,-4.98883e-02,-1.19781e-01,-6.12468e-02,-8.18855e-02,-8.76079e-03,8.01496e-02,1.54817e-02,-6.23915e-03,8.91582e-02,2.84368e-02,5.55391e-02,-1.90432e-01,-5.94302e-02,1.88097e-02,-1.66905e-01,8.89223e-02,8.23893e-03,-3.38070e-04,1.88215e-02,2.15370e-02,3.76120e-02,1.96464e-01,-1.52616e-02,1.51087e-01,8.94895e-02,-2.82393e-02,6.38241e-02,5.04554e-02,2.80397e-02,-5.56109e-02,-1.09801e-01,-1.02038e-01,1.79833e-02,1.32206e-01,9.05451e-03,1.26873e-01,9.63361e-03,-5.30669e-02,-7.21727e-02,-1.55701e-01,-5.49678e-02,8.12836e-02,-8.61989e-02,9.59901e-02,2.97830e-02,2.56800e-02,-2.09870e-02,-2.87914e-02,1.18080e-01,2.33617e-01,-1.57500e-02,2.56885e-01,1.72763e-01,-4.14968e-02,9.50200e-02,1.09570e-01,2.49962e-01,1.15877e-01,9.81676e-02,-3.70870e-07,1.31820e-01,7.97670e-02,9.59726e-02,-4.69721e-03,2.33075e-02,7.35682e-02,3.74299e-02,4.73323e-02,6.45835e-02,1.52199e-01,3.79195e-02,-2.55531e-02,-2.27846e-03,-1.33718e-02,4.57086e-03,3.29604e-02,-7.96407e-03,4.78472e-02,-5.25937e-02,-7.89293e-02,1.06355e-01,8.00572e-02,6.44760e-02,-7.21967e-02,-3.86838e-02,4.55768e-02,8.86009e-02,1.86075e-01,1.58071e-01,1.14583e-01,5.53015e-02,1.02948e-01,2.06877e-01,7.39447e-02,5.43097e-02,1.85626e-01,1.67502e-01,1.50084e-01,2.25637e-01,-1.02797e-03,-3.77034e-02,-1.07329e-02,9.15874e-03,1.79442e-02,-5.59138e-03,-4.20282e-02,-1.00162e-01,-9.73932e-02,-7.55336e-02,-8.24725e-02,-1.34972e-01,-1.76681e-01,-2.28380e-01,-3.45987e-02,1.46995e-01,1.51570e-01,-2.79069e-02,-1.36690e-01,2.81062e-02,9.79366e-02,8.00338e-02,-5.89218e-03,-2.59006e-02,1.14918e-01,1.28021e-01,2.34480e-01,2.37611e-01,-2.20681e-02,-9.60852e-03,-2.58880e-02,3.30321e-02,1.10581e-02,3.15043e-03,1.21510e-02,2.47019e-02,-2.97133e-02,-7.73394e-02,1.78068e-02,-5.59428e-02,-6.85399e-02,7.78710e-02,4.84904e-01,3.19641e-01,2.12589e-01,-1.27127e-01,-1.00824e-01,4.69515e-02,-1.81782e-01,-1.31199e-01,1.28401e-01,1.27302e-01,9.58347e-02,1.66167e-01,9.84366e-02,2.94050e-02,-2.24700e-03,-1.80693e-02,1.42421e-02,-2.81630e-02,1.62671e-03,3.20759e-02,-3.07973e-02,6.26127e-02,1.22009e-01,1.53105e-01,2.07406e-01,6.77245e-02,1.85434e-01,2.04934e-01,1.04721e-01,2.11187e-01,2.49171e-01,4.69763e-02,-1.23105e-01,-1.71142e-01,-1.96198e-01,-2.11786e-01,-2.79181e-01,-5.23105e-02,1.31010e-02,7.38545e-02,1.03830e-01,-1.09383e-02,2.23258e-02,-5.24382e-03,1.74570e-02,
3.30698e-02,1.65940e-02,-7.57372e-03,-1.56566e-02,1.62493e-02,2.70999e-02,1.99334e-02,-1.48450e-02,-1.03180e-02,2.89578e-02,1.60307e-03,-2.31157e-02,-2.22767e-02,1.29130e-02,3.38373e-02,-1.80044e-02,-4.54998e-03,-3.19769e-02,-1.56654e-02,4.16151e-04,6.92593e-04,-3.28734e-02,-2.88713e-02,1.48764e-02,-7.64128e-03,2.33452e-02,-3.24619e-02,2.29483e-02,2.05633e-02,3.02907e-03,2.95352e-02,2.24521e-02,-3.04579e-02,2.19791e-02,-3.27670e-02,4.70195e-02,4.59756e-02,3.00779e-02,3.02153e-02,-2.44600e-02,-5.03849e-02,-2.43387e-02,3.54370e-01,3.37738e-01,3.30016e-01,-4.02208e-02,2.80142e-02,-1.96595e-02,-3.22565e-02,1.81420e-02,-1.99213e-02,-3.43273e-02,2.59348e-02,-2.24338e-02,-2.58740e-02,-5.00009e-03,4.31863e-03,1.77631e-02,-1.90532e-02,-2.76185e-02,2.71988e-02,1.00090e-02,5.72885e-03,5.07619e-02,-4.41468e-02,7.14355e-02,9.98207e-03,-3.46703e-02,-6.41386e-02,-6.24834e-02,-4.14075e-03,1.10480e-01,2.02006e-01,1.23449e-02,-3.58192e-01,-1.76344e-01,-8.66129e-02,-6.95888e-02,-9.17073e-02,7.75431e-02,5.67391e-02,6.88858e-02,-1.22594e-02,1.92647e-02,-1.15939e-02,2.54952e-03,2.29367e-01,2.15358e-01,5.44169e-03,-2.07084e-01,4.91294e-02,2.03066e-01,-3.35522e-02,2.10692e-02,4.74014e-02,-1.49960e-01,-4.53691e-02,4.15690e-03,-2.63754e-01,-1.75825e-01,5.29295e-02,-6.28775e-02,-1.36500e-01,1.42732e-01,6.97557e-02,-1.99641e-01,-1.40323e-01,-7.11121e-02,6.89744e-02,1.08564e-01,-7.52058e-03,-2.99486e-02,1.60449e-02,2.40612e-02,2.32503e-01,2.34125e-01,-1.54879e-01,-1.92667e-01,8.44754e-02,2.95306e-01,1.68509e-01,6.75199e-02,1.16762e-01,2.21021e-01,2.37261e-01,2.87261e-01,1.98026e-01,8.26508e-02,-5.14041e-02,-1.90332e-01,-4.96982e-02,6.17048e-02,-1.08300e-01,5.25049e-02,-1.57395e-01,-1.85197e-01,-8.80309e-02,-6.65687e-02,-3.93893e-02,-3.26007e-02,2.70507e-02,1.97205e-02,2.33420e-01,1.77696e-01,3.06424e-03,-1.33080e-02,6.96051e-02,-9.85206e-02,-2.96019e-01,-1.87533e-01,1.27724e-02,1.34970e-01,1.48493e-01,1.76385e-01,-4.74451e-02,1.23886e-01,5.28616e-02,-2.13530e-01,-1.35744e-01,-4.20511e-02,-1.40614e-01,1.51444e-01,-1.17435e-01,-2.24213e-01,-8.35685e-02,-9.94765e-02,-9.72537e-03,-4.00263e-02,3.30548e-02,-2.39316e-02,1.30586e-02,-2.26528e-02,-5.08360e-02,-1.16356e-01,-1.56570e-01,-4.68094e-02,-2.79554e-01,-3.66188e-01,-2.73993e-02,4.13093e-02,2.93125e-02,7.48162e-02,-1.07210e-02,-9.20043e-02,-1.03470e-02,-1.67529e-01,-2.41816e-01,-4.00655e-01,-1.13062e-01,1.46318e-01,-9.56318e-02,-1.49357e-01,-1.43977e-01,-1.68688e-01,-3.07036e-02,3.15196e-03,-3.52676e-02,-1.09966e-02,-3.15931e-03,-2.94678e-02,-7.79345e-02,-1.37059e-01,-2.32124e-02,1.86996e-02,-2.91036e-01,-1.68396e-01,-2.08672e-03,2.23426e-02,9.60404e-02,8.61026e-02,7.12608e-02,2.96236e-02,-8.98638e-02,-1.27937e-01,-3.14425e-01,-5.65253e-01,-1.43057e-01,-7.98340e-02,-1.60329e-01,-1.66397e-01,-1.70662e-01,-8.49544e-02,-4.67377e-02,-9.62046e-03,-2.16671e-02,-1.67778e-02,9.53090e-03,-5.02595e-02,-8.51489e-02,-8.56191e-02,1.07633e-01,8.77281e-02,-3.22878e-01,-2.54810e-01,-5.09625e-02,-5.53358e-02,1.32706e-01,8.88047e-02,2.11230e-01,8.40084e-02,-1.62705e-01,-2.03072e-01,-4.10067e-01,-5.60657e-01,-7.09175e-02,-8.76929e-02,3.29791e-02,-1.67525e-01,-1.61208e-01,-1.28443e-01,-6.84877e-02,-1.40625e-02,-2.52192e-02,2.53279e-02,-7.32299e-03,-1.88063e-02,-1.06242e-01,-1.56917e-01,2.90120e-02,1.70959e-01,-1.42286e-01,-2.29437e-01,-7.75208e-02,2.19305e-02,2.97439e-02,5.40107e-02,2.20428e-01,8.42908e-02,-1.14741e-01,-2.84615e-01,-2.64974e-01,-1.38702e-01,-3.12116e-01,-1.53624e-01,-7.39368e-02,-1.33555e-01,-1.08962e-01,4.98318e-02,8.44077e-02,1.27928e-01,-2.46725e-03,9.45055e-03,5.58699e-03,3.00707e-02,1.96770e-02,-1.29254e-01,-5.60599e-02,1.59223e-01,-1.28637e-02,-1.65995e-01,1.76319e-01,6.58836e-03,6.34568e-02,9.60217e-02,1.86183e-01,1.35394e-01,-2.20617e-02,-3.97379e-02,-2.67890e-01,6.26044e-03,-3.44163e-01,-1.30880e-01,4.09989e-02,6.06552e-02,-1.95148e-02,1.76267e-01,2.17993e-01,1.91884e-01,2.15722e-02,-1.34240e-02,3.41980e-02,1.25346e-01,1.59650e-01,1.57515e-02,-1.18795e-01,-5.19280e-02,-2.43963e-01,-6.14415e-02,1.14129e-02,-1.37023e-04,9.94868e-03,1.24718e-01,1.86945e-01,7.72660e-02,7.65126e-02,5.47644e-02,-2.79830e-01,-2.57981e-01,-2.78324e-01,-1.97184e-01,1.00195e-01,1.38200e-01,5.89820e-02,2.79530e-01,1.81768e-01,1.37597e-01,-3.23164e-02,1.53774e-02,5.30500e-02,1.75177e-01,1.02019e-01,3.73526e-02,1.07310e-01,1.86593e-02,-1.22662e-01,-5.61741e-02,-8.81576e-02,8.85682e-03,1.63365e-01,1.42319e-01,1.58915e-01,1.74655e-03,4.14348e-03,-1.07316e-01,-2.61418e-01,-3.91018e-01,-9.87778e-02,-3.14460e-02,-1.01135e-01,-2.62208e-02,1.78653e-01,2.36934e-01,5.70283e-02,1.06555e-01,2.29870e-01,1.39272e-02,-4.06165e-03,6.92671e-02,2.07991e-01,1.55483e-01,8.72772e-02,5.41888e-02,-2.27353e-01,-1.21743e-01,-9.69097e-02,-1.95494e-02,7.90891e-02,-7.81544e-02,4.01102e-02,-3.33894e-02,5.69542e-02,3.88894e-02,-1.08124e-01,-1.42002e-01,-1.15014e-01,4.59927e-02,5.87642e-02,9.18926e-02,1.23063e-01,1.99759e-01,2.75111e-03,7.66272e-02,-1.07876e-04,-5.37470e-03,-1.44268e-02,7.86722e-02,1.54378e-01,-7.36954e-02,-1.36585e-01,-1.96960e-01,-1.65504e-01,-5.28689e-02,-1.42419e-01,-1.82531e-01,5.70522e-03,-6.70425e-02,3.29259e-02,-5.64696e-02,6.48976e-02,-6.01069e-02,-9.86679e-02,-1.54913e-01,-1.91290e-01,9.36309e-02,2.64436e-01,2.89019e-01,2.43266e-01,2.43394e-01,2.51486e-01,1.29057e-01,-2.42005e-02,3.21188e-02,3.33431e-02,8.71383e-04,3.21110e-02,-9.93945e-02,-2.02633e-01,6.48463e-03,-4.27740e-02,2.21594e-02,-2.04969e-02,6.69089e-02,8.25790e-02,9.76693e-02,1.06543e-01,-1.06582e-01,1.56361e-02,-8.01720e-02,-5.55645e-02,-2.35341e-01,-2.52172e-01,4.27140e-02,3.93867e-02,1.02028e-01,-5.50609e-03,3.45300e-02,2.20393e-01,2.60421e-01,1.03426e-03,1.24666e-01,6.42107e-04,-1.16944e-03,3.35744e-03,2.04525e-02,-1.35362e-01,-1.95506e-02,-1.13098e-02,2.37404e-01,1.54268e-01,1.01413e-01,1.71245e-02,7.34420e-02,1.32455e-01,-1.31959e-01,-1.85719e-01,-3.06779e-01,-2.62459e-01,-3.20477e-01,-2.48437e-01,-8.94567e-02,-1.11340e-01,-9.85552e-02,-2.74404e-02,9.49905e-03,1.99342e-01,2.08257e-01,-5.76742e-03,9.02721e-02,-2.59457e-02,2.82770e-02,-1.00862e-01,4.06633e-02,-1.68151e-01,-3.58950e-01,-1.06964e-01,6.91492e-02,1.06767e-02,-1.43240e-01,6.19833e-03,6.75634e-02,1.94724e-01,-6.82370e-02,-1.83214e-01,-2.46612e-01,-2.75964e-01,-2.08724e-01,-1.90153e-01,-6.95849e-02,-7.32396e-02,-3.56715e-03,7.26974e-02,9.26008e-02,1.30246e-01,2.73085e-01,5.22977e-03,1.30408e-02,-2.28280e-02,1.18482e-02,-2.60938e-02,-1.10923e-01,-1.65242e-01,-1.88757e-01,-1.26600e-01,-6.67722e-02,-1.70369e-01,-1.74959e-01,-1.16300e-03,1.41974e-01,1.84146e-01,-1.93024e-02,-2.22918e-01,-1.30723e-01,-3.33342e-02,7.88368e-03,1.78148e-01,2.79200e-01,2.25379e-01,1.72173e-01,2.78643e-01,2.93182e-01,1.87115e-01,3.19471e-01,1.82383e-02,2.09727e-02,-1.35232e-01,-1.64954e-01,-1.41386e-01,-1.65076e-01,-5.21826e-02,-8.46282e-03,2.11268e-02,4.03549e-02,-2.67507e-01,-1.02107e-01,2.11572e-02,1.55931e-01,1.45623e-01,-1.70077e-02,-1.04932e-01,-2.08817e-02,5.14405e-02,-1.78902e-02,3.43876e-02,1.93260e-01,1.49626e-01,1.24681e-01,2.89020e-01,4.53453e-01,3.04946e-01,2.23669e-01,1.38446e-02,-9.91006e-03,-1.37662e-01,-1.42965e-01,-1.63273e-01,-2.25899e-01,6.60903e-02,6.30263e-02,7.48552e-02,1.69504e-02,-1.69000e-01,1.98779e-02,1.21615e-01,9.14205e-02,1.49243e-01,2.04075e-02,8.39118e-02,2.31459e-01,1.69176e-01,-9.52120e-02,-1.15349e-01,-1.68244e-01,-1.50712e-01,-5.22500e-02,3.21585e-01,4.78058e-01,2.33140e-01,-2.17495e-02,5.48750e-02,4.62046e-02,-1.05021e-01,-1.32349e-01,-9.03154e-02,-5.56168e-02,-2.52969e-02,-1.12734e-01,7.07265e-02,-1.12613e-01,7.38797e-02,6.92230e-02,1.18372e-01,4.40394e-02,3.95029e-03,9.44217e-02,4.62888e-02,-1.44004e-02,2.24680e-01,1.14202e-01,-1.11549e-01,-2.77254e-01,-1.12657e-01,-1.28433e-03,3.10831e-01,3.52794e-01,2.46406e-01,-2.37335e-03,5.06715e-02,1.88319e-02,-1.39991e-02,-2.95663e-02,-4.50003e-02,3.09414e-02,-3.92302e-02,8.24314e-04,1.83730e-01,-1.56926e-02,9.30746e-02,8.43566e-02,1.00224e-01,-2.12213e-02,-1.20867e-01,-1.26690e-02,-1.69266e-02,6.86813e-02,3.86937e-01,2.42793e-01,1.61388e-01,-2.58412e-03,-4.75487e-02,1.32566e-01,4.13962e-01,2.53416e-01,1.26791e-01,2.25161e-02,1.82036e-02,-4.87442e-03,-2.58092e-03,-6.07931e-02,-5.81175e-03,4.77199e-02,4.91413e-02,-2.50366e-01,-2.05947e-01,1.73266e-02,-3.25374e-03,1.04047e-01,2.20574e-01,6.75013e-02,5.77702e-02,7.63441e-02,1.20550e-01,1.57360e-01,6.88548e-02,1.10462e-01,5.55724e-02,6.59825e-02,2.02698e-02,6.72496e-02,3.33905e-01,1.94174e-01,3.20693e-01,2.17156e-02,2.72724e-02,-2.56367e-02,-2.71253e-02,3.81316e-03,1.80984e-02,1.01087e-02,4.07001e-02,-9.64756e-02,-3.04639e-02,-1.06114e-01,1.99813e-01,4.88797e-02,-1.77903e-01,-2.10857e-01,-1.24536e-01,-1.92096e-01,-2.38696e-01,-6.53931e-02,-1.02446e-01,5.14149e-02,5.76684e-02,1.04578e-01,2.61549e-02,4.22745e-01,1.72848e-01,1.46381e-01,1.29913e-01,2.13274e-02,4.39267e-03,8.02593e-03,3.07657e-02,-2.86458e-02,1.35187e-02,-4.48720e-02,1.86487e-03,-4.91230e-02,-1.26793e-01,-1.11721e-01,-2.47442e-01,-2.65304e-01,-4.91804e-01,-3.08940e-01,-2.40057e-01,-4.24034e-01,-4.48609e-01,-3.98752e-01,-3.17759e-03,1.95716e-01,8.34204e-02,6.75145e-02,2.50140e-02,-1.48020e-02,-3.36795e-02,1.24570e-02,-1.59313e-02,-1.48681e-02,3.42995e-02,2.40529e-02,-1.76310e-02,-2.87936e-02,3.75551e-03,-3.30743e-02,-2.01609e-02,2.63221e-02,-3.63221e-02,-1.05559e-01,-9.11297e-02,-1.46413e-01,-2.70527e-01,-2.81051e-01,-3.43854e-01,-2.83738e-01,-1.59147e-01,-1.12459e-01,1.71341e-01,2.26880e-01,7.95247e-02,8.03932e-02,9.84660e-03,1.69800e-02,-2.59551e-02,2.06644e-02,1.22616e-02,-3.21962e-03,1.76217e-02,3.32614e-02,3.43850e-02,2.75250e-02,-3.08500e-02,-1.98395e-02,-2.62607e-02,-9.35462e-03,2.20029e-02,3.27377e-02,-1.85458e-02,2.11057e-02,2.60392e-02,1.47279e-02,1.76753e-02,-3.17943e-02,1.00099e-02,-2.54008e-02,-1.76977e-03,-2.60278e-02,8.18689e-03,-1.11813e-02,2.72136e-02,2.85864e-02,3.12569e-02,-4.79053e-03,-1.24731e-02,-2.79814e-02,
2.81357e-02,1.95901e-03,-3.18145e-02,-1.63794e-02,5.54359e-03,1.35643e-05,-9.77329e-03,-1.24956e-02,3.56708e-02,-2.29177e-02,2.09535e-02,2.79535e-02,6.50940e-03,-1.23537e-02,2.43518e-03,-4.88129e-02,1.08898e-02,2.02540e-02,3.14122e-02,1.34145e-02,-2.32662e-02,1.24756e-02,1.58017e-02,1.63680e-02,-3.22462e-02,1.65514e-02,3.41086e-02,9.22942e-03,-1.94744e-03,1.76170e-03,-1.04388e-02,-3.09269e-02,1.87996e-02,8.47339e-03,9.98966e-02,9.50362e-02,5.13637e-02,2.19532e-02,2.03119e-01,3.43547e-02,3.58911e-02,-5.20434e-02,-6.12798e-02,-1.70047e-01,-2.63364e-01,-2.94547e-01,5.45638e-02,3.18942e-01,3.50898e-01,2.27197e-01,1.83960e-01,1.09871e-01,2.10642e-02,1.64328e-03,-2.27876e-02,-2.64941e-02,2.86226e-03,-2.62728e-02,2.54430e-02,-5.82878e-03,3.36515e-02,3.86812e-02,1.02678e-01,1.56898e-01,1.94547e-01,8.53979e-03,9.00340e-02,1.17489e-02,-1.87407e-01,-2.29399e-01,-1.85893e-01,-2.38623e-01,-1.39171e-01,1.38398e-01,8.14754e-02,3.11686e-01,3.42873e-01,3.34824e-01,4.41517e-01,1.96491e-01,1.44704e-01,1.16344e-01,2.71118e-02,-2.18244e-02,4.52395e-04,-8.42223e-03,-7.23011e-02,-2.04430e-01,-1.59613e-01,1.23793e-01,1.90103e-01,1.31484e-01,9.28631e-02,6.82227e-02,1.72031e-02,-2.27055e-01,-3.41282e-01,-4.71199e-01,-2.49006e-01,-2.89713e-01,-2.04482e-01,1.24204e-01,7.48541e-02,3.93662e-02,6.60393e-02,1.33266e-01,1.57285e-01,2.90881e-01,3.55934e-01,-6.97348e-02,-7.36621e-02,4.80767e-03,2.97924e-02,3.02254e-02,-9.85839e-02,-1.65707e-01,1.05788e-01,1.98612e-01,-6.16274e-02,-1.92171e-01,-8.63270e-02,3.12482e-02,-2.29269e-01,-4.77898e-01,-4.32243e-01,-2.14728e-01,-8.86755e-02,-8.77168e-02,-4.25774e-02,4.50355e-02,-9.12565e-02,-6.78178e-03,-3.94204e-02,-6.02775e-02,-1.03359e-01,1.37421e-01,4.53996e-02,-1.69784e-01,-7.93580e-02,2.03199e-01,-3.35830e-02,3.27558e-02,1.45712e-02,-3.83555e-02,6.31187e-02,4.64315e-02,-6.81732e-02,-1.14672e-01,1.08323e-01,1.40116e-01,-1.36840e-01,-6.46957e-01,-3.37321e-01,-1.31510e-01,7.65590e-02,1.70491e-01,5.40778e-02,4.04602e-02,-1.70898e-02,-7.69753e-02,-1.24841e-01,-7.53380e-02,-8.62381e-02,8.66640e-02,1.22341e-01,-8.00437e-03,-6.60988e-02,2.46579e-01,-5.28272e-03,-1.51085e-01,-2.68267e-02,-9.09168e-02,-5.32322e-02,1.27104e-01,2.66050e-02,-5.40398e-03,2.86232e-02,-8.82077e-03,-3.65890e-01,-8.00617e-01,-4.35373e-01,-2.96167e-01,4.56273e-02,1.25164e-01,-6.25595e-02,2.26383e-02,-8.81187e-02,-1.06005e-01,-8.82516e-02,-4.74289e-02,2.10505e-01,7.54487e-02,2.12683e-01,1.09410e-01,7.80632e-02,2.03073e-01,2.94594e-02,-2.89037e-01,-1.41140e-01,8.43035e-02,1.85386e-01,2.80446e-01,5.84710e-02,1.85038e-01,7.67409e-02,3.64922e-02,-2.39903e-01,-6.78914e-01,-3.88528e-01,-1.50782e-01,6.53887e-02,1.06465e-01,-8.09635e-02,5.97903e-02,-7.15537e-02,-1.25091e-01,-9.84350e-03,1.75597e-01,5.72401e-02,7.15487e-02,1.51970e-01,6.46350e-02,2.17538e-01,2.17740e-01,1.34307e-01,-2.06137e-01,-5.99284e-02,3.78437e-02,6.82138e-02,1.80056e-01,5.69554e-02,1.42983e-01,1.02542e-01,8.78222e-02,-1.12304e-01,-5.08171e-01,-3.84017e-01,-6.88243e-02,7.24837e-02,4.13117e-02,-4.25329e-02,2.95059e-02,-1.18457e-01,-1.15275e-01,-4.52880e-02,1.12105e-02,-8.17028e-02,4.00676e-02,7.34966e-02,5.98949e-02,1.59322e-01,-4.48904e-02,-5.45924e-02,-2.52776e-01,-9.54073e-02,-1.60422e-01,1.07970e-01,1.08734e-01,-6.58539e-02,7.99596e-02,9.02592e-02,4.87954e-02,-1.55383e-01,-4.39162e-01,-3.18698e-01,-8.17053e-02,1.04966e-01,1.91939e-01,1.09928e-01,4.55455e-02,1.06900e-01,-1.05750e-01,-1.60358e-01,-1.74472e-01,-1.81728e-01,3.66091e-02,4.84444e-02,-2.27497e-01,1.38080e-01,-1.90124e-02,-1.60527e-02,-1.02577e-01,-2.20850e-01,-1.98880e-02,1.35689e-01,6.97412e-02,-1.34469e-01,8.93722e-02,-6.80935e-04,-4.45392e-02,-2.49732e-01,-5.07601e-01,-1.57668e-01,8.13488e-02,2.46561e-01,1.71043e-01,1.31794e-01,1.58323e-01,6.63756e-02,-8.99440e-02,-2.80859e-01,-4.07459e-01,-2.97938e-01,-1.66532e-01,-2.65452e-01,-2.86235e-01,-1.28255e-01,6.44672e-03,-7.02793e-03,-6.06315e-02,-4.44997e-02,-5.22938e-02,-4.63858e-03,1.77692e-01,-4.16925e-02,2.22572e-02,8.07347e-02,7.11202e-03,-4.11656e-01,-3.36523e-01,4.84837e-03,1.98938e-01,9.56272e-02,-4.69168e-02,5.20504e-02,5.18995e-02,-1.19898e-02,-1.56263e-01,-3.54399e-01,-2.75681e-01,-2.43348e-01,-2.99241e-01,-3.74579e-01,-2.92621e-01,-2.09329e-01,-2.66914e-02,-3.18098e-02,-3.67953e-02,-1.93543e-01,-1.48008e-01,-5.19569e-02,1.05262e-01,2.64292e-02,-1.73228e-02,-6.09561e-02,-1.74763e-01,-2.18109e-01,-7.79071e-02,2.76545e-01,3.72476e-01,6.52499e-02,-8.22514e-02,2.80434e-02,-7.89377e-02,8.67117e-03,-2.13704e-01,-1.47104e-01,-1.67533e-01,-1.61176e-01,-2.03905e-01,-1.90667e-01,-2.02628e-01,-4.36292e-01,-1.35484e-01,1.89551e-01,2.36140e-02,-1.86012e-01,-1.67612e-01,-9.37295e-02,2.50779e-02,-2.04814e-02,-5.38272e-02,-1.89908e-01,-2.59824e-01,-1.15337e-01,9.11084e-02,1.86548e-01,1.75025e-01,4.81422e-02,-5.15205e-02,2.59554e-02,1.03385e-01,1.53701e-01,8.92354e-02,6.80525e-02,-3.72803e-02,-3.53659e-01,-2.46559e-01,-3.70601e-01,-3.61648e-01,-4.56083e-01,-9.54380e-02,-1.58701e-02,8.58363e-02,1.57646e-02,-5.22634e-02,-5.82206e-03,1.77644e-01,1.61602e-02,8.40951e-02,-7.64580e-02,-4.66681e-02,6.88184e-02,1.97138e-01,1.94777e-01,1.06393e-01,5.44754e-02,5.20703e-02,7.86669e-02,1.82300e-01,1.29157e-01,1.62061e-01,7.39324e-02,-6.53867e-02,-2.41986e-01,-4.06626e-01,-4.16485e-01,-1.03910e-01,-1.97261e-01,-1.02791e-01,1.17935e-02,1.38221e-01,4.26421e-03,5.11615e-02,1.92899e-01,-2.98095e-03,-1.12648e-02,5.73060e-02,5.04756e-02,-2.36396e-02,6.53286e-02,1.47287e-01,1.80758e-01,1.67716e-02,1.17545e-02,6.34568e-02,1.05180e-01,5.44282e-02,1.00673e-01,1.09159e-01,2.74621e-02,-1.79193e-01,-2.10764e-01,-2.58055e-01,-2.39148e-01,-7.18377e-02,-7.35640e-02,-1.19970e-02,-3.38697e-02,-5.32956e-02,-1.84935e-02,3.92999e-02,1.97742e-01,1.25214e-02,4.27947e-02,1.72172e-01,-1.00943e-02,-6.51712e-03,-1.00208e-01,5.63478e-02,1.32088e-01,3.07868e-02,4.69786e-02,7.67038e-02,1.22243e-01,-6.78802e-03,3.93839e-02,4.76403e-02,1.38463e-01,-2.15342e-01,-3.07492e-01,-2.73828e-01,-1.17182e-01,-1.10113e-01,-4.43687e-02,-9.45221e-02,2.37563e-04,-2.08256e-02,-3.32402e-02,1.21340e-01,2.85152e-01,-8.92215e-02,-1.93977e-02,7.35173e-02,-9.60467e-02,-2.94181e-02,-2.14985e-02,-7.86982e-02,-1.38184e-01,-5.47360e-02,8.79453e-03,2.66399e-02,1.18758e-01,-1.01902e-01,-1.00798e-01,3.44875e-02,5.30408e-02,-1.39798e-01,-3.07170e-01,-1.83960e-01,-3.31408e-01,-2.40473e-01,-7.85557e-02,-2.18505e-01,-3.72952e-01,3.72659e-02,-1.11240e-02,1.32831e-01,3.02815e-02,-5.99527e-03,-3.18650e-02,-5.21440e-02,-1.73624e-01,-1.61921e-02,-6.87469e-02,2.53575e-02,-2.60125e-02,3.74655e-02,1.07515e-02,2.26074e-02,6.55449e-02,-8.71250e-02,4.50765e-02,-3.31030e-02,-2.49100e-02,-5.43640e-02,-3.26604e-01,-2.79974e-01,-3.20778e-01,-2.98785e-01,-8.38738e-02,1.83281e-01,2.27930e-02,-9.57279e-03,-2.24394e-02,-7.80322e-02,-8.69279e-02,-2.90799e-02,-3.23954e-02,-2.49599e-02,-1.58709e-01,-6.36633e-02,-9.66679e-03,9.14437e-02,7.67354e-02,5.50380e-02,1.38249e-02,6.34877e-02,7.16884e-02,5.82965e-02,8.05125e-02,-1.28456e-01,-1.14898e-01,3.04166e-02,-1.28168e-01,-2.33484e-01,-1.81865e-01,-1.51671e-01,7.16757e-02,1.93068e-01,1.06640e-02,1.33890e-01,-1.49823e-01,-2.68296e-01,-2.99344e-01,-5.01273e-03,-1.28969e-03,1.66920e-03,-7.26664e-02,2.91773e-02,7.81986e-02,2.51666e-02,1.22760e-01,3.75640e-02,1.85459e-02,1.69649e-02,1.29585e-01,1.13539e-01,1.16755e-01,-1.79610e-01,-2.13475e-01,-1.02158e-01,-7.40017e-02,-2.26406e-01,-2.00471e-01,3.22140e-03,9.60900e-02,4.34831e-05,1.32068e-01,6.56556e-02,-3.77689e-01,-3.99319e-01,-3.38138e-01,-8.61167e-02,-6.40715e-02,3.52655e-02,9.70883e-03,7.85380e-03,1.18889e-01,2.23593e-02,2.77995e-03,2.33037e-02,-4.04511e-02,3.31716e-02,9.77394e-02,2.05460e-03,-2.20338e-02,-1.13359e-01,-2.56032e-01,-3.10167e-02,9.36211e-02,-1.12753e-01,-1.26494e-01,-8.78522e-03,6.46799e-02,1.03932e-02,1.13542e-01,7.24396e-02,5.72003e-02,-3.00512e-01,-3.09658e-01,-3.63542e-01,-1.31715e-01,-8.71303e-02,7.94650e-02,-6.09887e-02,2.50390e-02,-8.95817e-02,-2.74125e-02,-7.12775e-02,-5.54638e-02,-6.03439e-02,5.64655e-02,-1.16484e-01,-4.47014e-05,1.00751e-01,-3.76797e-02,2.34676e-01,1.80143e-01,5.45001e-02,1.20503e-01,5.50037e-02,5.93712e-02,1.42704e-02,5.80924e-03,6.28004e-03,-5.80169e-02,-9.51251e-02,-1.72043e-01,-1.91454e-01,-5.33290e-02,-2.35399e-02,-2.62315e-02,6.15524e-02,-3.20211e-02,7.53555e-03,-3.45386e-02,-1.74214e-01,-1.44093e-01,-1.33022e-01,-8.38238e-02,-6.94753e-02,2.48831e-01,1.27464e-01,1.57387e-01,2.74284e-01,-1.70327e-02,1.42752e-02,5.20860e-02,1.18815e-01,1.57088e-01,-1.65051e-02,1.73393e-02,2.86166e-02,-6.72218e-03,-8.20324e-02,-2.62173e-01,-4.27067e-01,-1.56412e-01,5.86536e-02,-9.38338e-03,7.13370e-02,-3.73392e-02,-5.51356e-03,1.14383e-02,-6.71531e-02,7.82573e-02,-6.13451e-02,-1.16528e-01,2.88856e-03,2.33049e-01,1.11279e-01,2.07848e-01,1.42527e-01,-4.22924e-02,1.38996e-01,4.93840e-02,9.49712e-02,3.55439e-02,-1.93221e-02,-3.51602e-02,-4.36230e-03,2.39626e-02,4.41660e-03,-1.49618e-01,-1.92278e-01,-2.19669e-01,-2.27909e-01,-5.61587e-02,-4.46566e-02,-2.72101e-01,-1.42291e-01,-1.21360e-01,-1.16999e-01,-4.97096e-02,-1.13901e-01,-1.58523e-01,-5.07198e-02,-6.93428e-02,-3.56525e-01,-1.47529e-01,-1.57455e-01,-5.78504e-03,1.15450e-02,-9.83634e-02,-7.21197e-03,-1.42169e-02,-9.33344e-03,1.43436e-02,6.52163e-03,1.46162e-02,2.85220e-02,-6.29290e-02,-6.00898e-02,-1.00394e-01,-3.81491e-04,3.35207e-02,-4.98825e-02,-9.41978e-02,-7.35792e-02,-5.03887e-01,-4.93617e-01,-3.25668e-02,1.27656e-02,-1.99921e-01,-3.44289e-01,-1.85687e-01,-1.31131e-01,-4.25287e-01,-3.60915e-01,-2.58681e-01,-1.62458e-01,-4.85838e-02,-2.98895e-02,2.89064e-02,-2.37872e-03,1.41545e-02,7.69066e-04,1.95547e-02,-6.24592e-03,8.98307e-03,1.17680e-02,-1.92426e-02,-7.89725e-02,-1.09073e-01,-8.32898e-02,-3.15206e-01,-2.16238e-01,-3.45284e-02,-1.27042e-01,-1.73272e-01,-3.96476e-02,-4.05319e-02,-1.52921e-01,-1.52098e-01,1.99039e-04,-1.62062e-02,9.35135e-03,2.10111e-02,-2.15367e-02,-9.10458e-03,-1.19733e-02,-1.72696e-02,2.53790e-02,
3.30540e-02,1.26357e-02,-5.92660e-03,-2.71149e-02,2.42394e-02,2.39884e-03,-1.83618e-02,-3.48425e-02,-4.77800e-03,-2.72745e-02,1.51185e-02,2.60967e-02,3.21615e-03,3.23212e-02,-1.29036e-02,-3.83679e-02,3.47132e-02,-1.66614e-02,-1.27814e-02,2.05937e-02,-1.11073e-02,-3.17862e-02,2.86022e-02,1.12879e-02,-9.27023e-03,1.41834e-02,3.54836e-03,-2.23455e-03,1.68871e-02,-3.18310e-02,-1.63348e-02,-2.93208e-02,6.54429e-03,-2.55836e-02,-8.12922e-02,-6.57213e-02,-4.72006e-02,-2.76125e-02,6.90179e-02,3.51798e-02,-1.26439e-02,-3.20829e-02,8.70236e-02,1.30610e-01,1.19614e-01,1.08574e-01,7.16675e-02,-3.45467e-02,-5.00997e-02,-3.88791e-02,-1.53153e-01,-1.11601e-01,-2.64074e-02,-2.18163e-02,-3.18809e-02,1.28863e-02,-5.13837e-03,2.81957e-02,-3.47570e-02,-9.77932e-02,-8.55145e-02,1.14215e-02,-5.35995e-02,-7.54860e-02,-1.03957e-01,-6.36027e-02,-4.52607e-02,-3.81813e-02,-2.25419e-04,6.62990e-02,8.52442e-02,9.94139e-02,8.98517e-02,2.95299e-01,2.51916e-01,2.29028e-01,1.72842e-01,1.18086e-01,5.13631e-02,9.73954e-03,9.51085e-03,3.87321e-02,-3.49249e-02,-3.30036e-02,2.31747e-02,6.41463e-03,-2.77022e-02,-3.09252e-02,-1.76736e-01,-1.38876e-02,-1.70428e-01,-1.92729e-01,-1.74961e-01,-1.42134e-01,-9.39570e-02,1.04971e-01,5.91983e-02,-5.75143e-02,-1.66004e-01,-1.47671e-01,2.83526e-02,-1.51729e-01,-2.36462e-01,-1.31994e-01,-1.02711e-01,-1.12827e-02,-7.55276e-02,-9.09294e-02,8.79289e-03,1.08561e-01,2.72178e-02,1.71208e-02,3.54273e-02,-2.39457e-02,-1.23078e-02,-1.23996e-01,-2.60362e-02,2.87284e-02,-9.46963e-02,-1.58860e-02,6.52585e-02,1.11371e-01,2.68270e-01,2.49529e-02,1.04797e-01,3.51743e-02,3.66103e-02,8.82638e-02,1.19292e-01,1.24169e-01,1.16868e-01,8.85367e-02,4.44529e-02,5.94479e-02,-7.83820e-03,1.10800e-01,8.81128e-02,1.08569e-01,3.09613e-02,2.68516e-02,2.78448e-02,9.44785e-03,-1.34730e-02,-9.48394e-02,-4.67908e-02,6.85740e-02,6.73449e-02,-8.14230e-02,-3.46887e-02,-9.19851e-02,-1.91555e-01,-1.67978e-01,-1.95376e-01,-6.37902e-02,8.14739e-02,3.04174e-02,4.08680e-02,9.88432e-02,1.08857e-01,4.28206e-02,1.48010e-01,3.15827e-01,1.96208e-01,1.44388e-01,1.70138e-01,2.05753e-01,3.47256e-02,1.20259e-02,2.91920e-02,2.68630e-02,-2.33777e-02,-2.17973e-01,-9.28483e-02,4.67562e-02,1.07787e-01,-1.60197e-01,-4.42929e-02,-5.41015e-02,-2.93366e-01,-2.27278e-01,-2.63047e-01,-8.09809e-02,-1.19568e-01,-1.28710e-01,-1.63082e-02,1.37508e-02,6.02102e-03,-6.83180e-02,-3.45783e-02,1.18820e-01,6.17268e-02,-4.74628e-04,-6.90693e-02,1.05780e-01,3.20802e-01,-2.03898e-02,3.92714e-02,2.76444e-02,-3.27741e-03,-6.55957e-02,-3.80240e-02,2.51800e-02,-1.74925e-01,-2.76466e-01,-1.24267e-01,-1.72494e-01,-1.42808e-01,-9.62910e-02,-7.94781e-02,-6.55956e-02,-1.41864e-01,-9.87575e-02,-9.11967e-02,1.60784e-02,-6.87988e-02,-3.55105e-02,-1.38021e-02,5.32926e-02,1.37214e-01,-3.04271e-02,1.73147e-01,8.34698e-02,3.69930e-01,-3.35436e-02,9.09952e-02,-6.28993e-02,2.31316e-01,6.50810e-02,4.75466e-03,-4.50535e-02,-1.45070e-01,-1.58462e-01,-2.01423e-01,-1.78601e-01,-3.86286e-02,-5.02321e-02,-2.29855e-01,-1.10441e-01,-3.45750e-02,-4.71043e-02,-1.86026e-02,-1.78624e-02,-3.79251e-02,-1.31844e-02,1.11935e-02,1.05661e-01,6.99553e-03,-6.46776e-02,1.82344e-01,-1.31335e-02,4.08711e-02,1.72066e-02,-4.69316e-02,-6.88689e-02,1.69673e-01,3.68955e-02,-1.10239e-01,-9.15907e-02,-1.27040e-01,-1.77913e-01,-2.45095e-01,-1.46799e-01,-9.63730e-02,-2.22455e-01,-1.53937e-01,-4.42734e-02,3.60531e-02,-6.96825e-02,-1.64830e-02,2.33611e-02,1.97772e-02,6.84665e-02,5.82494e-02,1.64801e-02,-9.13492e-02,-1.44630e-01,-1.80494e-02,-1.13073e-01,4.26874e-02,1.64148e-02,-8.16603e-02,2.94665e-02,-1.41346e-01,4.46796e-03,3.24104e-02,3.79580e-02,-1.32125e-01,-1.56809e-01,-1.83203e-01,-1.66940e-01,-1.71883e-01,-1.38356e-01,-6.96966e-02,-1.15133e-01,-1.26157e-01,-2.59870e-01,-1.20466e-01,-2.67569e-02,5.78610e-02,8.94179e-02,-3.25711e-02,8.87295e-03,-1.14023e-01,-8.19912e-02,-1.69286e-01,7.03377e-02,-2.25324e-03,-6.53477e-02,7.87381e-03,-2.72517e-02,-3.40672e-01,-9.59090e-02,-1.04123e-01,7.63891e-02,9.45763e-02,7.23100e-02,5.51525e-02,-1.05463e-01,-4.74651e-02,-4.98207e-02,1.85165e-03,-1.01792e-01,-2.26753e-01,-3.31169e-01,-1.35594e-01,-1.88949e-02,-3.08748e-02,5.52149e-02,3.54430e-02,-2.90175e-02,-2.03503e-01,-1.26315e-01,-1.54716e-01,1.24010e-01,-8.52495e-03,1.82759e-02,1.78202e-02,-1.16102e-01,-1.38388e-01,-4.83337e-02,-4.96062e-02,1.79812e-01,2.60537e-01,7.58620e-02,8.63721e-03,1.61112e-03,1.24347e-01,6.63176e-02,3.42649e-02,-1.00275e-01,-3.60052e-01,-2.93518e-01,-1.36671e-01,-1.55448e-01,-9.18304e-02,4.32767e-02,6.10729e-02,-1.82657e-02,-7.34307e-02,-8.14563e-02,6.14006e-02,2.56943e-01,9.90734e-02,4.57712e-03,3.04302e-02,-3.31521e-02,-4.60264e-02,-2.53188e-02,-1.20944e-02,2.33411e-01,3.33710e-01,1.61809e-01,2.09651e-01,8.43062e-02,1.63886e-01,1.21383e-01,5.20999e-02,-8.58857e-02,-2.25229e-01,-3.70005e-02,6.46863e-02,1.13140e-01,-1.20312e-02,1.53814e-01,8.31938e-02,4.50310e-02,4.50215e-03,-7.37597e-02,6.70119e-02,-2.71856e-03,-2.77973e-01,-5.24622e-02,8.50648e-04,-2.83116e-02,-1.72216e-01,1.17758e-01,2.52638e-02,2.39286e-01,1.95513e-01,3.01843e-01,3.53059e-01,1.83287e-01,1.28656e-01,3.95557e-02,-1.40792e-02,1.16044e-01,7.47349e-02,1.18398e-01,1.58187e-01,7.36442e-02,1.84045e-02,1.46712e-01,2.97411e-02,-5.25130e-02,-8.68664e-02,-2.32999e-01,-1.81508e-02,2.12475e-01,1.68661e-03,-3.17824e-02,-1.32598e-02,-3.08392e-02,1.60926e-01,5.59426e-01,2.22558e-01,3.52149e-02,1.07348e-01,1.41591e-01,2.33256e-01,1.95224e-01,2.06609e-01,7.63022e-02,2.31336e-01,2.73971e-01,1.69959e-01,1.24335e-01,1.85576e-01,1.40759e-01,3.23255e-02,6.08878e-02,-1.75050e-01,-1.25675e-01,-1.70398e-01,-1.96411e-01,-1.48468e-01,9.90500e-02,9.45888e-02,8.71950e-02,-1.44812e-03,-9.82480e-02,-3.84187e-02,3.97755e-01,2.25128e-02,3.16406e-02,7.48265e-02,2.00705e-01,1.37153e-01,4.33226e-02,-4.65066e-03,8.57667e-02,7.08302e-02,1.07719e-01,1.14844e-01,2.15774e-01,2.36843e-01,1.25476e-01,4.28562e-02,-1.18882e-01,-1.85971e-01,-7.23535e-02,-7.25926e-02,-1.95307e-01,-1.12111e-01,1.12673e-01,2.64271e-01,3.69392e-02,-9.20882e-03,-5.69965e-02,8.57381e-02,1.81544e-01,2.29188e-01,4.23245e-02,1.52814e-02,2.79126e-02,6.29406e-02,-1.80390e-02,4.53634e-02,8.74050e-02,4.25698e-02,1.77186e-01,1.78685e-01,1.20467e-01,1.63060e-01,4.67743e-02,-1.32295e-01,-2.16832e-01,-2.95673e-01,-7.36113e-02,7.73477e-02,6.93354e-02,-8.67565e-03,1.56880e-01,3.93642e-01,1.16942e-01,-1.81483e-01,-2.85423e-02,4.56353e-02,2.58873e-01,3.46071e-01,2.37889e-02,6.07319e-02,1.68330e-01,2.03355e-01,-5.52380e-02,-9.92881e-02,1.02567e-02,4.18343e-02,1.90082e-01,2.64719e-02,-1.07079e-01,2.95778e-02,-3.06635e-02,-2.36000e-01,-2.32119e-01,-3.19496e-01,-1.11098e-01,-5.47955e-02,2.00792e-02,-3.51848e-02,1.26896e-01,2.66100e-01,1.88282e-01,-3.51264e-02,-1.76774e-01,1.23480e-01,1.99223e-01,2.90663e-01,1.57213e-02,-4.85151e-02,1.69449e-02,1.31888e-02,-2.29087e-01,-1.75679e-01,-7.12298e-02,1.62711e-03,-2.43504e-02,-5.29397e-02,-6.00718e-02,4.94962e-02,-1.59370e-02,-2.18801e-02,-1.65984e-01,-3.13086e-01,-4.62443e-02,-1.67638e-01,2.18740e-02,2.41691e-02,-1.76945e-01,2.11194e-01,4.61110e-03,-2.56088e-02,7.79439e-02,5.15940e-02,1.39106e-01,3.15739e-02,-1.34489e-01,-2.32068e-01,-1.40332e-01,-1.18259e-01,-2.60768e-01,-2.60804e-01,-9.29541e-02,-1.05268e-01,-1.01706e-01,-1.82632e-01,-2.21808e-01,6.38295e-02,3.24064e-02,2.23907e-02,-1.67356e-01,-2.22639e-01,-1.38032e-01,-1.84694e-01,-1.57099e-01,4.13041e-02,-2.48884e-01,8.80631e-02,-1.21205e-02,2.42854e-02,1.21070e-01,-6.83586e-02,1.13583e-01,5.13127e-02,-8.74444e-02,-2.89754e-01,-2.63019e-01,-1.63689e-01,-2.17837e-01,-2.99363e-01,-1.58369e-01,-1.83576e-02,-5.81691e-02,-1.99194e-01,-1.37741e-01,-4.60269e-03,2.30498e-02,-6.11501e-02,-1.27379e-01,-1.47910e-01,-1.06925e-02,-2.90838e-02,-8.14356e-02,-1.75390e-01,-3.00850e-01,-3.43512e-02,3.32092e-02,2.83090e-02,-1.13975e-02,-3.78899e-02,2.21229e-01,2.19822e-01,-4.54066e-02,-3.10548e-01,-2.46019e-01,-7.19594e-02,-1.73851e-01,-6.90133e-02,-1.82324e-02,-1.44009e-01,-1.02981e-01,-1.98139e-01,1.25577e-02,-2.57944e-02,-9.27085e-02,-5.04205e-02,-1.34258e-01,-6.42414e-02,6.53651e-02,1.25608e-01,3.78112e-02,-1.43245e-01,-1.62194e-01,8.61677e-03,3.36942e-02,-1.32725e-02,2.84418e-03,-1.69476e-02,3.05681e-01,2.50852e-01,1.22386e-01,-7.79764e-03,-7.87950e-02,-6.81197e-02,-6.04532e-02,-9.06999e-02,-9.53475e-02,-2.17492e-01,-1.91233e-01,-1.99974e-01,4.76376e-02,-6.02205e-02,-1.16680e-01,-6.97775e-02,-1.24230e-01,-5.65843e-02,1.26860e-01,1.41766e-01,5.93539e-02,1.75177e-02,3.02453e-02,4.78018e-04,3.49060e-02,7.42681e-03,9.45904e-04,1.83384e-02,-4.93566e-02,5.46878e-02,4.99736e-02,-4.46353e-02,-5.70211e-02,5.62014e-02,1.22524e-01,-1.89205e-01,-2.25441e-01,-1.12052e-01,5.44308e-02,-1.25370e-01,-8.06112e-02,-6.17189e-02,-6.75430e-02,-2.16746e-02,-1.48059e-02,7.64978e-02,1.96550e-01,-3.06504e-02,1.32062e-01,-1.19721e-01,1.92380e-01,2.69493e-02,-3.51847e-02,2.17028e-02,-1.41952e-02,2.55875e-01,-3.50964e-02,-6.09601e-03,3.60970e-02,-4.61849e-02,4.00789e-02,1.00050e-01,-8.80704e-02,-1.77338e-01,2.41103e-02,8.89599e-02,5.77201e-02,-5.22454e-02,2.45514e-02,4.08909e-02,-1.45560e-01,-1.05942e-01,-2.17078e-01,-1.40666e-01,4.95969e-02,-1.69836e-01,4.15309e-02,-2.29151e-01,1.48606e-01,1.84447e-02,1.10680e-02,-1.58522e-02,2.70936e-02,5.77000e-03,1.85100e-01,2.69831e-01,1.59125e-01,3.02934e-01,2.58523e-01,2.34257e-01,1.33645e-01,8.56207e-03,3.54635e-02,1.85463e-01,1.22678e-01,-4.31732e-02,-7.16930e-02,-9.07065e-02,-5.75409e-02,1.52826e-02,-8.27169e-03,-8.71184e-03,4.44004e-02,-2.45719e-01,-1.09289e-01,9.56481e-02,-4.57122e-02,-1.73488e-02,2.21392e-02,1.28770e-02,1.22741e-02,-1.86596e-02,2.73157e-02,-6.18367e-03,-5.00008e-03,-1.69002e-01,-1.37924e-01,-1.83893e-01,-1.65510e-01,-3.71958e-02,8.70270e-02,1.31226e-01,3.51540e-02,-2.15496e-01,-1.10910e-01,-1.93848e-01,-1.13917e-01,-3.13725e-02,1.52318e-01,1.06923e-01,2.95945e-02,-7.10263e-02,-1.95594e-01,2.38999e-02,-1.78356e-02,2.93695e-02,-2.85336e-02,
-1.41023e-02,-3.49848e-02,-2.37040e-02,-2.83701e-02,-1.86949e-02,2.62537e-04,2.84354e-02,-6.30099e-03,2.72166e-02,2.79015e-02,1.33643e-02,-1.08045e-02,-1.46272e-02,2.59439e-02,-2.00622e-02,-1.46994e-03,4.71539e-03,-1.76324e-02,2.81969e-02,2.55683e-02,3.41265e-02,9.37218e-03,-1.84948e-02,-7.61973e-04,1.11968e-02,9.70449e-03,8.94989e-03,1.83626e-02,3.12402e-02,-1.54856e-02,1.76913e-02,-1.99085e-02,-9.92778e-03,2.30371e-02,-2.03779e-02,5.67640e-03,1.70618e-04,8.87138e-03,-8.79133e-03,2.40986e-02,-1.31051e-02,1.48528e-03,3.41915e-01,3.06539e-01,2.55458e-01,2.32783e-02,-1.77540e-02,-1.66193e-02,-1.16068e-02,1.33506e-03,-1.45331e-02,-2.65683e-02,-1.26690e-02,-6.48507e-03,1.92994e-02,-1.10532e-02,2.88474e-03,-3.44263e-02,-3.38040e-02,-6.77403e-04,-4.13770e-02,2.59642e-02,1.42241e-02,1.73309e-02,-2.38039e-01,-1.73584e-01,-1.80387e-01,-8.78629e-02,-1.50936e-01,1.27908e-01,9.32296e-02,2.36232e-01,3.12318e-01,8.68827e-02,1.46067e-02,-8.93569e-02,-6.10611e-03,1.64887e-02,-1.90845e-02,-4.13563e-04,3.59891e-02,2.46755e-02,2.14082e-02,-1.06523e-02,-2.40505e-02,-2.16586e-02,6.69955e-02,7.92439e-02,-1.99841e-02,-9.83829e-02,-3.05654e-02,-4.62529e-02,-2.18016e-01,-1.32068e-01,-2.46620e-01,-4.42562e-01,-2.83941e-02,2.33416e-01,1.12944e-01,2.91968e-01,3.13182e-01,3.03942e-01,1.53540e-01,2.37039e-02,-1.55143e-01,-3.87097e-01,-2.10763e-01,-1.90861e-01,-1.24592e-01,3.14818e-02,-2.41483e-02,-3.20708e-03,2.32951e-02,1.15445e-02,7.21882e-02,3.41097e-02,-5.44110e-02,2.27649e-02,-1.42098e-01,-2.19096e-02,8.86934e-02,5.12613e-02,-5.69475e-02,-1.45564e-01,-1.34471e-01,5.09286e-03,1.12474e-02,1.51545e-01,2.15275e-02,9.09206e-02,6.42858e-02,6.45620e-02,-2.91913e-01,-2.58451e-01,-3.29280e-01,-1.70137e-01,-2.01714e-01,-2.04847e-01,-6.44857e-03,-4.17140e-03,-1.59616e-02,-1.15966e-02,7.10621e-02,3.35429e-02,-1.08394e-01,3.58993e-02,-8.97375e-02,-1.44144e-01,-1.04134e-01,-2.06420e-01,-1.79357e-01,-1.16252e-01,-7.32926e-02,5.88900e-02,-4.67396e-02,3.76856e-02,4.46230e-02,-1.24807e-01,-4.80823e-02,4.36126e-02,-2.78940e-01,-5.29869e-02,-3.63283e-02,-1.42348e-01,-1.31272e-01,-1.96342e-01,2.30575e-02,-9.80081e-03,-3.54405e-02,1.82269e-02,-1.73394e-01,3.30000e-02,-2.94824e-02,-5.75258e-02,-2.25278e-01,-2.04700e-01,-2.59715e-01,-2.09159e-01,-1.10343e-01,4.74432e-02,-1.27016e-03,1.07188e-01,3.89502e-02,-5.91067e-02,-3.61689e-02,9.04814e-03,3.48862e-02,-8.95787e-02,-2.46481e-01,-1.08950e-01,-1.64463e-01,-1.03776e-01,-1.35539e-01,-9.32434e-02,-8.36338e-02,-1.37995e-02,2.17066e-02,5.03575e-03,-2.39027e-01,8.16346e-02,-1.82744e-01,-2.29839e-01,-2.91271e-01,-2.66198e-01,-3.95891e-01,-1.53736e-02,1.38877e-01,1.61141e-01,1.37339e-01,7.61454e-02,1.04897e-01,-8.44507e-02,-1.43145e-01,-6.31738e-02,-1.01472e-01,-1.16129e-01,-2.19670e-01,-2.93691e-01,-1.73449e-01,-1.64183e-01,-1.22398e-01,-1.01141e-01,-6.79477e-02,1.95928e-02,-3.12179e-02,1.61517e-02,-2.51969e-01,8.70462e-02,-1.67743e-01,-2.29316e-01,-2.31956e-02,-1.66730e-01,-2.42826e-01,1.61999e-02,7.57264e-02,1.60621e-03,1.05583e-01,1.10222e-02,1.12214e-01,2.48924e-03,-1.84038e-01,-2.24329e-01,-1.21435e-01,-4.59359e-01,-3.37752e-01,-2.28534e-01,-2.01217e-01,-1.47989e-01,-1.08446e-01,-3.28797e-02,-6.53945e-02,-2.23000e-02,2.94551e-02,-1.93136e-02,-2.48055e-01,-2.84142e-02,-2.13616e-01,-1.66109e-01,9.58163e-02,1.15001e-02,-1.26676e-01,-1.57034e-01,6.62529e-02,1.00903e-01,2.68753e-02,8.48861e-02,1.45643e-01,1.37903e-02,-1.58837e-01,-3.75787e-01,-2.77126e-01,-3.92653e-01,-4.04816e-01,-2.17516e-01,3.39353e-02,1.82249e-01,-1.25445e-01,8.58110e-02,6.54193e-02,-3.15133e-02,-1.86843e-02,2.39936e-02,-2.28151e-01,9.72420e-03,-8.87572e-02,-1.30496e-01,-3.08830e-02,1.56864e-01,-2.15250e-01,-2.12749e-01,7.25796e-02,4.67987e-02,1.27262e-02,2.56309e-02,3.99262e-02,1.70328e-02,-1.27743e-01,-2.89260e-01,-2.63891e-01,-2.46631e-01,-3.39902e-01,-2.91381e-02,1.76501e-01,1.78867e-01,-1.28759e-01,8.98617e-02,1.65657e-01,4.18989e-02,1.22919e-02,-2.76327e-02,3.10351e-02,2.60773e-02,-1.97456e-01,-1.63960e-01,-1.34072e-01,-4.25053e-04,-2.47696e-01,-7.13054e-02,-4.27810e-02,-6.73221e-02,-5.76140e-02,-5.11413e-02,8.57182e-02,5.70644e-03,-3.80617e-02,-2.80786e-01,-3.00213e-01,-1.59147e-01,1.38072e-02,-1.86953e-02,1.58778e-01,1.86914e-01,-9.76484e-02,8.48573e-02,1.33018e-01,2.96711e-01,6.64107e-03,-3.74961e-03,5.75249e-02,2.43830e-03,-1.60182e-01,-2.53384e-01,9.44135e-02,2.46085e-02,8.74502e-02,2.22050e-01,7.44088e-02,3.74108e-02,-1.19847e-02,4.18089e-02,1.02481e-01,-3.65506e-02,1.82149e-03,-3.01846e-01,-2.59737e-01,-2.48710e-02,1.88799e-01,6.44162e-02,4.02573e-02,8.49877e-02,-7.59104e-02,1.00093e-01,9.41500e-02,2.92563e-01,2.26478e-01,3.08357e-02,3.14252e-02,-1.18696e-02,-1.05914e-01,4.57764e-02,1.86599e-02,3.82537e-02,1.14373e-01,3.22649e-02,5.55057e-02,-1.57283e-01,-2.92311e-02,-1.28382e-01,9.67575e-02,2.05834e-02,-1.93636e-02,-1.49004e-01,-1.46641e-01,-1.04189e-02,1.54927e-01,2.65034e-01,-1.88553e-01,-2.05427e-01,-1.87725e-01,1.12524e-01,1.04370e-01,-1.04412e-03,-4.38121e-02,3.85069e-02,5.52772e-03,-3.91429e-02,5.10627e-02,2.91997e-02,-1.51014e-01,-1.10998e-01,4.44986e-02,-8.32978e-02,-1.43360e-01,-3.28850e-01,-2.80614e-01,-2.81708e-02,1.26632e-01,-3.27357e-03,-2.70468e-02,-6.67927e-02,-1.64955e-01,-1.90640e-01,-3.08785e-01,-2.37798e-01,-2.06482e-01,-1.87135e-01,-7.84937e-02,-2.43112e-02,2.61919e-02,-3.43514e-02,-5.36302e-02,-3.05263e-02,3.90966e-02,2.97518e-03,-3.60938e-02,-6.11756e-02,-1.65568e-01,-9.65788e-02,2.09456e-02,-5.84305e-02,-2.19064e-01,-2.04672e-01,-1.45672e-01,2.92182e-03,2.38932e-01,9.10399e-03,-5.53352e-02,-2.48112e-01,-2.49254e-01,-1.50755e-01,-3.45834e-01,-1.93317e-01,-2.09737e-01,-2.46315e-01,-2.24766e-01,-5.44537e-03,-5.52758e-02,9.05456e-03,1.90349e-02,1.63304e-01,3.31391e-02,-1.50134e-02,-8.10392e-02,-1.24867e-01,-2.23280e-01,-2.62430e-01,-9.07823e-02,4.90631e-02,9.27204e-02,-2.10817e-01,-2.86986e-01,-3.61839e-02,2.24693e-01,3.76309e-02,-6.75054e-02,-2.93403e-01,-2.14087e-01,-1.48549e-01,-3.08993e-01,-2.93043e-01,-2.84492e-01,-4.16029e-01,-1.65523e-01,-9.96035e-02,-1.77684e-02,-3.04247e-02,-2.67121e-02,1.33589e-01,9.54531e-03,-1.19279e-02,-6.62634e-02,-1.08464e-01,-4.69811e-01,-5.76848e-01,-2.18476e-01,-1.24268e-01,1.05228e-01,-3.35177e-01,-3.85887e-01,-9.13397e-03,2.08409e-01,1.00156e-01,-4.33834e-03,-2.25788e-01,-1.29241e-01,-1.36460e-01,-2.78210e-01,-2.42695e-01,-1.27688e-01,-2.82528e-01,-1.67058e-01,-2.35804e-01,-1.39391e-01,-9.17231e-02,-2.90841e-02,1.36833e-02,4.82205e-02,-1.69471e-01,-7.38009e-02,-3.67337e-01,-4.71533e-01,-4.50312e-01,-3.29085e-01,-9.06467e-02,-1.80056e-01,-5.41580e-01,-4.46542e-01,-9.99400e-02,1.73779e-01,1.17236e-01,-3.93870e-02,-1.51741e-01,-5.00845e-02,-2.47628e-02,1.17012e-01,5.12900e-02,-1.52563e-01,-1.96779e-01,-2.81810e-01,-1.64193e-01,-9.46951e-02,-4.69034e-02,1.08197e-02,-1.34128e-02,-1.17636e-01,-2.18597e-01,-3.20269e-01,-3.39539e-01,-5.63140e-02,4.85855e-02,9.10701e-02,2.68550e-01,-5.24462e-02,-2.89358e-01,-2.50138e-01,-6.70555e-02,1.40413e-01,1.76020e-01,1.05442e-01,-2.00024e-03,2.50275e-02,4.24558e-02,1.23370e-01,1.00044e-01,1.46645e-02,1.28501e-01,1.72469e-01,2.42981e-01,-6.00766e-02,-3.83976e-02,1.49370e-02,3.50560e-02,-1.35414e-01,-2.37319e-01,-2.00514e-01,-2.71562e-01,1.27918e-01,1.21504e-01,2.51165e-01,3.11776e-01,5.02007e-02,-4.68380e-02,-6.73004e-02,-2.60247e-02,1.90840e-01,1.63279e-01,2.48926e-01,2.56764e-01,1.96288e-01,1.53585e-01,1.36778e-01,-1.12995e-03,-2.77978e-02,6.91824e-02,2.30007e-01,2.16138e-01,9.61910e-03,2.67641e-02,-1.70575e-02,-1.03976e-03,-1.65666e-01,-2.36328e-01,-6.27235e-02,9.76604e-03,2.39964e-01,1.77068e-01,3.04198e-01,2.61478e-01,1.23192e-01,-1.93857e-02,5.79061e-02,4.07704e-03,8.98551e-02,1.40381e-01,1.65314e-03,1.15981e-01,2.92731e-01,3.57269e-01,2.33637e-01,3.57230e-02,-1.32099e-01,-1.45043e-01,1.15997e-01,7.64068e-02,4.72787e-02,-4.58019e-03,-1.62721e-02,2.02809e-02,-1.52533e-01,-1.86507e-01,-5.04951e-02,6.55026e-02,1.26924e-01,1.43543e-01,3.07443e-01,1.63903e-01,5.07964e-02,-8.48328e-02,-4.17342e-02,-7.34457e-02,2.61270e-02,4.98282e-02,-7.34163e-02,1.95739e-02,1.76912e-01,1.39923e-01,1.71233e-01,1.38714e-01,1.18606e-01,4.71687e-02,2.68624e-02,-5.62418e-03,2.70173e-02,-1.84302e-04,-1.90578e-02,1.62105e-02,-3.14618e-02,-1.82252e-02,-4.45478e-02,7.43718e-03,-1.47244e-01,-4.00504e-01,-3.02629e-01,-1.83558e-01,-2.50308e-01,-1.54906e-01,-3.18715e-02,5.03006e-02,-5.74569e-03,2.12129e-02,-4.45208e-02,-1.79526e-01,-2.75177e-01,-1.30221e-01,7.88137e-02,-2.33595e-02,-1.14115e-01,-3.01056e-01,-1.69349e-01,-1.79036e-01,3.26216e-01,-3.07909e-02,-1.08157e-02,-2.77182e-02,6.66607e-03,-1.01652e-02,3.40729e-02,-8.42351e-03,2.04499e-02,-4.67452e-03,-7.17267e-03,3.11338e-03,-2.95373e-03,-1.76127e-02,-1.15408e-01,-6.49995e-02,-6.17870e-02,-1.07774e-01,-9.27106e-02,-4.22224e-02,-1.41245e-01,-8.37752e-02,-5.45322e-02,-3.25806e-02,-3.00542e-01,-2.18380e-01,-1.72684e-01,1.27681e-01,1.70359e-01,-3.25251e-02,1.68996e-02,7.63344e-04,-2.94871e-02,1.35247e-02,3.58611e-02,2.20544e-02,-9.01569e-03,-1.13174e-02,3.57157e-02,-7.08367e-02,3.63963e-02,-1.31306e-01,-1.97483e-01,-1.78846e-01,-6.90208e-02,-2.37933e-01,-4.23698e-01,-3.34979e-01,5.93212e-02,7.58635e-02,-5.29042e-02,1.77371e-02,-3.22050e-04,3.80143e-02,3.15767e-02,1.42402e-02,2.27286e-02,2.58664e-02,-7.29272e-03,8.03579e-03,-8.39778e-04,8.32117e-03,2.57738e-02,1.16063e-02,-2.47238e-02,-1.43184e-02,2.39744e-02,-1.83750e-02,-2.87192e-02,-3.03604e-02,-5.23867e-02,-2.15359e-01,-1.01277e-01,-3.16816e-02,-2.76484e-01,-2.13899e-01,-1.05162e-02,2.53953e-02,2.22891e-03,-1.79066e-02,2.44684e-02,-1.27043e-02,1.18845e-03,8.92780e-03,2.19461e-02,-3.00249e-02,1.59744e-02,6.42008e-03,-2.32735e-02,-8.51131e-03,5.39818e-04,3.14008e-02,5.06548e-03,-1.56599e-02,2.29195e-02,-2.43019e-02,-2.91164e-02,1.65464e-02,1.58045e-02,-1.71837e-02,2.92226e-03,-2.28540e-02,-9.33806e-03,-2.81575e-02,-2.25560e-02,-3.14912e-02,4.17957e-02,3.24310e-03,4.21757e-02,2.86673e-02,1.90054e-02,-2.22840e-04,-2.23933e-02,1.27203e-02,
