// Neural Network File Format by Kyle Julian, Stanford 2016
7,784,10,784,
784,50,50,50,50,50,50,10,
0,
-3.4028235e+38,-3.4028235e+38,-3.4028235e+38,-3.4028235e+38,-3.4028235e+38,-3.4028235e+38,-3.4028235e+38,-3.4028235e+38,-3.4028235e+38,-3.4028235e+38,-3.4028235e+38,-3.4028235e+38,-3.4028235e+38,-3.4028235e+38,-3.4028235e+38,-3.4028235e+38,-3.4028235e+38,-3.4028235e+38,-3.4028235e+38,-3.4028235e+38,-3.4028235e+38,-3.4028235e+38,-3.4028235e+38,-3.4028235e+38,-3.4028235e+38,-3.4028235e+38,-3.4028235e+38,-3.4028235e+38,-3.4028235e+38,-3.4028235e+38,-3.4028235e+38,-3.4028235e+38,-3.4028235e+38,-3.4028235e+38,-3.4028235e+38,-3.4028235e+38,-3.4028235e+38,-3.4028235e+38,-3.4028235e+38,-3.4028235e+38,-3.4028235e+38,-3.4028235e+38,-3.4028235e+38,-3.4028235e+38,-3.4028235e+38,-3.4028235e+38,-3.4028235e+38,-3.4028235e+38,-3.4028235e+38,-3.4028235e+38,-3.4028235e+38,-3.4028235e+38,-3.4028235e+38,-3.4028235e+38,-3.4028235e+38,-3.4028235e+38,-3.4028235e+38,-3.4028235e+38,-3.4028235e+38,-3.4028235e+38,-3.4028235e+38,-3.4028235e+38,-3.4028235e+38,-3.4028235e+38,-3.4028235e+38,-3.4028235e+38,-3.4028235e+38,-3.4028235e+38,-3.4028235e+38,-3.4028235e+38,-3.4028235e+38,-3.4028235e+38,-3.4028235e+38,-3.4028235e+38,-3.4028235e+38,-3.4028235e+38,-3.4028235e+38,-3.4028235e+38,-3.4028235e+38,-3.4028235e+38,-3.4028235e+38,-3.4028235e+38,-3.4028235e+38,-3.4028235e+38,-3.4028235e+38,-3.4028235e+38,-3.4028235e+38,-3.4028235e+38,-3.4028235e+38,-3.4028235e+38,-3.4028235e+38,-3.4028235e+38,-3.4028235e+38,-3.4028235e+38,-3.4028235e+38,-3.4028235e+38,-3.4028235e+38,-3.4028235e+38,-3.4028235e+38,-3.4028235e+38,-3.4028235e+38,-3.4028235e+38,-3.4028235e+38,-3.4028235e+38,-3.4028235e+38,-3.4028235e+38,-3.4028235e+38,-3.4028235e+38,-3.4028235e+38,-3.4028235e+38,-3.4028235e+38,-3.4028235e+38,-3.4028235e+38,-3.4028235e+38,-3.4028235e+38,-3.4028235e+38,-3.4028235e+38,-3.4028235e+38,-3.4028235e+38,-3.4028235e+38,-3.4028235e+38,-3.4028235e+38,-3.4028235e+38,-3.4028235e+38,-3.4028235e+38,-3.4028235e+38,-3.4028235e+38,-3.4028235e+38,-3.4028235e+38,-3.4028235e+38,-3.4028235e+38,-3.4028235e+38,-3.4028235e+38,-3.4028235e+38,-3.4028235e+38,-3.4028235e+38,-3.4028235e+38,-3.4028235e+38,-3.4028235e+38,-3.4028235e+38,-3.4028235e+38,-3.4028235e+38,-3.4028235e+38,-3.4028235e+38,-3.4028235e+38,-3.4028235e+38,-3.4028235e+38,-3.4028235e+38,-3.4028235e+38,-3.4028235e+38,-3.4028235e+38,-3.4028235e+38,-3.4028235e+38,-3.4028235e+38,-3.4028235e+38,-3.4028235e+38,-3.4028235e+38,-3.4028235e+38,-3.4028235e+38,-3.4028235e+38,-3.4028235e+38,-3.4028235e+38,-3.4028235e+38,-3.4028235e+38,-3.4028235e+38,-3.4028235e+38,-3.4028235e+38,-3.4028235e+38,-3.4028235e+38,-3.4028235e+38,-3.4028235e+38,-3.4028235e+38,-3.4028235e+38,-3.4028235e+38,-3.4028235e+38,-3.4028235e+38,-3.4028235e+38,-3.4028235e+38,-3.4028235e+38,-3.4028235e+38,-3.4028235e+38,-3.4028235e+38,-3.4028235e+38,-3.4028235e+38,-3.4028235e+38,-3.4028235e+38,-3.4028235e+38,-3.4028235e+38,-3.4028235e+38,-3.4028235e+38,-3.4028235e+38,-3.4028235e+38,-3.4028235e+38,-3.4028235e+38,-3.4028235e+38,-3.4028235e+38,-3.4028235e+38,-3.4028235e+38,-3.4028235e+38,-3.4028235e+38,-3.4028235e+38,-3.4028235e+38,-3.4028235e+38,-3.4028235e+38,-3.4028235e+38,-3.4028235e+38,-3.4028235e+38,-3.4028235e+38,-3.4028235e+38,-3.4028235e+38,-3.4028235e+38,-3.4028235e+38,-3.4028235e+38,-3.4028235e+38,-3.4028235e+38,-3.4028235e+38,-3.4028235e+38,-3.4028235e+38,-3.4028235e+38,-3.4028235e+38,-3.4028235e+38,-3.4028235e+38,-3.4028235e+38,-3.4028235e+38,-3.4028235e+38,-3.4028235e+38,-3.4028235e+38,-3.4028235e+38,-3.4028235e+38,-3.4028235e+38,-3.4028235e+38,-3.4028235e+38,-3.4028235e+38,-3.4028235e+38,-3.4028235e+38,-3.4028235e+38,-3.4028235e+38,-3.4028235e+38,-3.4028235e+38,-3.4028235e+38,-3.4028235e+38,-3.4028235e+38,-3.4028235e+38,-3.4028235e+38,-3.4028235e+38,-3.4028235e+38,-3.4028235e+38,-3.4028235e+38,-3.4028235e+38,-3.4028235e+38,-3.4028235e+38,-3.4028235e+38,-3.4028235e+38,-3.4028235e+38,-3.4028235e+38,-3.4028235e+38,-3.4028235e+38,-3.4028235e+38,-3.4028235e+38,-3.4028235e+38,-3.4028235e+38,-3.4028235e+38,-3.4028235e+38,-3.4028235e+38,-3.4028235e+38,-3.4028235e+38,-3.4028235e+38,-3.4028235e+38,-3.4028235e+38,-3.4028235e+38,-3.4028235e+38,-3.4028235e+38,-3.4028235e+38,-3.4028235e+38,-3.4028235e+38,-3.4028235e+38,-3.4028235e+38,-3.4028235e+38,-3.4028235e+38,-3.4028235e+38,-3.4028235e+38,-3.4028235e+38,-3.4028235e+38,-3.4028235e+38,-3.4028235e+38,-3.4028235e+38,-3.4028235e+38,-3.4028235e+38,-3.4028235e+38,-3.4028235e+38,-3.4028235e+38,-3.4028235e+38,-3.4028235e+38,-3.4028235e+38,-3.4028235e+38,-3.4028235e+38,-3.4028235e+38,-3.4028235e+38,-3.4028235e+38,-3.4028235e+38,-3.4028235e+38,-3.4028235e+38,-3.4028235e+38,-3.4028235e+38,-3.4028235e+38,-3.4028235e+38,-3.4028235e+38,-3.4028235e+38,-3.4028235e+38,-3.4028235e+38,-3.4028235e+38,-3.4028235e+38,-3.4028235e+38,-3.4028235e+38,-3.4028235e+38,-3.4028235e+38,-3.4028235e+38,-3.4028235e+38,-3.4028235e+38,-3.4028235e+38,-3.4028235e+38,-3.4028235e+38,-3.4028235e+38,-3.4028235e+38,-3.4028235e+38,-3.4028235e+38,-3.4028235e+38,-3.4028235e+38,-3.4028235e+38,-3.4028235e+38,-3.4028235e+38,-3.4028235e+38,-3.4028235e+38,-3.4028235e+38,-3.4028235e+38,-3.4028235e+38,-3.4028235e+38,-3.4028235e+38,-3.4028235e+38,-3.4028235e+38,-3.4028235e+38,-3.4028235e+38,-3.4028235e+38,-3.4028235e+38,-3.4028235e+38,-3.4028235e+38,-3.4028235e+38,-3.4028235e+38,-3.4028235e+38,-3.4028235e+38,-3.4028235e+38,-3.4028235e+38,-3.4028235e+38,-3.4028235e+38,-3.4028235e+38,-3.4028235e+38,-3.4028235e+38,-3.4028235e+38,-3.4028235e+38,-3.4028235e+38,-3.4028235e+38,-3.4028235e+38,-3.4028235e+38,-3.4028235e+38,-3.4028235e+38,-3.4028235e+38,-3.4028235e+38,-3.4028235e+38,-3.4028235e+38,-3.4028235e+38,-3.4028235e+38,-3.4028235e+38,-3.4028235e+38,-3.4028235e+38,-3.4028235e+38,-3.4028235e+38,-3.4028235e+38,-3.4028235e+38,-3.4028235e+38,-3.4028235e+38,-3.4028235e+38,-3.4028235e+38,-3.4028235e+38,-3.4028235e+38,-3.4028235e+38,-3.4028235e+38,-3.4028235e+38,-3.4028235e+38,-3.4028235e+38,-3.4028235e+38,-3.4028235e+38,-3.4028235e+38,-3.4028235e+38,-3.4028235e+38,-3.4028235e+38,-3.4028235e+38,-3.4028235e+38,-3.4028235e+38,-3.4028235e+38,-3.4028235e+38,-3.4028235e+38,-3.4028235e+38,-3.4028235e+38,-3.4028235e+38,-3.4028235e+38,-3.4028235e+38,-3.4028235e+38,-3.4028235e+38,-3.4028235e+38,-3.4028235e+38,-3.4028235e+38,-3.4028235e+38,-3.4028235e+38,-3.4028235e+38,-3.4028235e+38,-3.4028235e+38,-3.4028235e+38,-3.4028235e+38,-3.4028235e+38,-3.4028235e+38,-3.4028235e+38,-3.4028235e+38,-3.4028235e+38,-3.4028235e+38,-3.4028235e+38,-3.4028235e+38,-3.4028235e+38,-3.4028235e+38,-3.4028235e+38,-3.4028235e+38,-3.4028235e+38,-3.4028235e+38,-3.4028235e+38,-3.4028235e+38,-3.4028235e+38,-3.4028235e+38,-3.4028235e+38,-3.4028235e+38,-3.4028235e+38,-3.4028235e+38,-3.4028235e+38,-3.4028235e+38,-3.4028235e+38,-3.4028235e+38,-3.4028235e+38,-3.4028235e+38,-3.4028235e+38,-3.4028235e+38,-3.4028235e+38,-3.4028235e+38,-3.4028235e+38,-3.4028235e+38,-3.4028235e+38,-3.4028235e+38,-3.4028235e+38,-3.4028235e+38,-3.4028235e+38,-3.4028235e+38,-3.4028235e+38,-3.4028235e+38,-3.4028235e+38,-3.4028235e+38,-3.4028235e+38,-3.4028235e+38,-3.4028235e+38,-3.4028235e+38,-3.4028235e+38,-3.4028235e+38,-3.4028235e+38,-3.4028235e+38,-3.4028235e+38,-3.4028235e+38,-3.4028235e+38,-3.4028235e+38,-3.4028235e+38,-3.4028235e+38,-3.4028235e+38,-3.4028235e+38,-3.4028235e+38,-3.4028235e+38,-3.4028235e+38,-3.4028235e+38,-3.4028235e+38,-3.4028235e+38,-3.4028235e+38,-3.4028235e+38,-3.4028235e+38,-3.4028235e+38,-3.4028235e+38,-3.4028235e+38,-3.4028235e+38,-3.4028235e+38,-3.4028235e+38,-3.4028235e+38,-3.4028235e+38,-3.4028235e+38,-3.4028235e+38,-3.4028235e+38,-3.4028235e+38,-3.4028235e+38,-3.4028235e+38,-3.4028235e+38,-3.4028235e+38,-3.4028235e+38,-3.4028235e+38,-3.4028235e+38,-3.4028235e+38,-3.4028235e+38,-3.4028235e+38,-3.4028235e+38,-3.4028235e+38,-3.4028235e+38,-3.4028235e+38,-3.4028235e+38,-3.4028235e+38,-3.4028235e+38,-3.4028235e+38,-3.4028235e+38,-3.4028235e+38,-3.4028235e+38,-3.4028235e+38,-3.4028235e+38,-3.4028235e+38,-3.4028235e+38,-3.4028235e+38,-3.4028235e+38,-3.4028235e+38,-3.4028235e+38,-3.4028235e+38,-3.4028235e+38,-3.4028235e+38,-3.4028235e+38,-3.4028235e+38,-3.4028235e+38,-3.4028235e+38,-3.4028235e+38,-3.4028235e+38,-3.4028235e+38,-3.4028235e+38,-3.4028235e+38,-3.4028235e+38,-3.4028235e+38,-3.4028235e+38,-3.4028235e+38,-3.4028235e+38,-3.4028235e+38,-3.4028235e+38,-3.4028235e+38,-3.4028235e+38,-3.4028235e+38,-3.4028235e+38,-3.4028235e+38,-3.4028235e+38,-3.4028235e+38,-3.4028235e+38,-3.4028235e+38,-3.4028235e+38,-3.4028235e+38,-3.4028235e+38,-3.4028235e+38,-3.4028235e+38,-3.4028235e+38,-3.4028235e+38,-3.4028235e+38,-3.4028235e+38,-3.4028235e+38,-3.4028235e+38,-3.4028235e+38,-3.4028235e+38,-3.4028235e+38,-3.4028235e+38,-3.4028235e+38,-3.4028235e+38,-3.4028235e+38,-3.4028235e+38,-3.4028235e+38,-3.4028235e+38,-3.4028235e+38,-3.4028235e+38,-3.4028235e+38,-3.4028235e+38,-3.4028235e+38,-3.4028235e+38,-3.4028235e+38,-3.4028235e+38,-3.4028235e+38,-3.4028235e+38,-3.4028235e+38,-3.4028235e+38,-3.4028235e+38,-3.4028235e+38,-3.4028235e+38,-3.4028235e+38,-3.4028235e+38,-3.4028235e+38,-3.4028235e+38,-3.4028235e+38,-3.4028235e+38,-3.4028235e+38,-3.4028235e+38,-3.4028235e+38,-3.4028235e+38,-3.4028235e+38,-3.4028235e+38,-3.4028235e+38,-3.4028235e+38,-3.4028235e+38,-3.4028235e+38,-3.4028235e+38,-3.4028235e+38,-3.4028235e+38,-3.4028235e+38,-3.4028235e+38,-3.4028235e+38,-3.4028235e+38,-3.4028235e+38,-3.4028235e+38,-3.4028235e+38,-3.4028235e+38,-3.4028235e+38,-3.4028235e+38,-3.4028235e+38,-3.4028235e+38,-3.4028235e+38,-3.4028235e+38,-3.4028235e+38,-3.4028235e+38,-3.4028235e+38,-3.4028235e+38,-3.4028235e+38,-3.4028235e+38,-3.4028235e+38,-3.4028235e+38,-3.4028235e+38,-3.4028235e+38,-3.4028235e+38,-3.4028235e+38,-3.4028235e+38,-3.4028235e+38,-3.4028235e+38,-3.4028235e+38,-3.4028235e+38,-3.4028235e+38,-3.4028235e+38,-3.4028235e+38,-3.4028235e+38,-3.4028235e+38,-3.4028235e+38,-3.4028235e+38,-3.4028235e+38,-3.4028235e+38,-3.4028235e+38,-3.4028235e+38,-3.4028235e+38,-3.4028235e+38,-3.4028235e+38,-3.4028235e+38,-3.4028235e+38,-3.4028235e+38,-3.4028235e+38,-3.4028235e+38,-3.4028235e+38,-3.4028235e+38,-3.4028235e+38,-3.4028235e+38,-3.4028235e+38,-3.4028235e+38,-3.4028235e+38,-3.4028235e+38,-3.4028235e+38,-3.4028235e+38,-3.4028235e+38,-3.4028235e+38,-3.4028235e+38,-3.4028235e+38,-3.4028235e+38,-3.4028235e+38,-3.4028235e+38,-3.4028235e+38,-3.4028235e+38,-3.4028235e+38,-3.4028235e+38,-3.4028235e+38,-3.4028235e+38,-3.4028235e+38,-3.4028235e+38,-3.4028235e+38,-3.4028235e+38,-3.4028235e+38,-3.4028235e+38,-3.4028235e+38,-3.4028235e+38,-3.4028235e+38,-3.4028235e+38,-3.4028235e+38,-3.4028235e+38,-3.4028235e+38,-3.4028235e+38,-3.4028235e+38,-3.4028235e+38,-3.4028235e+38,-3.4028235e+38,-3.4028235e+38,-3.4028235e+38,-3.4028235e+38,-3.4028235e+38,-3.4028235e+38,-3.4028235e+38,-3.4028235e+38,-3.4028235e+38,-3.4028235e+38,-3.4028235e+38,-3.4028235e+38,-3.4028235e+38,-3.4028235e+38,-3.4028235e+38,-3.4028235e+38,-3.4028235e+38,-3.4028235e+38,-3.4028235e+38,-3.4028235e+38,-3.4028235e+38,-3.4028235e+38,-3.4028235e+38,-3.4028235e+38,-3.4028235e+38,-3.4028235e+38,-3.4028235e+38,-3.4028235e+38,-3.4028235e+38,-3.4028235e+38,-3.4028235e+38,-3.4028235e+38,-3.4028235e+38,-3.4028235e+38,-3.4028235e+38,-3.4028235e+38,-3.4028235e+38,-3.4028235e+38,-3.4028235e+38,-3.4028235e+38,-3.4028235e+38,-3.4028235e+38,-3.4028235e+38,-3.4028235e+38,-3.4028235e+38,-3.4028235e+38,-3.4028235e+38,-3.4028235e+38,-3.4028235e+38,-3.4028235e+38,-3.4028235e+38,-3.4028235e+38,-3.4028235e+38,-3.4028235e+38,-3.4028235e+38,-3.4028235e+38,-3.4028235e+38,-3.4028235e+38,-3.4028235e+38,-3.4028235e+38,-3.4028235e+38,-3.4028235e+38,-3.4028235e+38,-3.4028235e+38,-3.4028235e+38,-3.4028235e+38,-3.4028235e+38,-3.4028235e+38,-3.4028235e+38,-3.4028235e+38,-3.4028235e+38,-3.4028235e+38,-3.4028235e+38,-3.4028235e+38,-3.4028235e+38,-3.4028235e+38,-3.4028235e+38,-3.4028235e+38,-3.4028235e+38,-3.4028235e+38,-3.4028235e+38,-3.4028235e+38,-3.4028235e+38,
3.4028235e+38,3.4028235e+38,3.4028235e+38,3.4028235e+38,3.4028235e+38,3.4028235e+38,3.4028235e+38,3.4028235e+38,3.4028235e+38,3.4028235e+38,3.4028235e+38,3.4028235e+38,3.4028235e+38,3.4028235e+38,3.4028235e+38,3.4028235e+38,3.4028235e+38,3.4028235e+38,3.4028235e+38,3.4028235e+38,3.4028235e+38,3.4028235e+38,3.4028235e+38,3.4028235e+38,3.4028235e+38,3.4028235e+38,3.4028235e+38,3.4028235e+38,3.4028235e+38,3.4028235e+38,3.4028235e+38,3.4028235e+38,3.4028235e+38,3.4028235e+38,3.4028235e+38,3.4028235e+38,3.4028235e+38,3.4028235e+38,3.4028235e+38,3.4028235e+38,3.4028235e+38,3.4028235e+38,3.4028235e+38,3.4028235e+38,3.4028235e+38,3.4028235e+38,3.4028235e+38,3.4028235e+38,3.4028235e+38,3.4028235e+38,3.4028235e+38,3.4028235e+38,3.4028235e+38,3.4028235e+38,3.4028235e+38,3.4028235e+38,3.4028235e+38,3.4028235e+38,3.4028235e+38,3.4028235e+38,3.4028235e+38,3.4028235e+38,3.4028235e+38,3.4028235e+38,3.4028235e+38,3.4028235e+38,3.4028235e+38,3.4028235e+38,3.4028235e+38,3.4028235e+38,3.4028235e+38,3.4028235e+38,3.4028235e+38,3.4028235e+38,3.4028235e+38,3.4028235e+38,3.4028235e+38,3.4028235e+38,3.4028235e+38,3.4028235e+38,3.4028235e+38,3.4028235e+38,3.4028235e+38,3.4028235e+38,3.4028235e+38,3.4028235e+38,3.4028235e+38,3.4028235e+38,3.4028235e+38,3.4028235e+38,3.4028235e+38,3.4028235e+38,3.4028235e+38,3.4028235e+38,3.4028235e+38,3.4028235e+38,3.4028235e+38,3.4028235e+38,3.4028235e+38,3.4028235e+38,3.4028235e+38,3.4028235e+38,3.4028235e+38,3.4028235e+38,3.4028235e+38,3.4028235e+38,3.4028235e+38,3.4028235e+38,3.4028235e+38,3.4028235e+38,3.4028235e+38,3.4028235e+38,3.4028235e+38,3.4028235e+38,3.4028235e+38,3.4028235e+38,3.4028235e+38,3.4028235e+38,3.4028235e+38,3.4028235e+38,3.4028235e+38,3.4028235e+38,3.4028235e+38,3.4028235e+38,3.4028235e+38,3.4028235e+38,3.4028235e+38,3.4028235e+38,3.4028235e+38,3.4028235e+38,3.4028235e+38,3.4028235e+38,3.4028235e+38,3.4028235e+38,3.4028235e+38,3.4028235e+38,3.4028235e+38,3.4028235e+38,3.4028235e+38,3.4028235e+38,3.4028235e+38,3.4028235e+38,3.4028235e+38,3.4028235e+38,3.4028235e+38,3.4028235e+38,3.4028235e+38,3.4028235e+38,3.4028235e+38,3.4028235e+38,3.4028235e+38,3.4028235e+38,3.4028235e+38,3.4028235e+38,3.4028235e+38,3.4028235e+38,3.4028235e+38,3.4028235e+38,3.4028235e+38,3.4028235e+38,3.4028235e+38,3.4028235e+38,3.4028235e+38,3.4028235e+38,3.4028235e+38,3.4028235e+38,3.4028235e+38,3.4028235e+38,3.4028235e+38,3.4028235e+38,3.4028235e+38,3.4028235e+38,3.4028235e+38,3.4028235e+38,3.4028235e+38,3.4028235e+38,3.4028235e+38,3.4028235e+38,3.4028235e+38,3.4028235e+38,3.4028235e+38,3.4028235e+38,3.4028235e+38,3.4028235e+38,3.4028235e+38,3.4028235e+38,3.4028235e+38,3.4028235e+38,3.4028235e+38,3.4028235e+38,3.4028235e+38,3.4028235e+38,3.4028235e+38,3.4028235e+38,3.4028235e+38,3.4028235e+38,3.4028235e+38,3.4028235e+38,3.4028235e+38,3.4028235e+38,3.4028235e+38,3.4028235e+38,3.4028235e+38,3.4028235e+38,3.4028235e+38,3.4028235e+38,3.4028235e+38,3.4028235e+38,3.4028235e+38,3.4028235e+38,3.4028235e+38,3.4028235e+38,3.4028235e+38,3.4028235e+38,3.4028235e+38,3.4028235e+38,3.4028235e+38,3.4028235e+38,3.4028235e+38,3.4028235e+38,3.4028235e+38,3.4028235e+38,3.4028235e+38,3.4028235e+38,3.4028235e+38,3.4028235e+38,3.4028235e+38,3.4028235e+38,3.4028235e+38,3.4028235e+38,3.4028235e+38,3.4028235e+38,3.4028235e+38,3.4028235e+38,3.4028235e+38,3.4028235e+38,3.4028235e+38,3.4028235e+38,3.4028235e+38,3.4028235e+38,3.4028235e+38,3.4028235e+38,3.4028235e+38,3.4028235e+38,3.4028235e+38,3.4028235e+38,3.4028235e+38,3.4028235e+38,3.4028235e+38,3.4028235e+38,3.4028235e+38,3.4028235e+38,3.4028235e+38,3.4028235e+38,3.4028235e+38,3.4028235e+38,3.4028235e+38,3.4028235e+38,3.4028235e+38,3.4028235e+38,3.4028235e+38,3.4028235e+38,3.4028235e+38,3.4028235e+38,3.4028235e+38,3.4028235e+38,3.4028235e+38,3.4028235e+38,3.4028235e+38,3.4028235e+38,3.4028235e+38,3.4028235e+38,3.4028235e+38,3.4028235e+38,3.4028235e+38,3.4028235e+38,3.4028235e+38,3.4028235e+38,3.4028235e+38,3.4028235e+38,3.4028235e+38,3.4028235e+38,3.4028235e+38,3.4028235e+38,3.4028235e+38,3.4028235e+38,3.4028235e+38,3.4028235e+38,3.4028235e+38,3.4028235e+38,3.4028235e+38,3.4028235e+38,3.4028235e+38,3.4028235e+38,3.4028235e+38,3.4028235e+38,3.4028235e+38,3.4028235e+38,3.4028235e+38,3.4028235e+38,3.4028235e+38,3.4028235e+38,3.4028235e+38,3.4028235e+38,3.4028235e+38,3.4028235e+38,3.4028235e+38,3.4028235e+38,3.4028235e+38,3.4028235e+38,3.4028235e+38,3.4028235e+38,3.4028235e+38,3.4028235e+38,3.4028235e+38,3.4028235e+38,3.4028235e+38,3.4028235e+38,3.4028235e+38,3.4028235e+38,3.4028235e+38,3.4028235e+38,3.4028235e+38,3.4028235e+38,3.4028235e+38,3.4028235e+38,3.4028235e+38,3.4028235e+38,3.4028235e+38,3.4028235e+38,3.4028235e+38,3.4028235e+38,3.4028235e+38,3.4028235e+38,3.4028235e+38,3.4028235e+38,3.4028235e+38,3.4028235e+38,3.4028235e+38,3.4028235e+38,3.4028235e+38,3.4028235e+38,3.4028235e+38,3.4028235e+38,3.4028235e+38,3.4028235e+38,3.4028235e+38,3.4028235e+38,3.4028235e+38,3.4028235e+38,3.4028235e+38,3.4028235e+38,3.4028235e+38,3.4028235e+38,3.4028235e+38,3.4028235e+38,3.4028235e+38,3.4028235e+38,3.4028235e+38,3.4028235e+38,3.4028235e+38,3.4028235e+38,3.4028235e+38,3.4028235e+38,3.4028235e+38,3.4028235e+38,3.4028235e+38,3.4028235e+38,3.4028235e+38,3.4028235e+38,3.4028235e+38,3.4028235e+38,3.4028235e+38,3.4028235e+38,3.4028235e+38,3.4028235e+38,3.4028235e+38,3.4028235e+38,3.4028235e+38,3.4028235e+38,3.4028235e+38,3.4028235e+38,3.4028235e+38,3.4028235e+38,3.4028235e+38,3.4028235e+38,3.4028235e+38,3.4028235e+38,3.4028235e+38,3.4028235e+38,3.4028235e+38,3.4028235e+38,3.4028235e+38,3.4028235e+38,3.4028235e+38,3.4028235e+38,3.4028235e+38,3.4028235e+38,3.4028235e+38,3.4028235e+38,3.4028235e+38,3.4028235e+38,3.4028235e+38,3.4028235e+38,3.4028235e+38,3.4028235e+38,3.4028235e+38,3.4028235e+38,3.4028235e+38,3.4028235e+38,3.4028235e+38,3.4028235e+38,3.4028235e+38,3.4028235e+38,3.4028235e+38,3.4028235e+38,3.4028235e+38,3.4028235e+38,3.4028235e+38,3.4028235e+38,3.4028235e+38,3.4028235e+38,3.4028235e+38,3.4028235e+38,3.4028235e+38,3.4028235e+38,3.4028235e+38,3.4028235e+38,3.4028235e+38,3.4028235e+38,3.4028235e+38,3.4028235e+38,3.4028235e+38,3.4028235e+38,3.4028235e+38,3.4028235e+38,3.4028235e+38,3.4028235e+38,3.4028235e+38,3.4028235e+38,3.4028235e+38,3.4028235e+38,3.4028235e+38,3.4028235e+38,3.4028235e+38,3.4028235e+38,3.4028235e+38,3.4028235e+38,3.4028235e+38,3.4028235e+38,3.4028235e+38,3.4028235e+38,3.4028235e+38,3.4028235e+38,3.4028235e+38,3.4028235e+38,3.4028235e+38,3.4028235e+38,3.4028235e+38,3.4028235e+38,3.4028235e+38,3.4028235e+38,3.4028235e+38,3.4028235e+38,3.4028235e+38,3.4028235e+38,3.4028235e+38,3.4028235e+38,3.4028235e+38,3.4028235e+38,3.4028235e+38,3.4028235e+38,3.4028235e+38,3.4028235e+38,3.4028235e+38,3.4028235e+38,3.4028235e+38,3.4028235e+38,3.4028235e+38,3.4028235e+38,3.4028235e+38,3.4028235e+38,3.4028235e+38,3.4028235e+38,3.4028235e+38,3.4028235e+38,3.4028235e+38,3.4028235e+38,3.4028235e+38,3.4028235e+38,3.4028235e+38,3.4028235e+38,3.4028235e+38,3.4028235e+38,3.4028235e+38,3.4028235e+38,3.4028235e+38,3.4028235e+38,3.4028235e+38,3.4028235e+38,3.4028235e+38,3.4028235e+38,3.4028235e+38,3.4028235e+38,3.4028235e+38,3.4028235e+38,3.4028235e+38,3.4028235e+38,3.4028235e+38,3.4028235e+38,3.4028235e+38,3.4028235e+38,3.4028235e+38,3.4028235e+38,3.4028235e+38,3.4028235e+38,3.4028235e+38,3.4028235e+38,3.4028235e+38,3.4028235e+38,3.4028235e+38,3.4028235e+38,3.4028235e+38,3.4028235e+38,3.4028235e+38,3.4028235e+38,3.4028235e+38,3.4028235e+38,3.4028235e+38,3.4028235e+38,3.4028235e+38,3.4028235e+38,3.4028235e+38,3.4028235e+38,3.4028235e+38,3.4028235e+38,3.4028235e+38,3.4028235e+38,3.4028235e+38,3.4028235e+38,3.4028235e+38,3.4028235e+38,3.4028235e+38,3.4028235e+38,3.4028235e+38,3.4028235e+38,3.4028235e+38,3.4028235e+38,3.4028235e+38,3.4028235e+38,3.4028235e+38,3.4028235e+38,3.4028235e+38,3.4028235e+38,3.4028235e+38,3.4028235e+38,3.4028235e+38,3.4028235e+38,3.4028235e+38,3.4028235e+38,3.4028235e+38,3.4028235e+38,3.4028235e+38,3.4028235e+38,3.4028235e+38,3.4028235e+38,3.4028235e+38,3.4028235e+38,3.4028235e+38,3.4028235e+38,3.4028235e+38,3.4028235e+38,3.4028235e+38,3.4028235e+38,3.4028235e+38,3.4028235e+38,3.4028235e+38,3.4028235e+38,3.4028235e+38,3.4028235e+38,3.4028235e+38,3.4028235e+38,3.4028235e+38,3.4028235e+38,3.4028235e+38,3.4028235e+38,3.4028235e+38,3.4028235e+38,3.4028235e+38,3.4028235e+38,3.4028235e+38,3.4028235e+38,3.4028235e+38,3.4028235e+38,3.4028235e+38,3.4028235e+38,3.4028235e+38,3.4028235e+38,3.4028235e+38,3.4028235e+38,3.4028235e+38,3.4028235e+38,3.4028235e+38,3.4028235e+38,3.4028235e+38,3.4028235e+38,3.4028235e+38,3.4028235e+38,3.4028235e+38,3.4028235e+38,3.4028235e+38,3.4028235e+38,3.4028235e+38,3.4028235e+38,3.4028235e+38,3.4028235e+38,3.4028235e+38,3.4028235e+38,3.4028235e+38,3.4028235e+38,3.4028235e+38,3.4028235e+38,3.4028235e+38,3.4028235e+38,3.4028235e+38,3.4028235e+38,3.4028235e+38,3.4028235e+38,3.4028235e+38,3.4028235e+38,3.4028235e+38,3.4028235e+38,3.4028235e+38,3.4028235e+38,3.4028235e+38,3.4028235e+38,3.4028235e+38,3.4028235e+38,3.4028235e+38,3.4028235e+38,3.4028235e+38,3.4028235e+38,3.4028235e+38,3.4028235e+38,3.4028235e+38,3.4028235e+38,3.4028235e+38,3.4028235e+38,3.4028235e+38,3.4028235e+38,3.4028235e+38,3.4028235e+38,3.4028235e+38,3.4028235e+38,3.4028235e+38,3.4028235e+38,3.4028235e+38,3.4028235e+38,3.4028235e+38,3.4028235e+38,3.4028235e+38,3.4028235e+38,3.4028235e+38,3.4028235e+38,3.4028235e+38,3.4028235e+38,3.4028235e+38,3.4028235e+38,3.4028235e+38,3.4028235e+38,3.4028235e+38,3.4028235e+38,3.4028235e+38,3.4028235e+38,3.4028235e+38,3.4028235e+38,3.4028235e+38,3.4028235e+38,3.4028235e+38,3.4028235e+38,3.4028235e+38,3.4028235e+38,3.4028235e+38,3.4028235e+38,3.4028235e+38,3.4028235e+38,3.4028235e+38,3.4028235e+38,3.4028235e+38,3.4028235e+38,3.4028235e+38,3.4028235e+38,3.4028235e+38,3.4028235e+38,3.4028235e+38,3.4028235e+38,3.4028235e+38,3.4028235e+38,3.4028235e+38,3.4028235e+38,3.4028235e+38,3.4028235e+38,3.4028235e+38,3.4028235e+38,3.4028235e+38,3.4028235e+38,3.4028235e+38,3.4028235e+38,3.4028235e+38,3.4028235e+38,3.4028235e+38,3.4028235e+38,3.4028235e+38,3.4028235e+38,3.4028235e+38,3.4028235e+38,3.4028235e+38,3.4028235e+38,3.4028235e+38,3.4028235e+38,3.4028235e+38,3.4028235e+38,3.4028235e+38,3.4028235e+38,3.4028235e+38,3.4028235e+38,3.4028235e+38,3.4028235e+38,3.4028235e+38,3.4028235e+38,3.4028235e+38,3.4028235e+38,3.4028235e+38,3.4028235e+38,3.4028235e+38,3.4028235e+38,3.4028235e+38,3.4028235e+38,3.4028235e+38,3.4028235e+38,3.4028235e+38,3.4028235e+38,3.4028235e+38,3.4028235e+38,3.4028235e+38,3.4028235e+38,3.4028235e+38,3.4028235e+38,3.4028235e+38,3.4028235e+38,3.4028235e+38,3.4028235e+38,3.4028235e+38,3.4028235e+38,3.4028235e+38,3.4028235e+38,3.4028235e+38,3.4028235e+38,3.4028235e+38,3.4028235e+38,3.4028235e+38,3.4028235e+38,3.4028235e+38,3.4028235e+38,3.4028235e+38,3.4028235e+38,3.4028235e+38,3.4028235e+38,3.4028235e+38,3.4028235e+38,3.4028235e+38,3.4028235e+38,3.4028235e+38,3.4028235e+38,3.4028235e+38,3.4028235e+38,3.4028235e+38,3.4028235e+38,3.4028235e+38,3.4028235e+38,3.4028235e+38,3.4028235e+38,3.4028235e+38,3.4028235e+38,
0.0,0.0,0.0,0.0,0.0,0.0,0.0,0.0,0.0,0.0,0.0,0.0,0.0,0.0,0.0,0.0,0.0,0.0,0.0,0.0,0.0,0.0,0.0,0.0,0.0,0.0,0.0,0.0,0.0,0.0,0.0,0.0,0.0,0.0,0.0,0.0,0.0,0.0,0.0,0.0,0.0,0.0,0.0,0.0,0.0,0.0,0.0,0.0,0.0,0.0,0.0,0.0,0.0,0.0,0.0,0.0,0.0,0.0,0.0,0.0,0.0,0.0,0.0,0.0,0.0,0.0,0.0,0.0,0.0,0.0,0.0,0.0,0.0,0.0,0.0,0.0,0.0,0.0,0.0,0.0,0.0,0.0,0.0,0.0,0.0,0.0,0.0,0.0,0.0,0.0,0.0,0.0,0.0,0.0,0.0,0.0,0.0,0.0,0.0,0.0,0.0,0.0,0.0,0.0,0.0,0.0,0.0,0.0,0.0,0.0,0.0,0.0,0.0,0.0,0.0,0.0,0.0,0.0,0.0,0.0,0.0,0.0,0.0,0.0,0.0,0.0,0.0,0.0,0.0,0.0,0.0,0.0,0.0,0.0,0.0,0.0,0.0,0.0,0.0,0.0,0.0,0.0,0.0,0.0,0.0,0.0,0.0,0.0,0.0,0.0,0.0,0.0,0.0,0.0,0.0,0.0,0.0,0.0,0.0,0.0,0.0,0.0,0.0,0.0,0.0,0.0,0.0,0.0,0.0,0.0,0.0,0.0,0.0,0.0,0.0,0.0,0.0,0.0,0.0,0.0,0.0,0.0,0.0,0.0,0.0,0.0,0.0,0.0,0.0,0.0,0.0,0.0,0.0,0.0,0.0,0.0,0.0,0.0,0.0,0.0,0.0,0.0,0.0,0.0,0.0,0.0,0.0,0.0,0.0,0.0,0.0,0.0,0.0,0.0,0.0,0.0,0.0,0.0,0.0,0.0,0.0,0.0,0.0,0.0,0.0,0.0,0.0,0.0,0.0,0.0,0.0,0.0,0.0,0.0,0.0,0.0,0.0,0.0,0.0,0.0,0.0,0.0,0.0,0.0,0.0,0.0,0.0,0.0,0.0,0.0,0.0,0.0,0.0,0.0,0.0,0.0,0.0,0.0,0.0,0.0,0.0,0.0,0.0,0.0,0.0,0.0,0.0,0.0,0.0,0.0,0.0,0.0,0.0,0.0,0.0,0.0,0.0,0.0,0.0,0.0,0.0,0.0,0.0,0.0,0.0,0.0,0.0,0.0,0.0,0.0,0.0,0.0,0.0,0.0,0.0,0.0,0.0,0.0,0.0,0.0,0.0,0.0,0.0,0.0,0.0,0.0,0.0,0.0,0.0,0.0,0.0,0.0,0.0,0.0,0.0,0.0,0.0,0.0,0.0,0.0,0.0,0.0,0.0,0.0,0.0,0.0,0.0,0.0,0.0,0.0,0.0,0.0,0.0,0.0,0.0,0.0,0.0,0.0,0.0,0.0,0.0,0.0,0.0,0.0,0.0,0.0,0.0,0.0,0.0,0.0,0.0,0.0,0.0,0.0,0.0,0.0,0.0,0.0,0.0,0.0,0.0,0.0,0.0,0.0,0.0,0.0,0.0,0.0,0.0,0.0,0.0,0.0,0.0,0.0,0.0,0.0,0.0,0.0,0.0,0.0,0.0,0.0,0.0,0.0,0.0,0.0,0.0,0.0,0.0,0.0,0.0,0.0,0.0,0.0,0.0,0.0,0.0,0.0,0.0,0.0,0.0,0.0,0.0,0.0,0.0,0.0,0.0,0.0,0.0,0.0,0.0,0.0,0.0,0.0,0.0,0.0,0.0,0.0,0.0,0.0,0.0,0.0,0.0,0.0,0.0,0.0,0.0,0.0,0.0,0.0,0.0,0.0,0.0,0.0,0.0,0.0,0.0,0.0,0.0,0.0,0.0,0.0,0.0,0.0,0.0,0.0,0.0,0.0,0.0,0.0,0.0,0.0,0.0,0.0,0.0,0.0,0.0,0.0,0.0,0.0,0.0,0.0,0.0,0.0,0.0,0.0,0.0,0.0,0.0,0.0,0.0,0.0,0.0,0.0,0.0,0.0,0.0,0.0,0.0,0.0,0.0,0.0,0.0,0.0,0.0,0.0,0.0,0.0,0.0,0.0,0.0,0.0,0.0,0.0,0.0,0.0,0.0,0.0,0.0,0.0,0.0,0.0,0.0,0.0,0.0,0.0,0.0,0.0,0.0,0.0,0.0,0.0,0.0,0.0,0.0,0.0,0.0,0.0,0.0,0.0,0.0,0.0,0.0,0.0,0.0,0.0,0.0,0.0,0.0,0.0,0.0,0.0,0.0,0.0,0.0,0.0,0.0,0.0,0.0,0.0,0.0,0.0,0.0,0.0,0.0,0.0,0.0,0.0,0.0,0.0,0.0,0.0,0.0,0.0,0.0,0.0,0.0,0.0,0.0,0.0,0.0,0.0,0.0,0.0,0.0,0.0,0.0,0.0,0.0,0.0,0.0,0.0,0.0,0.0,0.0,0.0,0.0,0.0,0.0,0.0,0.0,0.0,0.0,0.0,0.0,0.0,0.0,0.0,0.0,0.0,0.0,0.0,0.0,0.0,0.0,0.0,0.0,0.0,0.0,0.0,0.0,0.0,0.0,0.0,0.0,0.0,0.0,0.0,0.0,0.0,0.0,0.0,0.0,0.0,0.0,0.0,0.0,0.0,0.0,0.0,0.0,0.0,0.0,0.0,0.0,0.0,0.0,0.0,0.0,0.0,0.0,0.0,0.0,0.0,0.0,0.0,0.0,0.0,0.0,0.0,0.0,0.0,0.0,0.0,0.0,0.0,0.0,0.0,0.0,0.0,0.0,0.0,0.0,0.0,0.0,0.0,0.0,0.0,0.0,0.0,0.0,0.0,0.0,0.0,0.0,0.0,0.0,0.0,0.0,0.0,0.0,0.0,0.0,0.0,0.0,0.0,0.0,0.0,0.0,0.0,0.0,0.0,0.0,0.0,0.0,0.0,0.0,0.0,0.0,0.0,0.0,0.0,0.0,0.0,0.0,0.0,0.0,0.0,0.0,0.0,0.0,0.0,0.0,0.0,0.0,0.0,0.0,0.0,0.0,0.0,0.0,0.0,0.0,0.0,0.0,0.0,0.0,0.0,0.0,0.0,0.0,0.0,0.0,0.0,0.0,0.0,0.0,0.0,0.0,0.0,0.0,0.0,0.0,0.0,0.0,0.0,0.0,0.0,0.0,0.0,0.0,0.0,0.0,0.0,0.0,0.0,0.0,0.0,0.0,0.0,0.0,0.0,0.0,0.0,0.0,0.0,0.0,0.0,0.0,0.0,0.0,0.0,0.0,0.0,0.0,0.0,0.0,0.0,0.0,0.0,0.0,0.0,0.0,0.0,0.0,0.0,0.0,0.0,0.0,0.0,0.0,0.0,0.0,0.0,0.0,
1.0,1.0,1.0,1.0,1.0,1.0,1.0,1.0,1.0,1.0,1.0,1.0,1.0,1.0,1.0,1.0,1.0,1.0,1.0,1.0,1.0,1.0,1.0,1.0,1.0,1.0,1.0,1.0,1.0,1.0,1.0,1.0,1.0,1.0,1.0,1.0,1.0,1.0,1.0,1.0,1.0,1.0,1.0,1.0,1.0,1.0,1.0,1.0,1.0,1.0,1.0,1.0,1.0,1.0,1.0,1.0,1.0,1.0,1.0,1.0,1.0,1.0,1.0,1.0,1.0,1.0,1.0,1.0,1.0,1.0,1.0,1.0,1.0,1.0,1.0,1.0,1.0,1.0,1.0,1.0,1.0,1.0,1.0,1.0,1.0,1.0,1.0,1.0,1.0,1.0,1.0,1.0,1.0,1.0,1.0,1.0,1.0,1.0,1.0,1.0,1.0,1.0,1.0,1.0,1.0,1.0,1.0,1.0,1.0,1.0,1.0,1.0,1.0,1.0,1.0,1.0,1.0,1.0,1.0,1.0,1.0,1.0,1.0,1.0,1.0,1.0,1.0,1.0,1.0,1.0,1.0,1.0,1.0,1.0,1.0,1.0,1.0,1.0,1.0,1.0,1.0,1.0,1.0,1.0,1.0,1.0,1.0,1.0,1.0,1.0,1.0,1.0,1.0,1.0,1.0,1.0,1.0,1.0,1.0,1.0,1.0,1.0,1.0,1.0,1.0,1.0,1.0,1.0,1.0,1.0,1.0,1.0,1.0,1.0,1.0,1.0,1.0,1.0,1.0,1.0,1.0,1.0,1.0,1.0,1.0,1.0,1.0,1.0,1.0,1.0,1.0,1.0,1.0,1.0,1.0,1.0,1.0,1.0,1.0,1.0,1.0,1.0,1.0,1.0,1.0,1.0,1.0,1.0,1.0,1.0,1.0,1.0,1.0,1.0,1.0,1.0,1.0,1.0,1.0,1.0,1.0,1.0,1.0,1.0,1.0,1.0,1.0,1.0,1.0,1.0,1.0,1.0,1.0,1.0,1.0,1.0,1.0,1.0,1.0,1.0,1.0,1.0,1.0,1.0,1.0,1.0,1.0,1.0,1.0,1.0,1.0,1.0,1.0,1.0,1.0,1.0,1.0,1.0,1.0,1.0,1.0,1.0,1.0,1.0,1.0,1.0,1.0,1.0,1.0,1.0,1.0,1.0,1.0,1.0,1.0,1.0,1.0,1.0,1.0,1.0,1.0,1.0,1.0,1.0,1.0,1.0,1.0,1.0,1.0,1.0,1.0,1.0,1.0,1.0,1.0,1.0,1.0,1.0,1.0,1.0,1.0,1.0,1.0,1.0,1.0,1.0,1.0,1.0,1.0,1.0,1.0,1.0,1.0,1.0,1.0,1.0,1.0,1.0,1.0,1.0,1.0,1.0,1.0,1.0,1.0,1.0,1.0,1.0,1.0,1.0,1.0,1.0,1.0,1.0,1.0,1.0,1.0,1.0,1.0,1.0,1.0,1.0,1.0,1.0,1.0,1.0,1.0,1.0,1.0,1.0,1.0,1.0,1.0,1.0,1.0,1.0,1.0,1.0,1.0,1.0,1.0,1.0,1.0,1.0,1.0,1.0,1.0,1.0,1.0,1.0,1.0,1.0,1.0,1.0,1.0,1.0,1.0,1.0,1.0,1.0,1.0,1.0,1.0,1.0,1.0,1.0,1.0,1.0,1.0,1.0,1.0,1.0,1.0,1.0,1.0,1.0,1.0,1.0,1.0,1.0,1.0,1.0,1.0,1.0,1.0,1.0,1.0,1.0,1.0,1.0,1.0,1.0,1.0,1.0,1.0,1.0,1.0,1.0,1.0,1.0,1.0,1.0,1.0,1.0,1.0,1.0,1.0,1.0,1.0,1.0,1.0,1.0,1.0,1.0,1.0,1.0,1.0,1.0,1.0,1.0,1.0,1.0,1.0,1.0,1.0,1.0,1.0,1.0,1.0,1.0,1.0,1.0,1.0,1.0,1.0,1.0,1.0,1.0,1.0,1.0,1.0,1.0,1.0,1.0,1.0,1.0,1.0,1.0,1.0,1.0,1.0,1.0,1.0,1.0,1.0,1.0,1.0,1.0,1.0,1.0,1.0,1.0,1.0,1.0,1.0,1.0,1.0,1.0,1.0,1.0,1.0,1.0,1.0,1.0,1.0,1.0,1.0,1.0,1.0,1.0,1.0,1.0,1.0,1.0,1.0,1.0,1.0,1.0,1.0,1.0,1.0,1.0,1.0,1.0,1.0,1.0,1.0,1.0,1.0,1.0,1.0,1.0,1.0,1.0,1.0,1.0,1.0,1.0,1.0,1.0,1.0,1.0,1.0,1.0,1.0,1.0,1.0,1.0,1.0,1.0,1.0,1.0,1.0,1.0,1.0,1.0,1.0,1.0,1.0,1.0,1.0,1.0,1.0,1.0,1.0,1.0,1.0,1.0,1.0,1.0,1.0,1.0,1.0,1.0,1.0,1.0,1.0,1.0,1.0,1.0,1.0,1.0,1.0,1.0,1.0,1.0,1.0,1.0,1.0,1.0,1.0,1.0,1.0,1.0,1.0,1.0,1.0,1.0,1.0,1.0,1.0,1.0,1.0,1.0,1.0,1.0,1.0,1.0,1.0,1.0,1.0,1.0,1.0,1.0,1.0,1.0,1.0,1.0,1.0,1.0,1.0,1.0,1.0,1.0,1.0,1.0,1.0,1.0,1.0,1.0,1.0,1.0,1.0,1.0,1.0,1.0,1.0,1.0,1.0,1.0,1.0,1.0,1.0,1.0,1.0,1.0,1.0,1.0,1.0,1.0,1.0,1.0,1.0,1.0,1.0,1.0,1.0,1.0,1.0,1.0,1.0,1.0,1.0,1.0,1.0,1.0,1.0,1.0,1.0,1.0,1.0,1.0,1.0,1.0,1.0,1.0,1.0,1.0,1.0,1.0,1.0,1.0,1.0,1.0,1.0,1.0,1.0,1.0,1.0,1.0,1.0,1.0,1.0,1.0,1.0,1.0,1.0,1.0,1.0,1.0,1.0,1.0,1.0,1.0,1.0,1.0,1.0,1.0,1.0,1.0,1.0,1.0,1.0,1.0,1.0,1.0,1.0,1.0,1.0,1.0,1.0,1.0,1.0,1.0,1.0,1.0,1.0,1.0,1.0,1.0,1.0,1.0,1.0,1.0,1.0,1.0,1.0,1.0,1.0,1.0,1.0,1.0,1.0,1.0,1.0,1.0,1.0,1.0,1.0,1.0,1.0,1.0,1.0,1.0,1.0,1.0,1.0,1.0,1.0,1.0,1.0,1.0,1.0,1.0,1.0,1.0,1.0,1.0,1.0,1.0,1.0,1.0,1.0,1.0,1.0,1.0,1.0,1.0,1.0,1.0,1.0,1.0,1.0,1.0,1.0,1.0,1.0,1.0,1.0,1.0,1.0,1.0,1.0,1.0,1.0,
-2.70155e-02,-1.29144e-02,-3.78384e-03,-4.65385e-04,1.32622e-02,-1.67327e-02,2.16603e-02,1.93963e-02,1.31921e-02,1.21538e-02,1.00285e-02,9.08968e-03,3.03888e-03,-4.41862e-03,-2.28018e-02,-2.86996e-02,1.73186e-02,-1.13258e-02,3.48736e-02,2.51753e-02,-2.65637e-02,1.23474e-02,-1.77368e-02,-2.27778e-02,-1.48538e-02,2.46570e-02,3.35911e-02,2.53606e-02,-2.83809e-02,2.03347e-03,1.47899e-02,3.47296e-02,-1.16614e-02,-4.26093e-03,-8.61406e-03,-2.41161e-02,1.38528e-03,2.35375e-02,-3.06056e-02,-3.18583e-02,3.53590e-02,4.49222e-03,3.40982e-03,2.72882e-02,-2.34276e-02,-1.04029e-02,-4.46535e-03,-6.94256e-03,9.97050e-04,3.02281e-02,-7.10236e-03,2.36158e-02,-8.24715e-03,3.00554e-02,-4.71340e-03,1.77784e-02,1.07700e-02,-1.07174e-02,-2.71040e-03,1.65505e-02,1.45331e-02,1.98408e-03,2.07911e-02,1.86167e-02,-1.52957e-02,-2.99527e-02,-1.90110e-02,-2.87947e-02,8.82135e-03,2.07047e-02,3.14006e-02,-1.00420e-02,-3.35825e-02,2.45261e-02,-5.10561e-03,3.41476e-02,-6.78870e-03,3.30822e-02,-2.46532e-02,2.83645e-02,3.02948e-02,-3.32206e-02,3.90417e-03,3.13738e-02,2.06810e-02,4.98742e-03,-2.00788e-02,2.38699e-02,-2.90164e-02,-5.87806e-03,-1.56456e-02,-8.50147e-03,-1.40357e-02,2.15338e-02,2.53679e-02,-2.52394e-02,8.71252e-03,-2.44682e-02,-2.26868e-03,2.05782e-03,-2.80515e-04,1.79705e-02,3.18067e-03,2.75202e-02,-3.27003e-02,3.84028e-03,2.86476e-02,-1.93717e-02,-2.99185e-02,-8.41524e-03,1.95455e-03,-9.84698e-03,-2.12742e-02,-3.07720e-03,-1.61300e-02,-1.14293e-02,2.90255e-02,2.03882e-02,-3.28335e-02,-5.62143e-03,2.34566e-03,-2.60766e-02,1.72045e-02,2.05714e-02,-1.95326e-02,1.16181e-02,-2.29882e-02,-1.56303e-02,-3.61397e-02,-3.03939e-02,-2.89539e-02,-3.29625e-02,-3.11614e-02,-1.03518e-02,-2.58535e-02,2.17911e-02,-6.51899e-03,-3.09142e-02,-3.44775e-02,-8.17944e-03,-2.48665e-03,3.40873e-02,2.50888e-02,-1.45730e-02,-1.63904e-04,-3.19778e-02,1.37723e-03,-4.72982e-02,1.11926e-02,-4.32600e-02,-2.54603e-02,-3.84780e-02,-6.66383e-03,6.28456e-03,-1.38362e-02,-1.19814e-02,-4.76237e-03,-2.77489e-02,1.79730e-02,-8.97190e-03,2.05887e-02,-6.91452e-03,3.90604e-02,-2.28645e-02,3.48769e-02,-2.50454e-02,2.15523e-03,-2.24350e-02,2.86204e-02,-2.75809e-02,2.64585e-02,-2.80918e-02,9.63377e-03,-2.72814e-02,-4.22200e-02,-1.54037e-02,-3.35221e-02,-5.92745e-03,-3.09863e-02,-3.81291e-02,-2.85552e-02,9.17883e-04,-4.52457e-03,8.72703e-03,2.65959e-02,-2.87786e-02,-9.53772e-03,-6.66812e-03,-2.36651e-03,9.37634e-03,2.79594e-02,9.92690e-04,3.15363e-02,2.80997e-02,-3.26258e-02,7.08276e-03,-8.15824e-03,-2.05606e-03,2.39846e-02,-1.09008e-02,-1.17100e-02,-1.02845e-02,9.40050e-03,1.42399e-02,1.28739e-02,-1.13087e-02,-5.10916e-03,-8.25334e-03,-2.48766e-02,-3.20234e-02,-1.27289e-02,1.50691e-04,2.10330e-02,-3.86256e-02,-3.05826e-02,1.60528e-02,1.33616e-02,2.14087e-02,3.69009e-02,7.64095e-03,3.68306e-02,6.24784e-03,1.58339e-02,-8.13225e-03,-1.52741e-02,-1.05336e-03,-2.67465e-02,-2.25726e-02,-5.98969e-03,-4.02339e-04,2.82312e-03,-1.54097e-03,-4.18385e-02,2.66143e-02,2.66219e-02,-1.10572e-02,-2.63853e-02,-1.33053e-02,-1.59672e-02,-4.25983e-02,-1.31851e-02,-1.49746e-03,8.23052e-03,-2.10095e-02,-3.69177e-03,1.11113e-03,1.56182e-02,-3.29037e-02,-3.42588e-02,-1.44642e-02,3.21728e-02,8.33693e-03,1.76520e-02,-2.80865e-02,1.69357e-02,4.54119e-04,-4.73660e-03,-1.94660e-02,-2.49674e-02,-3.56544e-02,2.19380e-02,1.80613e-02,1.26187e-02,-2.54763e-02,-8.33058e-03,1.35786e-02,-3.82651e-02,-2.16033e-02,-1.73096e-03,-3.54940e-02,2.30545e-03,-3.71221e-02,-2.73002e-02,-1.70576e-02,1.86971e-02,-1.82502e-02,2.14015e-02,-3.03452e-02,-3.31567e-02,3.82282e-03,3.25030e-02,2.88918e-02,1.40248e-02,1.87910e-02,-5.17764e-03,-2.19710e-02,-7.38836e-03,-4.12609e-02,9.88545e-03,-9.97250e-03,-9.40087e-03,-4.11944e-02,1.10483e-02,-3.84909e-02,-2.25556e-02,-4.42857e-02,-1.15909e-02,-2.12342e-02,2.71392e-02,-3.32494e-02,-5.43059e-03,-3.33969e-02,-1.60515e-02,2.71341e-02,7.99874e-03,-3.52521e-02,7.71084e-03,2.55822e-02,-3.01963e-02,3.51320e-02,-6.96030e-03,-2.39288e-02,1.28240e-02,-1.32952e-02,-4.17463e-02,-2.23354e-02,-3.07624e-02,-3.98395e-02,-2.56935e-02,-9.93911e-04,-3.40096e-03,8.38158e-04,5.77545e-04,-1.53393e-02,-2.11765e-02,1.90727e-03,-7.61293e-03,8.66116e-03,2.71853e-02,-1.27970e-02,6.18224e-03,-2.46834e-02,2.79801e-02,-1.06412e-02,-1.28757e-02,-2.76480e-02,-3.51348e-02,5.34124e-03,3.37037e-03,-8.33937e-03,1.04187e-02,-1.33102e-02,1.15593e-02,2.32912e-02,2.24691e-02,-1.44435e-02,-3.73363e-02,1.40313e-02,-3.18504e-02,2.09455e-02,1.76746e-02,-9.68271e-04,-2.44967e-03,3.90133e-03,1.58582e-02,1.77713e-02,-1.93354e-03,6.75629e-03,2.19578e-02,2.23761e-02,-2.50559e-02,2.25931e-02,3.00843e-02,2.56726e-02,-2.21822e-02,2.05360e-02,-3.31842e-02,-3.01022e-02,-3.09613e-02,1.34358e-02,2.34035e-03,1.35918e-02,-2.00942e-02,4.19565e-03,2.37089e-03,-4.06372e-02,-5.11489e-03,-4.80974e-02,-2.79490e-02,-2.68268e-02,1.71068e-02,-1.56714e-02,-1.59034e-03,-3.28993e-02,4.69491e-03,-1.09262e-02,1.01590e-02,-3.78101e-02,1.57415e-02,-2.11151e-02,-1.85214e-02,-1.88847e-02,-2.26113e-02,-2.11056e-02,6.23018e-04,1.50728e-02,-1.13626e-02,-3.43712e-02,1.66118e-02,-5.12886e-03,-2.43498e-02,-1.33248e-02,5.50860e-03,-3.91977e-02,1.68285e-02,-1.27892e-02,-1.99091e-02,-1.49062e-02,-3.72924e-02,-3.41558e-03,-4.00094e-02,-4.09550e-02,-7.33691e-03,-1.81583e-02,-1.00694e-02,6.41463e-03,1.46368e-02,-3.03840e-02,3.14585e-04,1.40781e-02,-1.63706e-02,-7.89446e-03,-2.95787e-02,2.84329e-02,2.66396e-02,-3.33551e-02,1.63159e-02,-6.38144e-03,-3.59579e-02,-1.28540e-02,-4.62917e-03,-1.79013e-02,-2.33975e-02,-7.41532e-03,-3.69049e-02,-2.11411e-02,-4.02549e-03,-1.45975e-02,8.24103e-03,-1.83069e-02,-2.10734e-02,-3.83463e-02,2.63959e-02,2.68337e-03,-4.02359e-02,-2.45616e-02,8.38072e-03,-1.70604e-02,2.36408e-02,-3.88363e-03,3.11664e-02,1.83824e-02,-1.26397e-02,2.28438e-04,-4.25885e-02,1.02102e-02,3.14166e-04,1.80744e-02,4.15031e-03,6.53435e-03,-3.14572e-02,-2.96737e-02,-1.27210e-02,-2.24929e-02,-5.15184e-02,5.10374e-03,1.00637e-03,1.88899e-02,-6.72112e-03,-3.46941e-02,-1.25264e-02,-2.20542e-02,4.21165e-03,-2.38442e-02,-1.59689e-02,-3.41587e-02,-7.37424e-03,1.03943e-02,-1.06786e-02,-1.21236e-02,-3.02076e-02,1.18752e-02,-1.65773e-02,-3.41855e-02,-2.53608e-02,-6.44653e-03,-2.16386e-02,-2.94082e-03,-8.84940e-03,-2.66593e-03,-3.11313e-02,-7.69289e-03,-3.94008e-02,-3.75323e-02,2.43767e-02,-4.05247e-02,-2.30281e-02,7.07665e-03,-2.26228e-02,2.95459e-02,-2.84733e-02,2.45433e-02,2.72949e-02,-1.52411e-02,-2.07912e-02,-1.94481e-02,3.12342e-02,-3.12717e-02,-6.53309e-03,5.01504e-03,9.45547e-03,2.29935e-02,-1.29659e-02,-2.15036e-02,-9.71040e-03,-1.98105e-02,-4.00215e-02,-1.36139e-02,-1.43432e-03,-4.31322e-03,-3.61542e-02,9.57099e-03,3.69802e-03,-2.41909e-02,-3.82779e-02,-9.91770e-03,-1.19098e-02,-2.94947e-02,3.30513e-02,1.59417e-02,-2.94182e-03,3.41809e-02,-9.13497e-03,1.40881e-02,1.03002e-02,-1.65000e-02,2.07426e-02,2.56157e-02,2.23404e-03,-2.20746e-03,-5.45641e-03,-4.03359e-02,-2.37036e-02,2.87603e-02,-1.41153e-02,5.75948e-03,-3.47798e-02,-4.47525e-02,1.02770e-02,-2.49682e-02,-5.14316e-04,1.03215e-02,3.51211e-03,2.45240e-02,1.53810e-02,-2.23798e-02,2.84174e-02,2.26030e-02,2.62735e-02,-2.95005e-02,-2.14797e-02,-2.97552e-02,2.11867e-02,1.63739e-02,1.68472e-02,-2.22124e-02,-6.79299e-03,1.32732e-02,-1.36997e-02,-1.21600e-03,-2.27805e-02,9.66682e-03,-1.77491e-02,-2.90347e-03,1.65222e-02,2.16050e-02,-5.18100e-02,-5.76682e-02,-5.04589e-02,-1.76730e-02,7.43657e-03,-1.04899e-02,-5.86549e-03,2.49937e-02,-3.10107e-02,-4.16218e-03,3.20433e-02,-1.03983e-02,-1.28052e-02,-2.03461e-03,9.81176e-03,2.46600e-02,-1.22630e-02,1.30462e-02,2.66607e-02,-2.55189e-02,-3.98789e-02,-3.17449e-02,-3.12894e-02,-1.05571e-02,-3.04849e-02,1.16234e-02,1.12453e-02,-3.91027e-02,-3.90103e-02,-3.05591e-02,-4.84219e-02,-3.53567e-02,-2.28405e-02,-3.73939e-03,3.57115e-02,-1.31031e-02,-2.85301e-02,-3.50837e-02,-2.89583e-02,-5.95208e-04,-7.89580e-03,2.14529e-02,2.70514e-02,-2.29530e-02,1.38450e-02,-7.22916e-03,-2.63384e-02,1.51937e-03,-3.49768e-02,-9.97420e-03,5.14531e-03,-1.64440e-02,-1.35054e-02,2.57928e-02,-5.45121e-02,-5.50605e-02,-1.45192e-02,7.44189e-03,-2.43481e-02,-1.10351e-02,-3.41381e-02,2.51104e-02,7.80036e-03,-1.58132e-02,1.57598e-03,3.37894e-02,3.46855e-02,-1.72536e-02,1.24546e-02,-2.60762e-02,-1.64977e-02,-1.75658e-02,1.01226e-02,1.03113e-02,1.00831e-04,-1.67587e-02,9.37858e-03,2.09303e-02,-9.60644e-03,-1.95513e-02,-3.91836e-02,-4.07919e-02,-4.44942e-02,-5.80503e-04,4.89191e-03,-3.54707e-02,-8.26838e-03,2.45353e-02,-1.27781e-02,6.87772e-03,-2.95901e-02,-2.20859e-02,-1.55803e-02,3.35191e-02,-3.21252e-02,-7.37481e-03,2.88702e-02,-8.23601e-03,-4.01025e-03,2.33307e-03,3.37883e-02,1.79711e-02,2.85419e-02,-6.92306e-03,5.43688e-03,-2.32121e-02,5.63901e-03,-4.67538e-02,2.78745e-03,-4.05643e-02,6.64377e-03,-5.29191e-02,-3.28022e-02,-4.90289e-03,-1.40856e-02,3.25771e-02,-9.58500e-03,3.55966e-02,1.29542e-02,-1.66294e-02,-1.19790e-02,1.88512e-02,-1.81064e-02,-2.23837e-02,-3.41557e-02,-1.01801e-02,2.31531e-02,-9.17906e-03,-1.54517e-02,-9.67451e-03,-8.66509e-04,1.64598e-02,1.07750e-02,-3.06515e-02,2.30579e-02,1.44897e-02,-1.59989e-02,-2.21455e-02,-1.52358e-02,-5.92662e-03,-2.09864e-02,1.21426e-02,2.19132e-02,1.14958e-02,-5.24001e-03,-2.67309e-02,-3.48014e-02,-2.26438e-03,-8.39047e-03,6.98124e-04,-4.46574e-03,-9.31561e-03,2.75073e-02,-3.53278e-02,-4.92514e-03,-1.19120e-02,-1.31289e-02,-7.56890e-03,-4.51074e-02,6.52948e-03,-2.49481e-02,-2.84997e-02,-3.18621e-02,1.45948e-02,4.27715e-03,1.03793e-02,-3.08555e-02,8.13687e-03,7.98286e-03,-2.17116e-02,-3.17318e-03,-1.44740e-02,3.04838e-03,5.97252e-03,-7.13741e-03,-1.74222e-03,-2.24570e-02,2.90671e-02,-3.15635e-02,1.74638e-02,-3.29225e-02,-2.52545e-02,3.19927e-02,-1.28418e-02,-1.72660e-02,1.55983e-03,2.98865e-02,-1.27699e-02,2.77237e-02,7.57891e-03,2.56138e-02,-3.05380e-02,9.88325e-03,2.19584e-02,-1.19048e-04,-1.86815e-03,4.46024e-03,2.71758e-02,-3.21476e-02,1.84218e-02,-2.89615e-02,-2.70538e-03,2.55600e-02,2.85024e-02,-2.56786e-02,3.26156e-02,-2.09459e-02,1.81385e-03,
-2.83310e-02,-7.34653e-03,-3.73172e-03,1.81396e-02,-1.25651e-02,3.22199e-02,-3.44497e-02,1.82374e-02,-1.16680e-03,6.16353e-03,-2.57885e-02,-1.89429e-02,2.73669e-02,1.80341e-01,2.11693e-01,9.87669e-02,9.08918e-03,-3.14694e-02,4.90335e-03,-1.11017e-02,1.93679e-02,1.32845e-02,-4.73229e-03,-3.82504e-04,2.04285e-02,-1.19358e-02,2.69906e-02,1.85326e-02,2.98686e-02,-1.16077e-02,-3.45358e-02,4.38720e-03,1.91937e-03,-2.03706e-03,6.76147e-03,3.54583e-02,4.59067e-02,5.78114e-02,1.40483e-01,1.23022e-01,-1.21300e-02,-1.15809e-01,3.64155e-01,3.00661e-01,2.48770e-02,-1.43032e-01,5.38003e-03,-1.31187e-01,-1.32776e-01,-9.70508e-02,-1.00564e-01,-2.48713e-02,-3.33105e-02,-1.93527e-02,2.99920e-03,2.33672e-02,-1.45932e-02,-1.21517e-02,-1.94540e-01,-2.08861e-01,-2.60519e-01,-3.75455e-02,-4.47074e-02,1.50750e-02,-6.99931e-02,-1.36036e-01,-5.99292e-02,-7.32924e-02,2.48706e-01,3.68457e-01,3.82903e-01,4.67432e-01,3.07048e-01,1.45695e-01,2.18651e-01,2.32942e-01,2.98535e-01,-8.04689e-02,-1.57398e-01,-1.45755e-01,2.32499e-01,2.30030e-01,-2.86865e-02,-1.01088e-02,-2.67935e-02,3.82779e-03,2.37246e-01,-1.76249e-01,-1.74407e-01,-2.69197e-02,-1.07911e-01,-1.12858e-01,-3.46743e-03,4.12142e-02,-7.07371e-02,-1.26159e-01,7.85370e-02,-6.11622e-02,-2.76185e-01,1.25740e-01,7.57770e-02,-2.53670e-02,-1.87820e-02,-3.30477e-01,-2.50641e-01,9.66657e-02,3.63341e-01,1.84629e-01,-9.13574e-03,-7.98710e-02,-1.53434e-01,-1.68234e-02,7.46968e-03,1.23586e-02,3.63461e-01,1.70964e-01,2.43940e-01,1.59417e-01,2.54372e-02,1.20301e-01,2.26236e-01,1.30882e-02,6.29228e-02,-1.19353e-01,9.87943e-02,1.37062e-01,8.52897e-02,1.39664e-01,8.24393e-02,-2.54151e-02,-1.01674e-01,-5.87411e-02,-1.04455e-01,2.54277e-02,-3.99990e-02,-1.30996e-01,2.25125e-02,-1.26944e-01,-1.16348e-01,-5.15823e-02,2.94616e-03,1.05313e-02,2.24776e-01,-7.62268e-03,2.56718e-01,1.08314e-01,1.23887e-01,5.36138e-02,-1.58524e-01,-1.85919e-01,-1.24385e-01,2.95329e-02,1.30494e-01,1.08584e-03,8.78731e-02,1.55230e-01,1.29530e-01,1.43604e-01,-4.34261e-02,-1.39061e-01,1.43873e-02,1.95049e-01,1.76606e-01,-1.54661e-01,4.04732e-02,1.35528e-01,-2.17936e-01,-1.38986e-01,-2.15543e-02,2.94670e-03,-7.41664e-03,-7.68939e-04,-5.01108e-02,-2.80005e-01,-1.56308e-01,1.07046e-01,-1.08191e-01,-5.79168e-02,-9.30239e-02,-5.88590e-02,-4.42279e-02,-5.99798e-02,4.93698e-03,4.96587e-02,1.10575e-01,-1.79983e-01,-2.15285e-01,-2.09268e-01,-2.38463e-01,-4.47086e-02,5.91544e-02,9.86530e-03,-7.49793e-02,-6.30344e-02,-2.39901e-01,-2.15468e-01,3.38915e-02,-4.29002e-02,1.13657e-01,-4.86811e-02,-3.32266e-01,-3.22348e-01,-1.08383e-01,-5.45135e-03,-1.38252e-01,-4.67412e-02,5.92511e-02,2.35555e-02,-1.17156e-03,1.18976e-01,1.84701e-01,3.73982e-02,-5.81522e-02,-3.70125e-01,-1.61620e-01,-1.44799e-01,-3.41691e-02,1.20528e-02,1.24513e-01,7.83974e-02,1.42438e-01,-2.30114e-01,-4.49821e-02,-3.20893e-01,-1.43826e-01,3.29931e-01,1.20015e-01,-3.33779e-02,5.36771e-02,-7.14054e-02,-1.49820e-01,-6.34140e-02,-2.13066e-01,-2.06343e-01,-4.18575e-02,-1.68156e-01,-1.51779e-02,9.78496e-02,1.97594e-01,7.56766e-02,-1.08313e-01,-2.52610e-01,-1.64925e-02,3.51024e-03,1.67649e-02,5.40078e-02,1.49427e-01,1.37773e-01,3.35194e-01,4.25738e-02,3.85221e-01,-9.09149e-02,-3.15059e-01,-6.40186e-02,1.86140e-01,-3.05631e-02,1.62077e-01,-3.27765e-02,-2.29902e-01,-7.51208e-02,-2.00121e-01,-8.45471e-02,-1.23096e-01,-6.68642e-03,5.61150e-02,1.06635e-01,5.86262e-02,1.82517e-01,1.26925e-02,-1.32416e-01,-1.30585e-01,-5.23983e-02,-1.36869e-03,1.09731e-01,8.06883e-02,1.67082e-01,6.50804e-02,-7.97172e-02,-3.17548e-02,-3.29306e-01,-3.09419e-01,-8.87069e-02,1.14009e-01,3.30580e-02,-8.18002e-02,-7.58042e-02,-1.63585e-01,-3.14588e-01,-1.01227e-01,-2.09424e-01,2.07616e-02,2.47462e-01,2.19320e-01,2.06128e-01,-5.33908e-03,-2.04749e-01,-1.51280e-01,-1.58332e-01,-1.30112e-01,1.05328e-02,3.29602e-02,2.02940e-01,8.68391e-02,3.56293e-02,-4.60782e-01,-3.50784e-01,-2.69555e-01,-1.42109e-01,-1.62086e-01,-3.32920e-01,2.89542e-02,-6.15967e-02,-3.42483e-01,-1.06750e-01,-2.70986e-01,-1.99151e-01,-4.16898e-02,-1.47785e-02,2.95349e-02,1.48698e-01,4.17484e-02,6.56982e-02,-9.32816e-02,-2.79939e-01,-2.03429e-01,-2.06151e-01,-6.75507e-02,4.89463e-02,1.16269e-01,1.39239e-01,2.43232e-02,-2.56063e-01,-3.27777e-01,-3.21433e-01,-4.06590e-02,-9.10650e-02,-1.57447e-02,-2.27079e-02,1.14940e-01,8.23321e-02,-1.42625e-01,-1.63346e-01,-1.30150e-01,7.49988e-02,1.37864e-01,-1.76781e-02,-8.05149e-02,-5.05162e-02,6.67719e-02,2.53677e-02,-2.42413e-02,-7.97422e-02,-3.02020e-02,-1.11001e-01,-9.60409e-02,5.89028e-02,1.53231e-01,9.32648e-02,-1.29970e-01,-8.91280e-02,-3.49352e-01,-4.08403e-01,-5.35213e-01,-2.65256e-01,1.57592e-01,4.29567e-02,-8.96746e-02,-1.78993e-01,-2.41246e-01,-1.00071e-01,1.48457e-01,1.29959e-02,1.71685e-01,6.36619e-02,-1.57756e-01,-2.04613e-01,-6.96765e-02,4.78929e-02,8.90759e-02,8.25059e-02,8.12312e-02,1.09713e-01,-1.03724e-01,-2.13595e-02,1.60023e-01,-1.37813e-01,-4.21992e-01,-3.81107e-01,-3.43594e-01,-3.29415e-01,-3.31003e-01,3.19294e-01,-3.57982e-02,-6.94844e-02,-6.61850e-02,1.54072e-01,-9.56830e-03,2.56407e-02,-1.41952e-01,-1.06153e-01,-1.21915e-01,3.57755e-02,-1.04488e-01,-7.88350e-02,1.00859e-02,-8.80696e-02,-4.40759e-02,-4.28679e-02,1.46712e-01,-1.62536e-02,-2.55962e-01,-1.54229e-01,-1.88004e-01,-2.37538e-01,-2.45007e-01,-3.48385e-01,-3.11044e-01,4.77817e-02,2.13080e-01,3.50138e-01,-3.83328e-02,-1.55304e-01,2.90309e-01,3.81980e-01,2.58295e-01,1.33131e-01,-1.62794e-01,-1.36902e-01,-3.12971e-02,1.49560e-01,1.34766e-01,6.83783e-02,5.72173e-02,-6.38296e-02,4.40878e-02,1.66196e-02,1.14372e-01,-6.89195e-02,-2.83156e-01,-2.25662e-01,-1.46188e-01,7.53073e-02,1.17878e-01,-1.79670e-01,-2.12532e-01,3.31672e-01,4.91127e-01,3.45426e-01,1.48286e-02,-7.50345e-02,1.85748e-01,1.26777e-01,4.28977e-01,9.68942e-02,1.35615e-01,1.38477e-01,1.59262e-01,3.50210e-01,3.35911e-01,1.04140e-01,1.09903e-01,8.60142e-02,1.19362e-01,1.10966e-01,6.44398e-02,-1.29288e-01,-1.64625e-01,-1.65645e-01,-4.69935e-03,1.03027e-01,8.80794e-02,-9.29156e-02,-1.43853e-01,2.40491e-01,4.69921e-01,2.23850e-01,-3.14752e-02,-1.75268e-02,2.18036e-01,-2.21039e-01,1.79094e-01,-3.62995e-02,3.33748e-02,2.04514e-01,2.68237e-01,2.03175e-01,1.12244e-01,-3.15505e-02,8.41658e-02,1.73744e-01,2.24136e-01,1.84463e-01,-6.93436e-02,-1.18028e-01,-1.39411e-01,-4.36305e-02,8.89713e-02,1.05935e-01,7.15550e-02,7.87509e-02,-3.19419e-01,2.13809e-01,5.33074e-01,5.05783e-01,-1.59761e-01,-2.73533e-02,1.46169e-01,-2.82294e-02,1.18149e-02,1.17179e-01,3.15352e-02,9.89959e-02,2.43977e-01,1.78187e-01,-2.95572e-02,-2.54953e-01,-5.13995e-02,1.98227e-01,2.26789e-01,2.85644e-02,-1.28433e-01,-1.26044e-01,1.04195e-01,1.33377e-01,7.69984e-02,1.69569e-01,1.03993e-01,2.53813e-01,-1.88323e-01,5.01794e-02,4.23144e-01,4.22392e-01,4.97844e-02,-4.30511e-01,-2.36014e-01,2.96502e-03,9.56172e-03,-1.61789e-02,1.73245e-04,3.46605e-02,1.73691e-01,1.96653e-01,-1.32934e-01,-3.91183e-01,-3.00578e-01,-9.99919e-03,9.64455e-02,3.78437e-02,-2.27600e-02,2.70196e-02,6.57562e-02,5.46493e-02,-1.31524e-01,2.75295e-01,2.15046e-01,3.11039e-01,-1.29568e-01,-1.21090e-02,5.54176e-01,1.54903e-01,8.31483e-03,-6.81702e-02,-3.11547e-01,3.00087e-02,4.25158e-02,2.30955e-02,-2.19305e-05,2.86508e-02,3.01595e-02,1.94769e-02,-2.68089e-01,-2.62563e-01,-1.32413e-01,-2.96168e-03,4.61081e-02,5.99290e-02,1.06388e-01,1.98162e-01,1.08051e-01,3.56008e-03,7.72863e-02,2.85624e-01,3.49995e-01,1.00298e-01,1.81132e-02,5.81667e-02,5.03813e-01,-1.96809e-02,5.68253e-02,3.46469e-02,-2.33528e-01,4.02796e-02,-5.87382e-03,1.37624e-01,7.08247e-02,3.92644e-02,-6.11553e-03,-6.67726e-02,-1.12349e-01,-7.77299e-02,6.46087e-02,4.33824e-02,2.22452e-02,-6.60033e-03,6.97287e-02,5.19264e-02,1.27921e-01,7.01514e-02,7.46392e-02,2.39149e-01,1.92157e-01,4.93442e-02,2.01385e-01,1.50132e-01,-3.67139e-02,-1.58266e-01,2.01714e-02,1.82608e-02,1.13186e-01,4.96550e-02,1.96874e-01,1.66591e-01,1.60551e-01,1.54485e-01,-1.07420e-01,-1.26188e-01,-8.33805e-03,1.56934e-01,-3.03758e-02,-2.01221e-02,-1.25537e-01,-1.26860e-01,5.60941e-02,7.05184e-02,1.29853e-01,1.06558e-01,7.91245e-02,2.85788e-01,1.55401e-01,2.70723e-02,2.63674e-01,-1.34987e-02,-1.39356e-01,-1.46651e-01,-1.75208e-02,3.28279e-02,8.49208e-02,4.87450e-02,3.19171e-02,-1.46668e-01,-8.96829e-02,-1.76605e-02,-1.87544e-02,4.64894e-02,7.48313e-02,5.31018e-02,4.97614e-02,-6.19744e-02,-6.70762e-02,1.45720e-01,2.26375e-01,1.08768e-01,6.84387e-03,6.05702e-02,5.81987e-02,6.89429e-02,-7.77660e-03,1.25593e-01,3.60653e-02,-1.82773e-01,-5.29671e-02,-2.10635e-02,3.01286e-03,-1.45277e-02,-2.17609e-02,-2.52812e-01,-2.19648e-01,-3.20623e-01,-2.20963e-01,-1.07917e-02,2.58724e-01,5.57511e-02,-4.58069e-02,-8.85353e-02,-7.58624e-02,-5.93822e-02,-6.66356e-02,-5.27685e-02,-7.78166e-02,-8.79792e-02,-1.71418e-01,-3.12899e-02,-1.56540e-01,4.53911e-02,-9.96925e-02,8.50943e-02,-3.09719e-02,3.27815e-01,2.50404e-01,3.37569e-02,-2.35492e-02,1.67558e-02,-6.38804e-03,-1.40165e-01,-2.78318e-01,-4.75249e-01,-1.69306e-01,-3.85773e-02,1.55631e-01,-7.74875e-03,-4.59455e-01,-2.52962e-01,-1.12381e-01,1.13231e-01,-2.88034e-03,-6.05350e-02,-1.99829e-01,2.69411e-02,-2.07582e-01,-2.92200e-01,-7.55327e-02,-1.00638e-01,-3.79406e-01,-2.85499e-01,-4.47327e-01,9.11231e-02,6.69806e-02,1.69218e-02,2.82282e-02,8.96735e-03,-1.57829e-02,-1.22667e-01,6.17006e-02,-2.08312e-01,1.14364e-03,6.94535e-02,6.05365e-02,-1.93595e-01,-1.34489e-01,1.71061e-01,-4.66860e-02,-1.95869e-01,6.63507e-03,2.99569e-02,1.83232e-01,1.74364e-01,-4.54270e-02,5.22445e-02,2.31069e-01,-3.78330e-02,-3.04212e-01,-1.48342e-01,6.45247e-02,-1.54953e-01,-7.91141e-04,-3.43008e-02,1.59725e-02,4.76001e-03,-1.82311e-02,1.93730e-02,-2.02178e-02,1.95858e-02,-8.43950e-02,-5.88843e-02,-1.04216e-01,1.85993e-01,2.00670e-01,2.08839e-01,2.39554e-01,1.55584e-01,4.74359e-03,-2.53125e-03,2.33579e-01,1.56587e-01,7.39353e-02,5.52164e-02,6.39727e-02,-2.25455e-01,-2.25384e-01,-1.25753e-01,1.81976e-02,-1.75599e-02,-1.30613e-02,-2.11904e-02,
3.42102e-02,1.12966e-02,-2.03809e-03,-1.19004e-03,-2.49936e-02,4.12099e-03,-2.14939e-02,3.69214e-03,-2.15936e-02,2.95028e-02,-3.16878e-02,-2.84259e-02,-1.08764e-01,-9.49443e-03,2.19266e-01,2.35115e-01,-1.26981e-02,2.64106e-02,2.82623e-02,-3.33421e-02,3.02728e-03,5.79205e-03,4.93222e-03,2.76051e-02,8.91646e-03,8.50669e-04,2.68597e-02,-1.16875e-02,-3.01311e-02,-2.42576e-02,-1.11875e-02,-1.21169e-02,2.65322e-03,-4.68383e-03,8.54300e-02,4.51517e-02,1.73867e-02,-3.18873e-02,1.52026e-01,1.41032e-01,-1.27793e-01,-1.01994e-01,5.39978e-02,6.47969e-03,1.06378e-01,1.24491e-01,-9.78821e-02,-1.42524e-01,-2.16546e-01,-1.13156e-01,4.53925e-02,-2.61335e-03,1.77325e-02,1.98597e-02,3.20176e-02,-1.12209e-02,-2.19562e-02,3.08528e-02,4.75399e-02,-1.78214e-02,-5.83465e-02,-6.26666e-02,4.09693e-02,6.55663e-02,1.36259e-01,2.65503e-01,1.77664e-01,-3.76284e-02,1.85386e-01,1.25330e-01,2.13337e-01,3.16049e-01,4.36854e-01,1.85786e-01,-6.94142e-03,-1.57823e-01,2.02102e-02,-3.78375e-02,-2.31021e-01,-5.28251e-02,1.70266e-01,2.46018e-01,1.88388e-02,1.55099e-02,-3.10475e-02,-1.53648e-02,3.06151e-01,2.60958e-01,8.55001e-02,3.49479e-02,2.95846e-01,4.19453e-01,1.24427e-01,2.44208e-01,1.06650e-01,1.46861e-01,1.48976e-01,7.51735e-02,1.26497e-01,2.06818e-02,2.78439e-01,6.31675e-02,-6.35380e-03,-2.31076e-02,1.15574e-02,-1.61379e-01,-6.55641e-02,-2.02731e-01,1.54391e-01,1.52335e-01,-1.92315e-01,2.56650e-02,3.18055e-02,4.25878e-02,2.75849e-01,2.42257e-01,-9.16883e-02,-2.30036e-02,1.42017e-01,-7.83121e-02,7.65469e-02,1.05022e-01,1.07377e-01,7.61496e-02,4.74943e-02,-1.44033e-01,-1.67152e-01,-6.74283e-02,5.80470e-02,-5.60836e-02,2.31730e-01,1.66888e-01,1.24690e-01,-4.38360e-02,-3.29385e-02,-4.31837e-01,-2.19025e-01,-1.23570e-01,-3.49328e-01,-3.03151e-01,-5.82059e-03,-2.66700e-02,4.31290e-01,-6.51244e-02,1.71884e-02,1.59667e-01,-9.53968e-03,-8.90424e-02,-2.74755e-02,1.42977e-01,-1.64204e-02,7.26809e-02,4.15982e-02,-2.05460e-02,-3.55523e-02,5.59793e-02,1.05907e-01,-6.18409e-03,5.17557e-02,1.61883e-02,6.23954e-02,-3.09764e-02,7.92618e-02,-1.03327e-01,-8.47216e-02,-2.31638e-01,-2.47335e-01,-3.25680e-01,-2.42689e-02,1.24588e-01,-2.58245e-02,-2.18929e-01,-5.15770e-02,-1.71232e-01,3.95156e-02,4.06448e-02,5.16998e-02,2.65587e-01,1.95056e-01,1.16064e-01,-2.85154e-02,4.58287e-03,9.60445e-03,2.03065e-02,5.83059e-02,-4.42181e-02,5.09620e-02,1.17900e-01,1.40977e-02,-1.00186e-01,-8.08514e-03,-1.08953e-01,5.16144e-02,1.75248e-01,-6.62045e-03,6.68982e-02,-5.39492e-02,4.16727e-01,2.37842e-01,-3.30406e-02,1.97813e-01,6.57505e-02,2.15427e-01,2.89138e-01,1.72974e-01,1.04363e-01,6.02311e-02,1.24885e-01,8.69585e-02,2.24352e-01,1.06585e-01,-4.84311e-03,-1.85228e-02,-1.66436e-02,-1.02634e-02,9.42527e-02,3.29520e-02,-6.64550e-02,-2.16872e-02,5.83327e-03,-2.15107e-02,8.01743e-02,-6.44370e-02,1.32089e-02,-1.57248e-02,1.49611e-01,9.42569e-02,-4.51950e-02,2.77960e-01,9.31471e-02,-1.10271e-01,1.23030e-01,8.11899e-02,9.86622e-02,2.00781e-01,3.06807e-01,1.51346e-01,1.54444e-01,7.55344e-02,1.93361e-02,-4.14688e-02,-5.09654e-03,-1.18074e-02,7.68019e-03,3.07486e-02,-1.32328e-02,6.83867e-02,-5.20884e-02,-5.86354e-01,-4.28661e-01,-1.58873e-01,6.58569e-02,-4.54656e-02,4.30300e-02,-1.59426e-01,1.69997e-02,3.30579e-02,-1.15185e-01,-1.27244e-01,1.07848e-01,-4.25318e-03,2.52826e-02,3.32071e-02,7.18862e-02,9.01500e-02,-1.48039e-01,-3.40184e-01,-1.20721e-01,-1.12328e-01,-4.42414e-02,1.38156e-01,-3.22150e-03,1.50764e-02,2.76095e-02,7.74793e-02,-1.17451e-01,-5.04463e-01,-3.41239e-01,-1.74003e-01,-6.08093e-02,-5.62076e-02,-5.37438e-02,-3.89293e-02,-1.02818e-01,-1.76600e-01,-1.94071e-01,-3.40656e-01,-2.09526e-01,-3.32341e-01,-4.46201e-01,-4.71896e-01,-5.15224e-01,-6.86525e-01,-8.01313e-01,-4.38782e-01,-3.40606e-01,-1.16738e-01,9.74059e-03,-5.94533e-02,-6.70859e-02,7.81661e-02,6.47632e-02,-7.34881e-02,-2.73789e-01,-2.86889e-01,-2.75729e-02,-3.03580e-01,-3.49047e-02,-2.57407e-02,3.25252e-02,-1.70286e-01,7.54749e-02,-2.44128e-01,-4.44565e-01,-6.75780e-01,-7.40474e-01,-7.10622e-01,-9.50278e-01,-8.92019e-01,-6.75348e-01,-4.89727e-01,-2.23735e-01,3.60404e-03,-1.32131e-03,6.43313e-02,-6.92717e-03,-1.15178e-01,-2.84015e-02,-8.86078e-02,-1.52059e-01,-1.18202e-01,-1.07026e-01,5.42462e-02,-8.87553e-02,-1.94573e-01,-7.19450e-02,-9.42650e-03,-7.25045e-02,-2.05785e-01,-1.42465e-01,-3.05284e-01,-4.30943e-01,-7.81012e-01,-6.81363e-01,-6.31629e-01,-3.28706e-01,-1.90120e-01,-4.80283e-02,5.77710e-02,1.71339e-01,1.21259e-01,6.73124e-02,-1.26196e-02,-5.48402e-02,-9.74709e-02,-8.03709e-02,-1.29067e-01,-1.01435e-01,-1.71105e-01,-1.28259e-01,-8.47614e-04,1.41660e-01,-1.49662e-04,-1.67456e-01,1.30601e-02,-1.50353e-01,-5.59940e-02,-9.67891e-02,-2.26098e-01,-1.90943e-01,-1.94382e-01,-1.35869e-01,3.48705e-02,1.40285e-01,1.68383e-01,2.21035e-01,2.00843e-01,2.03803e-01,3.27465e-02,1.36009e-02,5.33506e-02,-3.26189e-02,1.71822e-02,-2.36957e-02,-6.31263e-02,2.10096e-05,2.14674e-02,-9.39413e-02,1.23952e-01,1.32197e-01,5.99793e-03,-1.06629e-01,-5.95716e-03,-1.37192e-02,1.40913e-01,3.21314e-02,2.40764e-01,1.69862e-01,2.77477e-01,2.42820e-01,3.13989e-01,3.35734e-01,3.23388e-01,2.05376e-01,2.22864e-01,1.46681e-01,1.81826e-01,1.07610e-01,5.27562e-02,-6.09787e-02,1.44728e-01,6.03065e-02,5.25831e-04,-3.28377e-02,1.03863e-01,1.62027e-02,-2.19338e-01,4.99245e-02,5.34194e-02,3.16017e-01,2.91450e-02,1.26373e-01,1.35180e-01,1.00132e-01,1.89160e-01,3.01793e-01,2.59349e-01,1.45650e-01,1.23717e-01,3.65056e-02,7.29637e-02,6.10756e-02,-9.53021e-02,3.73626e-02,9.59779e-02,4.85785e-02,-1.01775e-02,-5.96613e-02,1.22714e-01,4.62505e-02,-5.90105e-02,-9.52664e-02,-1.01895e-02,1.26925e-01,-8.07210e-03,-1.51949e-02,1.47454e-01,4.44048e-01,1.37909e-02,3.64127e-01,3.39585e-02,2.13353e-01,1.47625e-01,1.58678e-01,1.12029e-01,9.20303e-02,-4.89818e-03,2.99143e-02,-2.14677e-02,2.69424e-02,-8.34443e-03,-2.45025e-03,1.62289e-01,-1.83735e-02,-2.02401e-02,1.86968e-02,6.73381e-02,4.76356e-02,-5.32464e-03,9.54873e-02,-2.47745e-02,6.07948e-02,1.22116e-01,3.08417e-01,3.50969e-01,3.25348e-01,1.89805e-02,3.69622e-01,1.07593e-01,1.49462e-01,-1.51951e-02,5.67203e-02,4.99341e-02,-1.13005e-01,4.99186e-02,-8.24624e-02,-6.81296e-02,9.34916e-02,3.76253e-02,-5.53615e-03,1.07331e-01,1.59552e-02,-8.41933e-02,-5.87512e-03,4.80352e-02,5.93260e-02,-2.23354e-02,6.62393e-02,-9.05170e-02,-6.33082e-02,-1.14491e-02,1.68112e-02,-9.80681e-03,3.24883e-01,-1.31726e-02,2.04024e-01,1.86059e-01,4.05478e-01,-1.34350e-01,-5.04382e-02,-9.37819e-03,-6.41902e-02,2.71340e-02,1.32752e-01,8.48077e-02,-6.86253e-02,2.41113e-02,7.99217e-02,2.06470e-01,3.91286e-02,1.30153e-01,5.91541e-02,3.84701e-03,4.17207e-02,-4.11390e-02,5.77392e-02,2.98190e-04,-8.11727e-02,8.36490e-02,3.42781e-01,5.96693e-01,3.78341e-01,1.11145e-02,-3.70367e-01,6.91571e-02,2.01569e-02,-1.29137e-01,1.15893e-02,5.71936e-03,2.11362e-02,-1.64196e-01,-6.07216e-02,-3.41143e-02,3.48383e-02,-4.15956e-02,1.31040e-01,1.18012e-01,1.66417e-01,1.30417e-01,1.10564e-01,1.74441e-02,-1.65597e-03,4.16339e-02,2.72118e-02,-8.50733e-03,-6.97799e-02,1.51146e-02,1.37116e-01,6.01514e-01,1.99624e-01,-3.03866e-02,-3.30330e-01,-1.77991e-01,-1.39263e-02,-4.01978e-02,1.95547e-02,-4.22329e-02,5.93095e-02,-2.61689e-02,-7.91406e-02,-3.17328e-02,4.29581e-02,5.29391e-02,3.46052e-02,2.30564e-02,-1.15501e-02,1.04617e-01,3.41740e-02,5.78869e-02,-1.09110e-01,-2.29174e-02,2.17841e-02,-6.99504e-02,-6.78831e-02,3.20404e-02,-9.41242e-02,5.77896e-01,1.04288e-02,1.16877e-01,3.20348e-01,1.59692e-01,1.10889e-01,-7.37374e-02,-8.06321e-02,-7.06536e-02,7.73462e-02,4.11546e-02,-5.13590e-02,8.59598e-02,8.82251e-03,2.10873e-02,-4.62310e-02,-8.93954e-02,-7.74712e-02,2.20863e-02,-1.21793e-02,7.76198e-02,2.10468e-02,5.41534e-02,1.37291e-01,6.04780e-02,5.99715e-02,3.98290e-03,1.53024e-02,1.54985e-01,1.79607e-02,1.32601e-01,3.01097e-01,1.44760e-01,4.20387e-01,7.81338e-02,9.87715e-02,-1.91670e-01,5.08043e-03,-4.59596e-03,3.81253e-02,-3.14675e-02,-7.38234e-03,-1.20877e-01,-4.91521e-03,-3.08985e-02,-7.14885e-02,-2.48617e-02,4.18553e-02,-4.21724e-02,-3.02211e-02,-6.70135e-02,4.46662e-02,-8.95017e-02,-2.25538e-02,1.37345e-01,-9.99560e-02,-4.99979e-02,-4.14064e-02,-2.45260e-02,-1.21311e-02,1.82189e-01,2.17521e-01,2.83910e-02,1.61838e-02,-1.24152e-02,1.08976e-01,-7.44806e-02,3.15389e-02,-1.64202e-01,-5.29513e-02,1.21144e-03,4.14990e-02,-2.00418e-02,-3.52584e-02,-1.19485e-01,-1.00529e-01,-2.07583e-02,1.26721e-02,-1.36323e-01,3.52117e-03,-1.53783e-01,7.41102e-02,1.36885e-01,-1.20547e-01,-6.82261e-02,-1.51742e-02,2.86546e-02,2.44392e-02,1.23565e-01,3.53279e-02,-4.18829e-02,-2.49658e-01,-5.58280e-02,8.55831e-02,3.11545e-01,1.93176e-01,-1.95909e-02,-4.30749e-02,-1.60065e-01,-9.36859e-02,2.36093e-02,-7.27354e-02,-1.61073e-01,1.03444e-01,1.19321e-01,-1.15037e-01,-2.00229e-01,-4.85059e-02,1.20399e-01,-1.15444e-01,5.94276e-02,4.95698e-02,6.39384e-02,-2.97089e-02,-1.25590e-02,1.43245e-02,2.23451e-03,-4.24311e-02,1.64881e-01,2.41241e-01,7.68876e-02,5.10168e-02,6.57949e-02,1.88778e-01,2.50628e-01,2.06689e-01,1.11413e-01,1.77404e-02,4.08869e-04,-2.67880e-02,3.65185e-02,2.72905e-02,-1.19295e-01,-3.75364e-01,3.31292e-02,-9.90288e-03,-7.89867e-02,-2.68240e-01,-1.98668e-01,-3.47633e-02,7.17230e-02,1.81765e-02,-1.64728e-02,2.64475e-02,2.61723e-02,-1.05669e-02,-1.09565e-01,-5.99873e-02,-1.29508e-01,-1.99611e-01,1.93706e-01,2.58627e-01,2.40706e-01,2.44949e-02,5.90209e-02,2.71207e-01,2.51580e-01,1.40126e-01,3.56705e-02,-3.54096e-01,-1.44657e-01,-2.62826e-02,8.03400e-02,7.37644e-02,6.63679e-02,2.50426e-02,-6.39015e-03,-3.01194e-02,4.93955e-03,2.35508e-02,-1.07015e-02,-3.35502e-02,1.94440e-02,6.96895e-03,5.97472e-03,3.45420e-03,2.88583e-02,-3.46058e-02,-2.58713e-02,2.56397e-02,1.32898e-01,1.70467e-01,1.77245e-01,2.88176e-01,2.07036e-01,6.95447e-02,-4.00195e-02,-1.09091e-01,-5.24480e-02,-2.58339e-02,1.47825e-02,4.43407e-03,-9.28070e-03,-2.48401e-02,3.37103e-02,-3.84737e-03,1.94690e-02,8.06087e-03,
-2.78676e-02,1.38851e-02,-2.47541e-02,-2.83359e-02,-1.38974e-02,3.50135e-02,1.67308e-02,3.35627e-02,8.65799e-03,2.78357e-02,2.85093e-02,-6.67730e-03,-2.48145e-02,2.01499e-02,2.16980e-02,-2.33478e-02,3.28541e-02,-3.36656e-02,-1.14246e-02,-6.45432e-03,2.03394e-02,-2.28244e-02,-2.51668e-02,-3.49295e-02,1.00243e-02,-2.48793e-02,2.16496e-03,1.05910e-02,1.76510e-02,-1.05822e-02,-4.11149e-03,-1.93367e-02,1.19764e-02,4.26946e-02,4.84610e-02,6.57061e-02,7.70642e-03,1.70824e-02,-1.14242e-02,2.85471e-02,3.89215e-02,3.96251e-02,-6.00492e-04,3.32213e-02,9.32607e-02,3.96686e-02,1.14006e-01,2.97088e-02,6.76905e-02,2.94309e-02,3.62405e-02,1.08428e-02,-1.31975e-02,3.23088e-02,-6.70679e-03,-3.14443e-02,3.89072e-03,-2.07304e-02,3.46823e-02,6.03636e-02,6.50211e-02,6.91962e-02,2.36168e-01,1.88140e-01,3.03507e-01,1.53575e-01,2.55210e-01,2.58964e-02,-1.79630e-01,-1.08326e-01,-1.16791e-01,1.11054e-01,2.43116e-01,1.39084e-01,2.25963e-01,1.57832e-01,2.23463e-02,1.73108e-01,1.15979e-01,1.46484e-01,1.06038e-01,2.43511e-02,-2.45885e-03,-1.72332e-02,-2.91813e-02,-2.49281e-02,1.39092e-01,-4.46023e-02,-1.64932e-01,4.94509e-02,2.83336e-01,2.19675e-01,-5.48122e-02,-3.47639e-02,2.60809e-01,1.77459e-01,7.50121e-02,1.70189e-01,7.73611e-02,1.55447e-01,1.39280e-01,1.18392e-01,2.21984e-01,2.45991e-01,-1.51792e-01,-2.20168e-01,-3.41387e-01,-2.99332e-01,-4.15070e-01,-2.73782e-01,-3.06056e-01,1.64600e-02,-1.52695e-03,1.30488e-02,-9.52903e-02,-1.25089e-01,-3.07011e-01,-2.34087e-01,3.19647e-01,4.18347e-01,-1.43531e-01,-1.86989e-01,-2.27493e-01,-6.00839e-02,-6.21864e-02,1.22176e-01,1.79949e-01,1.50319e-01,1.77941e-01,1.01749e-01,1.43398e-01,2.43383e-02,6.80025e-02,4.35180e-02,4.94651e-02,-1.69949e-01,-5.19699e-01,-5.02921e-01,-3.48253e-01,2.53941e-02,-5.76372e-03,2.06938e-02,1.47200e-01,-1.15159e-01,-2.01455e-01,-4.74958e-01,-2.56043e-01,7.82412e-02,-1.08459e-02,-3.50621e-01,-1.35604e-02,-2.13675e-02,-5.80060e-03,1.41016e-01,8.28399e-02,-1.33284e-02,5.44022e-02,1.25904e-01,2.08791e-01,2.02556e-01,7.36229e-03,-2.86467e-03,-1.15102e-02,3.87432e-02,-5.95158e-02,-4.99410e-01,-3.08644e-01,-1.77159e-01,1.48514e-03,-8.75084e-03,1.99365e-01,-4.26650e-01,-1.57195e-01,-2.80946e-01,1.38967e-02,-4.21802e-02,7.44452e-03,-4.40007e-02,1.89563e-01,1.88363e-02,1.23791e-01,1.02655e-01,5.67082e-02,-4.05959e-03,-8.56064e-02,7.01059e-02,9.12389e-02,-2.83380e-02,-1.85719e-02,7.67946e-02,5.64702e-02,-1.69005e-02,-1.29740e-01,-3.82054e-01,-3.90473e-01,-3.16593e-01,-3.22801e-02,1.57581e-02,9.29312e-02,-1.52488e-01,2.96680e-02,1.62917e-01,1.56425e-01,9.19089e-02,-1.68796e-01,-4.78068e-02,8.77968e-02,2.08244e-01,1.90435e-01,2.36011e-01,1.27199e-01,1.15417e-01,1.20301e-01,7.80122e-02,2.07580e-01,1.37277e-01,2.48163e-02,1.36063e-01,8.54370e-02,5.03432e-02,-1.55481e-01,-2.28515e-01,-5.48470e-01,-2.46005e-01,-9.67809e-03,4.70011e-02,-1.42827e-01,-2.41198e-01,-2.25170e-01,7.84145e-03,-2.66905e-02,3.97839e-02,-1.28982e-01,-9.79688e-02,-5.68468e-02,6.67338e-02,2.31921e-01,1.14505e-01,3.02285e-01,2.50571e-01,2.32706e-01,1.39554e-01,8.23969e-02,1.37753e-01,6.49246e-02,3.89113e-02,-4.63611e-02,1.81875e-01,-4.09542e-02,1.88942e-01,-1.56632e-01,-1.39052e-01,-8.29492e-03,1.43800e-02,-2.72489e-01,-4.16117e-01,-1.69566e-01,6.60749e-02,-1.91068e-01,7.36879e-02,-1.15011e-01,-6.28188e-02,8.29067e-03,3.82910e-02,1.40271e-01,7.75592e-02,3.82023e-02,-1.04490e-01,-1.44786e-01,2.45362e-03,1.82392e-01,1.90060e-01,2.65919e-02,1.02507e-01,3.69065e-02,2.02929e-01,2.29193e-01,1.79390e-01,-2.15942e-01,5.54527e-02,-2.20539e-02,2.81804e-02,-2.33983e-01,-4.13293e-01,-1.79704e-01,2.07522e-02,-3.49358e-03,1.17171e-01,8.81158e-02,-1.15903e-02,1.03584e-04,7.52018e-02,1.23049e-01,-2.89125e-04,-8.52330e-02,-2.82261e-01,-2.79862e-01,4.49680e-02,7.22638e-02,9.15646e-02,4.06672e-02,7.61622e-02,2.30249e-01,-4.74595e-02,2.79636e-01,-5.25345e-02,-1.25292e-01,9.81448e-02,-1.33878e-01,1.92972e-02,1.96950e-01,-3.10938e-01,-8.22605e-02,-1.17313e-01,4.16689e-02,1.98167e-01,3.99738e-02,-6.41986e-02,-7.80732e-02,-4.61402e-02,-4.77399e-02,-4.75572e-02,-3.82881e-01,-6.77091e-01,-4.59656e-01,-2.25081e-01,1.05212e-01,-4.88306e-02,-8.12432e-02,1.48786e-01,4.62893e-02,2.02626e-02,1.29227e-01,-4.72393e-02,1.24515e-01,1.81716e-01,-8.53546e-02,1.57263e-01,2.48865e-01,-6.93240e-02,-1.60917e-01,-1.14600e-01,9.10817e-02,-5.55597e-02,7.21646e-02,6.49152e-02,-5.29018e-02,-5.38730e-02,-4.68573e-02,-1.35862e-01,-3.29583e-01,-3.91913e-01,-2.60078e-01,-1.77524e-01,-1.27694e-01,-1.88705e-01,-1.03937e-01,-7.39731e-02,-3.16718e-02,8.39686e-02,2.31692e-01,3.65978e-02,-8.48762e-03,1.64037e-02,1.89192e-02,7.50846e-02,2.62836e-01,3.08833e-02,1.36719e-01,-9.84730e-02,9.81220e-02,-2.48618e-02,-2.79552e-02,5.51829e-02,4.73784e-02,-1.48014e-01,-1.11125e-01,-2.53699e-01,-2.51337e-01,-2.56881e-01,-3.77303e-01,-1.99031e-01,-2.21884e-01,-1.17909e-01,-2.18093e-01,-2.39675e-01,-2.47268e-01,-9.09226e-02,1.55510e-01,1.37184e-01,-6.49219e-02,1.12266e-01,-7.61753e-03,-1.17234e-01,7.78815e-02,9.96734e-02,1.65750e-01,1.42488e-01,2.17562e-01,1.83208e-01,-9.81444e-03,-2.50261e-02,3.99818e-02,-1.09289e-01,-5.89676e-02,-2.11051e-01,-7.91537e-02,-2.67711e-01,-2.29192e-01,-4.87512e-02,-1.34085e-01,-2.22875e-01,-2.46126e-01,-2.85288e-02,-1.46882e-01,-2.38665e-01,1.78503e-01,-1.03521e-01,7.45168e-02,1.04872e-01,-2.75855e-02,-1.59590e-01,1.75431e-01,1.24909e-01,8.41600e-02,1.69770e-01,4.29099e-02,6.27409e-02,-4.88882e-02,5.66921e-02,-7.45444e-02,-1.14454e-01,-6.58375e-02,-2.82864e-01,-2.47296e-01,-3.15573e-01,-6.75236e-02,4.24982e-02,-1.25591e-01,-2.28570e-01,-9.78240e-02,1.76166e-01,3.39746e-04,-5.87819e-02,2.04770e-01,-1.93977e-01,1.01343e-01,2.58987e-01,3.31836e-02,-1.49072e-01,-5.90114e-02,2.00837e-01,4.86700e-02,1.17685e-01,-2.97129e-02,8.88057e-03,2.35269e-02,-1.28776e-01,-8.90723e-02,-3.08113e-03,-3.80064e-02,-1.08642e-01,-2.08850e-01,-2.18242e-01,3.25208e-03,-1.33043e-02,-1.14769e-01,-7.02949e-02,1.39618e-01,1.21374e-01,-3.12079e-02,2.70769e-02,3.81664e-02,2.13673e-02,3.91145e-01,2.57254e-01,-1.63114e-02,-1.23556e-01,1.70615e-02,2.14335e-01,1.54443e-01,1.32597e-01,-2.63528e-02,-9.24382e-02,-1.33866e-01,-1.89456e-02,2.76272e-02,-7.22631e-02,-8.60083e-02,-1.49953e-01,-2.23687e-01,-1.30240e-01,-8.40517e-02,-3.65138e-02,1.46808e-02,2.48827e-02,2.72101e-02,-3.63810e-02,2.66335e-02,2.79882e-02,-7.42190e-02,1.97344e-01,3.24178e-01,3.20460e-01,-2.86564e-02,-7.16968e-02,-2.09598e-01,1.68971e-02,2.15432e-03,-4.28352e-02,5.20647e-03,-1.86738e-02,1.00013e-02,1.69754e-01,2.81314e-02,-8.12132e-02,-1.92123e-01,-2.16083e-01,-1.71657e-01,5.63121e-02,-9.18371e-04,8.34941e-02,6.01340e-02,-9.17653e-02,-5.27648e-02,-1.39849e-01,-4.73512e-02,-5.96338e-02,-1.96860e-01,3.36860e-01,1.89111e-01,2.22117e-01,3.48245e-02,-3.22571e-01,-8.62022e-03,-1.21046e-01,-6.89055e-02,-5.05534e-02,6.18765e-02,5.62074e-02,-3.26616e-02,6.57474e-02,-9.05283e-02,-1.12363e-01,-1.45904e-01,-2.13363e-01,-1.53213e-01,-9.26461e-02,-2.21302e-02,2.12341e-02,-6.84707e-02,-8.12870e-02,8.30901e-02,-7.49491e-02,5.40612e-02,-7.29625e-02,-2.16196e-01,-1.15640e-01,1.21859e-01,2.13963e-01,3.11063e-02,-2.79441e-01,3.26518e-01,2.14299e-01,7.05777e-02,1.53581e-01,2.63892e-01,1.52331e-01,9.27193e-02,1.69001e-01,8.00775e-02,-1.99947e-02,2.12931e-01,5.12295e-02,7.48250e-02,3.44207e-02,6.87895e-02,-1.78258e-01,-1.44162e-01,-8.28247e-02,-1.46156e-02,9.90075e-02,-1.46352e-02,-1.19119e-01,-2.07704e-01,1.12519e-01,6.20033e-02,2.27625e-02,1.26690e-04,-1.71106e-01,2.86418e-01,3.59836e-01,1.06140e-02,-1.38969e-02,4.40733e-02,4.85140e-02,7.16235e-02,8.47047e-02,1.81039e-01,2.85718e-01,2.29736e-01,2.00457e-01,2.11018e-01,2.24681e-01,3.37006e-02,-1.04848e-01,-4.46126e-02,-6.52318e-02,-2.65966e-02,-1.14935e-01,-2.13757e-02,-1.39868e-01,-1.86655e-03,3.40070e-01,2.28289e-01,1.59541e-01,4.78114e-06,-3.00077e-01,4.24746e-01,3.20684e-01,8.54782e-04,6.33259e-02,-7.78059e-03,-8.68820e-02,1.84818e-01,1.52238e-01,1.29587e-01,2.48152e-01,3.05763e-01,1.90722e-01,1.18961e-01,9.88394e-02,1.56353e-01,1.39119e-01,7.93707e-04,-9.39892e-02,-1.31504e-01,-3.46708e-02,8.40583e-02,1.75793e-02,-2.38484e-01,1.40393e-01,2.56161e-01,1.65540e-01,-2.05201e-02,3.48172e-02,-1.29339e-01,2.48949e-01,1.33648e-01,2.05264e-01,1.37030e-01,-3.53522e-02,1.17118e-01,1.35478e-01,2.05128e-01,1.91280e-01,1.38016e-01,3.17991e-02,1.83265e-02,1.63650e-02,2.11202e-01,1.82847e-01,1.24229e-01,-3.43390e-02,-7.85691e-02,-1.82627e-02,1.18747e-01,5.73233e-02,-2.53601e-01,1.72776e-01,5.63715e-02,3.50382e-02,-9.36908e-04,-7.72446e-03,-2.37301e-02,-8.50610e-02,1.22001e-01,2.55860e-01,5.32106e-02,1.23540e-01,2.85441e-01,3.42974e-01,5.76233e-02,8.32368e-02,7.69249e-02,-2.69723e-03,-4.83911e-02,1.70995e-01,3.08135e-01,2.47165e-01,3.99002e-01,6.65892e-02,-7.29928e-02,-3.37726e-01,-1.69334e-01,-3.03275e-02,2.22119e-01,1.58357e-01,-1.66609e-02,1.51324e-03,-1.98150e-02,-2.46510e-02,-1.64459e-01,1.18900e-01,5.54578e-03,-2.02622e-01,-2.21574e-01,3.81750e-02,2.09704e-01,1.74260e-01,2.49765e-01,2.64068e-01,5.14190e-02,1.35371e-01,-3.36918e-02,4.65126e-02,2.91328e-02,7.86906e-02,5.46449e-02,4.18068e-02,-2.04399e-01,-3.36476e-01,-1.93547e-01,-2.29301e-01,4.44716e-02,-4.44056e-02,-6.36153e-03,-2.03880e-02,-2.64403e-02,-1.91021e-02,2.30358e-02,-1.23867e-02,2.00965e-01,-2.40360e-01,-1.19318e-01,1.95907e-01,2.73757e-01,9.43324e-02,2.04450e-01,1.03799e-01,2.27028e-01,4.00733e-01,3.98995e-01,3.28164e-01,8.46127e-02,-9.86805e-02,-4.00712e-03,2.39897e-01,-5.91141e-02,-3.73542e-01,2.77227e-02,2.04241e-01,1.59127e-02,5.52702e-02,-2.95870e-02,-6.40936e-03,-8.85524e-03,6.33823e-04,1.81107e-02,-1.17627e-02,1.18748e-01,6.82949e-02,1.30788e-01,2.57286e-01,1.43793e-01,-1.55650e-02,1.57631e-02,7.99340e-02,2.86659e-01,4.52213e-01,5.29720e-01,5.15948e-01,3.16869e-01,1.85888e-01,2.50484e-01,7.28114e-04,-1.21452e-01,-1.23325e-01,-3.28711e-02,2.63594e-02,3.00018e-02,-2.23879e-02,-2.10738e-02,-1.17350e-02,
1.30900e-02,-2.97354e-02,-1.39824e-02,-1.03477e-02,-1.43009e-02,3.31700e-02,2.16976e-02,3.30852e-02,6.55041e-03,9.22174e-03,1.38765e-02,-1.47364e-03,5.14600e-02,1.51152e-01,1.05387e-01,3.46280e-02,-8.96216e-03,4.86241e-03,-2.34445e-02,7.21409e-03,-8.10426e-03,-1.11697e-02,3.44938e-02,2.77365e-03,8.23597e-03,-9.81833e-04,1.17732e-02,-2.81440e-02,1.53738e-02,2.06521e-02,2.37616e-02,2.00414e-03,1.32895e-02,4.20905e-02,3.65679e-02,5.18462e-02,9.02349e-02,1.49584e-01,3.02503e-01,4.37907e-01,4.86580e-01,3.11152e-01,-1.37474e-01,1.27977e-01,4.24467e-01,4.74627e-01,5.16740e-01,4.06414e-01,4.69817e-01,2.96973e-01,2.13282e-01,6.95791e-02,1.38049e-02,1.92853e-02,1.51331e-02,-1.84380e-02,-3.13472e-02,9.19040e-04,1.79596e-01,1.96629e-01,2.00687e-01,1.17323e-01,1.16285e-01,1.89559e-01,2.30985e-01,4.12287e-01,4.78434e-01,6.22840e-01,2.76405e-01,-1.21351e-01,1.94961e-01,2.81575e-01,4.05454e-01,3.69451e-01,1.83059e-01,-1.43036e-01,-1.02499e-01,2.23605e-01,5.01836e-01,4.51669e-01,1.37911e-01,1.60743e-02,1.78782e-03,3.19746e-02,-1.73170e-02,-1.82883e-02,-2.05393e-01,2.01525e-01,3.30977e-02,-2.43536e-02,-6.92060e-02,-1.29194e-01,-1.91899e-01,3.82113e-02,-4.54478e-02,4.45085e-02,-1.54237e-01,7.38199e-02,1.57668e-01,4.60681e-02,1.92967e-01,1.68349e-01,7.33101e-02,2.10183e-01,7.76539e-02,4.03126e-01,2.16911e-01,3.40978e-01,-7.43777e-02,1.17806e-01,5.89085e-02,5.35524e-03,3.62753e-03,1.39496e-02,-3.48095e-01,-1.54114e-01,-1.20023e-01,-3.52678e-01,-4.24611e-01,-5.93479e-01,-4.16887e-01,-1.08595e-01,-1.22969e-01,1.98356e-02,1.45274e-02,6.14521e-02,1.53583e-01,1.58519e-02,4.58228e-02,2.31201e-01,1.14973e-01,6.73910e-02,8.32624e-02,7.95466e-02,-1.78861e-01,-3.11674e-01,-3.74725e-01,-2.08457e-01,1.13105e-01,3.45458e-02,-3.25511e-02,2.02659e-02,1.45317e-01,-1.75832e-01,-3.08928e-01,-4.25366e-01,-4.48710e-01,-4.27823e-01,-9.07911e-02,-1.41026e-01,-4.51943e-02,9.60075e-02,-3.28693e-02,9.68074e-02,1.06353e-01,6.30599e-02,5.04344e-02,1.90151e-01,3.59935e-02,1.45428e-02,-2.09580e-02,-1.60808e-01,-2.23149e-01,-2.35005e-01,-2.27089e-01,-4.51704e-02,1.19299e-01,-2.64314e-02,2.98061e-02,-3.71888e-02,2.34051e-01,-2.12952e-01,-1.94048e-01,-1.29728e-01,-2.28009e-01,-5.32990e-02,7.09130e-02,1.74025e-02,-1.97635e-02,5.20782e-02,2.49096e-02,6.63425e-02,4.47107e-02,7.62564e-02,1.02552e-02,8.67477e-02,-8.65539e-02,3.49535e-02,-1.28906e-01,4.29816e-03,-1.05972e-01,-8.93806e-02,-2.13049e-01,-1.50570e-01,3.15699e-02,2.50106e-01,9.90898e-03,-3.03057e-01,1.87042e-01,-3.79631e-01,-2.70797e-01,1.17137e-02,-4.80623e-02,-5.63962e-02,-9.06238e-02,6.19362e-02,9.66706e-02,6.54254e-02,3.65082e-02,9.20242e-02,-3.75313e-02,4.51141e-02,-3.32703e-02,-6.36266e-02,3.55339e-02,3.69576e-02,-1.37418e-01,2.92324e-02,1.99176e-01,6.69882e-02,-2.09049e-01,-4.16271e-01,9.64950e-02,1.86579e-01,2.41201e-01,1.31887e-01,-6.25492e-02,-3.20861e-01,-1.54138e-01,-3.38071e-02,-4.53325e-02,2.58317e-02,-1.10176e-01,9.95796e-02,2.29713e-01,2.94111e-01,1.13896e-01,7.91797e-02,-7.15937e-02,-1.81861e-01,-5.03630e-02,-3.22737e-02,-1.54775e-01,-7.23837e-02,-5.07479e-02,-4.12647e-02,-3.57570e-02,1.15079e-01,-3.02392e-01,-2.29302e-01,2.31822e-01,3.59346e-02,-2.75055e-02,-5.37772e-02,1.74853e-01,-1.34517e-01,-2.96846e-02,-1.71793e-01,-3.04418e-01,-1.25466e-01,-5.29376e-04,1.61443e-01,2.57465e-01,1.82626e-01,-5.91397e-02,2.93589e-02,-8.53786e-02,-1.98069e-01,-2.20303e-01,-1.80419e-01,-1.13683e-01,-3.93247e-02,4.12871e-04,1.57937e-02,-1.07848e-01,2.45834e-01,-7.60229e-02,-3.83815e-01,-3.62250e-01,-3.69468e-01,-2.42895e-02,-5.65077e-02,1.22471e-01,-1.61548e-01,-1.06494e-01,-1.27738e-01,-2.35161e-01,9.53951e-03,-2.85581e-03,1.92792e-01,1.18355e-01,1.23914e-01,2.74363e-02,-6.04467e-02,5.35922e-02,-7.40730e-02,-1.56243e-01,-1.96455e-01,-6.64328e-02,-1.17782e-01,-6.32626e-04,1.19779e-01,6.29076e-03,7.49159e-02,-2.08097e-02,-6.25449e-01,-4.99924e-01,-3.75534e-01,-2.23637e-02,4.01253e-01,-4.31649e-01,-2.31227e-01,-3.23916e-01,-2.09065e-01,-1.31830e-01,1.77419e-01,9.42772e-02,1.20545e-01,-1.39963e-02,-2.76559e-02,-3.67743e-02,1.80843e-05,1.24201e-02,-5.68043e-02,-1.22323e-01,-1.67168e-01,-2.12676e-01,-1.24536e-01,2.91880e-02,1.27275e-01,9.61618e-03,-3.56720e-02,-5.30263e-02,-2.76566e-01,-3.78128e-02,-4.10729e-01,1.96671e-02,2.73899e-01,-6.45570e-02,1.18926e-01,-3.30998e-01,-1.01873e-01,-2.21620e-01,-4.17920e-02,1.60447e-02,2.29214e-02,-1.73557e-01,-5.24814e-02,-1.96974e-01,-3.60516e-02,-1.32079e-02,-3.85845e-02,3.81137e-02,8.90574e-02,-6.10989e-02,1.06444e-01,1.83543e-01,1.80115e-01,1.31211e-01,1.42329e-01,2.79438e-01,-3.18611e-01,-4.06513e-01,-2.76640e-01,2.79514e-02,3.97573e-01,2.62692e-01,-1.51508e-01,-2.06883e-01,-7.90762e-02,-5.31948e-02,-6.01043e-02,-9.47416e-02,-8.77600e-02,-5.66261e-02,5.26207e-02,1.97559e-02,2.73080e-02,-1.02539e-01,8.92781e-02,7.89464e-02,1.56578e-01,7.00701e-02,1.62110e-01,7.10039e-02,7.77720e-02,1.73929e-01,4.82986e-01,1.60278e-01,-2.56536e-01,2.01206e-02,4.31189e-01,-1.19663e-02,-1.65895e-01,-1.25666e-01,-2.59207e-01,-7.85521e-02,-2.11728e-02,7.50716e-02,6.96291e-02,-2.25956e-01,-1.34865e-01,-7.23863e-02,1.94039e-01,-3.24175e-02,6.99073e-02,7.86584e-03,8.66778e-02,9.61850e-02,-1.09938e-02,1.78394e-01,1.14750e-01,-2.24211e-02,1.34623e-01,1.07084e-01,3.87522e-02,9.26459e-02,-1.33008e-01,-1.57238e-01,3.48936e-01,3.55137e-03,-1.46670e-01,-9.44228e-02,-8.59635e-02,-1.74768e-01,-7.22803e-02,-7.17467e-02,1.90309e-01,6.50971e-03,2.54500e-02,1.34219e-01,1.78723e-01,8.69419e-02,-1.88054e-03,4.65898e-02,-1.34969e-02,-1.01987e-02,2.90132e-02,1.68741e-01,1.63707e-01,1.23750e-01,-2.07736e-02,7.13836e-02,-4.14325e-02,-8.45767e-02,-1.55561e-01,-5.40816e-01,1.47072e-01,1.55791e-05,-1.74546e-01,-5.23674e-02,-2.17897e-01,-2.17061e-01,-3.39605e-02,-8.32333e-02,8.92466e-02,2.55854e-01,2.32755e-01,2.63864e-01,2.65621e-01,1.30697e-01,-1.66545e-01,-7.93847e-02,3.77233e-02,1.11117e-01,1.33375e-01,2.69349e-02,1.09267e-01,1.64959e-01,9.27663e-02,-1.90450e-02,3.51788e-03,-3.89514e-01,1.63279e-01,-1.50471e-01,1.30930e-01,-1.28327e-02,-1.47906e-01,-5.94988e-02,-3.57413e-01,-5.16664e-02,-6.18774e-03,-1.57510e-01,-3.99690e-02,2.47559e-01,1.62661e-01,1.84758e-01,1.90280e-01,1.43128e-01,1.35093e-02,-1.60140e-01,-4.45725e-02,7.55396e-02,-6.14255e-02,-7.36804e-02,-1.92782e-01,8.69413e-02,1.33848e-01,6.85613e-02,7.18482e-02,-1.93329e-01,4.39148e-02,-2.08701e-01,4.26906e-01,-1.13704e-02,-6.81162e-02,-1.72131e-01,-2.51694e-01,8.34937e-02,-4.33082e-02,-1.69906e-02,1.06484e-01,2.80499e-01,2.13963e-01,8.36767e-02,6.83553e-02,1.38901e-01,-5.39137e-02,-9.60143e-02,-2.52873e-02,-1.02472e-01,-3.43695e-02,-5.00845e-02,-2.32722e-01,-2.39014e-02,7.85074e-02,8.02354e-02,9.31857e-02,5.81462e-02,-4.87680e-02,-1.41623e-01,4.89729e-02,2.95464e-03,1.76078e-01,1.45399e-01,-9.03963e-02,5.33995e-02,-8.52946e-02,-4.03626e-02,-1.40613e-02,2.94518e-02,9.27427e-02,2.52519e-02,-1.77506e-02,-5.17928e-03,-1.87905e-01,-5.51850e-02,-1.01138e-01,-3.34079e-02,-5.07793e-02,-2.03018e-01,-1.38943e-01,-3.88095e-02,3.80572e-02,1.54129e-01,1.50229e-01,-1.94839e-01,-1.98995e-01,3.70885e-01,-7.49748e-02,3.49811e-02,2.07225e-01,3.40710e-01,7.79817e-02,6.23109e-02,8.42621e-02,4.44457e-02,2.95388e-02,-1.08365e-01,-1.42485e-01,3.15669e-02,4.67390e-02,5.09785e-02,-1.58032e-01,-1.46687e-01,-3.62703e-02,-2.06646e-01,-2.66285e-01,-2.22438e-01,-1.35438e-01,-1.24882e-01,7.59946e-02,7.07978e-02,-1.95205e-02,-2.26137e-01,-2.15236e-01,2.19276e-01,-2.66372e-02,-4.34530e-02,-6.99699e-02,-7.68334e-02,6.05646e-02,1.88308e-02,-1.24034e-02,9.25377e-02,-2.36932e-02,-8.52013e-02,1.28496e-01,9.16348e-02,7.46686e-02,9.02755e-02,3.58519e-02,-7.38604e-02,-1.23679e-01,-1.95314e-01,-1.09557e-01,-1.30796e-01,-7.51354e-02,-1.63932e-01,-1.09584e-01,-9.31195e-02,-1.67615e-01,-3.25224e-01,-3.12265e-01,4.09779e-01,2.45840e-02,-5.76595e-02,-1.01342e-01,2.52150e-01,6.91097e-02,1.03733e-01,6.38732e-02,2.28771e-02,8.24827e-02,5.73458e-02,2.45268e-01,1.63124e-01,1.39413e-01,1.89716e-01,-4.11777e-03,-3.74451e-02,-2.44410e-02,-5.18485e-02,-5.80926e-02,-8.47333e-02,-1.37624e-01,-2.12928e-01,-2.74794e-01,-3.05847e-01,-3.75824e-01,-5.69260e-01,-6.07619e-01,-2.34661e-01,9.02629e-03,9.40107e-03,3.40274e-02,6.52150e-02,-2.05078e-01,-1.73481e-01,-5.26202e-02,-1.11936e-01,-7.31155e-02,2.12215e-01,8.91603e-02,-1.96012e-02,-2.49371e-02,6.86778e-02,-6.09144e-02,-5.33989e-02,2.74831e-02,2.14257e-02,6.25502e-03,-1.07399e-01,-1.61335e-01,-1.31230e-01,-5.81714e-02,5.20550e-02,-2.39062e-01,-7.07631e-01,-5.35996e-01,-3.72023e-01,-2.30054e-02,-8.12423e-03,1.76466e-02,6.63870e-02,-4.07309e-01,-5.57448e-01,-1.19890e-01,-2.05592e-01,-2.32356e-01,-6.13928e-02,-2.95029e-02,2.96237e-02,1.28207e-01,1.89783e-01,2.35777e-01,1.39929e-01,1.74358e-01,1.82493e-01,-7.37290e-03,-2.00784e-02,-1.40017e-01,-2.46027e-01,-2.40918e-01,-1.03265e-01,-2.33274e-01,-3.32476e-01,1.69976e-01,3.20974e-02,3.26574e-02,2.62679e-02,-8.30530e-03,-2.09748e-01,1.17489e-01,-1.99522e-01,-3.47185e-01,-1.33532e-02,3.27459e-03,-9.22219e-02,-7.55932e-02,2.06759e-01,-2.09526e-02,-1.08414e-01,-6.35726e-03,3.46411e-01,2.55011e-01,5.47871e-02,-4.64179e-02,-4.24212e-02,1.65938e-01,2.73865e-01,-1.16563e-01,-5.48980e-01,-5.65620e-01,-4.57095e-01,2.59073e-02,5.51859e-02,-3.48310e-02,7.77044e-03,3.20592e-03,-5.78013e-03,4.30214e-02,1.55237e-01,-1.24387e-02,-5.03032e-02,-4.29511e-02,-1.33421e-01,-1.73377e-01,-1.81014e-01,-2.01813e-01,-1.22331e-01,-1.58068e-01,-3.80362e-01,-6.51263e-01,-9.56286e-02,-2.26623e-01,-1.81903e-01,-1.47186e-01,1.64300e-02,-6.93395e-02,-3.10869e-01,-2.66736e-01,-1.51622e-01,-6.80261e-02,2.97486e-03,1.04880e-02,4.66649e-03,-1.45050e-02,-1.65146e-02,-8.12783e-03,-8.87866e-02,-1.11330e-01,-2.90766e-01,-2.51311e-01,-3.63079e-01,-3.78719e-01,3.96439e-02,-8.67865e-02,-1.28711e-01,-1.99783e-01,-3.48909e-02,-5.70134e-02,1.18460e-01,2.05663e-01,7.08378e-02,4.26541e-02,4.35620e-02,-2.28460e-02,-9.46437e-02,-1.98227e-02,-1.38815e-02,-1.11323e-02,-1.65611e-02,-2.55004e-02,
1.79977e-02,-1.22799e-02,2.24307e-02,3.13760e-02,2.46861e-02,-2.56032e-02,-3.08860e-02,3.53345e-02,2.67315e-02,2.03954e-02,2.09908e-02,8.32373e-03,-1.87054e-02,-1.58403e-02,-1.50585e-02,-3.43691e-02,1.09605e-02,-1.17919e-02,1.14972e-02,-1.29668e-02,-3.16945e-02,1.21253e-02,-9.56264e-03,6.24321e-03,-1.65169e-02,2.91251e-02,3.22561e-02,8.52031e-03,-3.22363e-02,-2.88601e-02,-2.48139e-02,3.38258e-02,1.81866e-02,-3.40306e-02,-2.08237e-02,-7.37394e-03,1.39218e-02,-3.29008e-02,-1.70874e-02,1.79519e-02,-2.85136e-02,-6.10389e-03,-2.74305e-02,-1.59762e-02,-3.56520e-02,2.55277e-02,2.57356e-02,-2.25478e-02,-1.00590e-02,3.50817e-02,-1.24530e-02,1.83603e-02,-1.48026e-02,1.84396e-02,6.11918e-03,1.39269e-03,3.09216e-02,-1.63604e-02,2.16297e-03,1.15312e-02,2.96253e-02,-2.94123e-02,-2.65472e-02,2.03680e-02,-7.27124e-03,-3.34840e-02,3.49037e-02,6.11095e-03,3.29711e-02,1.40203e-02,1.39269e-02,-1.10152e-02,-1.83518e-03,-3.51721e-02,-5.31125e-03,-1.88557e-02,-1.99941e-02,-1.32100e-02,1.61077e-02,4.95741e-03,7.17618e-03,1.95065e-04,3.31818e-02,2.74477e-02,-3.23103e-02,1.51875e-02,2.73385e-02,1.27778e-02,3.08979e-02,3.31856e-02,-3.46158e-02,8.23184e-03,-1.80020e-02,-1.98168e-02,-1.40490e-02,-5.45247e-03,-3.27852e-02,-2.98537e-02,4.23684e-03,2.00243e-02,8.74577e-03,2.32282e-02,-3.99594e-02,-3.08242e-02,-1.38144e-02,2.46608e-02,-6.60991e-03,2.57045e-02,1.93251e-02,-3.43586e-02,1.19493e-02,3.02741e-02,-2.06892e-02,3.16046e-02,-4.55854e-03,-3.12457e-02,2.43781e-02,-2.01015e-02,1.32530e-02,6.34271e-03,2.66645e-02,-3.30793e-03,2.50808e-02,2.57561e-02,2.12514e-02,-1.01378e-02,8.28455e-03,1.64684e-02,-4.61530e-02,5.48093e-03,-9.15260e-03,-9.89002e-03,-2.62179e-02,-7.88477e-03,-1.47950e-02,2.34001e-02,-1.38413e-02,-1.65638e-02,7.43625e-03,-3.05214e-02,-1.01236e-02,5.77170e-03,-2.14519e-02,-3.07693e-02,-1.41599e-02,-2.58017e-03,2.11931e-02,-4.25664e-03,-2.36339e-03,-2.25872e-02,-2.06349e-02,-2.35029e-02,-3.42229e-02,9.68716e-03,-1.43072e-02,-1.54496e-03,-7.21452e-04,1.78481e-02,-3.46302e-02,-5.45515e-02,-4.42986e-02,-1.38621e-02,-2.13434e-02,-5.60402e-04,-4.12276e-02,-3.08599e-02,-2.83854e-02,-1.40353e-02,9.25485e-03,-6.80372e-03,1.96256e-02,2.28100e-02,1.35579e-02,1.09131e-02,8.62347e-03,1.02104e-02,-1.75355e-03,-8.43096e-03,-2.30645e-02,-3.46262e-02,-5.40010e-02,-3.84798e-02,2.42500e-03,-2.36273e-02,3.65305e-03,-4.22952e-02,-5.08583e-02,-6.15048e-02,-4.76265e-02,-4.62435e-02,-4.81355e-02,-3.91369e-02,-3.75421e-02,1.61006e-02,2.90690e-02,-2.28192e-03,-2.74452e-02,1.07913e-03,2.12366e-02,2.21599e-02,5.44385e-03,3.16997e-02,-3.05065e-02,-5.15731e-02,-4.50099e-02,-4.20790e-02,-3.70700e-02,-5.32754e-02,-3.41602e-02,-5.19591e-02,-4.19291e-02,-4.15320e-02,-1.36848e-02,-7.79933e-03,-9.25265e-03,1.88052e-02,-4.17117e-02,5.65903e-03,-3.31515e-02,-8.63222e-03,2.79017e-02,3.31073e-02,2.82543e-02,1.72113e-02,-3.83524e-03,-2.07629e-02,-1.65624e-03,-2.94762e-02,-1.32150e-02,1.49819e-03,-3.57464e-02,-3.79724e-02,1.80390e-02,-1.36869e-02,2.08298e-03,-3.94814e-02,-5.85121e-03,-4.18301e-02,-6.56441e-05,1.09971e-02,-1.67938e-02,5.58188e-03,1.59130e-02,-1.84468e-02,1.50453e-02,-1.88532e-02,-2.80445e-02,3.37098e-02,1.33519e-02,1.60110e-02,-1.17095e-02,-6.72721e-03,-7.55642e-03,3.02280e-02,6.43734e-04,2.52196e-02,1.88373e-02,-2.33249e-02,-1.22063e-02,-1.46916e-02,3.36906e-02,-8.22487e-03,-3.19926e-02,7.85109e-03,-1.70834e-02,-3.13422e-02,4.22962e-04,-1.87161e-02,-3.16657e-02,-1.08712e-02,-4.84105e-02,-2.97075e-02,-1.39252e-02,1.33361e-02,-4.44849e-02,-3.46782e-02,-3.05055e-02,-1.44430e-02,-2.46010e-02,2.87399e-02,-2.54080e-02,-2.13995e-02,-1.70725e-02,-3.05072e-02,-5.84102e-03,-1.63963e-02,1.25739e-04,1.14634e-02,-3.86138e-02,-3.88775e-02,-4.84729e-02,-1.28472e-02,7.99317e-03,-5.31094e-02,4.77089e-03,-1.86708e-02,1.20807e-02,-5.49435e-02,-5.77637e-03,-2.36871e-02,-3.08533e-02,-5.90279e-02,-1.75402e-02,-4.01364e-02,-6.35534e-03,-4.98210e-02,-1.50735e-02,3.30226e-02,-3.06668e-02,1.52939e-02,-2.69481e-02,-2.79308e-02,-2.73661e-02,-1.78016e-03,-1.36987e-02,-1.51396e-02,1.19430e-02,2.40008e-02,1.21444e-03,-2.32629e-02,1.65945e-02,-3.87460e-02,-3.06355e-02,-6.20997e-03,-4.21925e-02,-1.39869e-02,-9.92564e-03,-2.40064e-03,2.42299e-03,-3.48697e-02,-4.68805e-02,-3.69027e-02,-3.08590e-02,-2.52113e-02,1.18155e-02,-1.76685e-02,3.13145e-02,-2.57356e-04,-3.24915e-02,-9.07956e-03,-9.70434e-03,-2.37747e-03,-3.90605e-03,1.52944e-02,3.47563e-02,-6.97510e-03,-2.79528e-02,-5.45097e-02,-1.74384e-02,-3.41367e-03,-5.14533e-02,-4.89546e-02,1.43166e-02,-2.55803e-02,-3.77803e-02,-2.07703e-02,-3.61264e-02,-6.34994e-02,-5.43716e-02,1.75044e-02,-3.49645e-03,3.30183e-02,-2.56156e-02,3.31013e-02,2.76141e-02,3.01436e-03,3.11713e-02,1.39039e-02,4.79081e-03,2.47641e-02,-8.97369e-03,3.52638e-02,2.15759e-02,1.21983e-02,-1.81870e-02,-1.77333e-02,-4.96387e-02,-3.89028e-02,-4.94246e-02,-6.10295e-02,1.30606e-02,-4.23335e-02,-7.15434e-03,1.11032e-02,-4.48338e-02,-3.07370e-02,-8.89945e-03,-3.32751e-02,-5.73765e-03,2.97076e-03,2.08406e-02,-3.06568e-02,1.78899e-02,-1.81994e-02,-3.43745e-03,-2.92927e-02,2.84358e-02,-1.85101e-02,1.56614e-02,-8.91406e-03,1.56029e-02,-2.97467e-02,2.06734e-02,5.95646e-03,-2.99468e-02,-3.32656e-02,-6.21163e-02,-2.91406e-02,-5.72691e-02,-5.01510e-02,1.03267e-02,-2.38051e-02,-3.29252e-02,1.16791e-02,-4.33167e-02,-2.81614e-02,-3.37726e-02,-1.78537e-02,3.45234e-02,-2.82678e-02,-3.25999e-02,1.96604e-02,1.22951e-02,-7.32382e-03,6.33506e-03,-2.27320e-02,-2.24725e-02,-2.04380e-02,2.37332e-04,1.31243e-02,-3.89183e-02,-8.65782e-03,-2.29547e-03,5.02023e-03,1.93162e-02,-5.20156e-02,-1.50542e-02,-5.24430e-02,-1.58852e-02,-8.29474e-04,2.74248e-03,-9.71830e-03,2.85160e-02,-2.08431e-02,1.23312e-02,-2.11548e-02,2.04021e-02,3.35795e-02,-1.64189e-02,-3.33271e-02,2.48083e-02,-3.36119e-03,-1.30222e-02,-1.72684e-02,-2.61075e-02,-3.65008e-02,-4.06690e-02,-5.85632e-02,-5.04515e-02,-3.56167e-03,-4.19026e-02,-4.17521e-02,-8.30476e-03,-7.83214e-03,-2.75540e-02,-5.00341e-02,-2.44963e-02,-5.28608e-02,-1.85304e-02,-1.91970e-03,2.35345e-02,1.02834e-02,1.99852e-02,3.19556e-02,-1.09706e-02,-2.80967e-02,1.38877e-02,-1.33072e-02,-3.79370e-03,-4.31662e-03,3.49643e-02,1.73773e-02,-2.39621e-03,-1.14721e-02,-1.15994e-02,-2.77365e-03,-1.82037e-02,-6.43616e-02,-4.34830e-03,-1.83838e-02,2.03509e-02,-1.31942e-02,-4.63456e-03,2.09625e-02,-3.33590e-02,-9.79282e-03,1.99305e-02,-1.32446e-02,-3.75876e-02,-1.17012e-02,1.73427e-02,2.63746e-03,3.33894e-02,-1.41155e-03,2.22802e-02,2.83804e-02,-3.25079e-02,7.73780e-03,1.15447e-02,4.24029e-03,-3.57821e-02,-4.09600e-03,3.22061e-02,1.60190e-02,-1.73650e-02,-1.12824e-02,-3.38944e-02,-1.55941e-02,-5.36987e-03,-2.56785e-02,-1.18286e-02,2.59451e-02,-5.91202e-02,7.27643e-03,2.73903e-02,1.55842e-02,5.89858e-03,-1.45994e-02,2.24495e-02,1.80207e-02,4.30420e-03,-3.01756e-02,-1.83981e-02,-1.03680e-02,2.10330e-02,1.92553e-02,3.16879e-02,-5.62609e-03,-2.23501e-02,1.27221e-02,2.86476e-02,-2.58478e-02,-2.07710e-02,-4.10215e-02,-3.51964e-02,-2.92553e-02,-3.25677e-02,-5.65859e-02,2.54460e-02,2.41111e-02,1.69984e-02,-1.70265e-02,-7.70321e-03,-4.73833e-03,1.71304e-02,-1.19304e-02,-1.19396e-02,2.01655e-02,-2.72057e-02,1.67898e-02,4.63335e-03,1.41018e-02,9.23964e-03,2.90258e-02,8.31440e-03,-3.77825e-03,-3.67131e-02,-4.93155e-03,7.19856e-03,-1.65721e-02,-6.03076e-02,-2.34935e-04,-2.97537e-02,-6.18675e-02,-4.46448e-02,-4.13641e-02,-1.27245e-02,8.34673e-03,1.31871e-02,2.32879e-02,7.59184e-03,-3.54513e-02,-5.39186e-03,-3.50091e-02,3.45922e-02,2.06004e-02,1.98875e-03,6.68009e-03,-2.46557e-02,3.77459e-04,3.51278e-02,-9.38858e-05,1.96385e-02,-4.82337e-02,-1.66493e-02,-1.08089e-02,-9.95452e-03,-2.21269e-02,-1.41934e-02,-5.31593e-02,-1.50410e-02,-3.13581e-02,-3.95594e-02,-2.02264e-02,6.09950e-02,5.48020e-03,3.35650e-03,3.26599e-02,-1.01655e-03,-2.21176e-03,1.64795e-02,-2.00764e-02,-2.56169e-02,3.42534e-02,2.85625e-03,2.07875e-02,2.10068e-02,-1.36439e-02,-1.69017e-02,7.60778e-03,-2.10081e-02,-3.87764e-02,-4.56511e-02,1.52940e-02,-3.11231e-02,-3.65791e-02,-3.23539e-03,-5.88749e-02,5.56744e-03,-2.05099e-02,-1.33845e-02,3.97647e-02,1.00782e-02,-1.12973e-02,2.24764e-02,-4.25747e-03,-1.41231e-02,1.69323e-02,-2.16575e-03,2.46057e-02,1.17447e-02,2.06255e-02,2.37760e-02,-3.28257e-02,7.98056e-03,2.66274e-02,2.17701e-02,-2.95120e-02,-5.27091e-03,-4.38887e-02,1.10804e-02,-4.13180e-02,-1.43977e-02,-3.71607e-02,5.66360e-03,-5.26852e-02,9.98235e-03,-1.93915e-03,1.62279e-02,2.15541e-02,5.70813e-02,-3.16067e-02,-3.63478e-02,-3.16970e-02,-3.20494e-02,5.03196e-03,-2.25293e-02,-1.26484e-02,-3.52887e-02,1.18699e-02,-1.33882e-02,1.20755e-02,9.73046e-03,-4.43853e-03,-3.06971e-02,-4.76529e-03,-2.67597e-02,-2.71365e-02,-4.51201e-02,5.68324e-03,8.91704e-03,-4.87067e-03,-1.99794e-03,1.38165e-02,-1.30595e-02,6.90019e-03,-1.08422e-02,-4.58127e-03,-2.37250e-02,-7.27354e-03,-2.71868e-02,-3.47845e-02,-1.43528e-02,2.18099e-02,-4.68985e-03,-1.21431e-02,2.73584e-02,1.43052e-02,3.45095e-02,-2.94563e-02,-1.71536e-02,-3.20725e-02,2.71140e-02,-2.47819e-02,-2.28438e-02,-1.66641e-02,2.18936e-02,-2.10278e-02,-4.21149e-02,6.04924e-03,-3.04743e-02,-1.16509e-02,-1.08704e-03,-3.66093e-02,-4.41284e-02,4.80589e-02,-2.64133e-03,-7.55698e-03,2.99635e-02,3.53305e-02,2.61408e-03,2.15033e-02,-7.37268e-03,3.27109e-02,1.47667e-02,1.75943e-02,-8.01561e-03,-5.52324e-03,1.26734e-02,8.93420e-03,1.87761e-02,-1.88076e-02,2.59875e-02,-1.06023e-02,3.22924e-02,-2.37004e-02,1.29130e-02,-3.47145e-02,-5.68103e-02,-1.00762e-02,-2.23294e-03,2.38879e-02,-5.43224e-03,4.81047e-02,3.74810e-02,-9.60136e-03,1.75610e-02,1.71779e-02,-1.72871e-02,-2.57216e-02,9.53262e-03,-8.62943e-03,1.54562e-02,-2.28438e-02,4.90563e-04,-3.32451e-02,-9.87047e-03,2.49564e-02,2.09030e-02,-7.14134e-03,-3.09550e-02,4.21971e-03,-1.63269e-02,-3.42034e-02,-2.62085e-02,3.38092e-02,1.75804e-03,2.75243e-02,-3.20459e-02,-1.82683e-02,-2.80811e-02,-3.35830e-02,-1.21026e-02,-2.11093e-02,-1.09601e-02,2.59613e-03,-3.16671e-02,-2.78057e-02,-7.95266e-04,5.00674e-03,1.32720e-02,2.99338e-03,1.73837e-03,3.08435e-02,
-2.35821e-02,-2.29718e-02,-3.42849e-02,1.00834e-02,1.55451e-02,2.21543e-02,-2.00694e-02,2.22914e-02,1.04896e-02,-1.44634e-02,-2.22309e-02,-2.39306e-02,2.52569e-03,5.02858e-03,1.23851e-03,-1.03681e-02,-2.88853e-02,-1.21816e-02,3.21818e-02,1.43716e-02,1.93009e-02,-1.55214e-02,2.20565e-02,-2.45597e-04,-1.27433e-02,2.28802e-02,-1.97495e-03,-2.04897e-02,3.08177e-02,1.39169e-02,-2.90488e-02,1.00121e-03,-1.78030e-02,4.68619e-03,5.70491e-02,1.00644e-02,-3.48028e-02,-2.17039e-02,-1.36304e-02,3.28137e-02,1.19647e-01,1.58139e-01,1.38222e-01,1.35314e-01,1.41383e-01,1.90966e-01,2.65888e-01,1.27739e-01,-7.53865e-03,-5.63656e-03,6.37186e-03,6.78604e-03,-2.67893e-03,3.34283e-02,-5.00109e-03,-1.05017e-02,5.34887e-03,3.00588e-02,9.38779e-02,3.87155e-02,2.33753e-02,3.55870e-02,4.07002e-02,1.35700e-02,-4.17239e-02,-1.24274e-01,6.72308e-02,2.48314e-01,1.80348e-01,3.17976e-01,-6.07135e-02,5.31611e-02,2.98148e-01,2.62980e-01,4.51313e-01,3.29446e-01,3.14989e-01,3.53531e-01,4.57949e-01,2.42791e-01,5.20984e-02,-1.71547e-02,-1.78099e-03,1.76082e-02,1.20675e-02,-9.95858e-03,1.04378e-01,1.23842e-01,2.62764e-02,-8.23930e-02,9.85109e-02,2.63515e-01,2.02294e-01,-8.37069e-02,-7.14857e-02,-2.39101e-01,-2.45145e-01,-2.53341e-01,-1.45621e-01,1.18185e-01,3.08753e-02,-2.23126e-02,2.05831e-02,1.71490e-01,1.37844e-02,-1.08252e-01,-3.10199e-01,-4.05562e-01,-9.88457e-02,1.87780e-01,2.16125e-01,5.70379e-03,-5.98889e-03,-5.96816e-03,7.90076e-02,1.53160e-01,-3.68829e-01,5.61613e-02,1.04333e-01,-2.02717e-01,-3.41931e-01,-9.39663e-02,-4.79468e-02,-3.21849e-02,-4.27777e-02,-6.86615e-02,-9.15700e-03,1.31261e-01,1.69442e-01,1.27322e-02,1.36729e-01,1.27604e-01,1.42903e-01,8.12565e-02,2.10178e-01,1.11658e-01,-6.48700e-02,2.21001e-01,3.76885e-01,1.53520e-02,3.45129e-03,1.11476e-03,1.53786e-01,-1.18317e-01,-2.48917e-01,1.21119e-01,-1.63625e-01,-2.62922e-01,-8.63885e-02,6.79851e-02,4.26714e-02,-1.11522e-01,-1.15137e-01,-1.75370e-02,-7.56661e-02,-6.80847e-02,7.59618e-02,1.41044e-01,1.36438e-01,2.04301e-02,-1.07237e-01,6.27141e-02,1.56280e-01,3.14027e-02,-1.04747e-01,-8.91699e-03,3.56287e-01,2.03752e-01,-1.36289e-02,-1.46091e-02,2.13948e-01,-3.67419e-01,-4.23086e-01,-1.66892e-01,-2.53377e-01,-7.62695e-02,-5.73335e-02,-1.72944e-02,1.61912e-01,-2.43433e-02,6.31381e-02,8.74591e-02,1.22860e-01,-2.57762e-02,-6.16375e-02,4.27962e-02,1.86942e-01,2.32482e-02,-5.81437e-02,4.42304e-02,9.85074e-02,2.62686e-02,2.61741e-01,3.87287e-01,3.72498e-01,2.56980e-01,-1.99922e-02,-5.48156e-03,2.23259e-01,-2.50404e-01,-2.89914e-01,3.84231e-02,-1.32002e-01,-4.33219e-02,8.91784e-02,8.74624e-02,1.34064e-01,1.01698e-01,7.34895e-02,5.28135e-03,1.89288e-01,7.50694e-02,1.43848e-01,1.61951e-01,1.76691e-01,2.20971e-01,2.62508e-01,1.39142e-01,1.50434e-02,9.87377e-02,2.03947e-01,-1.84225e-02,3.07792e-01,2.57294e-01,-1.09782e-03,-4.42700e-02,6.86838e-02,1.00582e-02,-7.52951e-02,-2.39540e-03,6.90405e-02,4.95917e-02,2.90326e-02,1.25988e-01,1.06413e-01,1.56505e-01,2.25032e-01,1.59047e-01,8.26834e-02,-2.60934e-02,7.75812e-02,9.02854e-02,5.54639e-02,1.83567e-01,1.88959e-01,1.16477e-01,2.03313e-01,3.22330e-01,2.89205e-01,-1.82732e-01,5.10644e-02,1.65470e-01,-2.99424e-02,-7.60562e-02,-2.63877e-01,-1.19834e-01,1.24780e-01,-6.38464e-02,-1.69228e-02,-4.81159e-02,3.97448e-02,1.56215e-01,8.65273e-02,1.23362e-01,2.11505e-01,7.06476e-02,-1.22461e-01,-2.97567e-01,-2.43188e-01,-1.88768e-01,-1.53349e-01,-1.50894e-01,-1.29192e-01,-1.41226e-01,-2.14588e-02,-1.52148e-01,-7.74405e-02,-1.70614e-01,-5.53286e-02,1.91644e-01,3.51482e-02,-6.85726e-02,5.42352e-02,-1.05573e-01,9.14864e-02,-1.79456e-01,-6.57986e-02,-8.26937e-02,1.03182e-01,1.06668e-01,7.31177e-02,4.93375e-02,1.50929e-01,-5.72942e-02,-2.58730e-01,-4.07439e-01,-3.78039e-01,-4.60416e-01,-6.51398e-01,-8.50241e-01,-4.86879e-01,-2.56916e-01,-2.33470e-01,-5.90243e-01,-6.10314e-01,-2.44603e-01,2.61206e-01,2.29194e-01,-1.20432e-02,-7.20223e-03,1.02441e-01,-2.10104e-01,-3.14994e-03,-1.55130e-01,-1.77069e-01,-1.10355e-01,-5.51899e-02,-8.50161e-02,9.22858e-03,-5.43058e-02,-1.36455e-01,-1.41417e-01,-1.91626e-01,-1.34634e-01,-9.05811e-02,-1.57044e-01,-3.60565e-01,-4.97353e-01,-7.80658e-01,-6.03345e-01,-6.32888e-01,-5.72561e-01,-3.87459e-01,-1.03187e-01,1.83085e-01,1.71213e-01,-2.03165e-02,-1.62905e-02,2.67685e-02,-1.28114e-01,-1.71962e-01,-1.90350e-01,-1.17685e-01,-6.15804e-02,4.48559e-02,-6.69864e-02,2.09717e-02,-1.25170e-02,-7.57700e-02,-9.67207e-02,-1.29893e-01,-8.80292e-02,-6.03068e-02,-1.15835e-01,-6.72556e-02,-2.24074e-01,-3.48112e-01,-6.21924e-01,-8.55162e-01,-7.45326e-01,-6.90838e-01,-5.22331e-01,1.35398e-01,1.45148e-01,9.37191e-03,-6.50095e-02,-1.10793e-01,-1.54878e-01,-1.19345e-01,-7.09291e-02,-1.83019e-02,-1.88438e-02,-2.03592e-01,-1.59019e-01,-2.25663e-02,-4.84105e-02,3.42105e-03,-2.78761e-02,7.58298e-02,4.78990e-02,-1.03354e-01,-2.20992e-01,-1.36708e-01,-2.37192e-02,-1.20600e-01,-1.61083e-01,-4.29413e-01,-3.58558e-01,-6.18515e-01,-4.60530e-01,8.11172e-02,-5.39654e-02,2.29105e-01,-2.80384e-02,-5.61275e-02,-2.15305e-01,8.14105e-02,-3.42150e-04,9.41160e-02,5.33868e-02,-3.53427e-02,-8.84527e-02,5.92331e-02,-4.72010e-02,-2.87960e-02,-1.17586e-01,2.42292e-02,-3.50912e-02,-1.22213e-01,-5.30006e-02,1.55358e-02,2.06800e-02,-6.10524e-02,-1.07893e-01,-6.64386e-03,3.18485e-02,-1.85973e-01,-4.75042e-01,-2.24348e-01,-2.56471e-01,1.98569e-01,1.11658e-02,-1.51768e-01,-2.00014e-01,-5.97584e-03,9.19864e-02,6.43631e-03,2.81507e-02,2.44846e-02,3.85495e-02,4.91384e-02,-1.63093e-02,-9.32691e-03,-7.86969e-02,-1.12169e-01,-1.40413e-01,1.05711e-02,6.14976e-02,9.66597e-03,-1.08414e-01,-7.21420e-02,8.94786e-02,-7.85670e-02,1.02963e-01,1.31795e-02,-5.19095e-02,-1.65914e-01,1.37117e-01,-5.52503e-02,-2.36430e-02,-1.96779e-01,5.69527e-02,-2.17976e-01,-2.46492e-02,-3.07588e-01,-1.87107e-01,-1.10727e-02,-7.89362e-03,-3.67985e-02,-7.37501e-02,-9.97971e-02,-2.69901e-02,-1.27054e-01,-2.19934e-02,8.43232e-02,2.22433e-05,-1.35327e-01,2.04503e-02,3.10719e-02,1.13709e-01,2.28755e-01,7.90620e-02,1.14242e-01,1.66100e-01,-6.82934e-02,1.37062e-01,1.66800e-02,-2.40710e-02,-1.58451e-01,3.30475e-01,-5.64483e-02,-6.27173e-02,5.03834e-02,1.70434e-01,4.45585e-02,8.00944e-02,1.35254e-01,-3.66514e-02,-3.10385e-02,-1.08127e-01,-1.19487e-01,-1.00684e-01,-1.10548e-01,-1.17735e-01,-4.72086e-02,4.40924e-02,1.04946e-01,3.92414e-02,1.94169e-01,1.26315e-02,2.09096e-01,2.03665e-01,8.03458e-02,-1.88446e-01,-1.82851e-02,-1.17332e-01,-1.05856e-01,1.32852e-01,1.37668e-01,-8.66389e-02,7.48426e-02,1.41808e-01,3.90641e-03,2.34942e-02,-6.15758e-02,-1.01052e-01,2.60179e-02,-2.46386e-01,-1.98482e-01,-1.94447e-01,-1.02197e-01,-3.55491e-02,-1.80830e-02,4.56555e-02,1.42911e-01,8.08278e-02,6.56873e-02,1.10584e-01,3.50263e-01,-1.22474e-01,-3.80242e-01,-3.87318e-01,-3.72495e-03,-3.92953e-03,2.48842e-01,-2.48308e-02,-6.26859e-02,9.46680e-03,1.33558e-01,1.70669e-02,-1.93047e-02,-6.12196e-02,-3.59736e-02,4.91231e-02,1.15903e-01,-1.39187e-01,-1.14674e-01,-5.36974e-02,-1.80540e-02,-4.58538e-02,4.45879e-02,2.51745e-02,2.15942e-01,1.07629e-01,1.95467e-01,-2.10319e-02,4.94924e-01,1.25560e-01,-3.62412e-01,-3.05858e-01,9.28430e-03,-2.62520e-01,2.29832e-01,2.96175e-01,-1.33684e-02,9.58740e-02,-5.39631e-02,-1.45985e-01,7.48004e-03,1.54719e-01,4.48299e-02,-5.22673e-02,-9.28062e-02,1.46497e-03,3.57778e-02,9.69833e-02,5.88270e-02,1.03051e-01,9.40340e-02,2.08396e-01,1.53198e-01,5.85091e-02,8.00416e-02,8.68318e-02,2.22962e-01,6.84208e-02,-2.89962e-01,3.54684e-02,-1.16353e-02,-2.86170e-01,-1.71890e-01,2.34848e-01,3.51616e-01,2.44154e-01,-5.10495e-02,-3.73838e-02,3.58781e-02,1.23633e-01,3.18345e-02,1.28370e-01,1.51853e-01,1.32654e-01,1.48977e-01,2.23947e-01,6.65879e-02,7.72785e-02,9.95144e-02,1.05051e-01,1.00795e-01,1.22577e-01,-9.78760e-02,4.47472e-02,3.15779e-01,1.41355e-01,2.37035e-01,4.56290e-02,2.66146e-02,-2.81881e-01,-3.71753e-01,2.10090e-01,1.49998e-01,2.05693e-01,-1.06428e-02,-1.17861e-01,3.74095e-03,6.27518e-02,4.33721e-02,1.98465e-01,9.28955e-02,-3.98564e-02,4.16013e-02,1.71675e-01,1.06700e-01,9.12028e-02,6.41996e-02,-2.47143e-02,4.75566e-03,-2.11390e-02,-1.00033e-01,-6.66523e-03,3.14516e-02,8.40339e-02,3.04009e-01,5.12713e-02,5.14052e-03,1.82355e-02,-1.18852e-01,2.51459e-01,2.90848e-01,2.75640e-01,2.61354e-01,7.74934e-02,3.90200e-02,8.94390e-02,-7.77986e-04,1.05433e-01,7.91061e-02,1.27558e-01,1.29765e-01,6.29634e-02,1.05576e-01,4.90759e-02,-8.55685e-03,-1.07751e-01,-2.09768e-02,3.19231e-03,-1.69504e-01,-8.02204e-02,2.08294e-01,2.55600e-01,2.55654e-01,1.71526e-03,-2.24444e-03,2.66040e-02,-4.36857e-03,3.56722e-02,2.18682e-01,1.53076e-01,3.54011e-01,2.65306e-01,1.69136e-01,1.95277e-01,5.50714e-02,9.02073e-02,1.68695e-01,1.29346e-01,3.01583e-02,-3.03554e-02,3.24631e-02,1.56680e-01,2.49356e-01,-1.28583e-01,-3.15652e-02,-8.42044e-02,-1.78747e-01,-3.08399e-01,6.64952e-02,-3.39745e-01,-4.24844e-02,-3.26504e-02,1.87419e-02,-3.11842e-02,5.02056e-02,1.44809e-01,4.74030e-02,-4.44785e-02,3.39837e-01,1.55979e-01,7.63254e-02,2.36160e-01,2.40504e-01,3.11733e-01,3.77126e-01,2.66899e-01,-1.25335e-02,2.47567e-02,1.34146e-01,1.86075e-01,1.09326e-01,3.49044e-01,3.39433e-01,3.45894e-01,4.53838e-01,3.56393e-01,2.23644e-01,1.82305e-02,-1.25932e-02,1.61116e-02,-2.34809e-02,-2.62496e-02,3.13032e-02,-1.74833e-02,1.10120e-03,2.25786e-02,-3.16415e-01,-4.41032e-01,-3.63625e-01,1.92427e-01,4.49184e-01,2.56581e-01,-3.23843e-04,8.50712e-02,-9.92256e-02,-1.23203e-01,5.25406e-02,1.53723e-01,1.60520e-01,1.79540e-01,1.91572e-01,1.47059e-01,3.67216e-01,1.42661e-01,3.38468e-02,-1.48822e-02,3.28225e-02,2.68943e-02,-1.32199e-02,1.59247e-02,-5.04776e-03,-2.27989e-02,6.50056e-03,-2.58384e-02,-3.96289e-02,-9.04684e-03,-2.66081e-02,-8.11643e-02,-6.71775e-02,-1.05688e-01,-4.07630e-02,-3.81838e-02,-3.64179e-02,-8.91405e-02,-1.12547e-01,-1.48688e-02,-9.44797e-02,-4.97243e-02,-2.94509e-02,-3.82902e-02,1.56443e-02,-5.24440e-04,-2.87102e-02,-2.32206e-02,-3.43281e-02,-1.86424e-02,
